// Neural Network File Format by Kyle Julian, Stanford 2016
//Number of Layers,Number of Inputs,Number of Outputs,Max Layer Size,
8,6,3,128,
//Input Layer size, Hidden Layer Sizes, Output Layer Size
6,128,128,128,128,128,128,128,3,
//The next line is an unused flag, after that we have minimum input values, maximum input values (network inputs are truncated to fit in this range), mean input values (as well as outputs), and input (as well as output) range values 
0,
-3.0,-3.0,-3.0,-1.0,-1.0,-1.0,
3.0,3.0,3.0,1.0,1.0,1.0,
0.0,0.0,0.0,0.0,0.0,0.0,0.0,
6.0,6.0,6.0,2.0,2.0,2.0,1.0,
//Weights and Biases start here
-1.53502e-01,-9.27689e-01,7.34107e-01,1.62844e+00,-2.32242e-01,7.64106e-01,
-1.16427e+00,1.59464e-01,2.97255e-01,-4.58663e-01,1.28364e+00,3.16788e-01,
-3.93431e-01,-1.65204e-01,1.29890e-01,-1.10587e+00,1.41788e+00,2.52029e+00,
-1.55235e-06,-1.99361e-09,9.84520e-05,-1.40234e-04,-1.67506e-04,-1.44504e-04,
-6.85456e-05,-4.71043e-04,-9.25670e-05,1.15950e-04,-1.63912e-04,-6.44657e-05,
1.10612e-04,1.61721e-05,-1.79814e-05,-2.01638e-04,-7.84943e-05,1.26057e-04,
-7.63462e-05,4.62040e-04,-1.17778e-04,-1.94161e-04,4.79216e-05,-5.20468e-04,
-2.39707e-01,1.02412e-01,2.51298e-01,-2.54350e+00,2.06735e+00,9.58026e-01,
7.52155e-01,3.33853e-01,-1.09317e-01,9.44482e-02,4.35502e-01,3.16724e-01,
6.41833e-01,-9.26975e-01,-2.02650e-01,-3.86469e-02,1.83703e-01,-1.79344e+00,
-7.62033e-01,-2.24518e-01,-8.45973e-02,2.00113e-01,4.36591e-01,2.27859e-01,
-4.50499e-01,7.85540e-01,-3.27811e-01,-2.17957e-01,1.62293e-01,2.10326e-04,
-2.51739e-02,-2.74547e-01,-1.05904e+00,1.12801e+00,5.75159e-01,1.30253e-01,
3.79279e-01,6.87451e-01,-5.34413e-01,2.55757e-01,-9.17572e-01,1.17654e+00,
9.87579e-05,7.84431e-05,1.46883e-04,-1.39698e-04,-1.13554e-04,-1.20043e-04,
-7.76212e-05,-1.82409e-05,-1.43559e-04,-1.82179e-04,-2.28857e-05,-8.57511e-05,
-6.12790e-01,1.62234e-01,3.71093e-01,-4.98401e-01,-5.08795e-01,-5.49488e-01,
9.53214e-06,1.62075e-05,9.27871e-05,4.11572e-05,-8.90828e-05,-6.73989e-06,
2.90924e-01,-1.91843e-01,-4.99708e-02,2.60352e+00,-2.37501e+00,-1.44821e-01,
-4.39412e-01,9.01546e-01,-3.44584e-01,-6.67762e-01,1.34579e-01,-1.04882e+00,
5.25068e-01,-4.74980e-01,2.59311e-02,-1.15192e+00,1.67123e+00,-4.21957e-01,
-2.29202e-01,2.52629e-01,-8.64856e-02,4.73337e-01,4.94128e-01,9.88914e-03,
-1.01570e-01,-2.09200e-01,2.13066e-01,-1.34483e-01,1.22366e+00,-8.08781e-02,
2.37116e-02,-5.20768e-01,3.21721e-01,-1.19685e+00,-9.77192e-02,-1.47583e+00,
6.45231e-01,7.34394e-01,9.74946e-02,1.90767e+00,2.64598e-01,1.23878e-01,
5.72516e-01,1.49054e-01,5.79396e-01,4.08292e-01,4.53248e-01,-1.61513e-02,
-1.85503e-01,4.13213e-01,-2.10423e-01,2.85780e-01,5.65768e-01,1.80385e-01,
4.28446e-01,-3.48698e-01,1.43473e+00,-1.02883e+00,2.10348e-02,8.36525e-01,
-8.40876e-01,1.48047e-01,8.71269e-01,9.39576e-01,4.75726e-01,3.93256e-01,
3.17307e-01,1.20868e-01,-1.43508e-01,-2.05665e+00,2.70237e+00,-4.43959e-01,
-1.30108e-01,4.46369e-01,-4.12208e-01,1.83405e-01,7.82938e-01,7.40549e-01,
2.46961e-04,2.15278e-04,-3.11185e-04,-1.59937e-04,-2.29708e-05,-2.42860e-04,
-8.11229e-01,7.14476e-01,-4.25718e-01,-5.66293e-02,-4.97489e-01,7.54606e-01,
2.37723e-01,2.35770e-01,-1.99125e-01,-9.44376e-02,-2.16715e+00,2.60046e+00,
2.07318e-01,-3.86806e-01,4.63972e-01,5.59416e-01,1.60950e+00,-3.49175e-02,
2.65121e-01,-9.75429e-01,3.46166e-01,2.27920e-01,9.48423e-01,1.14636e+00,
4.92465e-02,-1.15330e-01,4.18425e-02,-2.76856e+00,1.99373e+00,-1.61666e+00,
-1.28751e-03,-1.64449e-01,-1.57514e-01,1.86245e+00,-1.76918e-01,1.06960e+00,
-1.29354e-04,1.56864e-04,1.21992e-04,-1.95083e-04,-1.47197e-04,2.55529e-05,
-5.39314e-02,-2.88030e-01,6.88384e-02,-5.82433e-01,-8.32827e-01,2.62950e+00,
2.50492e-04,-1.28004e-04,-4.72550e-05,-7.21728e-05,4.33852e-05,2.25963e-04,
3.63828e-01,7.28010e-01,6.06404e-01,-1.29650e+00,-1.58830e-02,-7.02244e-02,
-6.61760e-02,2.11048e-01,2.28339e-01,3.57563e+00,-6.90222e-01,-9.64964e-02,
-6.79159e-01,-3.17064e-02,2.34433e-02,1.79873e-02,1.00017e-01,6.99838e-02,
-1.02048e-01,5.77567e-02,-2.57772e-01,3.28357e+00,-3.55804e-01,-3.68236e-01,
1.28717e-05,3.29731e-04,5.26841e-05,-1.41525e-04,-1.00735e-04,-8.62092e-06,
-2.86742e-01,-2.92861e-01,-5.08302e-01,-8.88469e-01,-8.49320e-01,-1.43408e+00,
-9.84316e-02,-8.01874e-02,2.72044e-02,-1.56299e+00,3.49658e-02,-2.10082e+00,
-3.16726e-01,-9.41448e-01,-3.47743e-01,6.80095e-01,-1.33364e+00,-6.29936e-01,
1.15517e+00,-4.21168e-01,-3.49111e-01,-1.01444e+00,2.35270e-01,2.43698e-01,
-1.39023e-01,-2.88948e-01,-2.97254e-01,-1.14825e+00,1.10171e+00,7.31401e-01,
-3.65649e-01,-2.88813e-01,3.27371e-01,4.08910e-01,-9.99089e-01,-2.35270e+00,
-3.10313e-04,1.34153e-04,-7.84307e-05,-7.49115e-05,-5.43789e-05,2.42613e-04,
-7.07445e-05,-1.12580e-04,-3.28875e-04,-7.00860e-06,1.72115e-05,-1.25561e-04,
-1.80241e-04,3.82250e-05,1.43967e-04,-3.20916e-05,5.75407e-05,2.21844e-04,
1.18769e+00,-9.69122e-01,6.28559e-01,-6.59318e-01,-3.25588e-02,5.58057e-01,
-2.25652e-01,4.28210e-02,2.86254e-01,5.16840e-01,5.02154e-01,-1.17417e+00,
4.42079e-01,-4.65687e-01,-1.24679e+00,3.31161e-01,4.18363e-01,2.63772e-01,
3.22898e-04,-1.30821e-04,2.14850e-04,1.06416e-04,3.20857e-04,-3.40048e-05,
1.08244e+00,1.60581e-01,2.63326e-01,-1.02645e-01,-9.18978e-01,-5.28416e-01,
1.07194e-02,-4.07494e-01,-1.86731e-01,1.92031e+00,-2.70233e+00,3.99351e-01,
-3.59355e-01,2.60188e-01,9.42968e-01,3.60224e-01,9.85913e-02,-5.15077e-01,
-5.18044e-03,-1.03961e-02,-4.69930e-02,-3.56146e+00,-1.01345e+00,2.22745e+00,
9.81577e-03,9.19723e-02,1.10043e-01,2.09391e+00,9.99338e-01,1.04771e+00,
-1.28863e-04,8.27759e-05,9.90153e-05,1.85648e-04,-1.11061e-04,2.13586e-04,
1.06489e-01,2.98781e-02,8.89862e-02,3.31264e+00,2.33448e+00,1.61730e+00,
-1.68197e-04,-1.63197e-05,-1.84050e-04,2.22955e-05,-3.43810e-05,-2.49800e-04,
2.64796e-01,6.56267e-01,-5.02169e-01,8.77229e-01,-1.26348e+00,-1.42519e+00,
-5.77440e-01,-1.66373e-01,1.10004e+00,-7.40668e-01,4.16827e-01,-1.85800e-02,
-4.77960e-01,-1.14695e-01,-4.39588e-01,1.50581e+00,-1.97628e+00,1.12364e+00,
8.58988e-02,3.99581e-01,1.94438e-01,2.13289e+00,2.25596e+00,1.76719e+00,
-5.64763e-01,-3.08573e-01,-2.34579e-01,1.79205e+00,1.30430e+00,-1.22476e-01,
-8.56353e-02,7.32353e-01,-8.26877e-03,9.84592e-01,1.65343e+00,1.74460e+00,
-4.83075e-01,-1.91336e-01,-5.47926e-01,-9.16590e-01,8.11338e-01,-1.32653e+00,
8.20966e-01,1.08902e-01,-1.08398e-01,1.00318e+00,7.67579e-01,1.64684e+00,
1.70569e-04,-1.94127e-04,-2.16013e-04,5.86872e-05,-2.54479e-04,-7.37864e-05,
-1.40124e-04,7.70367e-05,-1.16591e-04,2.50819e-05,1.16675e-04,-1.95019e-04,
-8.47711e-05,9.65694e-05,-2.17070e-04,-1.94283e-04,7.50977e-05,-5.57334e-05,
2.38287e-04,4.04841e-05,1.30392e-04,6.44220e-05,1.32846e-04,6.92856e-05,
-5.57439e-01,1.00672e-01,-6.39781e-01,-1.65286e+00,-1.72965e+00,-1.39151e+00,
-4.70641e-04,-2.00100e-04,-4.60818e-04,1.59225e-04,2.52058e-04,2.01466e-05,
-1.78165e-04,-6.23491e-05,-4.07461e-05,1.15743e-04,-5.34269e-05,-2.66737e-05,
1.25547e-01,1.49716e+00,1.47815e-01,-8.34918e-01,-3.90203e-01,-6.05535e-01,
-4.55490e-04,-2.63861e-05,-1.08188e-05,1.05001e-04,9.58630e-05,-5.28291e-06,
4.59077e-01,2.03925e-01,6.52109e-01,8.78649e-01,1.24405e+00,1.30801e-01,
1.78653e-04,-2.13186e-09,-1.68060e-04,1.78540e-04,1.42960e-04,5.43384e-05,
-6.87560e-01,6.00765e-01,3.14681e-01,-9.12157e-02,1.16389e+00,1.70087e-01,
8.17020e-01,3.96946e-02,-7.75022e-01,8.55170e-01,2.01777e-01,-3.82721e-01,
7.46043e-05,1.94305e-04,4.34379e-05,-1.44424e-04,-3.23492e-05,3.49233e-05,
-1.80902e-01,-3.19126e-01,-3.43543e-01,-1.51800e+00,1.82091e+00,-7.38336e-01,
7.41744e-01,-2.43066e-01,-8.71168e-01,-1.79510e-01,-2.91666e-02,-4.34550e-01,
1.70319e-01,-4.95545e-01,4.29988e-01,-1.08696e-01,-2.65252e-02,1.07863e-01,
-1.20880e-01,2.45969e-01,6.01659e-01,4.77613e-01,2.12641e+00,8.49162e-01,
-1.50872e-01,2.66457e-01,-1.19753e+00,-2.05755e+00,4.45874e-01,-1.22093e-01,
-1.51836e-01,-1.12945e-01,-1.38396e-01,-1.09451e+00,-2.23858e+00,-5.05464e-01,
1.07130e+00,-6.49228e-01,-2.44528e-01,6.29420e-01,9.66263e-01,1.80655e-01,
-3.05986e-01,-9.49523e-01,-2.26307e-01,-9.46481e-02,6.23969e-02,1.33966e-01,
6.06000e-01,-3.36031e-01,-4.27844e-01,3.09661e-01,-1.80959e+00,3.23008e-02,
-3.44615e-01,-2.47336e-01,5.23634e-01,6.05095e-01,-4.81555e-01,6.30945e-01,
-3.92504e-01,1.33833e+00,-2.92937e-02,1.15662e+00,8.54313e-01,-8.51828e-01,
1.83366e-02,-7.88322e-02,7.38228e-02,-1.02032e+00,-4.33293e-01,7.84501e-01,
-3.60044e-01,-8.83903e-01,8.37944e-01,-2.94892e-01,3.73355e-02,-3.39343e-01,
-5.62561e-05,-5.05705e-05,-8.36944e-05,-3.30120e-05,5.21570e-06,2.54020e-04,
1.80826e-04,-2.34774e-05,7.87263e-05,1.85166e-05,3.75324e-05,-1.27320e-04,
-1.66956e-04,-2.31472e-05,-2.46969e-04,6.06775e-05,-1.29285e-04,5.54136e-05,
1.44636e-05,-7.84126e-05,7.38788e-05,1.29938e-04,9.84313e-05,1.63709e-04,
8.99901e-05,-2.82377e-04,-2.07157e-04,2.82348e-04,-6.80419e-05,2.13071e-04,
3.84125e-01,-3.33482e-01,-2.82582e-02,1.95170e+00,2.16862e+00,1.08432e-01,
-8.96946e-05,1.47917e-04,5.38053e-05,-3.51244e-04,-1.46445e-04,4.62023e-10,
9.37949e-01,3.60251e-01,-7.35417e-01,-4.42004e-01,-1.00952e+00,3.14696e-02,
-1.45299e-02,8.40440e-01,-9.20786e-01,-2.61371e-01,6.31757e-01,-5.40878e-01,
3.62683e-01,2.52590e-01,-3.14376e-02,1.60315e+00,-1.03853e+00,-1.55856e+00,
1.53510e-04,7.07918e-05,2.34306e-04,-1.39507e-04,1.12718e-04,3.74724e-05,
-5.25960e-01,-1.81899e-01,3.31035e-01,-2.14386e+00,4.58858e-01,-1.49463e+00,
-3.29550e-01,-3.74796e-01,9.44869e-02,1.96566e+00,-1.15597e+00,-8.57782e-01,
-6.78127e-05,-1.41297e-04,6.57684e-05,-5.75979e-05,4.44653e-05,1.78518e-05,
1.62378e-01,1.50750e-01,5.25646e-02,-2.15541e-01,-7.27001e-01,2.81114e+00,
2.18309e-04,-5.53213e-05,1.80878e-04,3.65206e-05,-4.40234e-04,-5.42417e-05,
-6.60501e-02,-1.62403e-01,-2.00179e-01,2.60434e+00,1.32224e+00,-5.21006e-01,
-8.42955e-01,-1.61565e-01,3.56062e-01,-1.12650e+00,-2.59574e+00,6.76019e-01,
-2.06447e-01,-1.35753e-01,1.74110e-02,-1.49222e+00,-1.25175e+00,-3.22056e+00,
2.84408e-05,-5.65117e-05,1.34099e-04,-1.01639e-04,-2.43324e-04,3.74917e-06,
-2.62964e-02,2.28236e-01,-1.07289e+00,2.01365e-01,1.30269e+00,6.43802e-01,
1.45614e-01,-2.74103e-01,6.62094e-01,2.06095e-01,-1.10132e+00,-5.37342e-01,
5.25388e-01,-7.84016e-01,1.31918e-01,-8.74710e-01,-1.34275e+00,-1.19485e+00,
1.45386e-04,-5.33274e-05,-1.37262e-04,-3.12105e-04,1.63175e-05,1.10485e-04,
3.80098e-01,-1.41770e-01,-1.96144e-01,-5.63238e-01,-3.58865e-01,8.02776e-01,
1.24138e-01,3.44917e-01,-4.30317e-01,6.46466e-01,5.72810e-01,2.02048e-01,
-1.31940e+00,
-1.85718e+00,
-1.06626e+00,
-1.38196e-01,
-9.47894e-01,
-8.37344e-02,
-2.25761e-01,
-8.68879e-01,
-5.64768e-01,
-9.33938e-01,
-2.08153e+00,
2.55881e-01,
-1.91406e+00,
-8.48148e-01,
-2.06524e-01,
-1.07742e-01,
-1.18587e+00,
-3.16201e-01,
-6.60383e-01,
-1.46952e+00,
-6.44593e-01,
-9.97481e-01,
-5.60221e-01,
-2.14940e+00,
-1.53750e+00,
-2.75563e-01,
-8.08648e-01,
-2.06836e+00,
-1.54186e+00,
-1.99778e+00,
-1.72079e+00,
-1.13454e-01,
-1.88140e+00,
4.49831e-01,
-1.60286e+00,
-2.51218e+00,
8.82124e-01,
-1.07631e+00,
-2.26832e-01,
5.83205e-02,
-2.38083e-01,
8.49151e-01,
-1.46461e+00,
6.84945e-02,
-2.20495e+00,
-7.73246e-02,
-1.24787e+00,
-2.00226e+00,
-1.76686e+00,
-1.63276e+00,
-6.32623e-01,
-1.27956e+00,
-9.42765e-01,
-2.35162e-01,
-3.83067e-01,
-2.31308e+00,
-4.77775e-01,
-3.30032e+00,
-1.00617e+00,
-2.24485e+00,
4.10440e-01,
-1.01730e+00,
8.69311e-02,
2.95594e+00,
-1.28915e-01,
-2.49538e+00,
-1.54131e-01,
-1.77190e+00,
-1.34571e+00,
9.06171e-01,
-2.11019e+00,
-1.09503e+00,
-2.10451e+00,
-1.38467e+00,
-2.18228e+00,
-1.79340e-01,
-1.34473e-01,
-1.85690e-01,
-6.48796e-02,
-1.41971e+00,
-3.19452e-01,
-3.55621e-01,
-2.65242e+00,
-6.44298e-01,
-1.79429e+00,
-3.74974e-01,
-7.20391e-01,
-7.30581e-01,
-4.51794e-01,
-1.24765e+00,
-4.40532e-01,
2.37673e-01,
-1.63625e+00,
-1.36216e+00,
2.69802e+00,
-1.03719e+00,
-3.65152e-02,
-5.61370e-01,
-4.79418e-01,
-1.76311e+00,
-6.39572e-01,
-7.31656e-01,
-2.19906e-01,
-7.08976e-01,
-8.91309e-02,
-9.60821e-02,
-8.19575e-02,
-2.06628e+00,
-8.36973e-01,
-2.72197e+00,
-1.16461e+00,
7.99800e-02,
-1.86172e-01,
-2.20486e+00,
-8.42443e-01,
-1.07575e-01,
3.07549e+00,
-2.68376e-02,
1.69080e+00,
-9.00972e-01,
-2.41909e+00,
-4.23202e-01,
-1.96714e+00,
-1.99941e+00,
-2.52317e+00,
-9.63095e-02,
-1.40108e-01,
-9.13733e-01,
-1.80534e-04,-8.35578e-05,-3.56639e-05,-2.24111e-04,3.56389e-05,-6.35334e-05,2.21407e-04,-1.72087e-04,2.48463e-04,-8.23342e-06,-1.84433e-04,8.84203e-05,1.78122e-07,7.64954e-05,8.95086e-05,1.30555e-04,2.37559e-04,1.28044e-04,-2.16495e-04,1.67486e-04,-6.00870e-05,-1.41690e-04,-1.81387e-04,1.54627e-04,1.17379e-05,-1.53675e-04,1.13520e-04,-5.05539e-05,-4.11788e-05,9.14302e-05,-1.67579e-04,2.14191e-08,-6.73987e-06,-1.06649e-04,5.43584e-06,-7.61173e-05,-5.27748e-06,6.41879e-05,5.82617e-05,-1.04882e-04,1.78126e-04,-1.63368e-04,-9.23083e-05,-4.83630e-05,1.52436e-04,-1.44424e-04,-2.18547e-05,1.58744e-04,-1.25486e-04,-1.14723e-04,-3.34586e-05,7.10621e-05,-3.06324e-04,3.26203e-05,2.44943e-04,-4.87645e-05,-1.86136e-04,-8.21020e-05,8.84672e-05,-1.86665e-04,1.77582e-04,-2.60484e-04,1.37579e-04,-1.69112e-05,5.33222e-05,1.41247e-04,1.15116e-06,9.41738e-05,9.38301e-05,5.19307e-05,1.65166e-04,-1.86937e-04,-2.09608e-04,-5.33849e-05,-1.24856e-04,6.00735e-05,-1.88091e-04,1.28122e-04,5.59908e-05,-1.32654e-04,2.96571e-05,-2.11129e-04,1.38558e-04,3.00310e-06,7.13931e-05,-1.53287e-04,7.29363e-05,1.03078e-04,-4.30581e-04,1.62018e-04,-2.44662e-04,1.72759e-05,1.95906e-04,2.43590e-05,8.64338e-05,5.58779e-05,1.70409e-04,-7.24800e-05,-1.46946e-04,-1.38558e-04,5.53261e-05,2.18805e-05,2.00162e-04,1.56769e-04,-2.04591e-04,1.24672e-04,-1.56155e-05,2.00288e-04,-4.11317e-05,1.27788e-04,-1.19829e-04,5.76663e-05,8.52133e-05,-1.90592e-04,-1.17744e-05,9.27786e-05,1.36584e-04,-5.82617e-05,1.29429e-04,-9.23038e-05,1.13842e-04,1.13258e-04,1.43542e-04,-2.54830e-04,1.17882e-04,-1.13858e-04,7.86758e-05,-8.85907e-05,
-1.35449e-04,-4.01732e-05,1.14347e-04,-1.02911e-04,1.93778e-05,1.30646e-04,-7.08841e-05,-1.16373e-05,-2.00840e-06,-3.96658e-06,-2.04042e-04,-2.88965e-05,-3.91340e-05,1.12626e-04,4.88901e-05,7.46377e-05,1.84258e-04,2.17041e-04,-1.49599e-04,1.09798e-04,-4.34444e-04,-2.33558e-04,-1.54139e-04,1.95721e-06,-4.07635e-05,-1.31664e-06,-2.51670e-04,-6.36250e-05,3.62180e-05,-1.31064e-04,1.06308e-04,1.26446e-04,-1.08555e-04,1.67328e-04,1.51318e-04,-4.82230e-05,-1.21741e-04,1.13515e-04,4.98998e-05,-1.48730e-06,-1.73633e-04,6.02815e-05,-2.41731e-04,4.90805e-05,-6.57273e-05,-2.33368e-04,3.90341e-05,1.16181e-04,2.12778e-06,-5.08403e-05,1.68382e-04,-6.92008e-05,1.56822e-04,1.79562e-04,7.55004e-05,1.11718e-04,4.96243e-05,-1.87267e-04,1.11189e-05,-9.63797e-05,1.90874e-04,1.47747e-04,-6.99629e-05,1.75265e-04,-8.84700e-05,7.42236e-05,1.38558e-04,2.14176e-05,-2.81817e-05,1.16594e-04,-3.77077e-04,1.85496e-04,3.66955e-05,1.77733e-04,-5.24925e-05,5.34546e-06,-2.13714e-04,-1.27656e-04,7.13334e-05,4.59606e-05,4.23625e-05,3.52907e-04,4.34413e-04,1.77726e-04,-8.34264e-05,3.62474e-05,9.13747e-06,4.99065e-05,-2.58787e-05,-9.82152e-05,1.64235e-04,9.14205e-05,3.75874e-05,-4.24179e-04,1.16209e-05,-8.81720e-05,2.55543e-04,3.78535e-05,-1.43471e-04,3.33127e-04,2.21345e-04,-7.59379e-06,-1.63958e-05,-4.36557e-11,2.70696e-04,4.67280e-07,-6.94835e-05,2.53573e-04,-5.21383e-05,1.84505e-05,1.69051e-04,-9.96110e-05,-1.11775e-04,2.44457e-04,-1.59752e-04,-8.97209e-05,-2.13530e-04,1.46753e-04,6.19028e-05,1.49958e-04,6.20675e-04,1.71547e-05,1.05859e-04,3.66930e-05,-4.40147e-05,1.38181e-04,1.08170e-04,-1.76651e-04,
6.93734e-05,7.66271e-05,-5.56347e-06,1.46570e-04,-7.98263e-06,1.05242e-04,-1.25095e-04,-1.24339e-04,-6.74069e-05,-1.72253e-05,7.45169e-05,-1.33467e-04,-1.62989e-04,3.98325e-04,-1.78083e-04,-1.45896e-04,-1.15325e-04,-7.17187e-05,2.01966e-04,3.40648e-04,-6.84327e-05,-5.04321e-05,1.68853e-04,7.54186e-05,3.67504e-05,3.72972e-04,-1.31522e-04,1.23955e-04,1.82474e-04,1.05294e-04,-9.10712e-05,-1.05957e-04,8.61022e-05,1.08658e-04,-1.88836e-04,7.13915e-05,2.79879e-04,-1.22035e-04,1.44129e-04,7.25620e-05,-1.47361e-04,-2.17446e-04,1.11610e-04,1.64439e-05,5.99065e-05,7.53635e-05,7.66778e-05,1.34418e-04,8.77824e-05,5.25489e-05,5.30357e-05,-2.61398e-04,-5.24756e-05,-6.06775e-05,1.57077e-06,2.20251e-04,1.39467e-04,1.86813e-05,1.16021e-04,-4.58346e-05,1.73265e-04,-3.30469e-05,-1.40476e-04,-2.37716e-04,-5.46766e-07,-1.08476e-04,-1.38984e-04,1.16968e-04,-1.33529e-06,-1.31744e-04,-5.28317e-04,-2.50108e-04,4.06399e-06,1.69448e-04,2.00783e-04,8.63141e-05,8.86263e-05,1.31972e-05,3.84458e-05,-2.28661e-04,-8.29857e-05,2.16125e-04,8.23885e-05,3.08665e-04,4.79055e-05,-7.29902e-05,-8.61142e-05,-1.22403e-04,8.03259e-05,-1.08236e-04,-2.28175e-05,1.46690e-04,2.11457e-04,1.70670e-04,-7.30614e-05,7.42004e-05,1.67969e-04,-6.63809e-05,1.12437e-05,-6.35580e-05,1.58075e-04,-2.39400e-04,2.05918e-04,6.44718e-05,-7.31694e-05,-7.07709e-06,-3.24429e-04,1.59353e-05,-1.06161e-04,-1.46907e-04,2.68003e-04,-5.76286e-05,3.79665e-04,-3.86534e-05,7.05245e-05,-2.20179e-04,-9.27369e-05,3.31140e-06,2.70710e-04,-1.63480e-04,-3.54908e-05,1.52404e-04,-1.13689e-04,1.59327e-04,-1.11450e-04,-7.15978e-05,-1.44833e-04,4.82363e-05,
-3.38390e-03,1.05628e+00,3.94984e-02,-1.05912e-04,-6.31688e-05,-2.47049e-04,1.20675e-04,2.99063e-02,8.53285e-03,-7.87937e-02,-1.95144e-02,7.71967e-02,-6.04482e-02,7.72479e-03,-9.11600e-05,-1.34778e-04,6.45807e-01,-1.45311e-04,5.90017e-01,1.10927e-02,5.62312e-03,2.35568e-02,-3.51232e-03,-4.03951e-05,1.44788e-02,4.59507e-01,4.94220e-02,-5.30388e-01,-5.05366e-03,-2.75582e-05,1.15629e-01,6.78638e-05,8.95482e-03,-2.85470e+00,8.49311e-02,8.40776e-03,-1.65878e+00,-9.56488e-03,7.44426e-05,-1.30928e+00,-8.15943e-05,-7.32577e-01,3.22828e-01,1.08994e-02,1.22428e+00,-1.79429e-04,3.30597e-03,1.23335e-04,1.79532e-03,-2.36224e-02,-4.82896e-03,2.05307e-02,-5.67248e-06,4.59100e-04,1.76550e-04,-3.16882e-01,-6.59058e-03,-3.40738e-02,7.10033e-05,4.45022e-02,-6.73760e-02,6.42392e-01,-2.04102e-04,8.06226e-02,-4.02105e-05,2.72121e+00,1.01894e-04,-3.52177e-03,2.83031e-02,-5.64671e-02,9.04262e-02,2.47556e-02,-1.01707e-01,1.66805e-02,2.18401e-01,5.84620e-05,-5.48548e-05,1.19983e-04,-2.70045e-04,-2.59989e-02,1.30799e-05,-1.37974e-04,5.69415e-03,-8.91675e-06,8.05781e-03,3.23491e-05,7.16166e-03,-3.45062e-02,2.50430e-04,-1.37174e-02,-1.18806e-01,1.01893e-02,-8.86866e-02,1.80346e-01,-1.18305e+00,1.33921e-01,-9.44761e-03,-2.70166e-01,-2.41354e-03,6.74152e-01,1.38760e-04,-2.18109e-02,-1.05202e-04,-1.82678e-04,-1.38386e-04,-1.03651e-04,-5.47299e-05,9.70630e-01,-1.58211e-04,-1.86184e-02,1.68169e-02,6.38944e-01,5.33842e-05,-3.93338e-05,1.13642e-02,4.77373e-04,-1.39724e+00,-1.29583e-05,4.41668e-01,2.48583e-03,-6.87943e-05,1.17896e-04,1.82138e-01,-9.77824e-04,-1.54116e-04,-7.52754e-05,-1.16509e-02,6.32811e-03,
-6.12969e-01,-7.83522e-02,-2.85407e-02,6.71967e-05,-4.08759e-05,8.36332e-06,2.54377e-04,-3.05274e-05,-8.54837e-02,-8.04339e-02,-6.48965e-04,-5.05590e-01,-2.27933e-01,-1.11151e-02,-8.41269e-05,1.37939e-04,-9.89006e-04,-1.73786e-04,3.84824e-01,1.32014e-01,2.20877e-01,2.79674e-02,-1.30224e-02,-2.17824e-04,-1.27577e-02,-1.30104e-02,1.97564e-02,1.48518e-01,-1.82829e-02,1.05189e-01,1.12882e-02,9.45948e-05,2.42525e-03,-5.32875e-02,-1.26250e-02,-2.44764e-02,-2.28518e-01,2.19112e-02,-2.35497e-07,1.38015e-01,-8.49413e-05,-2.55955e-01,6.36545e-01,-3.15243e-03,-4.28370e-02,-1.47528e-04,-1.68530e-01,2.68075e-02,-2.43882e-01,4.58568e-03,-7.05610e-03,3.46620e-01,1.16957e-05,-8.36290e-06,6.52646e-05,-6.94603e-03,-2.15708e-03,-6.07393e-03,2.15582e-05,-3.13415e-02,8.95617e-02,1.58646e-01,-3.39176e-02,1.17854e+00,-5.11136e-08,-2.17172e-01,5.39312e-05,2.95918e-01,-2.94998e-01,7.67615e-02,3.69427e-03,-3.16551e-01,8.86324e-03,5.33290e-03,-5.56805e-02,-1.45835e-04,6.78500e-05,-5.65172e-05,-1.33853e-04,4.36275e-02,-2.08442e-05,2.40233e-04,-5.21763e-02,-2.18279e-11,-5.94616e-03,-6.95568e-05,3.58443e-02,5.27501e-03,6.58576e-05,8.33430e-03,-2.61446e-03,1.39548e-01,-9.65845e-03,-2.09834e-02,6.09957e-03,-1.24896e-02,-5.98247e-02,-9.15805e-02,3.12414e-04,7.20973e-02,-2.51982e-04,1.07327e-02,1.36516e-04,-6.54761e-05,2.26078e-05,3.26220e-05,1.74771e-05,-4.12387e-01,-1.08067e-04,2.04570e-01,6.51935e-03,4.20963e-01,-1.61748e-04,-2.05158e-02,2.64844e-02,-6.04885e-05,-8.20314e-01,6.23491e-05,6.33032e-03,3.47140e-04,2.88468e-02,-1.10252e-04,7.24551e-04,2.07888e-01,-2.76978e-02,5.99364e-06,-6.49067e-01,1.51346e-03,
-3.99632e-07,3.23490e-05,8.46453e-05,4.25090e-05,-4.13411e-05,-4.91606e-05,-1.40798e-04,5.17295e-05,1.16262e-04,1.45015e-04,-6.35501e-05,1.37157e-04,4.51133e-05,3.94499e-05,1.67098e-04,3.41064e-05,-3.86758e-06,-1.70579e-04,-1.18719e-04,-1.44236e-04,6.49182e-06,-6.32300e-06,-1.35397e-06,1.63611e-04,-3.77775e-05,6.82451e-05,-1.42506e-04,7.69939e-05,-1.21657e-04,-2.30750e-04,8.95750e-05,-2.35305e-04,1.41287e-04,9.72504e-05,-8.88640e-06,-5.82617e-05,1.16034e-05,7.46377e-05,3.04640e-05,9.52432e-05,3.45549e-05,5.89592e-05,-1.26347e-04,4.82009e-05,8.38982e-05,-1.40785e-04,1.95802e-04,-1.02893e-07,-1.49259e-05,-4.69399e-05,1.33464e-04,6.62595e-05,7.20441e-05,1.35218e-04,-1.05796e-04,5.11448e-05,-1.70882e-05,1.86889e-04,1.75542e-04,6.28056e-05,2.47988e-04,1.23744e-05,-2.34159e-04,-4.11249e-05,1.36308e-04,-7.81454e-05,-2.26838e-04,-1.27634e-04,-1.50355e-04,-1.26702e-04,4.60475e-04,-7.56817e-05,-8.87442e-05,-2.05260e-04,1.33649e-04,-6.35811e-05,-1.95346e-05,-6.11775e-05,7.45514e-05,-3.81865e-05,4.71279e-05,-5.79618e-05,-5.35230e-05,9.13729e-05,7.96576e-05,-1.71070e-04,-3.89753e-05,-8.62104e-05,-8.76274e-05,1.15342e-04,7.76517e-05,-1.36958e-05,-5.68982e-05,5.60089e-05,-9.67184e-05,3.70111e-05,-1.95912e-04,9.86301e-05,1.16740e-04,6.83719e-05,-6.23162e-05,8.40229e-05,-2.69210e-10,1.17992e-04,-1.40035e-05,1.24707e-05,2.51482e-04,-6.30756e-05,-1.14183e-04,1.71316e-05,1.14955e-05,5.09410e-05,1.49557e-04,-3.06754e-05,1.44618e-04,-6.22691e-05,4.48549e-05,4.23187e-06,-2.57201e-04,2.07126e-04,-1.19820e-05,-1.93485e-05,5.57637e-05,5.67525e-10,1.20255e-04,-8.65266e-05,-9.67427e-05,3.21643e-05,
2.06755e-02,-1.64923e-01,4.08300e-01,8.92081e-05,-1.85085e-04,-1.08788e-04,-1.89904e-04,2.45926e-02,-1.61203e+00,-1.57454e+00,-1.68905e-02,-3.99556e-03,5.69942e-02,5.32905e-02,-1.12309e-04,1.01251e-05,-6.67657e-03,-2.17428e-04,-1.01305e+00,-3.77984e-01,-6.07307e-03,5.26665e-04,1.51134e-02,-2.89447e-02,2.61475e-03,-9.55051e-01,-1.14288e-02,-1.28169e-01,-7.17861e-01,4.67489e-02,-2.19298e-02,-3.18003e-05,-3.41974e-02,4.73670e-03,-2.32092e-02,-9.70295e-04,9.43055e-02,-7.01201e-02,2.76614e-04,7.24169e-03,-1.20567e-04,-3.31264e-02,5.41806e-03,-2.43357e-02,-1.14852e-02,1.53509e-04,-3.39489e-03,-5.66675e-04,-4.98987e-03,-4.77904e-02,-8.32190e-02,4.04419e-01,1.57583e-05,5.82617e-05,-2.89764e-05,-6.81637e-01,2.67639e-03,-5.34156e-02,-1.16440e-04,-9.20323e-03,-7.86120e-03,-3.69554e-01,4.64486e-03,1.23267e-01,1.56815e-04,6.30793e-03,-6.22520e-05,-7.13495e-03,-1.56986e-01,4.35906e-02,8.29682e-03,4.21264e-03,-8.69494e-03,-2.41615e-02,-2.30390e-02,-1.30526e-04,-6.77262e-05,1.99547e-04,5.02734e-06,7.81479e-03,3.12161e-04,1.00138e-04,-2.76097e-02,1.20089e-05,3.79206e-03,-2.24174e-04,-1.18806e-01,-2.90175e-01,1.06551e-04,-1.07823e+00,-1.81351e-02,-2.42606e-02,8.53767e-03,-5.18391e-01,5.41759e-01,-5.71414e-01,-7.14948e-02,-9.12210e-03,6.90209e-03,-4.99895e-01,5.08454e-03,-8.11231e-03,-1.45287e-04,8.63670e-05,-2.42203e-05,-3.54923e-06,-2.24547e-05,-2.86512e-02,-1.81345e-04,2.49396e-02,-9.92326e-01,-1.73273e-01,-1.73778e-04,3.31609e-02,1.02481e-02,-2.88639e-05,3.31144e-01,3.36536e-05,2.18017e-03,-1.23512e+00,2.74810e-03,2.02904e-05,-1.39906e-02,-1.00283e-02,-1.67838e-02,1.20466e-04,-1.66943e-02,-8.12108e-03,
-2.42597e-04,8.50610e-05,5.72962e-05,1.41008e-04,-1.03936e-04,5.50023e-05,-9.98402e-05,1.43739e-04,1.73220e-04,3.13409e-04,1.74514e-04,2.33861e-04,1.92909e-04,-2.32536e-04,-6.66093e-05,-1.94514e-04,2.37601e-04,1.68932e-04,-3.48080e-05,-5.14554e-05,-1.19943e-04,-1.28122e-04,1.37596e-04,9.44118e-05,-3.77719e-05,6.32303e-06,-1.99556e-05,-1.37045e-05,-9.23346e-05,7.02982e-05,1.35152e-04,-1.75955e-05,-8.08730e-06,9.11431e-05,-2.97068e-04,-1.15334e-04,2.11204e-05,-2.66447e-05,1.77724e-04,1.09015e-04,2.56256e-05,-1.53154e-04,-7.50977e-05,1.11040e-04,7.07709e-06,-7.07408e-05,-8.93487e-05,-7.66854e-05,1.22730e-05,1.45765e-04,4.17852e-05,1.02761e-04,-7.20953e-05,-2.03675e-04,-6.00713e-05,-1.36822e-05,1.45424e-04,-7.41583e-05,-8.65551e-05,1.68172e-04,1.38558e-04,4.49480e-05,-3.15080e-05,3.32312e-04,-1.29955e-04,2.92689e-04,2.55355e-04,-7.98866e-05,1.77597e-04,1.44335e-04,7.19506e-05,4.20236e-05,-8.99559e-05,2.56048e-04,5.11602e-05,2.47644e-04,3.43049e-05,-2.24985e-07,-1.55820e-04,4.49791e-05,2.09031e-05,-6.65383e-05,-1.81679e-04,5.31656e-05,2.87823e-04,1.45383e-05,-3.23490e-05,-9.83251e-05,-1.26799e-04,-7.38715e-05,1.19566e-05,7.49115e-05,-8.02465e-05,-3.23780e-10,1.03515e-04,7.19984e-05,-7.63307e-05,1.37157e-04,1.50270e-04,1.47243e-04,-5.30066e-05,-8.52868e-05,-9.77210e-05,4.74317e-04,-2.20192e-05,1.36345e-04,-8.44617e-05,3.48647e-05,2.43906e-05,-1.35264e-04,-1.05940e-04,1.41603e-04,1.73237e-04,1.12966e-05,-2.44862e-04,1.02765e-04,-1.15325e-04,-2.44064e-04,2.24956e-05,-1.78266e-04,1.59327e-04,1.83677e-05,6.56038e-05,1.50295e-04,2.42480e-04,-9.33470e-05,1.35101e-05,-3.06562e-04,
-9.07417e-02,4.23197e-04,4.72815e-02,3.93020e-05,2.32950e-04,1.17434e-04,2.41117e-04,-1.45714e-02,-2.67249e-02,-4.20368e-03,2.14193e-03,-2.96888e-01,-7.22700e-03,-2.27147e-03,8.86870e-05,-1.86815e-05,-4.80044e-01,-1.54651e-04,-2.50685e-01,-1.28842e-03,-1.40257e-02,-2.54942e-04,2.94438e-03,-1.06126e-03,-1.14566e-01,2.84825e-04,-3.37118e-03,-1.49934e-01,3.23293e-01,-1.04417e-02,-7.11797e-04,1.64950e-04,1.81167e-04,5.35446e-02,-2.05359e-03,-1.19944e-03,-6.92712e-02,-3.20660e-03,1.33033e-04,1.19244e-01,-7.32347e-05,1.31550e-01,4.09193e-03,-3.88783e-03,-1.00322e-02,1.11073e-04,-2.52632e-03,-4.20189e-04,-3.02248e-02,-2.45959e-03,5.44915e-04,1.25869e-03,-3.71145e-04,-2.95852e-04,9.47520e-05,-5.15953e-03,1.08224e-02,1.32643e-03,5.19899e-05,-2.73703e-02,-6.56326e-03,4.39941e-01,-2.61436e-01,1.23751e-02,1.93276e-04,4.80358e-03,2.01987e-04,2.08870e-02,2.20791e-03,1.85862e-01,9.72135e-04,3.20464e-03,-1.79501e-01,-8.76496e-05,9.27503e-04,-1.62489e-05,1.31804e-04,-2.34237e-04,-5.29609e-05,-1.93610e-02,1.75673e-04,-2.78928e-04,1.74719e-02,-1.30829e-05,-1.78571e-03,-4.53370e-05,-1.09184e-01,-1.06554e-02,-3.13079e-05,-3.09942e-04,-1.12974e-02,-3.68748e-01,1.02075e-02,8.86633e-03,-5.07276e-03,-7.60549e-03,-2.43853e-01,-2.10718e-01,1.15610e-01,-4.17977e-01,-2.10816e-03,-2.50039e-03,-8.82048e-05,-4.30688e-05,-1.58447e-04,1.71548e-05,3.80249e-05,-6.63765e-04,-1.58442e-04,-7.63716e-05,-2.31972e-03,1.64024e-02,-1.46443e-04,-2.09913e-03,-4.50236e-02,3.28993e-05,1.17128e-01,-1.71636e-04,-4.33206e-02,-1.93044e-02,1.89343e-03,1.35027e-04,4.45349e-04,-4.62778e-02,-8.65603e-03,2.32079e-04,-3.74937e-01,3.56342e-04,
8.83927e-03,4.38052e-02,-8.65284e-03,-7.03821e-05,-6.39145e-05,1.07136e-04,-1.07252e-04,-9.38067e-02,2.92619e-01,2.15620e-01,5.05108e-02,2.35097e-01,1.85752e-01,4.17235e-01,-2.05678e-05,-7.32278e-05,2.86835e-03,4.99664e-05,-2.20420e-01,-6.39351e-02,7.29380e-04,1.29754e-01,1.15518e-01,4.65934e-02,2.82535e-01,1.16952e-01,5.23134e-02,4.43427e-03,2.31475e-01,-2.52440e-01,5.90444e-01,-1.08676e-04,1.45088e-01,1.43813e-01,2.67052e-01,1.16350e-01,-6.12562e-01,-1.23764e-01,1.27315e-04,4.49018e-02,-1.13187e-04,-1.31513e-01,1.89078e-01,1.15622e-01,2.47172e-02,3.42921e-05,5.93427e-01,-4.41537e-01,3.45789e-02,2.48815e-01,7.40165e-03,4.38655e-01,1.07109e-04,-5.10178e-05,-2.86886e-04,1.94542e-01,2.97435e-01,4.09499e-02,-1.31697e-04,5.36595e-03,-3.90259e-01,1.25756e-01,4.82974e-02,2.28497e+00,-4.31186e-05,1.82372e-01,2.43431e-05,-2.82818e-02,1.28154e-01,-1.89424e-01,2.11646e-01,-1.89504e-01,3.04140e-01,1.75878e-01,1.47500e-02,7.50977e-05,-2.17451e-04,2.08758e-05,1.35983e-04,2.30852e-01,1.12665e-04,1.14475e-04,-6.95875e-02,-5.67549e-05,1.99391e-02,-7.44966e-05,2.79987e-01,2.60624e-01,1.30611e-04,-5.59756e-02,6.62285e-01,1.42510e-01,6.55338e-01,3.53150e-02,-9.09114e-01,1.17803e-01,6.18478e-02,1.22641e-01,8.98028e-02,-6.51098e-02,5.43779e-01,3.01177e-01,1.82939e-05,-7.83533e-05,5.15580e-05,8.41231e-05,-4.82009e-05,-1.43043e-02,-2.32294e-04,-6.56588e-02,1.70668e-02,-2.04738e-02,-1.03091e-04,-1.36817e-01,9.87972e-03,-1.49501e-04,2.04112e-01,-1.64491e-04,1.78261e-01,6.48619e-02,1.90376e-02,3.63211e-05,2.07358e-01,-3.80932e-02,-9.89015e-03,-1.36033e-04,3.08796e-01,5.64517e-01,
-4.94181e-05,5.30695e-05,-1.50301e-04,5.14589e-05,7.21061e-06,-1.95840e-04,-1.66830e-04,5.68592e-05,2.49332e-05,-9.51202e-05,1.17024e-04,-5.16132e-06,-1.37012e-04,6.44868e-05,-9.66598e-05,4.94090e-05,2.25657e-05,-1.20608e-04,-1.32605e-04,-3.69337e-06,-1.08381e-04,6.75140e-05,1.07285e-05,-8.02520e-05,3.00454e-05,1.21878e-05,7.10539e-05,1.42935e-04,1.34324e-04,3.17290e-05,2.24121e-04,1.29312e-04,-1.93964e-04,-1.05058e-04,7.58937e-05,-6.77856e-05,9.40671e-05,1.38132e-04,1.12563e-04,1.92631e-04,2.55155e-04,-8.58838e-05,-9.77388e-09,1.35044e-04,1.46344e-04,2.02990e-04,-1.18890e-04,-1.85911e-04,1.01068e-04,1.04973e-04,8.10960e-05,3.06337e-04,-1.17965e-04,1.72604e-04,5.21448e-05,-1.33775e-04,-4.19217e-05,6.76390e-05,-7.47191e-05,6.09363e-05,-2.64780e-04,-4.75636e-05,9.06460e-05,2.04255e-04,1.13170e-04,-1.47662e-04,-2.48722e-04,-1.44860e-04,-2.48563e-05,3.03570e-05,-3.28505e-04,8.47297e-05,1.03348e-04,1.55666e-05,-1.80372e-04,-2.44599e-04,-5.97193e-05,-2.46648e-04,4.31952e-05,-5.22752e-04,-1.67885e-04,8.65856e-05,-2.60276e-04,-4.96234e-05,-7.18669e-05,-5.03330e-05,1.29203e-04,-1.42517e-04,-2.09435e-04,-5.22276e-04,-1.01550e-04,-6.40978e-05,2.37559e-04,-3.35635e-05,1.24158e-04,-4.47662e-05,4.93050e-05,-4.43376e-05,7.05377e-05,1.27700e-04,1.46472e-04,-1.21630e-04,5.16504e-05,-1.51639e-04,-1.99214e-06,-1.65836e-04,1.02309e-04,-1.82104e-04,8.39319e-05,-1.64109e-05,-1.35494e-04,2.02517e-04,3.10694e-04,2.26239e-04,1.52883e-04,4.26638e-04,-2.04536e-06,-5.15674e-05,1.07471e-05,-9.30094e-06,6.34565e-05,-8.30583e-05,-6.66093e-05,-2.68403e-04,-2.48357e-04,1.38163e-04,5.72820e-05,-7.78318e-05,
1.58736e-04,2.93949e-08,3.30381e-05,1.29560e-04,-5.16120e-05,-7.88183e-05,-6.87045e-05,9.26535e-05,-4.10015e-07,5.48550e-05,9.32988e-05,4.32822e-05,4.21979e-05,-1.22118e-04,1.54552e-04,-8.24056e-05,7.83582e-05,2.72706e-04,-2.30108e-04,7.15010e-05,7.46378e-05,2.12286e-05,-1.01701e-06,-1.61115e-06,-1.93785e-04,1.06301e-04,-2.19525e-04,4.04072e-05,-4.39774e-05,-2.44147e-04,-1.26815e-04,-8.21450e-05,1.92071e-07,4.28842e-05,-1.97452e-05,-6.45609e-05,-6.72226e-05,-7.27133e-05,1.16870e-10,-2.20235e-05,-1.41502e-04,-9.58967e-05,-5.45697e-11,-9.23949e-05,7.82232e-05,-1.68932e-04,-2.17183e-04,6.58210e-05,5.56665e-05,1.34330e-04,1.83248e-05,8.40451e-05,-1.34344e-04,8.87245e-05,-9.76956e-05,1.37071e-04,-2.66411e-05,1.03916e-04,1.19914e-04,1.31242e-04,7.26028e-05,-8.84273e-05,5.57504e-05,-1.74794e-04,-3.43662e-04,-1.50277e-04,-1.03515e-04,-2.08441e-05,2.74399e-05,1.13234e-05,3.27418e-11,3.87460e-05,-7.56582e-05,-3.64722e-05,-1.88792e-04,-3.08196e-05,5.69283e-05,-1.01710e-05,-7.08389e-05,2.51269e-05,2.19380e-04,-4.96237e-05,-4.92184e-05,-8.24468e-05,-1.02651e-05,-6.38354e-05,-5.90643e-05,-1.56575e-04,8.68943e-05,-1.38107e-04,-7.39526e-05,5.93028e-05,1.07786e-05,2.22652e-04,-4.61445e-05,-3.47244e-05,3.01091e-04,1.64061e-04,8.44445e-05,-3.90865e-05,3.31852e-04,1.60427e-04,2.13987e-04,-7.50977e-05,9.29005e-05,-3.28043e-04,-1.01452e-04,2.02679e-05,2.02992e-05,-7.68114e-05,-1.76619e-04,-1.90132e-05,-1.90313e-04,4.86460e-05,-3.91915e-05,1.38558e-04,-1.13154e-04,1.04484e-04,1.87276e-04,-3.26102e-05,-8.43200e-05,2.26776e-04,1.71472e-04,-1.39228e-04,-2.63037e-04,5.21632e-05,1.32378e-04,3.83447e-06,
1.29640e-01,4.11354e-01,-1.10324e-01,1.12914e-04,7.32452e-05,1.22248e-04,1.25774e-05,-6.85829e-03,1.45622e-06,-2.08882e-01,6.39800e-02,-4.36952e-02,-2.08733e-01,-4.14647e-02,-9.73503e-05,1.00626e-04,-2.69532e-02,2.70608e-04,2.23415e-02,-1.15416e-01,-1.90428e-02,-1.97431e-04,-1.60611e-02,1.61771e-04,-4.23401e-02,5.91291e-04,-7.76590e-03,2.10694e-03,4.05957e-04,-2.15185e-03,-1.51776e-02,-1.08476e-04,-2.17283e-02,4.31357e-04,-1.30432e-03,-4.98236e-03,-2.92682e-01,-1.85114e-02,1.49574e-04,-1.29018e-01,-5.52807e-05,-1.26712e-01,4.37371e-01,1.93402e+00,1.37858e-02,1.95912e-04,-2.03587e-02,-1.45892e-02,1.02743e-02,-5.50426e-05,9.87321e-04,-3.81630e-01,2.00257e-04,2.77557e-04,1.60979e-05,9.93245e-03,-2.38435e-02,-1.99340e-02,3.63670e-06,1.57733e-04,-5.82071e-02,-1.67937e-02,9.74120e-03,1.36052e-02,-6.67074e-05,-9.10920e-02,-5.09323e-05,3.31944e-03,-9.66620e-02,1.90910e-03,-2.99747e-02,6.83898e-02,-1.10759e-01,-9.47619e-01,-1.86029e-05,-9.71414e-05,-2.13965e-05,-2.14158e-04,1.10089e-04,-1.73433e-02,8.55105e-06,-2.97941e-05,-7.72473e-03,-2.51482e-04,1.65288e-05,2.41993e-05,-2.72874e-02,-2.56943e-01,2.02735e-05,-4.16862e-01,-3.83737e-02,-1.69699e-03,-3.03198e-03,1.50959e-02,-1.09997e-02,-2.10794e-01,-3.10153e-03,8.39005e-03,-1.67538e-03,-6.59759e-01,-1.00931e-02,-1.59288e-02,-8.23509e-05,-1.17722e-04,-1.94685e-04,-3.14541e-04,1.12493e-05,-2.01917e-01,-6.83184e-05,2.11314e-06,-2.97920e-02,-2.45318e-02,1.15116e-06,-4.45569e-02,5.55748e-03,-1.13272e-04,3.48692e-03,-5.94766e-05,-6.66553e-03,-3.92536e-02,-4.54746e-02,8.32485e-05,-1.29809e-01,2.81730e-04,-3.65668e-05,2.05005e-04,2.82282e-03,-2.45291e-02,
-2.02593e-04,-7.31061e-05,-1.47192e-04,-3.32510e-04,-5.56544e-05,2.72701e-04,5.71767e-05,-2.56088e-04,2.66276e-04,8.13961e-05,-2.07125e-04,1.46948e-04,-1.32355e-05,-5.31794e-05,-3.74724e-05,-1.51341e-04,-1.80223e-04,3.09054e-04,1.17189e-04,1.27366e-04,-1.29429e-04,-1.09810e-04,1.51479e-04,-2.44372e-04,2.00931e-05,9.22758e-05,-1.67536e-04,7.17151e-05,-1.33705e-04,2.50776e-05,-4.98493e-05,-2.28020e-05,5.94479e-05,-6.44654e-05,1.82071e-04,1.38469e-04,6.55530e-05,-7.26055e-05,2.46946e-04,-2.48209e-04,1.46716e-04,-8.43575e-05,-8.55283e-05,-7.50977e-05,9.72919e-05,-1.33419e-04,1.81531e-04,-1.02191e-04,1.46822e-04,-4.91608e-05,3.74724e-05,8.27427e-05,7.07274e-05,-9.23949e-05,6.18456e-11,4.64575e-05,-2.42599e-05,3.94215e-05,-1.96347e-04,-1.43433e-04,-4.36557e-10,2.95758e-05,-5.72032e-05,-2.15804e-04,-1.52436e-04,-4.92058e-05,1.09445e-04,1.85184e-05,-1.43922e-04,3.09915e-04,1.17062e-04,-2.09586e-05,-4.73100e-05,-1.32698e-04,-3.63798e-11,1.29699e-04,-1.09739e-04,3.76017e-05,-7.37005e-05,1.98029e-05,-1.57243e-05,1.19745e-04,2.99519e-06,-1.14840e-04,7.85225e-05,1.05008e-05,-4.84768e-05,-1.34041e-04,-2.33098e-04,3.25648e-05,-2.03121e-04,7.27391e-06,1.03921e-04,3.16527e-05,-1.46720e-04,1.77112e-06,-1.10522e-05,4.35513e-05,1.89598e-05,2.60801e-04,-1.53537e-04,-6.75835e-05,5.75224e-05,7.81192e-05,8.65282e-05,-8.86086e-05,-1.03415e-04,-5.86169e-05,3.30080e-04,-6.27769e-05,-1.75647e-04,-2.68264e-05,7.97437e-05,-1.32864e-04,-8.61940e-05,9.84257e-05,-1.52063e-05,-1.31243e-04,2.53460e-05,-1.74610e-04,1.15815e-04,-5.66952e-05,-7.19323e-05,-9.87197e-05,1.04113e-04,-1.80181e-04,1.39823e-04,2.59088e-04,
1.38682e-02,-1.97211e-02,-3.30050e-01,3.04397e-05,-1.48940e-05,7.31892e-05,6.53313e-05,-5.95301e-02,-2.09521e-02,-5.63384e-02,-2.72980e-02,1.53577e-02,1.20042e-01,2.57912e-03,1.02270e-04,1.45617e-04,-2.35553e-06,-1.10695e-04,-2.30980e-01,-1.71388e-02,4.13629e-01,-1.61688e-03,1.72006e-02,-1.70679e-04,-6.93643e-03,-6.24083e-03,-2.18923e-03,-6.48828e-03,1.87043e-03,-1.96018e-02,-2.57585e-03,-1.05218e-04,-2.48188e-02,-7.10570e-01,1.55978e-02,4.64876e-02,-4.14884e-01,2.53288e-03,-3.10801e-04,-1.51011e-02,3.04242e-05,-8.78675e-04,1.31550e-02,3.71538e-04,-1.49304e-02,1.38458e-04,-1.62604e-03,-4.80198e-05,-1.95686e-04,1.61373e-01,-8.53341e-03,1.35492e-02,-1.33364e-05,-9.82227e-05,1.40737e-04,1.04062e-01,-2.58352e-03,3.36491e-01,-2.59418e-04,-3.05554e-02,-3.83531e-01,6.19717e-03,-6.62335e-02,8.66443e-03,-2.09008e-04,1.06273e+00,1.69899e-05,-1.07296e-02,3.77225e-02,-4.45235e-02,1.49472e-03,1.73240e-02,-4.35912e-01,1.42092e-03,-4.96336e-03,1.19326e-04,-3.79338e-05,1.99064e-05,-3.45006e-05,4.17199e-06,-1.02329e-04,-6.82393e-05,-1.22118e-02,1.31417e-04,1.43982e-03,6.62835e-05,1.16688e-02,-3.03858e-02,-1.05501e-10,-5.89646e-02,3.26775e-01,1.07302e-02,5.72713e-03,-1.69937e-02,-2.48630e+00,9.93910e-01,3.12616e-02,-1.78833e-02,2.04336e-02,4.64040e-02,-4.27058e-05,4.26938e-02,1.44662e-04,-2.14855e-04,-4.56613e-05,1.29786e-04,-6.48948e-05,-3.31344e-04,3.34311e-05,-1.29873e-02,1.12428e+00,-1.04909e+00,-1.78159e-07,-6.32645e-05,4.78479e-02,-1.48851e-04,-3.76140e-01,2.48496e-04,7.17759e-01,-2.64140e-05,-2.25729e-04,1.09739e-04,7.36400e-01,7.39446e-05,4.38910e-04,6.75738e-05,-3.28360e-03,1.01003e-01,
-2.61398e-04,-1.16295e-04,-6.62598e-05,7.00530e-05,1.44784e-04,-4.20093e-05,-7.45101e-05,-5.42641e-06,1.65996e-04,9.87847e-05,9.24664e-05,-1.72861e-05,7.08833e-05,1.08476e-04,1.98774e-05,1.08550e-05,1.51041e-04,4.61670e-04,6.76762e-05,-2.92592e-07,-7.07406e-05,-2.40593e-04,1.78723e-04,-5.03089e-05,-2.49967e-05,-8.02521e-05,4.69351e-05,-2.13668e-04,-3.74724e-05,-5.23641e-05,-2.07950e-04,7.90897e-06,1.90170e-04,-1.26842e-04,-8.21080e-05,2.76287e-05,-5.06768e-05,5.50899e-05,4.10982e-08,4.98959e-05,-2.45936e-04,-1.20270e-04,-1.52063e-05,-2.74110e-05,3.40108e-04,6.04567e-05,-3.34755e-04,1.06534e-04,2.55793e-04,-1.93856e-04,-5.57568e-05,-8.74871e-05,3.71508e-04,-2.79532e-04,-6.87595e-05,5.01879e-05,1.35208e-04,2.54255e-04,-7.76826e-05,-1.10398e-04,2.41221e-06,-1.05297e-04,2.37769e-04,1.82092e-04,-1.64424e-04,9.22633e-05,1.14826e-04,-1.18488e-06,-3.13366e-04,1.85415e-04,1.92597e-04,-2.63071e-04,-8.78300e-05,1.69432e-04,1.01211e-04,6.67074e-05,-1.15927e-04,5.57902e-06,-1.38792e-04,-1.15064e-04,5.16921e-05,-1.16110e-04,8.57455e-05,-3.43544e-05,-1.77302e-05,7.91262e-05,-1.03744e-04,-5.16384e-05,1.58540e-05,-1.81054e-04,-2.55694e-04,9.26325e-05,-9.72297e-05,3.30962e-04,1.81590e-04,-1.63887e-04,4.60197e-05,-1.13258e-04,-1.61823e-04,-3.30496e-04,-4.74880e-05,1.53058e-04,1.56230e-04,-5.50241e-05,-1.77641e-04,8.98420e-05,1.93487e-04,-9.14521e-06,-1.01746e-04,2.07714e-04,-1.23872e-04,-4.70142e-05,2.05918e-04,-3.06988e-04,1.14395e-04,-3.04272e-05,9.68033e-06,-1.81541e-04,-7.49115e-05,-4.70617e-05,2.86487e-05,-2.50049e-04,1.51373e-05,-8.79122e-05,-3.64723e-05,-1.46716e-04,-1.90714e-04,-1.46889e-04,
1.66579e-02,4.18503e-02,-3.98264e-03,-2.35566e-05,-6.71450e-05,-5.82617e-05,9.57428e-05,9.22899e-01,-2.97569e-01,-2.65931e-01,-4.18337e-02,6.23998e-02,2.83450e-02,2.33470e-01,-6.09268e-05,5.45147e-05,-6.53414e-03,1.44913e-05,2.46988e-03,1.15929e-01,5.96332e-02,1.72345e-02,1.15317e-01,-3.60076e-02,-1.05941e-01,-1.92389e-02,1.34966e-02,-3.42101e-01,5.72909e-02,4.81565e-02,5.14442e-02,6.71391e-05,4.16118e-02,2.68602e-03,3.44564e-02,2.16069e-02,2.80529e+00,1.36583e-02,1.23363e-05,-5.27353e-02,-1.28601e-05,-5.73174e-02,-2.98333e-02,4.11114e-03,-3.81582e-02,-2.50086e-04,-6.50293e-03,-5.71679e-03,-5.68857e-02,4.68203e-03,1.61042e-01,-1.67517e-02,-5.96336e-05,1.33649e-04,-4.82620e-05,-3.18729e-01,-2.36261e-03,-2.08694e-01,-7.51574e-05,5.31645e-02,-8.24960e-02,1.67933e-01,3.59568e-01,-2.23298e-01,8.37250e-05,-2.34214e+00,2.89091e-04,5.38523e-03,-4.63359e-03,3.72447e-03,-5.43910e-01,-5.00708e-01,1.18743e-02,-1.31196e-02,-6.76779e-01,5.41489e-05,7.73415e-05,7.42584e-05,8.26711e-05,1.07930e-02,1.62049e-04,2.01547e-05,2.71923e-01,-4.65501e-05,5.48096e-02,1.48595e-04,8.32445e-02,3.58122e-01,1.17480e-04,2.33569e-01,3.28332e-01,6.41202e-03,-1.92662e-02,4.89513e-01,-5.37582e-01,1.28572e-01,1.85154e-02,-1.17083e-02,-3.02977e-01,1.50026e-01,9.10092e-01,-8.07390e-02,7.85464e-05,-5.89566e-05,1.63613e-04,1.75755e-05,2.18624e-04,8.74199e-02,1.39584e-04,1.36266e-01,1.16015e-01,-1.52303e-01,2.17138e-04,2.88687e-04,-5.28313e-02,1.26441e-05,-8.99176e-02,-1.33882e-04,-8.26512e-03,3.18121e-01,-5.29675e-02,-1.11341e-04,3.26372e-02,-2.18883e-02,-2.33776e-02,1.02202e-04,1.69197e-02,2.78657e-02,
2.80201e-02,-3.93457e-01,-1.11690e-02,-2.53783e-04,4.01083e-05,-2.46397e-05,-8.93756e-05,-1.80404e-02,1.81261e-01,6.41530e-03,-4.80507e-05,-3.50528e-01,1.05841e-03,-6.20018e-01,-6.24379e-05,1.28919e-04,2.69642e-01,2.11717e-04,4.48932e-01,-6.07849e-02,3.89875e-01,-1.24098e-03,-1.96433e-01,-5.26109e-03,-3.23096e-01,2.46341e-02,-1.36986e-02,-1.94089e+00,-4.73650e-03,1.28933e+00,-4.56993e-04,6.95568e-05,6.47326e-02,-4.87016e-01,-4.41665e-03,7.41325e-02,1.13161e-01,-9.37356e-03,9.52421e-05,-1.64459e-01,9.34546e-05,9.32071e-01,7.39687e-02,-9.28655e-03,-4.65880e-04,1.72577e-05,1.41542e-02,3.95339e-01,-1.70439e+00,2.80186e-02,-1.40741e+00,-2.28688e-03,3.55240e-05,-1.15030e-04,-1.16545e-04,-1.21407e-01,-5.17203e-02,-7.33909e-05,1.06152e-04,1.84953e-02,-9.11679e-03,-6.05226e-02,2.30094e-01,1.54896e-01,1.16699e-05,3.77726e-01,2.84391e-05,-1.29692e+00,-1.33050e+00,1.55304e-01,-2.10909e-03,2.34079e-02,-9.46599e-03,-1.15291e-01,-3.26333e-02,1.47420e-05,-7.74243e-05,3.26827e-04,1.63523e-04,-6.87517e-03,-1.12347e-04,-1.26264e-04,-3.83364e-01,3.42772e-04,-2.00253e-02,7.73421e-05,-2.83922e+00,-1.92004e+00,2.34778e-04,-7.30660e-01,-9.19726e-01,-9.19649e-02,-2.29335e-02,-6.62875e-03,-4.75829e-03,-6.12382e-01,-3.34999e-01,2.19259e-04,5.11550e-02,-1.34147e+00,2.73969e-02,2.91503e-03,5.62056e-05,4.62023e-10,5.29969e-05,5.54713e-05,1.29543e-04,1.46835e-03,-1.60935e-04,2.00072e-02,-1.65199e-02,-1.92148e-01,-9.16638e-05,-7.07602e-03,4.22940e-02,-1.68173e-04,2.88941e-02,2.44771e-04,9.27110e-03,-1.25987e-02,1.11171e+00,1.46444e-04,-7.52534e-02,-4.47377e-02,-8.71126e-01,2.09158e-04,-1.43351e-02,-2.09551e-02,
-1.66251e-05,-9.14521e-06,-1.71483e-04,6.01529e-05,-1.67379e-04,-7.26830e-05,2.54340e-04,-6.15135e-05,1.38922e-05,-8.36553e-05,-2.47974e-04,-6.23037e-05,1.78586e-05,-1.61996e-04,-1.09554e-04,2.41118e-04,8.43425e-05,5.88429e-05,-1.06459e-04,-1.02351e-04,9.85557e-05,1.17689e-04,7.11474e-05,7.54422e-05,3.54053e-05,-1.13258e-04,-2.13837e-04,-1.77356e-04,-1.48311e-04,-7.50977e-05,3.84947e-05,-7.87402e-05,-1.06531e-04,1.37253e-04,1.84228e-05,-1.08655e-04,5.86629e-05,-8.02465e-05,1.15618e-04,-1.63920e-07,-2.18322e-04,6.01216e-05,1.22946e-04,-4.64324e-04,1.35606e-04,-4.74811e-04,1.20359e-04,1.95514e-04,1.02546e-04,-1.72600e-04,-7.03821e-05,-5.07323e-05,3.73068e-05,-4.68610e-05,-6.25795e-06,4.99836e-05,-1.13699e-04,-1.70115e-05,-1.58540e-04,-3.38271e-05,1.03936e-04,-3.80034e-04,2.64331e-04,-1.81852e-04,-6.27817e-05,-8.00013e-06,1.39170e-04,-1.12877e-05,-1.63550e-04,2.53858e-05,9.18366e-05,2.46947e-04,1.15099e-06,-2.45197e-04,-1.27266e-04,-6.77024e-05,-1.22600e-06,-1.00686e-05,-2.03479e-04,4.65056e-07,-1.99707e-04,-3.11640e-04,2.00654e-04,1.23851e-04,-1.20210e-04,-1.66040e-04,-1.07927e-04,1.25133e-04,1.17522e-05,-1.46905e-04,-1.26583e-04,1.78059e-04,-3.39246e-05,4.82407e-05,1.01584e-04,2.41116e-04,-9.84692e-05,-8.21875e-05,-1.67456e-04,3.67781e-05,1.30435e-04,-1.99784e-05,9.12993e-05,1.03948e-05,5.54147e-05,-1.76828e-05,1.03870e-04,-2.52745e-05,-8.40451e-05,-1.91600e-04,1.39621e-04,8.33739e-05,-1.54509e-05,-1.58140e-04,-6.23491e-05,1.07544e-04,-2.44349e-05,1.69178e-05,8.21114e-06,-8.50110e-05,2.24956e-05,1.27899e-04,-1.82052e-04,4.46597e-05,7.22502e-05,8.18786e-05,6.46039e-05,-1.72861e-05,
1.95975e+00,1.37946e+00,3.40266e-01,-1.99192e-04,-9.04768e-05,1.01252e-04,1.99095e-04,2.43299e-02,5.25020e-07,-9.84981e-03,1.69944e-03,4.19181e-01,-2.31703e-02,-1.62649e-01,-1.32615e-04,9.70463e-05,4.15618e-01,2.17471e-04,-2.50145e-01,8.63581e-01,2.24106e-02,-8.47056e-03,-6.17568e-03,2.25179e-03,-1.32028e-02,-3.00126e-01,-9.27963e-05,4.50864e-01,-6.58597e-03,1.16519e-02,1.05382e-02,-3.90775e-05,7.45271e-01,-6.82946e-01,2.61315e-02,2.96823e-02,-5.72147e-01,1.53223e-02,1.84457e-04,2.28471e-02,3.24147e-04,-4.56173e-01,-7.53769e-02,2.28329e-01,-1.44998e-02,-2.61198e-05,2.93989e-01,-2.86989e-02,-2.60320e-02,1.02346e-05,5.24022e-02,-2.72643e-02,-4.38646e-05,1.04116e-04,-1.22594e-04,-2.66511e-01,-6.81141e-01,1.05746e-02,2.06307e-04,-1.68829e-04,3.68396e-02,-1.82006e-01,1.06744e-03,-5.04467e-01,9.40813e-05,7.01942e-01,2.89177e-05,-2.30750e-01,-3.95466e-03,3.23456e-01,1.18919e-01,1.66259e+00,9.04407e-03,1.73193e-01,2.52861e-02,-1.65871e-04,1.31587e-05,-1.56866e-04,1.41451e-04,2.26068e-01,3.04639e-05,1.03276e-04,-8.06799e-01,-1.65444e-04,-1.31746e-02,6.84629e-05,-4.00484e-02,3.35260e-03,1.25727e-04,-3.28164e-01,-8.92295e-02,-2.63963e-03,-1.37982e-02,2.79260e-01,-6.47303e-01,3.77150e-02,7.69767e-02,-3.28292e-02,9.56298e-04,-5.02475e-01,1.76335e-02,-2.37333e-02,5.80837e-05,2.06315e-04,2.06679e-04,9.61719e-05,2.38656e-04,6.25516e-02,-2.38880e-04,2.41471e-06,2.31318e-01,-5.69511e-01,-1.02782e-04,-2.35472e-02,-1.80456e-02,-8.63752e-05,-1.97258e-02,-1.03463e-04,-8.23027e-02,5.06126e-01,-1.02783e-02,-1.12744e-04,-2.30402e-02,2.44228e-02,-4.47256e-02,-1.03114e-04,-9.60718e-05,1.40162e-02,
-1.19104e-02,1.05870e-01,-3.63494e-01,5.05131e-05,6.05382e-05,-1.23018e-04,1.48505e-04,-1.55966e-02,8.83991e-02,-2.87604e-02,-2.63952e-01,3.05194e-01,-1.31289e-01,1.68564e-01,5.00119e-05,-3.67968e-05,5.54956e-01,1.71319e-05,-1.26811e-01,4.23253e-02,2.06552e-01,3.84643e-03,1.65280e-01,2.84961e-01,-4.66110e-01,2.14985e-02,-2.15313e-01,1.66601e-01,2.43108e-02,1.04309e-02,1.28737e-02,9.08480e-05,3.05727e-02,-2.05384e-01,4.40128e-02,-1.27742e-01,1.99572e-02,-2.46232e-01,4.87213e-06,-2.91081e-01,-9.91593e-05,-1.77908e-01,-2.01158e-01,3.08129e-02,-7.82254e-03,-1.34372e-04,4.14546e-01,-2.25557e-02,-1.16563e-03,-5.22767e-01,-5.06525e-03,9.17232e-02,-1.42382e-04,-9.62830e-05,1.96419e-04,-6.64882e-03,8.28187e-03,-1.81206e-01,1.38458e-04,-1.07835e-01,-8.36458e-02,-2.06287e-01,-1.29175e-01,-7.43409e-02,8.48560e-05,-2.04020e+00,-3.72505e-04,4.58245e-01,1.54107e-01,-2.00647e-01,-4.46154e-02,-1.78887e-01,-4.47529e-01,-2.07279e-02,-8.10155e-03,-1.14382e-04,-2.52306e-04,5.68037e-05,1.04490e-04,3.60807e-01,-2.88066e-05,-4.74896e-05,1.42133e-01,1.39302e-04,-2.19965e-02,-1.07067e-04,4.42749e-03,1.84164e-01,7.97471e-05,5.41318e-03,3.70574e-01,-6.84702e-03,3.55772e-01,2.92151e-04,5.97263e-01,8.81206e-03,4.58388e-01,9.71183e-04,2.46830e-03,3.85294e-01,2.56559e-03,3.86657e-01,-1.68350e-04,1.40134e-04,-1.91235e-04,-1.33448e-04,-5.24777e-05,5.16351e-03,-2.18330e-05,9.01838e-02,4.21231e-01,-1.74553e-01,1.57997e-04,-2.14478e-02,-5.80734e-01,-2.33837e-04,-8.52150e-02,-8.03615e-05,4.24988e-01,-2.87860e-01,-6.88763e-01,-2.34306e-04,-1.08193e-01,-7.26138e-02,9.12914e-03,-2.84144e-05,4.72315e-04,2.56847e-01,
-1.46583e-04,-5.44670e-05,2.57120e-04,1.93694e-04,1.98552e-04,-1.25281e-04,-3.23491e-05,-3.44968e-05,1.79800e-04,2.62878e-05,6.18980e-06,-3.89466e-05,2.64508e-04,-2.28679e-04,-6.58489e-06,-2.12237e-04,-9.85567e-05,-2.16734e-04,-1.94996e-04,-7.84659e-05,-3.23184e-04,2.22712e-04,2.63839e-04,-3.31006e-04,1.17488e-04,-1.95851e-04,-6.74374e-05,2.53106e-04,-4.96232e-05,1.16039e-04,1.35064e-04,-1.14400e-04,-9.11554e-05,-7.43366e-05,-1.91554e-04,5.46564e-05,-1.14591e-04,3.89359e-04,1.89780e-04,-1.25712e-04,-1.56044e-04,-1.05467e-04,4.87489e-10,-1.20632e-05,9.23651e-05,6.58501e-05,5.76736e-05,-5.23002e-05,8.80391e-05,-9.37696e-05,-1.34418e-04,-1.55707e-04,-7.74323e-05,3.09580e-05,3.02498e-04,-2.31485e-04,-3.12942e-04,2.59225e-04,1.28154e-04,-2.03823e-04,1.08686e-04,1.12497e-04,1.34864e-04,6.96881e-05,1.66529e-04,1.67729e-05,1.06098e-05,1.70668e-04,-2.38857e-04,6.80883e-05,4.77379e-05,-1.13711e-04,-8.58624e-05,-5.13683e-08,-2.19546e-04,4.10762e-05,-7.92469e-06,-2.40575e-04,9.21751e-05,-6.38384e-05,8.88166e-05,1.45056e-05,-1.61492e-05,1.33939e-04,4.19220e-05,5.20058e-05,-1.43432e-04,5.20443e-05,-1.66678e-04,1.26566e-05,-2.69257e-04,-5.06558e-05,-4.76979e-05,-1.65031e-04,1.78012e-05,-1.84645e-05,3.83535e-05,-1.48836e-04,5.86098e-05,-3.39269e-05,1.95715e-04,-2.80656e-05,1.06852e-04,-1.88747e-05,6.11797e-05,-8.40352e-05,-3.17610e-05,-9.11479e-05,-3.22027e-04,-3.51081e-04,-5.09435e-05,-9.06547e-05,-3.43049e-05,2.10276e-04,-8.74717e-05,-1.14223e-04,-8.30534e-07,-1.08759e-04,-2.63837e-04,-8.75541e-05,1.01941e-04,8.51994e-05,6.08211e-05,-1.04591e-04,-4.34822e-05,-1.88082e-04,1.16169e-04,-8.06744e-05,
1.63920e-07,-8.65360e-05,-1.09739e-04,1.66956e-04,-8.46572e-05,-8.98233e-05,9.39296e-05,7.32538e-05,-1.03417e-04,1.25727e-04,-2.58436e-04,1.80986e-04,-1.33318e-04,7.55497e-05,-9.54400e-05,4.62659e-05,7.17015e-05,-6.40032e-05,-1.34542e-04,-1.46575e-04,-2.76451e-04,-3.83593e-05,-1.19152e-04,1.62953e-04,1.29878e-04,-8.06753e-05,1.81988e-04,-9.84482e-05,-9.34638e-05,6.32301e-06,2.44599e-04,1.09739e-04,-1.40034e-05,-1.57354e-04,-3.47721e-06,-1.50476e-04,1.54536e-05,-4.28763e-05,-7.95049e-05,1.13187e-04,2.50716e-04,8.88063e-05,-2.43423e-04,-1.28327e-05,-1.93997e-04,-8.77609e-05,2.04810e-04,-1.26910e-04,2.30059e-04,1.76708e-04,-6.70509e-05,3.09164e-04,-7.06909e-05,9.07543e-05,-5.64626e-05,1.39673e-04,1.33932e-04,-9.70461e-05,-1.71323e-05,4.62023e-10,2.50309e-05,-6.96029e-05,5.64978e-09,8.89911e-05,-1.18066e-04,-7.95646e-05,-5.66097e-05,-1.63125e-04,3.72681e-04,-1.42804e-04,-1.78065e-04,3.16779e-04,3.70672e-04,-1.51272e-04,-1.19553e-04,1.39430e-05,7.64547e-05,-3.04673e-05,9.51403e-06,-2.87272e-04,-2.12667e-05,-4.31991e-05,1.16824e-04,-1.28064e-04,1.66251e-04,1.03254e-04,5.23074e-05,-2.37643e-04,9.12694e-05,1.61494e-04,7.31648e-05,-7.29587e-05,-1.47477e-04,5.76663e-05,8.71850e-05,-5.57902e-06,-5.78055e-05,5.52194e-05,-9.11649e-05,1.20508e-04,-7.61061e-05,-2.18000e-04,2.50716e-04,-1.27559e-05,1.09428e-05,-1.66809e-05,-9.89232e-05,7.82437e-05,-1.41915e-05,-1.67487e-04,2.34871e-04,1.16433e-04,-6.00617e-05,-8.63673e-05,-8.40451e-05,3.28830e-04,-1.20520e-04,3.07783e-04,-1.11127e-04,1.14869e-04,-1.08680e-04,2.02317e-04,4.41703e-05,-1.93148e-04,2.50910e-04,-5.16163e-05,-1.03775e-04,7.41768e-06,
-1.74178e-04,2.46583e-05,-6.27158e-05,-1.77726e-04,1.11477e-04,1.02354e-04,-1.64025e-04,-2.40247e-06,1.40017e-04,-4.74704e-05,-9.41779e-05,1.12153e-04,1.20569e-04,-1.20937e-04,1.79995e-04,-1.21543e-04,-7.76088e-05,2.16284e-04,-1.05794e-04,1.19177e-04,1.43554e-04,-1.26799e-04,-6.50471e-05,-1.61891e-04,-2.08440e-05,-5.77297e-05,-1.02524e-04,1.12684e-04,-1.20897e-04,4.77391e-05,1.52063e-05,1.18036e-04,-2.36606e-05,-1.91000e-04,2.63093e-04,7.74306e-05,2.51708e-04,2.96620e-04,-1.19309e-04,-1.28355e-04,4.62510e-05,1.53070e-05,3.33800e-04,5.34253e-05,-1.40418e-04,-2.47985e-04,-2.74564e-04,-1.10485e-04,-1.31201e-04,-1.24607e-04,4.85953e-05,2.71542e-04,3.75422e-05,-1.25011e-05,-8.72549e-05,-6.73989e-06,1.11638e-04,6.45449e-05,-1.17144e-04,1.03627e-04,-2.41936e-04,1.43001e-04,1.64542e-04,1.78089e-04,1.82046e-04,-5.26248e-05,-6.75149e-05,9.63492e-05,-1.38658e-04,1.86281e-04,1.12125e-04,-1.11190e-04,-3.73891e-05,-1.00559e-04,1.73541e-04,-2.28262e-04,2.51669e-04,-8.65184e-05,5.04756e-05,1.19649e-05,-3.86517e-05,2.57952e-05,-2.69901e-06,4.68614e-05,2.03549e-04,8.88118e-05,-2.62586e-05,-7.63340e-05,1.23312e-04,-3.53909e-05,-2.61776e-04,-2.72701e-04,-6.02091e-05,-1.92621e-04,-5.13129e-05,1.36642e-06,3.79675e-04,-2.79936e-05,3.94337e-05,-4.30018e-05,-2.44177e-04,-1.11488e-04,-3.34170e-05,-1.94745e-04,-2.21300e-04,-1.00685e-05,1.77241e-04,-3.36346e-05,1.76223e-04,4.52735e-05,-4.59759e-04,3.10349e-04,-9.40691e-05,5.61707e-05,3.36887e-04,1.45993e-04,-1.13175e-04,-1.76961e-04,2.53673e-04,1.68547e-04,8.65567e-05,-1.21055e-04,7.27214e-05,-4.87208e-05,7.95646e-05,1.33773e-04,-6.74337e-05,-5.39734e-05,
1.99410e-04,-1.03793e-04,-9.04394e-05,-7.68107e-05,-9.23095e-05,1.40036e-05,-7.62862e-05,8.01512e-05,-3.12173e-04,6.15385e-05,-5.85058e-05,7.41624e-05,7.88183e-05,1.66956e-04,1.17609e-04,1.50971e-04,-1.29429e-04,2.15450e-04,-1.76490e-04,1.66251e-05,8.02465e-05,-6.58763e-05,1.91742e-04,2.31971e-05,-2.63988e-04,-8.43413e-05,-1.12966e-05,3.33108e-04,-3.73113e-04,1.47978e-04,1.68121e-04,8.74645e-05,-4.83883e-05,1.67555e-04,1.14916e-04,4.42764e-05,-4.64419e-05,-1.22126e-04,-1.26008e-04,9.93938e-05,1.60349e-04,6.15335e-05,-1.12355e-06,8.48688e-05,-5.63520e-05,-1.68121e-04,1.01650e-04,-1.17664e-04,1.21879e-04,2.14610e-04,9.82363e-05,-7.85813e-05,-1.66251e-05,-1.62609e-04,-4.91505e-05,7.30726e-06,8.02465e-05,1.37948e-04,9.19799e-05,-7.34469e-05,-2.51842e-06,-9.76928e-05,-7.97378e-06,-5.92997e-05,1.27200e-04,9.83709e-07,-3.29218e-05,-7.58169e-05,2.09542e-05,5.29815e-05,5.80450e-05,-6.25659e-05,-2.10379e-04,5.65602e-05,-1.02491e-04,-7.04319e-05,1.84564e-04,1.31039e-04,-1.47742e-05,1.23718e-04,1.16009e-04,2.68382e-04,1.30387e-04,-9.85659e-05,5.39070e-05,9.52905e-05,2.12666e-05,1.31731e-04,6.81740e-05,2.21446e-04,-7.63143e-05,-5.13828e-05,-2.35566e-05,-1.36892e-04,-1.81837e-05,2.86361e-05,-8.03956e-05,-1.76585e-04,1.04898e-04,-1.26265e-04,9.80909e-05,6.34025e-06,-1.66386e-04,1.87807e-04,-2.11649e-04,-1.94907e-04,-2.64494e-04,-8.47147e-05,-1.47351e-04,1.43245e-04,-2.32571e-04,-9.45444e-05,4.71170e-05,-2.24935e-05,5.90112e-06,1.07398e-04,-6.91740e-05,3.69495e-05,1.09714e-04,2.09222e-05,-2.41117e-04,-1.21990e-04,-2.68738e-06,-5.48625e-05,6.75789e-05,-6.06775e-05,-7.54145e-05,1.82399e-04,
-7.79933e-03,5.95348e-03,-9.15324e-02,9.35264e-05,3.97261e-04,-1.07352e-04,1.46987e-04,-9.74881e-03,2.11941e-02,3.94538e-01,1.18395e-04,-1.67438e-01,3.82306e-05,4.62059e-02,7.87953e-05,-2.24935e-05,-1.83852e-02,-1.20449e-06,-1.47872e-01,2.96348e-03,1.38828e-02,-4.52315e-05,7.69592e-04,3.73370e-03,-1.25765e-03,-3.23663e-02,-1.32820e-05,1.36143e-02,5.83837e-03,-1.14648e-02,-1.10203e-05,-1.10248e-04,-1.74781e-03,4.84637e-02,-5.57492e-03,5.10039e-03,2.15652e-02,-5.48024e-03,5.52412e-06,3.28774e-02,-1.20909e-05,-1.25915e-02,3.18907e-03,-6.46520e-05,2.98726e-03,4.17163e-05,-1.74811e-02,4.23977e-03,-1.00380e-02,2.39623e-03,-4.48775e-02,1.55907e-02,1.29056e-04,1.25716e-04,-4.83826e-05,1.06148e-02,2.36099e-02,-1.18490e-03,-1.48523e-04,3.29024e-04,1.69665e-01,2.21127e-02,-8.44363e-02,-4.77436e-01,-1.19951e-04,2.05271e-04,-4.64947e-05,-2.75138e-02,2.66873e-03,-9.71008e-03,-2.12973e-04,-3.22298e-03,-4.20803e-04,2.83388e-02,-7.52531e-04,6.45294e-05,7.39102e-05,-1.86275e-04,1.38345e-04,-1.15831e+00,-7.58325e-05,1.35416e-04,-1.62245e-01,-6.88860e-05,-9.74142e-02,3.07775e-05,1.09008e-02,3.31149e-03,-1.44873e-04,-9.37345e-03,2.83828e-03,1.68988e+00,3.27689e-02,-1.29312e-02,7.95663e-03,-1.58456e-02,3.13386e-05,2.28724e-01,-2.61144e-02,4.84171e-03,-1.77151e-02,3.61286e-01,-1.47700e-04,3.75482e-05,-2.88322e-05,3.13258e-04,-2.44410e-04,1.18244e-03,1.48199e-04,-4.97284e-02,-5.70227e-03,-1.48294e-01,-4.17170e-05,-9.86690e-03,3.62588e-03,1.67858e-04,-5.04305e-03,-4.83834e-05,-8.79520e-01,3.54091e-02,3.46767e-04,-1.36262e-04,-8.46054e-04,3.30334e-02,-8.09181e-02,-1.49801e-04,2.86173e-01,-2.86749e-03,
-6.63276e-05,1.26675e-04,5.63454e-05,1.67249e-04,-1.12718e-04,4.96445e-05,-5.66428e-05,-8.55282e-05,1.78080e-04,-8.59572e-05,1.74275e-04,-1.26494e-04,-1.80251e-04,-5.48572e-05,4.83828e-05,-1.86298e-04,7.11475e-05,-1.25599e-04,-1.28810e-05,2.44132e-05,-4.67192e-07,-2.14063e-04,1.40545e-04,8.31881e-05,-6.00869e-05,-1.56199e-05,2.32896e-04,-1.49860e-04,2.37559e-04,7.04871e-05,6.34564e-05,-2.29099e-05,9.81797e-06,8.08558e-05,-9.66068e-05,5.49616e-05,-1.11674e-04,2.38672e-04,-1.93554e-04,5.57902e-06,-1.17716e-04,-1.17276e-04,1.04883e-04,1.15706e-04,2.61398e-04,-1.50286e-04,7.06196e-05,1.04428e-04,-2.80285e-05,-1.52683e-04,-5.76726e-05,-6.31135e-05,-9.84259e-05,-1.92691e-05,4.02417e-05,-1.02823e-04,5.76309e-06,-2.64838e-05,-1.07627e-04,7.76331e-05,-9.63944e-05,2.63093e-04,-4.44546e-06,9.95459e-05,-5.25916e-06,-5.16102e-05,-3.75311e-05,-1.22884e-04,-2.43745e-09,-2.52999e-04,2.89813e-04,4.87377e-05,6.35940e-05,2.43430e-05,1.45872e-04,-2.02858e-04,-1.26289e-04,1.90589e-04,-7.79799e-05,1.42985e-04,-6.76342e-05,-1.67519e-04,1.26965e-04,6.37605e-05,-7.86208e-05,6.89059e-05,1.37923e-04,-6.23491e-05,1.51517e-04,2.30980e-04,1.39385e-04,3.31014e-05,-2.28378e-04,-6.30538e-05,-1.27133e-04,-1.28655e-05,-6.30037e-06,7.71517e-05,4.37946e-05,-7.74168e-06,-1.28560e-05,-1.57475e-05,8.51918e-05,2.52462e-04,-2.26168e-04,2.41117e-04,-1.10055e-04,1.55292e-04,-2.59663e-04,-7.63757e-05,5.58896e-06,-2.34306e-04,5.44269e-05,1.00587e-04,1.22647e-04,1.62576e-04,-4.13466e-06,2.16921e-04,1.70059e-05,7.07062e-05,1.62182e-04,-2.26838e-04,-3.43002e-05,2.92264e-04,-9.72925e-05,-6.53499e-05,-1.66251e-05,5.57505e-05,
5.20179e-01,-1.46843e-01,-3.99297e-02,-1.44719e-04,5.28784e-05,-1.38224e-05,8.55284e-05,5.80304e-03,-2.85619e-01,5.09965e-01,-9.64256e-03,-1.07002e-02,-9.09372e-03,2.12538e-03,8.28537e-05,-6.97389e-05,5.79424e-03,8.47402e-05,8.35786e-01,7.14844e-02,-9.90158e-01,5.50205e-03,-4.99901e-03,-2.89572e-02,8.69585e-03,-1.80904e-03,8.87416e-03,-2.70686e-02,-7.58668e-02,1.77208e-03,8.23233e-03,-9.77314e-05,4.04818e-03,-2.25890e-02,-5.52134e-03,-1.36248e-02,-3.38789e-02,6.29857e-02,-1.62944e-04,1.15577e-02,5.55745e-05,-7.08911e-03,1.22091e+00,-3.10226e-01,1.90684e-01,-7.34901e-07,1.96066e-02,-1.71708e-02,1.98758e-03,5.50207e-02,-9.23598e-02,-3.65223e-01,-7.83002e-05,1.35165e-05,-1.26160e-04,-2.73875e-01,-4.52916e-01,1.79203e-02,-9.13341e-05,4.74593e-02,4.40250e-01,-1.78545e-01,-1.49096e-03,3.40368e-01,1.33338e-04,-5.91695e-05,8.41762e-05,-1.18015e-02,2.80839e-02,-1.54225e-02,-1.00204e-01,8.57338e-02,-7.22753e-03,2.41673e-01,-1.28529e-01,-8.86090e-05,1.65316e-04,5.28786e-05,9.15645e-05,-2.33944e-01,-1.24143e-04,1.56588e-04,-2.48905e-02,-1.12129e-04,1.46740e-02,8.97205e-05,6.80595e-04,-1.45141e-02,-2.50788e-04,-6.75887e-01,-7.59977e-03,8.29629e-02,-5.43568e-01,1.69195e-02,-4.90133e-01,-6.35209e-02,-8.27487e-02,-1.46128e-03,3.25052e-01,-2.05242e-03,2.92622e-05,-1.64132e-02,-1.58273e-05,6.36121e-05,8.29930e-06,-1.66614e-05,-9.93887e-05,-2.21321e-03,1.09742e-04,-1.47984e-01,2.69595e-02,4.85854e-01,1.11853e-04,4.95722e-04,1.20520e-02,1.66001e-05,-1.16834e+00,4.46707e-05,1.37824e+00,9.86044e-04,3.90165e-03,1.84176e-04,2.99145e-02,-2.04653e-02,-3.18126e-02,-1.31252e-04,-4.17239e-02,-1.24744e-02,
1.60383e-01,-1.12415e-03,6.31010e-03,-2.34306e-04,-4.44857e-05,1.36448e-04,8.12957e-05,1.29290e+00,5.06843e-02,-2.38209e-02,-5.88170e-03,3.12833e-03,-4.90299e-02,-3.30177e-03,-7.22456e-05,-1.25009e-05,-2.57829e-02,9.57629e-05,-5.65735e-04,3.49398e-03,9.90935e-03,-1.41673e-02,-1.10920e-03,-2.89509e-03,3.71309e-02,6.83055e-04,-1.29060e-02,2.66759e-01,-7.47722e-02,7.61989e-01,-1.22350e-02,-5.58018e-05,-1.38342e-02,4.54293e-02,1.02672e-01,4.31079e-01,1.20623e+00,5.27071e-05,-4.24728e-05,-7.07518e-03,9.35498e-05,3.52114e-02,-7.21601e-05,8.88980e-03,1.03672e-04,-1.18257e-04,-1.91421e-02,-2.55240e-02,-2.60157e-01,4.02180e-01,-2.42126e-02,-2.18502e-01,1.66365e-04,-1.79223e-04,-2.50245e-04,6.15501e-01,6.43116e-05,-4.73481e-02,3.01178e-05,3.40957e-02,-2.73596e-04,-1.07426e-01,1.03590e+00,-1.34699e+00,5.69020e-05,-1.98816e-03,-2.16984e-04,-1.56816e-02,-1.93707e-02,-2.03043e-02,-3.31391e-02,5.64567e-03,-4.68709e-02,-7.98777e-02,-8.60939e-04,2.34590e-04,-2.26502e-05,-5.61061e-05,2.22462e-05,-2.29897e-02,6.20712e-06,-5.06782e-05,-3.23429e-03,-4.93796e-05,-5.82897e-05,-1.84528e-04,-6.10412e-01,-9.90479e-02,-2.57158e-05,-2.18702e-02,-1.98038e-01,7.81737e-02,9.62829e-01,-1.48824e-01,-8.71052e-01,4.29127e-02,4.33912e-03,-5.15793e-03,-6.86413e-03,1.26408e-02,1.31596e-02,-2.10240e-03,7.90713e-06,-1.40182e-05,4.31461e-05,-9.33476e-05,-1.44508e-04,1.67431e-02,-2.02829e-04,1.59597e-02,-6.21116e-04,4.10564e-03,1.74413e-04,1.38639e-02,3.65643e-05,1.22467e-05,-9.82243e-02,-1.34181e-04,-1.98365e-02,-1.95424e-01,-2.32744e-02,-5.74637e-05,-4.06010e-03,-2.06077e-02,1.19305e-02,-3.07111e-05,3.51264e-01,1.98513e-03,
-2.29141e-02,-1.01968e-01,5.75030e-02,1.83198e-04,1.80439e-04,6.72649e-05,1.03916e-04,1.62198e-01,1.62651e-02,-3.35956e-03,-2.01355e-03,-1.46789e-01,1.23016e-02,5.59930e-02,1.00692e-05,-4.35622e-05,-5.51523e-03,1.24477e-04,-1.00622e-01,-1.85187e-02,1.04768e-01,1.46861e-04,1.22722e-01,-9.38860e-04,7.16103e-03,-1.60589e-01,-3.85028e-03,-3.07692e-02,-1.36742e-01,-8.10004e-03,-9.42083e-04,1.38148e-04,4.36553e-03,-1.93826e-02,-5.67604e-02,-6.11688e-02,-6.16715e-02,-9.18509e-01,-2.74027e-04,6.75701e-02,-1.12207e-04,-2.38458e-01,-6.42965e-03,5.30886e-03,5.31224e-03,-4.91398e-05,4.94108e-03,-6.55314e-03,7.40677e-03,2.34819e-01,1.42415e-01,9.87412e-03,6.30259e-05,3.77059e-05,-1.24762e-04,-1.90907e-02,-1.82370e-03,2.72760e-02,-2.07730e-04,-6.96052e-03,-1.22151e-01,-8.49926e-02,4.47780e-02,-1.21616e-04,1.76381e-04,-2.54047e-01,-1.59911e-04,1.46267e-02,-1.85739e-01,-3.41326e-01,-1.32116e-03,1.60062e-01,1.55495e-03,-1.96266e-02,1.25079e-02,1.20568e-04,-1.91742e-04,7.27111e-05,1.14231e-04,-2.75536e-02,1.44188e-04,7.87439e-05,2.05308e-03,1.13258e-05,-7.14847e-02,-6.70668e-05,-6.34220e-03,4.27083e-03,2.09254e-05,-4.83495e-02,-2.54301e-02,7.73985e-03,-3.77155e-04,-1.60371e-01,-4.23986e-02,-5.13658e-03,1.74831e-01,-1.67845e-02,-9.81274e-03,-1.65544e-02,7.39560e-04,1.16721e-01,2.39675e-05,3.48809e-06,8.66477e-05,5.51553e-05,-5.35373e-05,-1.18545e-01,-1.10032e-04,-1.15973e-02,-2.22592e-01,4.92720e-03,-7.82765e-05,-3.73016e-02,3.05412e-02,-3.36670e-05,3.79102e-02,-1.24731e-04,-1.57126e-03,-2.47112e-02,1.81809e-03,7.11444e-05,-2.37834e-02,-4.47164e-03,-1.70390e-01,-1.45094e-04,-2.31844e-03,6.52437e-03,
-4.40220e-03,-1.72791e-03,-3.53119e-01,-5.53568e-05,1.47007e-04,7.06863e-05,1.69379e-04,7.09974e-03,-4.65405e-02,-3.35284e-03,-7.28124e-04,1.53988e-02,-3.60947e-01,-3.69180e-02,1.23180e-04,-1.45311e-04,3.13997e-01,-3.74126e-05,-6.39690e-02,-3.20977e-02,-3.17779e-02,2.46236e-04,-6.58793e-03,-1.60755e-02,-1.82460e-02,-6.68104e-03,-2.71699e-03,3.90127e-03,-3.04532e-01,-4.91483e-03,-1.90220e-04,3.12402e-06,1.57254e-02,4.71806e-03,-1.22443e-02,-2.44550e-03,3.34929e-03,-9.79390e-03,-1.51617e-04,-1.06808e-02,-1.92852e-04,4.82019e-02,-2.31906e-03,5.37818e-01,4.25876e-03,8.39743e-05,4.30462e-01,-1.30743e-02,1.61548e-02,-1.68548e-02,-6.06511e-02,-1.68577e-03,5.55202e-05,5.85751e-08,1.31514e-04,-9.61456e-04,1.92571e-02,4.95383e-03,-1.44498e-05,-3.51409e-02,7.37308e-03,3.97996e-01,-2.39323e-02,4.10253e-03,7.15881e-05,5.06847e-04,-6.66093e-05,-1.25915e-01,3.53875e-03,2.22296e-01,-2.30642e-04,3.55278e-01,4.49470e-04,5.71492e-02,-5.71238e-05,-7.12644e-05,-1.03878e-04,-3.43050e-05,-1.07786e-05,-2.53304e-01,3.24400e-05,-1.24892e-04,-2.33124e-02,1.26847e-04,-5.05674e-04,6.09340e-05,-6.72316e-03,5.63936e-04,-1.32831e-04,-8.08811e-03,8.22384e-03,-1.65280e-02,-6.11533e-02,-1.04632e-02,2.24395e-01,-1.38923e-02,2.36945e-01,-3.29607e-01,-3.11324e-03,-1.44352e-01,-4.23783e-03,-2.06405e-01,-3.69714e-05,8.61012e-05,-1.35499e-04,-1.34010e-04,9.42933e-05,6.11583e-03,1.63776e-04,-1.24491e-05,-1.23954e-02,-1.92050e-03,-1.64281e-04,-1.52485e-02,1.39693e-01,1.58886e-05,-3.63680e-01,1.93513e-04,3.25079e-02,3.21418e-01,-2.64335e-01,1.59398e-04,6.08541e-04,-2.25479e-02,-6.60923e-03,-3.73460e-04,-3.15323e-02,5.73745e-04,
2.19763e-04,8.08889e-05,-1.68534e-04,-1.04498e-04,1.44755e-04,1.07255e-06,-2.30484e-05,6.81337e-05,-1.16879e-08,-1.06650e-04,-5.44719e-05,-1.12312e-04,-1.22096e-04,-9.38324e-06,-1.28359e-04,-1.23089e-04,-5.57902e-06,1.29677e-04,-7.63843e-05,-8.17573e-06,-9.95818e-05,-1.28122e-04,-1.99782e-04,8.39447e-05,-6.90751e-05,2.43217e-04,3.04356e-05,2.09729e-05,-5.93619e-05,8.19405e-06,-2.37119e-04,1.05690e-04,-1.84340e-04,2.27554e-04,1.18534e-04,6.64979e-05,-2.46736e-05,-9.29158e-05,1.41724e-05,-1.16005e-04,-1.20688e-04,2.55959e-05,-1.23109e-08,1.74377e-04,-1.07523e-04,2.29817e-04,-2.47844e-05,1.46291e-04,-2.00736e-04,-1.37944e-04,-5.59020e-05,1.11106e-04,-6.72580e-06,-3.32444e-05,2.25593e-04,2.06641e-05,-1.60249e-04,-1.49035e-06,-1.90392e-04,-2.44197e-05,6.89695e-05,3.15499e-04,4.24831e-04,-1.09966e-05,-2.44046e-04,1.08748e-04,2.75935e-04,-5.57796e-05,5.19691e-05,1.00685e-05,2.27354e-04,1.50708e-04,-6.74339e-05,1.70069e-04,1.74376e-04,-8.44085e-05,1.02763e-04,-1.45818e-04,-3.51939e-05,1.15254e-04,-2.49047e-05,-1.11175e-04,1.43784e-05,8.08959e-05,-3.77769e-05,-4.85052e-05,1.44424e-04,-1.34944e-05,1.27657e-05,-5.94901e-05,-2.06726e-05,-2.86487e-05,-1.78871e-05,1.60093e-05,8.83999e-05,-1.04910e-04,-9.86005e-05,1.46156e-05,7.38995e-05,-1.99789e-05,3.09734e-04,-1.79244e-05,-2.50214e-04,-1.23636e-04,1.20449e-06,-4.04334e-05,2.27297e-04,3.36824e-05,-1.44374e-04,-9.15981e-05,-3.09858e-04,2.20416e-05,-1.72327e-04,5.14316e-05,1.20675e-04,-1.43396e-04,2.66000e-04,9.52013e-05,-1.23455e-04,7.57171e-05,7.29154e-05,9.57876e-05,-7.42268e-05,-1.89226e-04,-6.06775e-05,-2.85401e-04,7.46406e-05,6.06775e-05,
-9.56147e-03,-4.74470e-01,1.79743e-02,-1.03190e-04,5.88144e-05,4.65642e-05,3.57759e-04,-1.44900e-02,-7.16361e-01,-2.80524e-01,2.50609e-02,-1.78588e-01,1.37414e-01,-4.99100e-01,2.21113e-04,1.03160e-05,-8.80529e-04,-2.24111e-04,2.22610e-02,-9.92945e-01,-1.60139e+00,3.98793e-03,-2.45543e-02,-1.20160e-04,-1.92608e-01,-4.22311e-02,5.64670e-03,-5.75948e-01,-1.03674e+00,-2.27001e-03,3.50604e-05,1.10769e-05,-5.59538e-01,4.61959e-02,-2.11638e-02,-1.23776e+00,-7.31255e-02,1.37790e-01,-1.65419e-05,4.67585e-02,1.19013e-04,-1.35785e+00,1.76819e-02,-9.53599e-03,4.75442e-02,7.98746e-06,-2.22333e-02,-1.44762e-05,-3.90690e-03,-1.04174e+00,-3.10317e-01,-5.27844e-02,-4.73193e-06,-7.05853e-05,5.98202e-05,-3.48450e-01,-2.84118e-02,-5.19018e-02,7.63077e-05,-2.89006e-04,1.37284e-01,-6.64845e-04,1.01380e-01,2.96871e-01,-4.87706e-05,5.92210e-03,-8.71850e-05,-2.35352e-03,-5.00830e-01,3.72063e-01,-2.41782e-02,1.88573e-01,-6.35506e-01,2.16649e-03,1.58334e-02,1.78607e-04,-3.91591e-05,1.55098e-04,-6.88453e-05,-2.71456e-02,1.50609e-04,-1.78803e-04,-8.15248e-03,-2.67703e-04,-2.28447e+00,-5.73416e-05,-4.84590e-01,-6.93956e-01,5.43413e-05,-1.51021e-02,-1.57149e-01,-1.91691e-01,-5.00111e-02,-6.54416e-01,-3.74261e-02,6.87635e-02,-1.70087e-02,1.44070e-02,-1.17012e-02,-1.87647e-01,-2.34140e-03,-5.67613e-01,3.22796e-05,-2.82426e-05,5.46601e-05,-1.80744e-04,-2.14653e-04,1.35304e-01,-4.94512e-04,6.20641e-04,-8.41506e-01,1.75945e-02,-1.15252e-04,-1.55054e-05,-5.93816e-01,1.07899e-04,6.47296e-01,-2.17656e-05,4.23715e-01,-3.66251e-01,-1.18114e-03,-3.88595e-05,-4.58569e-01,-1.93174e-02,-9.75854e-03,6.26048e-05,3.90962e-03,-9.98230e-03,
8.30946e-02,-5.56352e-03,2.10851e-01,-1.43432e-04,6.07418e-05,-9.14533e-06,-1.80330e-04,1.14331e-01,-2.36949e-02,7.71939e-01,3.15463e-04,-1.76002e-02,-4.70012e-02,-1.30256e-02,1.67486e-04,-1.16057e-05,5.80337e-02,-8.87440e-05,-2.13570e-03,4.91848e-03,1.16956e+00,-1.24487e-02,1.03553e-02,4.71359e-02,-3.48327e-01,3.69345e-02,-1.56300e-02,6.35436e-02,4.49260e-01,1.70654e-02,-3.66908e-02,1.23084e-04,3.12855e-01,7.35307e-02,-7.12290e-04,-8.39144e-02,-1.06189e-02,-8.38614e-02,-3.10397e-04,3.62173e-02,4.07206e-05,8.94636e-01,-5.34256e-02,-6.41378e-03,-2.82609e-02,3.27038e-04,-2.65926e-01,1.29315e-02,-2.56744e-02,-1.47681e-02,1.36383e-01,4.42505e-01,1.14531e-05,7.41783e-05,2.35939e-04,-1.71574e-02,3.09090e-02,-1.74158e-02,5.82617e-05,4.87495e-02,2.78441e-03,3.32820e-02,-2.04563e-02,6.50549e-01,-2.19220e-04,-4.17285e-01,-6.98544e-05,5.76505e-03,1.26309e-02,1.54943e-02,-1.47443e-02,-2.74213e-01,-2.33254e-02,-1.05184e-02,7.60162e-02,8.91006e-05,-7.64233e-05,-6.70706e-05,-4.16459e-05,-6.47992e-02,-1.68122e-04,1.52306e-05,-3.49384e-03,-9.18517e-05,1.44609e-03,-4.87185e-06,3.97947e-01,-5.64734e-03,6.25397e-06,6.43378e-03,-9.46369e-03,4.23294e-02,-2.01158e-02,-1.33034e-03,-1.06402e+00,9.19937e-04,-3.23428e-02,-4.81645e-01,2.36496e-02,4.71452e-02,-1.62892e-02,-4.82321e-01,-1.51916e-04,9.45529e-07,-7.42004e-05,-1.66459e-05,-1.45575e-04,-2.27587e-02,1.56608e-04,-6.78544e-02,-3.92702e-01,1.36991e-02,-8.65267e-05,-5.75979e-03,2.22673e-02,1.20532e-04,-5.41850e-01,4.87782e-05,6.51528e-03,2.46387e-02,4.92417e-02,2.08478e-04,1.48753e-02,3.67477e-03,1.43649e-02,1.01629e-04,5.10474e-03,-1.11590e-02,
2.39571e-01,-2.39520e-02,-5.62262e-01,1.09739e-04,2.26525e-05,-9.30196e-05,5.87486e-05,3.17164e-02,-5.04695e-02,-1.39378e-01,6.24120e-05,-1.54300e+00,-3.23093e-02,-1.04284e-01,1.63210e-04,5.57621e-05,-3.91725e-01,-4.33411e-04,5.51215e-01,-3.03898e-01,-8.93595e-02,3.85661e-05,-1.54807e-02,-4.46817e-01,-2.39592e-01,2.54469e-01,-3.93223e-05,8.76023e-02,4.40296e-03,3.22632e-01,-1.91384e-04,1.40238e-04,9.51393e-03,3.65094e-01,1.26145e-02,1.79132e-05,1.59968e-01,-7.00981e-04,-1.58736e-04,4.85590e-02,2.50480e-04,6.27426e-01,1.18168e-02,-1.10924e+00,1.13811e-02,4.83430e-05,-6.21685e-03,1.47380e-03,-7.19295e-01,-8.88171e-01,-2.19520e-03,-2.31445e-01,-1.39431e-05,1.02642e-04,1.60217e-08,1.79176e-02,-3.36862e-02,-3.54470e-03,-1.15637e-04,-1.57183e-01,1.07362e-02,-4.85546e-01,1.46433e-01,6.38627e-03,-1.65627e-04,-3.32215e-02,-1.08121e-04,-2.89018e-02,-8.07952e-01,-5.92656e-01,-2.15224e-02,-3.13928e-02,-4.01756e-03,-3.99159e-01,1.16099e-02,2.28644e-05,1.61110e-04,-5.57797e-05,-4.94074e-05,4.27244e-01,-9.65574e-05,-4.78617e-05,-6.97150e-02,-9.98105e-05,1.17625e-01,1.36511e-04,-2.63362e-01,-3.30089e-01,2.11192e-04,4.82558e-01,-6.22497e-01,-5.10136e-03,-2.21835e-02,-1.76590e-02,6.71595e-01,5.10575e-02,-9.72712e-01,-1.00792e-02,2.44156e-01,-2.95446e-01,3.02856e-01,-4.00947e-01,1.06004e-04,-1.32387e-04,-1.80715e-05,1.02976e-04,1.92811e-04,7.37041e-04,8.62056e-05,-1.68413e-01,-2.23854e-01,1.30784e-02,-1.33989e-04,-3.15779e-01,7.53489e-03,5.34202e-05,4.23485e-02,-1.55144e-04,1.93305e-02,1.05400e-01,-7.46888e-02,1.51638e-04,-2.03333e-02,-4.37278e-01,-6.89470e-01,-7.54204e-05,-4.75311e-02,-3.88037e-03,
-5.49712e-05,-7.16586e-05,-1.66074e-05,-9.40611e-05,-7.44083e-05,-1.15249e-04,1.03276e-04,-3.78317e-05,-1.90896e-04,2.34686e-08,1.43686e-04,4.28573e-04,1.67021e-04,1.88800e-04,-3.14945e-05,5.53420e-06,-3.29992e-04,-1.81964e-04,-1.06602e-04,-3.29220e-04,2.75391e-05,-9.59574e-05,-3.11264e-04,1.71134e-05,-4.50794e-05,-1.29040e-04,-2.34080e-05,2.19235e-04,1.17299e-04,1.05769e-04,-8.40451e-05,-1.14846e-04,8.19722e-05,9.86426e-06,-1.11623e-04,-5.76664e-05,1.33379e-04,-1.78817e-04,7.45650e-05,2.43430e-05,-1.80641e-04,2.33491e-04,1.27244e-04,-2.17329e-04,1.79897e-05,7.26693e-05,5.57902e-06,-2.52612e-05,6.28629e-05,4.65199e-05,4.84110e-05,1.25485e-05,-7.41184e-05,-1.13597e-04,-1.14625e-04,-1.03276e-04,-1.49840e-05,7.67398e-06,4.89014e-05,-1.91646e-04,1.99133e-04,6.66093e-05,-3.49284e-06,-2.08441e-05,-1.30692e-04,6.90619e-05,1.44938e-04,3.11931e-04,-3.11160e-04,3.21743e-05,6.66093e-05,-6.54920e-05,3.86228e-05,1.94571e-04,-3.04639e-05,-1.62760e-05,-1.74528e-04,-1.80922e-04,-5.86121e-05,8.09855e-06,2.49434e-04,-1.14205e-04,-4.47166e-05,1.45896e-04,6.64311e-05,-3.34188e-05,7.25045e-05,-8.47648e-06,9.90382e-05,-1.69301e-04,-1.81399e-04,-1.10987e-04,2.12699e-04,-1.45438e-04,5.24916e-05,6.27519e-05,1.16895e-04,-1.91006e-04,-1.46747e-04,6.77633e-05,-7.30701e-05,8.15114e-05,-2.51301e-05,-9.51203e-05,-3.99237e-05,1.27334e-04,-8.67835e-05,-2.54483e-04,-3.38273e-05,-1.95640e-04,-7.52754e-05,-4.07262e-05,-1.01840e-04,1.13592e-04,-2.60067e-05,-1.45460e-05,1.57037e-04,2.50086e-04,1.95176e-04,-2.12820e-05,-1.29099e-04,-1.11712e-04,-1.82006e-05,-2.15098e-04,-1.13440e-04,7.41245e-05,-1.46482e-05,1.17104e-04,
-3.06109e-05,1.44729e-04,5.70347e-05,-4.81508e-05,9.76412e-05,-1.40094e-04,-1.79880e-04,1.44031e-04,5.56544e-05,-1.04212e-04,-9.23175e-05,-6.55062e-05,5.53540e-05,1.15495e-05,-8.32552e-06,8.74645e-05,-4.67163e-07,-2.00436e-04,-6.69295e-05,2.77558e-04,4.05399e-05,1.30859e-04,-1.71524e-05,1.13789e-04,-1.00138e-04,-1.82008e-04,-5.11642e-05,4.38648e-05,-1.52527e-04,4.02685e-05,-9.66797e-05,-9.57603e-06,-5.59174e-05,-1.78483e-04,-7.48492e-05,7.75147e-05,-1.86543e-04,1.71353e-05,-1.40035e-05,-6.54289e-05,-1.42951e-04,-1.14824e-04,-5.92834e-05,1.37172e-04,6.57943e-05,-2.72894e-05,1.25114e-05,-2.71289e-04,1.38943e-05,2.56217e-04,-1.52179e-04,-9.84521e-05,-4.62023e-10,1.33721e-05,2.24985e-07,1.33293e-04,-1.81510e-04,-1.18293e-04,8.27201e-05,-8.86121e-05,-1.09739e-04,2.83332e-04,7.71408e-05,-1.64233e-05,-7.65740e-05,1.03772e-04,4.63117e-04,1.51830e-04,3.13571e-05,-1.03163e-04,-9.52421e-05,-3.86289e-05,1.61484e-04,9.00025e-05,-1.19621e-04,-3.09066e-05,8.94715e-05,-1.74794e-04,-5.73397e-05,7.70803e-05,6.36289e-05,-1.00138e-04,2.56666e-04,-7.96576e-05,-9.57752e-05,8.47198e-06,1.67225e-04,8.94724e-05,-2.01149e-04,-1.59352e-05,7.30655e-05,1.02278e-05,-1.13135e-04,-1.79477e-05,2.35396e-04,5.49824e-06,-8.60531e-05,-1.73511e-05,-3.87142e-05,3.00713e-05,5.53418e-06,1.97812e-04,-8.58518e-05,-4.84775e-05,-8.22580e-05,3.10894e-04,1.74754e-04,1.22282e-04,-1.62526e-04,7.69530e-05,-1.75697e-06,9.38893e-05,-8.89910e-05,-1.47071e-04,9.34510e-05,3.29407e-04,-1.36094e-04,-1.24373e-04,2.20188e-05,1.27072e-04,-2.83808e-05,1.11862e-04,1.52063e-05,-9.93847e-05,9.70463e-05,8.10207e-05,3.04953e-05,-1.05953e-04,
-3.70213e-02,-4.42907e-02,3.28745e-03,-1.24273e-08,-1.65693e-04,-2.41123e-04,1.94622e-05,1.78453e-02,4.68418e-03,6.72421e-04,-3.53724e-04,3.81651e-04,-2.73407e-02,1.48451e-03,-9.41796e-05,-2.02970e-04,-1.14841e+00,7.44402e-05,8.20500e-02,-2.31919e-02,-1.79510e-02,2.95204e-05,-1.06062e-02,-1.53249e-02,-2.12835e-03,3.07345e-01,-1.00616e-02,5.37434e-02,3.35122e-02,8.60819e-02,-5.85830e-04,1.21062e-04,-2.96749e-01,1.45248e-01,-1.73059e-03,1.05951e-04,5.12999e-01,-4.97010e-03,-1.28122e-04,1.14120e-02,-1.33925e-04,2.85166e-01,1.81883e-01,-1.02972e+00,4.47977e-03,2.44599e-04,7.45889e-01,3.31129e-02,-1.13736e-02,-4.10942e-01,-7.63906e-01,2.62715e-01,-2.56482e-05,-8.82445e-05,-1.55195e-04,-9.12899e-01,2.98915e-02,5.03024e-05,1.29422e-04,-1.56159e-01,7.03780e-01,-3.48062e-02,1.06514e-01,-3.09839e-02,6.87315e-05,-4.31401e-03,2.25557e-04,6.51344e-03,-1.22293e+00,-2.11181e-01,9.10874e-04,-3.08100e-04,-1.10120e-04,-1.31658e+00,-3.66153e-03,4.71550e-05,-1.96161e-04,-9.23039e-05,6.80319e-05,-7.64597e-01,1.08092e-04,-1.91722e-04,-3.04377e-01,-7.61525e-05,1.74659e-01,-1.51762e-05,-1.99150e-02,-8.28985e-01,2.43625e-05,-7.01052e-03,-4.94144e-01,-2.79784e-02,1.29872e-01,-1.08798e-01,4.38216e-01,-2.56196e-01,-9.34864e-01,-4.99394e-01,-9.72717e-03,2.61819e-01,2.08520e-02,-4.52816e-01,-1.68113e-05,1.42554e-04,6.55627e-05,-8.40451e-05,-5.24691e-05,-1.99976e-02,-7.84295e-05,-5.49557e-01,-1.00998e+00,1.69134e-01,-6.06775e-05,1.45368e-03,2.89002e-04,-4.46370e-05,-1.65184e-02,8.32863e-05,-7.04003e-01,-2.98808e-01,-7.48147e-03,2.22957e-05,-2.69728e-02,-2.51416e-02,6.89028e-02,1.71784e-04,-1.20911e-01,-1.61635e-03,
1.61604e-05,-5.22828e-05,-1.19977e-04,-1.11865e-04,-1.96546e-04,-1.65020e-04,1.72432e-04,1.81866e-05,-1.66956e-04,-9.72766e-05,9.84693e-05,-9.62833e-05,-1.56866e-04,-1.01414e-04,2.56172e-05,-8.48537e-05,-1.12037e-04,-7.23177e-05,-1.92815e-04,-2.53878e-04,1.05815e-04,-9.12278e-05,-3.71214e-04,-3.10444e-04,-1.82699e-04,1.43363e-04,-1.05045e-04,8.02496e-05,7.32986e-05,1.79070e-04,-7.39104e-05,1.98777e-05,-7.24974e-05,1.14189e-04,-6.74069e-05,1.29625e-04,-1.45781e-04,-2.97900e-05,-9.06751e-05,2.26179e-04,-2.55151e-04,-6.73603e-05,-1.05325e-04,3.33326e-06,4.27725e-04,-1.25105e-05,-1.29756e-04,-8.60504e-05,6.05697e-05,-5.06171e-05,2.30606e-05,-1.99840e-04,8.14683e-05,5.50736e-05,1.26115e-04,-3.32804e-06,1.03968e-04,-1.65510e-04,-1.12110e-04,1.34461e-04,-1.66674e-04,1.51725e-05,1.82461e-04,3.11258e-05,-1.32024e-04,2.47709e-05,-4.74180e-04,-5.73433e-05,2.47895e-04,2.42397e-04,-8.37615e-05,1.16709e-04,-2.10469e-04,4.68787e-05,-1.17482e-04,1.26702e-04,-4.93532e-05,-5.60771e-05,8.19848e-05,-5.22182e-05,1.53050e-05,2.17402e-04,1.31304e-04,6.40581e-05,-9.85284e-05,-9.83857e-05,1.09942e-04,-1.88680e-04,-1.10283e-04,-1.89785e-04,5.16401e-05,-1.54038e-04,1.07263e-04,-1.25001e-05,7.88864e-05,1.67328e-04,2.12039e-06,1.43820e-04,-2.48198e-04,-8.32614e-05,2.66884e-04,2.09220e-05,-4.86081e-05,1.05741e-04,2.31226e-05,-1.77493e-04,1.79826e-04,1.05049e-04,1.78809e-05,-8.73908e-05,-3.11649e-04,3.13587e-05,1.30796e-04,3.29222e-04,1.81207e-04,-1.27010e-04,-1.93843e-04,4.45039e-05,-6.83888e-05,-2.24537e-04,1.07469e-04,-3.50705e-05,-1.88265e-10,7.04466e-05,-1.34027e-04,-1.49099e-04,2.38793e-04,-1.13744e-04,
8.54542e-05,-2.69238e-04,1.75699e-04,1.30946e-04,1.15744e-04,1.44966e-04,-3.11067e-04,2.17252e-05,1.20308e-04,-2.02522e-05,1.40030e-05,-5.44488e-05,1.06782e-04,4.65969e-05,4.82130e-05,-6.63807e-05,-5.09915e-05,-1.56866e-04,-1.38331e-04,9.59346e-05,-2.50392e-05,7.29814e-05,1.20555e-04,6.42669e-05,-1.36094e-04,7.45990e-05,1.52566e-04,-7.63307e-05,2.86702e-04,5.36216e-06,-1.11205e-04,3.31126e-04,2.46483e-04,1.26805e-04,-8.43383e-05,-3.73395e-05,7.17094e-06,1.54499e-05,-1.45999e-05,6.01331e-05,-1.95841e-04,3.40541e-05,-1.07202e-05,-1.50277e-04,1.07416e-04,-5.60904e-05,-9.92135e-05,-7.55110e-05,1.45960e-04,1.30326e-05,1.72992e-04,1.28591e-04,2.24956e-05,5.48572e-05,2.46195e-05,-3.38889e-06,-2.46963e-04,-2.09662e-05,6.92206e-05,7.39975e-06,-7.47202e-05,-5.04197e-05,-3.48001e-05,-1.02463e-04,-7.50977e-05,-1.27849e-04,-2.38515e-04,-1.78809e-05,-2.14858e-04,8.40790e-05,-1.63543e-04,-3.20154e-05,-1.29025e-04,-1.18269e-04,-1.06796e-04,2.04239e-04,-1.76979e-04,-1.59996e-05,5.11705e-05,1.82080e-04,-2.97671e-05,1.06081e-05,1.39720e-04,2.17736e-04,-1.00746e-04,1.28588e-04,-6.68080e-05,1.95945e-04,6.75041e-05,-8.04204e-05,-2.12372e-08,-5.04511e-05,2.39471e-04,1.29391e-04,-7.28913e-05,3.70578e-04,1.53561e-04,-1.49079e-04,1.58236e-04,-3.28988e-04,1.78871e-05,-1.36094e-04,-2.41641e-04,4.90811e-05,5.53109e-05,-1.28217e-04,-4.04809e-05,8.53094e-05,-4.73387e-04,3.04838e-05,-1.94278e-04,-1.07807e-04,2.51091e-04,2.94266e-05,1.31672e-04,4.27928e-04,-1.98825e-04,-6.23491e-05,-1.71073e-04,-1.10732e-04,1.74678e-04,-7.42464e-05,-1.92050e-04,5.57812e-05,1.03208e-04,-1.03598e-04,1.41087e-04,3.00310e-06,
-9.76549e-03,-3.05662e-02,-1.55535e-01,-1.42638e-04,8.57531e-05,1.27787e-04,1.33629e-04,-2.74440e-02,9.26869e-02,1.05294e-03,-3.43117e-03,4.55585e-03,-1.09520e-02,8.93954e-04,-1.83662e-05,-1.63986e-04,3.20579e-02,4.19792e-05,2.83940e-03,-1.53622e-05,1.89468e-02,-1.22404e-04,5.14516e-04,2.71330e-03,8.66760e-04,4.07394e-02,-2.84534e-04,-2.53102e-01,-5.85000e-02,2.80671e-02,-2.05964e-04,3.51885e-05,3.20973e-04,8.91913e-02,4.47818e-03,-1.19196e-03,-3.38687e-01,-4.72114e-04,-1.11076e-04,8.90254e-04,-1.09865e-04,1.35407e-02,-1.86501e-01,-2.29976e-01,-3.75203e-01,-5.16147e-05,-3.05200e-04,7.63304e-03,-3.63951e-01,-6.35479e-04,-2.57498e-03,8.50765e-02,2.88090e-05,-1.64619e-05,1.45049e-04,4.80138e-02,3.65888e-03,-3.53865e-02,-1.40624e-04,2.63817e-02,2.75182e-02,-6.56797e-02,-1.03001e-01,4.89712e-01,-2.45598e-06,-1.32670e-02,-6.75017e-05,6.40203e-03,-3.51676e-01,-4.90452e-01,-1.68639e-02,-1.34066e-01,2.12511e-03,2.54427e-03,2.73861e-02,3.62423e-05,9.77787e-05,1.39261e-04,-2.67331e-04,-3.62113e-03,-8.45621e-05,8.63750e-05,-8.48986e-02,-1.73599e-04,-1.14597e-03,5.98011e-05,1.13945e-03,7.31585e-03,3.32720e-06,1.11905e-02,-8.89844e-02,1.60473e+00,-4.23709e-01,8.22047e-03,-7.67781e-05,2.52353e-01,-2.39049e-01,-1.54871e-02,-5.04521e-03,-2.44424e-02,1.46150e-03,-8.14511e-03,1.24339e-04,-1.27308e-04,-9.43291e-05,1.23440e-05,-9.72849e-05,2.20956e-02,-6.45632e-05,-3.31928e-02,1.08571e-02,1.11691e-02,-1.26799e-04,8.53614e-03,-3.07076e-03,-5.98686e-05,-9.39912e-04,-1.15469e-06,-2.31568e-02,1.92062e-02,2.08877e-02,-7.27596e-12,6.35789e-04,-3.06287e-03,3.30992e-03,-1.06830e-04,-3.15584e-03,9.22347e-03,
1.57840e-05,1.24676e-04,-1.30909e-04,1.61041e-05,2.27581e-05,5.58000e-06,2.07480e-04,8.81430e-06,1.08912e-04,5.95710e-05,1.31252e-04,1.39410e-04,-1.56911e-04,-1.12432e-04,9.29752e-05,-6.79992e-05,1.22290e-05,1.17744e-04,2.35424e-04,-1.78871e-05,1.42664e-05,1.61056e-04,2.47576e-04,1.33156e-05,1.09217e-04,-2.21520e-05,1.40458e-04,-1.84922e-05,-7.44818e-05,2.80401e-05,-1.45684e-04,4.52105e-05,-7.18875e-05,-3.85494e-05,1.87973e-04,-1.50268e-04,-1.71547e-05,1.35141e-06,-4.66016e-05,3.32930e-04,-1.05557e-04,1.66956e-04,1.91145e-04,-2.53440e-04,1.34901e-04,1.02911e-04,2.16081e-05,4.53579e-06,-1.34377e-04,7.14926e-05,-1.78349e-04,2.64494e-04,-7.14389e-05,7.66702e-05,-5.60059e-05,1.43267e-05,-1.11076e-04,-2.82437e-05,1.34320e-04,-7.51243e-05,-3.10090e-06,5.57305e-05,7.74282e-05,-2.34970e-04,-7.44782e-05,-3.12676e-05,8.98834e-05,-1.46889e-04,8.59790e-06,-1.00686e-05,-1.94609e-04,1.50989e-04,1.79384e-04,-7.48438e-05,8.93489e-05,1.03744e-04,-1.78871e-05,-4.67581e-04,-1.71351e-05,1.25628e-04,-2.15048e-04,-2.01715e-05,-2.03697e-04,1.46265e-04,-1.09202e-04,-3.78701e-05,1.94668e-04,-6.70068e-05,7.18465e-05,1.98780e-05,5.89879e-05,-5.35272e-05,1.28809e-05,1.91106e-04,-1.50286e-04,-3.34046e-05,2.53848e-04,2.06157e-05,1.71313e-05,-1.45889e-04,-5.20384e-05,1.10276e-04,-3.19864e-04,1.37657e-08,4.19025e-05,2.92536e-04,-2.41422e-04,-1.07008e-04,1.67513e-04,-1.43541e-05,-1.21729e-04,-1.66251e-05,-1.04269e-04,1.40663e-04,3.92094e-05,1.15205e-04,7.40074e-05,-5.17480e-05,5.62667e-05,1.12083e-04,-6.16811e-05,2.11144e-04,2.82431e-04,-1.82081e-04,-1.39212e-05,-2.44905e-04,8.16787e-05,-1.47499e-04,
8.47151e-05,-1.53675e-04,2.46495e-04,-2.03968e-04,-5.82617e-05,-1.78028e-07,6.91118e-05,1.35082e-05,1.81838e-04,8.33638e-05,1.11220e-04,1.29579e-04,-2.09306e-04,-9.06450e-05,-4.41754e-05,1.65629e-05,-7.87164e-05,5.53832e-05,4.10727e-05,-4.64431e-04,1.36118e-04,-1.30735e-04,-5.21824e-04,-2.72856e-05,-1.17856e-04,-4.35552e-05,7.22241e-05,1.70700e-04,-9.17335e-06,-1.19500e-04,1.96333e-04,7.58691e-05,-7.40589e-05,-5.87165e-05,1.68323e-04,3.13534e-04,1.99060e-05,5.53479e-05,1.19217e-04,-1.30524e-04,-9.95465e-05,-2.46279e-04,7.49570e-05,-2.02537e-04,6.97517e-05,1.17318e-04,1.04286e-04,1.97199e-04,1.55184e-04,6.23491e-05,9.17519e-06,-1.65225e-04,1.30472e-05,-1.87559e-05,5.80910e-05,-6.66093e-05,-1.82419e-04,-1.81022e-04,2.44599e-04,-2.20496e-04,7.43466e-05,-2.39047e-04,1.46793e-04,5.68546e-06,2.16582e-04,1.38271e-04,2.54448e-04,-6.58807e-05,-5.84818e-05,-1.19704e-04,-8.88991e-05,1.94218e-04,1.66251e-05,-1.29193e-04,1.60869e-05,-7.14320e-06,-1.19801e-04,1.94933e-04,-7.33500e-05,-1.57620e-05,-5.85180e-05,3.06304e-05,-6.12518e-05,-7.04170e-05,2.90393e-04,1.70265e-05,5.09800e-05,1.44861e-04,-7.15088e-05,7.20148e-05,-1.02987e-05,2.54217e-04,8.59850e-05,1.03964e-04,-4.64954e-04,-7.38718e-05,2.73626e-05,5.11016e-05,-9.53116e-05,-8.40451e-05,1.75939e-05,-1.91888e-04,-4.96597e-05,4.08058e-05,-4.93010e-05,2.55151e-04,-7.68423e-05,1.32500e-04,1.78466e-04,-7.37409e-05,-1.04588e-04,-1.21725e-04,-1.28729e-04,1.03171e-05,1.00500e-04,5.19967e-05,1.35565e-05,-7.85253e-05,-2.28629e-05,-1.82093e-04,5.12187e-05,7.55144e-05,1.02757e-04,2.06257e-04,1.30871e-04,-1.62597e-04,3.81107e-04,-1.35004e-04,
-1.27764e+00,-2.01767e-02,2.35529e-01,2.31703e-04,-2.34882e-04,-7.37862e-05,2.94222e-05,3.43171e-03,-3.93438e-02,-3.21970e-03,-2.55776e-03,-2.43375e-01,5.15764e-01,-9.89432e-02,-5.51788e-05,-1.35234e-04,-5.04011e-02,2.03662e-04,8.69485e-03,-6.77593e-01,4.68314e-01,2.98664e-04,2.70749e-02,5.34042e-02,4.07926e-03,-4.05746e-01,-4.00594e-03,-4.03749e-02,-1.98067e-01,-1.42328e-03,-7.12858e-04,3.80893e-05,-6.98648e-03,-1.34252e-02,-6.44781e-04,6.90528e-04,1.80924e-01,-2.52366e-02,-4.87704e-05,3.20466e-02,-6.56943e-05,-2.22711e-01,3.61273e-03,-6.41245e-01,3.26224e-03,1.45871e-04,3.61780e-04,9.36131e-03,9.55599e-03,1.74955e-02,1.48099e-01,3.11191e-02,9.87375e-05,-1.46906e-04,-1.93497e-04,3.08669e-03,1.05780e-03,-1.94913e-03,1.08686e-04,-9.46825e-03,5.60442e-03,-3.30631e-02,6.75149e-02,-5.61929e-02,-1.13656e-04,-2.58274e-03,-4.80826e-05,1.06548e-01,-4.23728e-02,5.52178e-03,-1.93178e-03,3.23251e-01,-4.37628e-03,5.11400e-02,-2.55018e-03,8.36944e-05,-4.49983e-05,5.63521e-05,1.28407e-04,1.81509e-03,9.92157e-05,2.76284e-05,-3.28184e-01,-1.51604e-04,1.34568e-03,6.04286e-06,-2.54811e-01,-4.26203e-02,-1.01404e-04,8.03708e-03,-1.03985e+00,-9.35069e-01,-8.83045e-03,-1.50239e-01,1.23036e-01,-2.40878e-01,-3.14807e-01,-4.24288e-03,5.81864e-03,3.67716e-04,1.22681e-02,-5.07266e-01,1.77725e-04,-8.58557e-05,-5.84715e-05,1.11001e-04,5.31966e-06,1.38468e-02,-1.44424e-04,2.31461e-04,-2.88599e-02,1.11030e-02,9.57041e-06,-8.55698e-03,1.31614e-02,1.23109e-08,-1.36093e-02,3.64723e-05,3.10198e-01,1.81310e-02,1.84386e-02,-4.19791e-05,1.00174e-02,3.71816e-03,2.71699e-03,-3.31220e-04,4.12610e-03,-6.22146e-03,
7.17580e-05,-4.78611e-05,-1.57395e-04,2.26651e-05,7.30656e-05,-1.12262e-04,-1.67086e-04,1.82008e-04,1.22581e-04,5.01874e-05,9.44311e-05,-1.01609e-04,-8.83930e-05,2.43249e-04,-4.97567e-05,-1.30966e-04,4.14037e-05,-4.67061e-07,9.55663e-05,1.78871e-05,1.46198e-04,-5.22248e-05,1.67760e-04,2.48157e-04,-9.61101e-05,6.23491e-05,-1.81357e-05,-6.13750e-05,-2.65331e-05,-1.13718e-04,2.86624e-04,-6.24172e-05,-9.23037e-05,1.24495e-04,-1.14481e-04,-1.09481e-04,-1.15896e-04,-5.24669e-05,9.29721e-05,-7.21599e-05,-1.48833e-04,-5.37639e-05,-1.50286e-04,1.28141e-04,6.00874e-05,-1.32792e-04,-2.50109e-04,1.85157e-04,-2.50278e-05,-1.97711e-04,2.54256e-04,-7.03671e-05,-1.36749e-05,-1.78871e-05,-1.68437e-04,-2.47927e-04,1.95243e-04,-2.45651e-04,1.16293e-05,2.37373e-05,-2.47254e-04,-7.07410e-05,4.85917e-05,-1.35930e-05,9.03920e-05,2.93949e-08,-2.46789e-04,-1.11595e-04,-7.01549e-05,7.59006e-05,-8.17704e-05,5.74859e-05,1.40967e-04,1.28110e-04,-4.72368e-05,1.29029e-04,2.32563e-05,5.60904e-05,-6.69584e-05,1.93003e-04,-4.65534e-04,-1.12777e-10,-1.34124e-04,-1.37342e-04,-6.59259e-05,9.84259e-05,8.82304e-05,2.53141e-04,-1.37118e-04,8.79432e-05,-7.30614e-05,-1.95856e-04,-1.73237e-04,-8.87053e-05,-1.34942e-04,3.94224e-05,7.41915e-05,-1.42530e-04,-1.86436e-04,-3.56190e-05,2.46592e-04,-1.14053e-04,1.73785e-04,-2.41805e-04,-1.32517e-04,1.42370e-04,3.32874e-05,-1.22348e-04,-1.33993e-05,-1.81364e-04,-3.56992e-05,1.97306e-04,-1.07241e-06,-1.11471e-04,3.31364e-04,3.71141e-04,9.93908e-05,-1.08676e-04,-3.47123e-05,4.31811e-05,-5.15217e-05,1.44650e-04,-7.60991e-05,7.66760e-06,2.91380e-04,-4.19596e-06,-1.01220e-04,6.45366e-07,
-1.59600e-01,-3.30256e-01,4.57669e-03,-2.53662e-04,1.27884e-04,-3.11722e-04,-6.75140e-05,-3.65153e-01,1.54427e-03,-3.11164e-01,-2.60415e-03,-9.81602e-01,-6.62570e-03,-4.23764e-01,4.92988e-05,-7.97350e-05,-7.34369e-04,-1.54860e-04,-1.49665e-01,-8.78369e-03,-3.64317e-01,-1.51385e-02,2.92115e-01,-6.16811e-05,-7.74121e-01,-1.15578e+00,-1.24301e+00,-3.60651e-05,-9.94118e-01,-2.06864e-04,-1.18031e+00,-6.29518e-05,-6.01424e-01,-1.50373e-02,-6.76339e-01,-2.80757e-01,-1.00682e+00,2.99629e-01,3.38011e-05,1.39608e-01,1.89187e-05,-9.62061e-01,4.31925e-01,1.62211e-03,1.21930e-01,2.55151e-04,1.00330e-03,5.25276e-04,-8.19117e-02,-3.02481e-04,-1.11853e-02,4.50955e-03,1.32062e-04,9.75678e-05,4.71355e-05,-1.47122e-01,-2.28480e-02,-3.44871e-01,-1.41158e-04,2.86769e-04,-4.32312e-02,-1.35081e+00,-4.70186e-04,4.25537e-01,-4.64895e-05,4.44009e-01,-2.60615e-05,-2.91448e-04,-6.27383e-03,6.57362e-01,1.93792e-01,4.38318e-01,2.56286e-02,6.63024e-02,3.58657e-03,-5.39258e-05,1.87445e-04,-2.64331e-04,-9.76869e-05,1.22116e-01,2.09914e-04,-1.72797e-05,-1.71239e-04,-1.88084e-04,-2.54636e-01,-1.47917e-04,-6.02171e-01,-7.52908e-01,-1.28642e-04,-1.02199e-01,-6.87156e-01,-1.19541e+00,9.69660e-02,2.25329e-02,-2.99447e-02,-8.11652e-01,-4.40267e-01,-2.43296e-02,-6.68755e-01,-1.14898e+00,9.09247e-04,-1.03376e+00,1.16680e-04,-1.02581e-04,-7.88827e-06,-1.94031e-04,1.13060e-04,5.36545e-02,9.30046e-05,-8.01102e-05,-7.04567e-01,-1.17362e-01,-6.05697e-05,-7.43179e-05,-4.51627e-03,-1.73819e-04,4.04212e-02,-2.93365e-05,6.64846e-01,-6.08276e-01,7.55361e-03,1.85366e-05,-5.15522e-02,6.35109e-05,-1.87342e-06,-6.77025e-05,-7.07223e-02,-1.37790e+00,
3.31887e-04,1.14467e-04,9.15469e-05,3.64119e-06,-2.47607e-04,1.78142e-04,5.15797e-05,7.42669e-06,-1.36756e-04,7.24895e-05,6.30808e-05,-1.05843e-04,1.74514e-04,-1.14307e-04,-3.41537e-04,-1.49512e-04,-4.63799e-04,6.23491e-05,1.35874e-04,1.12013e-04,5.13862e-05,7.08081e-05,3.26453e-05,-8.34409e-05,-2.12976e-05,6.79747e-05,-3.70930e-04,-3.11516e-04,1.01954e-04,2.74685e-05,1.29011e-04,-3.80859e-04,1.10345e-04,8.71850e-05,1.06063e-04,7.09443e-05,-9.11640e-05,-1.35052e-04,1.07674e-04,2.43043e-04,-1.53039e-04,-1.20713e-04,2.42497e-04,1.44020e-04,-9.03339e-05,1.28357e-04,-3.30608e-04,3.04665e-05,-2.50258e-04,-1.17513e-04,-7.43703e-05,-7.40580e-05,7.33974e-05,-4.33502e-05,-1.36971e-04,4.50361e-05,1.29604e-04,1.19278e-04,3.74724e-05,-7.05123e-05,-1.29617e-04,1.64110e-05,1.40148e-04,-2.39222e-04,-1.27962e-04,-1.21719e-04,-1.19264e-04,-5.09365e-05,8.52050e-05,5.57902e-06,2.47129e-04,5.11097e-05,-1.40493e-04,2.39830e-05,1.96720e-04,-1.37273e-04,-1.37808e-04,-2.46895e-04,-2.11843e-04,4.35169e-06,3.80313e-04,-3.45924e-06,-2.86487e-05,-7.59921e-05,-1.33423e-04,-8.93554e-05,8.58199e-05,1.08509e-04,4.28497e-04,1.18298e-04,-1.79689e-04,2.06308e-04,1.11641e-04,-3.70327e-04,-1.87142e-04,-5.75477e-05,-1.19694e-04,-4.64017e-04,9.35578e-06,1.81184e-04,-5.20911e-04,-1.09231e-04,1.96655e-04,2.57249e-05,-1.01826e-04,-4.39832e-06,-9.41145e-09,5.72821e-05,1.18602e-04,-5.99542e-05,2.18569e-05,-1.03932e-04,1.05179e-04,-5.50897e-05,1.80700e-04,2.57261e-04,-1.67885e-04,-5.39705e-06,2.15504e-04,8.50400e-06,5.84640e-05,1.44048e-04,7.36400e-05,1.79474e-04,1.13620e-04,1.94423e-04,1.19889e-04,8.36916e-05,
-2.01011e-01,-2.39886e-01,-9.72039e-01,-2.09548e-04,1.97630e-04,-5.26875e-05,2.39893e-04,-2.77115e-02,-4.03818e-01,-4.41369e-01,-1.54072e-02,-2.62874e-01,-1.80311e-01,-9.27394e-03,-3.12036e-04,-3.64997e-05,4.50648e-02,-2.66874e-04,1.27243e-01,-7.46075e-02,3.91232e-03,-2.37918e-02,-2.62096e-01,-5.73974e-01,-6.14990e-01,1.03559e-02,-3.37936e-02,-1.30840e-01,-5.88842e-01,1.30610e-01,-4.50822e-01,1.33967e-04,-1.78944e-02,-2.68011e-01,6.86054e-03,-6.33829e-01,6.73399e-01,-8.16813e-02,5.16808e-05,-3.81922e-01,-1.67541e-05,-1.87950e-02,6.47766e-02,3.51762e-02,-1.99429e+00,-2.44578e-04,-7.56612e-01,-3.42683e-01,1.01567e-02,-2.16876e-02,3.76856e-02,2.63326e-01,2.51324e-05,-5.45919e-06,2.18923e-04,-2.71544e-02,-1.66793e-01,-5.82859e-01,1.51494e-05,-6.23048e-01,3.85949e-01,-2.31977e-01,-8.87571e-01,1.18564e+00,9.39238e-06,-3.60631e+00,1.36832e-04,-3.76671e-03,1.21212e-02,2.33022e-01,-2.01922e+00,-8.57715e-02,-9.75257e-01,-8.16385e-03,-1.27100e+00,7.40235e-05,8.99162e-05,8.40451e-05,1.32634e-04,-5.49448e-01,-3.51247e-04,-5.29502e-05,8.50342e-03,3.00170e-06,-5.14632e-01,-1.45175e-04,-1.58969e-01,-4.51970e-01,1.30536e-04,1.87889e-01,-4.49490e-01,-6.67104e-03,-1.07322e+00,-4.69544e-01,4.58011e-01,-3.75704e-01,2.01520e-01,1.70543e-03,-3.32271e-01,-1.82282e-01,1.97458e-03,-4.84229e-01,1.03018e-04,-5.43150e-05,1.95881e-04,1.89466e-05,4.78429e-06,-1.01339e+00,8.50403e-06,2.83892e-01,-3.29876e-01,-4.27323e-02,1.21582e-05,-7.48584e-01,-1.05312e+00,7.03732e-05,1.85261e+00,-1.89883e-05,4.64352e-01,-8.04807e-01,-9.74218e-01,-1.02882e-04,-3.34538e-01,-1.36291e+00,-2.70029e-01,1.28810e-04,-4.79888e-01,1.20371e-01,
-5.10089e-01,9.97005e-02,-2.40446e-02,1.54928e-04,-1.42007e-04,9.31075e-05,7.63307e-05,-6.66666e-03,-6.36941e-02,8.49289e-03,5.86368e-03,-6.26379e-02,-6.82136e-04,-1.57927e-03,-9.45222e-05,-1.09339e-04,2.16586e-02,-3.03791e-04,1.05236e-02,2.41734e-03,-9.04927e-03,1.18490e-02,1.16378e+00,1.72388e-02,-2.59567e-01,-6.51787e-03,4.30218e-04,3.02213e-01,7.24472e-04,1.80642e-03,-1.41376e-02,1.57110e-05,-1.33805e-03,-7.49185e-02,9.11194e-03,-3.71539e-02,-5.29111e-02,-4.76080e-01,-3.41205e-05,-5.25790e-01,7.90433e-05,-2.51478e-01,-1.37700e-01,8.60057e-01,-1.16739e-01,-7.67049e-05,-5.19530e-04,-5.34107e-03,6.90679e-02,1.92255e-02,2.71632e-02,1.09691e-01,-1.19737e-04,8.27105e-05,-8.48559e-05,4.76748e-01,8.88459e-01,2.34285e-02,5.64440e-05,-6.86552e-03,-1.23331e-02,1.31140e-02,-1.86111e-02,8.48060e-03,1.00426e-04,-8.79155e-01,6.44688e-05,-1.89758e-02,-2.01037e-02,-6.66319e-01,-7.10543e-01,-2.63981e-01,-2.62025e-01,9.72767e-04,9.78020e-04,3.13960e-05,-1.33585e-05,2.92493e-07,-3.71904e-05,-3.38548e-02,1.02777e-04,-3.51256e-04,-7.76222e-02,-1.03917e-04,4.39789e-03,-1.72862e-05,8.38680e-02,-1.23887e-01,1.93809e-04,4.02925e-02,-6.62578e-02,2.22636e-01,6.55481e-01,-1.54262e-02,3.28251e-02,-5.52196e-02,9.48340e-02,-7.71423e-03,-2.22211e-02,4.76256e-02,1.44803e-02,3.01826e-01,-5.74023e-05,3.83743e-05,-1.34010e-04,-1.47252e-04,-6.10847e-05,-1.30969e-02,-8.54850e-06,-2.55340e-03,-2.47487e-01,-2.32558e-01,-1.02987e-04,1.28887e-02,1.12475e-02,8.71729e-05,-3.61725e-02,-2.17540e-04,-1.53108e-02,-4.80230e-01,-1.61944e-03,-2.67995e-04,6.53153e-03,-3.13634e-01,-3.88301e-03,1.66413e-05,2.23763e-02,-3.80658e-04,
1.04351e-03,2.93525e-01,2.08243e-02,-3.82533e-04,7.68759e-05,1.15731e-04,-1.82340e-04,1.83869e-02,1.22827e-02,7.90857e-01,1.12666e-03,-2.59923e-02,-7.99147e-02,9.13197e-02,7.48990e-05,-1.86241e-05,-1.18707e-02,9.77341e-05,4.87587e-01,-9.00462e-01,1.49392e-02,-1.19976e-02,2.21639e-02,3.13734e-02,4.27507e-01,2.91238e-03,-1.09595e-02,-1.79169e-02,4.39964e-01,2.91694e-02,-9.76430e-04,3.30954e-05,-1.10380e-01,1.80773e-02,-2.96942e-02,-2.54380e-02,8.73391e-02,4.06501e-03,6.27975e-05,3.19094e-03,1.61543e-04,-4.73688e-01,1.88578e+00,-1.02845e-02,9.23801e-03,-1.37825e-04,3.41903e-02,3.47945e-02,-1.20991e-01,2.58317e-02,-7.20027e-05,4.99331e-01,1.54664e-05,-8.48605e-05,-2.22803e-05,-6.27806e-01,3.41871e-01,-8.20367e-02,7.89627e-05,8.87693e-02,2.76594e-03,9.33369e-02,1.87713e-06,4.48513e-03,5.18694e-05,1.19393e+00,-1.66970e-04,2.43196e-02,3.12613e-02,-1.39540e-01,1.20896e+00,3.52239e-01,-4.60616e-03,4.38892e-02,2.20531e-02,1.19694e-04,-1.18771e-04,-1.14522e-04,1.14556e-04,1.17054e-04,1.10164e-04,-7.13939e-06,-6.91786e-01,1.24302e-04,5.99870e-03,-1.66729e-07,-2.77210e-02,2.44094e-02,-2.06860e-04,2.92114e-01,1.85387e-02,6.37031e-03,-9.36426e-03,1.84633e-01,-1.99685e-02,-4.97859e-01,-1.27532e+00,5.72433e-03,3.06823e-01,-2.14318e-02,-3.55285e-05,7.71953e-01,6.85944e-07,1.78871e-05,8.09345e-05,1.07089e-04,2.43137e-06,-7.14635e-01,1.88393e-04,4.40527e-02,6.72530e-02,1.00311e+00,6.44655e-05,3.22431e-02,1.38584e-02,-4.52923e-05,-2.14129e+00,1.20565e-04,2.37595e-01,-1.17365e-04,3.47104e-02,7.90955e-06,2.67866e-01,-7.28081e-03,-5.76118e-03,-9.78641e-05,2.15162e-02,-6.59957e-03,
-4.83832e-05,1.66386e-04,4.89014e-05,1.20511e-04,-5.19204e-04,-5.02891e-05,5.27039e-06,3.07773e-04,-5.03346e-05,-2.53984e-04,-6.83888e-05,-6.35939e-05,1.37343e-04,3.28198e-04,8.29038e-05,1.36844e-04,1.29672e-04,-3.14028e-04,-1.13235e-05,2.23077e-05,1.94180e-04,-1.19462e-04,1.14764e-04,-1.82080e-04,1.30093e-05,1.30004e-04,-1.50130e-04,-4.57417e-05,3.13097e-04,5.75407e-05,-1.27538e-04,4.93724e-05,-1.18148e-04,-2.49331e-04,-2.20313e-04,-5.57636e-05,-1.71894e-10,-5.04041e-05,-9.39828e-05,1.04389e-04,-1.94393e-04,-5.82617e-05,1.14825e-04,3.14377e-05,-1.82018e-04,-2.50221e-04,7.92737e-05,-1.73243e-04,1.25783e-04,1.71314e-05,1.47517e-04,-9.32988e-05,8.02334e-05,1.18486e-04,-7.31291e-05,1.46889e-04,-2.18440e-04,-2.06933e-04,-7.18511e-05,-3.10168e-04,-1.62061e-05,1.82598e-04,-7.33299e-07,1.58071e-04,2.01778e-04,-1.38469e-04,2.07916e-04,-3.34338e-05,-2.55151e-04,-9.72072e-05,-3.72510e-04,3.27947e-04,1.28123e-04,2.47145e-04,6.36896e-05,-1.31201e-04,-1.80760e-04,-5.76825e-05,-1.34367e-04,-2.50214e-04,8.40451e-05,1.18484e-04,1.92820e-04,1.46907e-04,5.72008e-05,-1.11369e-04,9.69640e-05,1.18359e-04,-1.30024e-04,-1.62523e-04,1.06065e-04,-3.27822e-04,-2.57225e-04,-4.35859e-05,-1.04828e-04,5.50813e-05,-1.79654e-04,1.71358e-05,-3.53311e-05,5.01696e-05,3.39758e-05,3.43326e-05,-1.20069e-04,4.57692e-05,-8.61088e-05,5.99038e-06,7.57808e-05,1.67267e-04,-9.98945e-05,1.66956e-04,8.79535e-05,-1.26307e-05,-1.08830e-04,-1.34010e-04,1.73791e-04,7.91523e-05,3.86415e-05,1.79687e-04,1.56469e-04,8.36128e-06,-1.04187e-04,-1.64185e-05,-8.49900e-05,3.84868e-05,-1.82677e-04,1.13083e-04,1.29408e-04,-1.13531e-04,
-1.32950e-01,-2.01428e-02,1.12951e+00,1.25000e-05,-1.41545e-04,-5.05445e-05,2.38401e-05,7.08134e-03,1.05079e-02,-2.06731e-02,-1.03244e-02,7.10304e-03,-3.78850e-02,4.29418e-01,5.57902e-06,2.48291e-05,5.57125e-03,-3.09083e-04,-3.90907e-02,-8.07936e-03,2.24305e-03,4.85047e-03,5.82111e-02,-5.96671e-06,9.23401e-02,4.12053e-02,5.36468e-03,1.69487e-01,-7.19015e-02,-1.70000e-02,-3.28336e-03,-8.89735e-06,5.24688e-01,4.55658e-03,1.47833e+00,4.85971e-01,-4.41584e-03,-1.96681e-02,3.45608e-10,2.43857e-01,2.61678e-04,-3.48747e-01,1.28656e-02,-9.11598e-03,1.44660e-02,-1.39830e-04,-2.92954e-04,1.29989e-04,-1.42789e-03,-8.42374e-04,1.27589e-02,1.13744e-02,-5.15329e-05,-3.92903e-05,-1.86831e-05,1.54264e-02,9.39478e-02,8.17025e-01,-7.28813e-05,-1.49992e+00,-1.74728e+00,-5.80652e-03,1.08124e-01,7.24775e-02,1.92013e-07,2.60017e+00,-4.59334e-05,3.75871e-03,2.49872e-02,-1.17456e+00,8.25244e-01,-1.93184e-03,1.24586e+00,2.94329e-02,1.66665e-02,-1.14058e-04,6.15418e-05,-1.78277e-04,-2.44916e-04,-3.12181e-05,1.78871e-05,1.16151e-04,-9.23267e-02,-1.56934e-04,5.27538e-02,2.71175e-04,5.42473e-02,-3.62001e-02,-1.77727e-04,-1.91087e-02,-1.41625e-02,1.09203e-03,2.04293e-02,-2.31872e-02,-3.57669e+00,-1.39877e-03,6.65156e-03,-1.21178e-01,7.18673e-04,3.97530e-01,-1.57192e-03,4.42164e-02,-1.14802e-04,-1.30112e-04,-1.43829e-04,2.17232e-04,-2.48592e-04,1.25455e+00,-1.27266e-04,-8.08752e-01,2.63522e-01,6.61697e-03,-1.36637e-04,-3.55036e-04,4.16877e-02,-6.97567e-05,6.44969e-03,-1.14853e-04,8.87354e-02,-3.21194e-03,-1.78503e-04,3.30110e-04,5.62148e-02,1.67237e-06,6.95205e-05,2.11968e-04,2.18829e-03,5.29878e-02,
-7.48734e-01,6.09353e-02,4.11334e-01,4.07283e-05,-9.10751e-05,2.72323e-04,6.27833e-05,-5.61662e-02,-3.66488e-04,-5.25764e-01,3.89791e-01,-1.67648e+00,-3.50174e-01,-4.07582e-03,1.01044e-04,-1.02257e-04,-3.77540e-01,-1.74678e-04,1.14291e-03,-1.96754e-02,1.32006e-02,8.93688e-04,1.61819e-02,1.48909e-02,-7.33230e-01,-2.52056e-01,-2.33037e-03,-2.10938e-01,-7.84568e-03,1.31227e-03,-4.51932e-04,2.08341e-05,8.76851e-04,1.24846e-02,-8.70594e-03,-8.58086e-02,7.64227e-01,-2.31941e-01,-6.14456e-05,7.51964e-01,-5.29893e-05,-9.82443e-01,6.45361e-02,-9.41705e-03,1.01812e-02,-1.03888e-04,-4.31877e-02,-3.71222e-02,2.10766e-01,6.88560e-03,2.41111e-01,2.74164e-01,2.50145e-04,2.17360e-04,5.19522e-05,-4.83882e-02,4.32216e-01,2.37339e-02,-6.54410e-05,-7.46190e-04,-4.74896e-01,1.75677e-05,1.22863e-01,3.43912e-01,3.86931e-05,-2.46636e-01,-3.21642e-05,7.74620e-05,-9.10960e-01,2.46205e-03,-5.61278e-02,3.29470e-01,-1.42289e-02,-1.36022e-02,3.89654e-01,-1.87755e-04,2.46748e-04,1.07306e-04,-2.70618e-04,-7.65301e-02,1.34134e-05,1.74814e-04,-2.60406e-05,-2.90476e-04,5.04886e-03,4.01292e-05,-2.26853e-02,-7.22323e-01,-9.48692e-05,7.91297e-03,-1.33228e-01,7.28682e-03,3.92042e-03,-8.32931e-01,-4.48216e-01,-1.22948e+00,-5.77276e-03,1.17507e-02,-6.54254e-01,1.18645e-02,1.04944e-02,5.15618e-02,-5.82077e-11,-1.17003e-04,2.72701e-04,-1.52555e-04,1.19284e-04,-7.74415e-03,8.33098e-05,-1.47821e-03,-6.82153e-01,-4.93735e-03,-1.21286e-05,-4.30718e-02,1.08262e-02,-1.19640e-05,2.49918e-01,-1.94559e-04,1.09192e-01,-3.32067e-01,-4.04647e-02,2.81684e-04,6.95695e-03,-1.60601e-04,1.78116e-02,9.67797e-05,1.62656e-01,-2.07574e-04,
-1.96252e-02,-9.23419e-01,-3.68855e-02,-1.81035e-04,-9.76948e-05,-5.51217e-05,-1.80227e-05,-3.61250e-02,4.87182e-01,4.00506e-01,4.84963e-03,-4.35655e-02,-1.96922e+00,7.03337e-02,5.82842e-05,1.45054e-04,8.11006e-04,-1.38558e-04,4.98484e-04,-3.06393e-03,8.27201e-01,-3.60229e-05,-3.35542e-02,4.11694e-01,1.48380e-02,1.01768e-02,7.38161e-03,1.56987e-01,4.71509e-01,-1.49557e-02,-9.62920e-03,-1.27035e-04,-3.61955e-03,-1.02547e+00,2.99377e-04,-2.41283e-02,2.52070e-01,2.78027e-05,-2.20726e-04,5.43329e-01,-5.85934e-05,-2.61285e-01,1.87974e-02,8.05705e-02,3.19191e-05,2.58923e-04,1.20259e-01,1.52282e-01,2.86461e-02,9.78570e-01,-2.57571e-02,1.20508e+00,7.82966e-05,2.16739e-04,5.37665e-06,1.18530e+00,-1.31262e-02,2.42807e-02,1.36632e-05,7.22424e-02,-2.70220e-02,7.89621e-02,-2.63219e-01,-1.71029e+00,-1.15163e-04,-1.99048e-04,-5.45397e-05,1.56611e-01,7.59534e-01,1.52422e-01,2.59051e-04,-3.17182e-02,-2.71374e-05,1.61041e-01,-1.78004e-04,5.90384e-05,7.57866e-05,8.14815e-05,-2.46772e-05,9.61496e-01,-1.23026e-04,-5.68481e-05,1.43647e-01,-1.97139e-04,-1.68911e-04,-1.34120e-05,1.08634e-03,-4.79898e-02,9.07601e-05,-1.55812e-02,4.20893e-01,1.27025e-02,-1.16990e-05,1.01354e+00,-1.59212e-02,-4.99547e-02,1.17975e-01,-2.69258e-02,1.77647e-02,1.89982e+00,-9.15408e-03,-6.50972e-04,-2.27297e-04,1.08959e-04,-2.72847e-04,8.33234e-05,3.93385e-05,-9.47704e-05,7.78195e-05,4.47785e-01,6.01015e-01,1.03424e-02,-7.03674e-05,-4.96521e-02,1.31985e-01,-4.02818e-06,-2.07632e+00,6.44655e-05,-1.35740e+00,5.03516e-01,2.50707e-01,1.83783e-04,-2.06732e-01,2.74923e-02,1.21974e-02,-3.56520e-05,7.35775e-03,1.21582e-02,
