// Neural Network File Format by Kyle Julian, Stanford 2016
//Number of Layers,Number of Inputs,Number of Outputs,Max Layer Size,
2,4,2,250,
//Input Layer size, Hidden Layer Sizes, Output Layer Size
4,250,2,
//The next line is an unused flag, after that we have minimum input values, maximum input values (network inputs are truncated to fit in this range), mean input values (as well as outputs), and input (as well as output) range values 
0,
-12,-12,-3.141592653589793,-1,
12,12,3.141592653589793,1,
0.0,0.0,0.0,0.0,0.0,
24,24,6.283185307179586,2,1.0,
//Weights and Biases start here
-1.34715e-04,1.62348e-04,-1.08685e-04,5.72172e-05,
9.02048e-05,6.63765e-05,-1.24926e-04,-2.68244e-04,
1.90659e-04,7.24899e-05,-5.92860e-05,-1.77586e-04,
1.10045e+00,1.98025e-01,-3.22782e-04,3.56610e-04,
4.36469e-01,-2.01535e-01,4.84321e-05,1.72783e-05,
6.68375e-02,1.27907e+00,2.45083e-04,5.75022e-05,
-7.72901e-05,-5.60872e-05,-9.21436e-05,-6.05825e-06,
2.97737e-05,-1.29005e-04,-5.99840e-05,-3.02894e-04,
-9.24835e-05,-2.07474e-05,2.38860e-04,3.38056e-05,
-1.85667e-04,-1.12680e-04,-8.99882e-06,-1.24746e-04,
1.09709e+00,-8.27062e-02,1.56795e-04,-2.98999e-05,
3.62130e-01,3.13835e-01,-2.11147e-05,-1.23248e-04,
1.09783e-01,3.44477e-01,-1.44474e-04,1.60959e-04,
5.26055e-05,5.24238e-05,4.91422e-05,9.10280e-05,
-2.83381e-01,-3.64241e-01,-8.10488e-05,1.29709e-04,
1.70762e-04,-1.01404e-04,-1.33645e-04,9.38319e-05,
1.87516e-05,-1.90331e-05,-5.26361e-05,1.91629e-04,
-1.24055e-01,-1.24446e+00,6.54411e-05,-5.97359e-05,
6.06333e-01,-7.21761e-02,-8.57637e-05,2.77572e-04,
-7.13196e-01,-1.94301e-01,-2.76779e-05,1.44833e-04,
-2.28364e-01,-3.80138e-01,-4.64426e-05,3.80302e-06,
-2.73592e-01,1.69398e-01,4.66045e-05,8.61022e-05,
3.36929e-01,-2.71816e-01,-2.04742e-04,1.44382e-04,
1.21704e-04,-1.71936e-04,-2.23982e-05,-1.04617e-04,
8.45697e-01,1.03513e-01,-7.24014e-05,-3.32928e-04,
5.90474e-01,-2.68374e-01,1.15840e-06,-8.48245e-05,
-3.38072e-01,-3.47101e-02,2.96760e-05,-5.42668e-06,
-4.44496e-02,7.47932e-01,5.00907e-05,1.33079e-04,
5.90267e-01,-2.16371e-01,-1.89130e-04,-6.70546e-05,
1.74106e-04,7.43549e-05,5.89440e-05,-7.43367e-05,
-1.62222e-05,7.41512e-05,1.09139e-10,-4.17261e-05,
1.65213e-02,-2.45807e-01,-5.15772e-05,-4.72888e-05,
-2.46892e-02,-1.78412e+00,3.05331e-04,-1.26817e-04,
1.02762e+00,2.01420e-01,1.40835e-05,1.05032e-04,
-6.52703e-05,-7.65676e-05,-1.52315e-05,4.68812e-05,
-2.86487e-05,1.59437e-04,-2.04888e-04,-3.16649e-04,
6.45882e-01,2.12459e-01,7.55926e-05,-6.33349e-05,
-5.61465e-06,6.45156e-05,2.81833e-04,-5.13725e-05,
3.11267e-04,-9.21199e-05,7.13044e-10,-1.15331e-04,
3.42221e-05,-2.16758e-05,8.37809e-05,1.18140e-04,
9.69106e-05,1.08687e-04,-1.04617e-04,3.43344e-05,
2.14582e-02,5.41090e-01,-1.88756e-05,-1.34929e-07,
-1.66330e-04,5.48576e-05,-1.14223e-04,1.28184e-04,
-2.53942e-04,1.38462e-04,1.27975e-04,-1.05355e-04,
1.10375e+00,1.77098e-01,8.86169e-05,-1.37603e-04,
4.76459e-02,-8.22092e-01,5.99391e-06,-7.81565e-08,
3.93484e-05,1.81590e-04,1.09745e-04,-1.81383e-04,
1.72937e-02,4.40707e-01,1.26355e-04,-3.30966e-04,
-5.53695e-01,1.79999e-01,1.26896e-04,2.59234e-04,
-1.62983e-02,-1.06525e+00,-1.72461e-05,-1.42209e-08,
-1.01920e+00,-2.19356e-01,-3.27281e-04,-1.56795e-04,
3.11553e-04,3.82187e-04,3.38057e-05,-8.15424e-06,
-1.43463e-01,-8.20582e-01,2.76628e-04,1.09199e-04,
-2.17374e-04,-1.01073e-04,-1.66860e-07,4.51487e-04,
-3.08050e-01,2.91400e-01,2.33466e-04,1.24431e-04,
7.40799e-05,1.14271e-04,-1.67871e-05,-1.38589e-04,
-6.50611e-01,-1.04604e-01,-2.13159e-04,3.47747e-06,
2.35938e-04,6.70669e-05,-3.75437e-05,2.55748e-04,
-6.79021e-02,-3.64433e-01,9.34016e-05,2.18199e-05,
-2.38708e-07,-1.15220e-04,1.14375e-04,2.16696e-04,
1.36685e-01,-5.66621e-01,-7.55374e-05,-4.49505e-05,
1.58786e-01,-5.55007e-01,-8.69173e-05,-1.19874e-04,
8.49594e-05,-7.59490e-05,5.57653e-05,-4.53890e-05,
-2.27437e-01,-2.34378e-01,-2.61412e-04,-2.56198e-04,
-3.16292e-02,-8.32220e-01,-1.13207e-04,2.59986e-04,
1.26499e+00,4.81069e-02,-1.95595e-04,6.81987e-05,
1.21107e-04,1.48468e-04,-1.76500e-04,-2.45767e-04,
-1.81600e-04,-1.09584e-04,2.17658e-05,-1.38580e-04,
4.76095e-01,-5.49250e-02,1.38837e-05,-2.33571e-05,
-3.14845e-02,-6.67058e-01,-2.17619e-05,-1.49571e-04,
-3.12064e-01,-2.02033e-01,-5.94948e-05,8.04676e-05,
-2.16288e-01,2.71250e-01,-1.33200e-04,1.76904e-04,
-4.82760e-05,-1.32964e-04,6.08285e-05,1.27948e-04,
4.40347e-05,-9.14276e-05,-1.38833e-04,1.34131e-04,
3.82692e-02,1.02307e+00,-1.99559e-05,-1.34848e-04,
-4.87098e-01,-1.25072e-01,-1.16904e-04,1.86490e-05,
-7.83681e-01,-2.53657e-01,-1.08345e-05,2.86691e-04,
9.62799e-01,1.14982e-01,2.64508e-04,-8.33876e-07,
-6.15465e-05,7.77476e-05,-9.75523e-05,6.20693e-05,
9.51202e-05,-1.95878e-05,1.68141e-04,-1.83955e-04,
8.99829e-06,-7.66123e-05,1.23019e-04,-9.65186e-05,
4.25480e-05,5.21088e-05,1.44453e-04,-1.61232e-04,
-2.18023e-04,1.80843e-04,-4.64401e-05,-2.86486e-04,
9.57335e-05,-1.75108e-04,-8.34967e-05,-1.38700e-04,
-2.47250e-04,-1.22691e-04,1.78819e-05,1.88836e-04,
6.15115e-05,1.51551e-04,-1.74996e-04,5.28337e-06,
9.65903e-01,-1.38022e-01,-1.78618e-05,1.44443e-04,
-2.75466e-04,-2.15863e-04,9.24505e-05,-1.30827e-04,
2.02886e-04,7.77245e-05,-1.68484e-04,-1.19412e-04,
-1.94272e-04,-4.78257e-05,-1.83027e-04,-7.76370e-05,
5.56741e-05,1.21824e-04,5.74636e-05,3.87879e-05,
1.70198e-04,1.22726e-04,3.16061e-05,1.69325e-04,
-7.54398e-02,-6.83033e-01,-3.23592e-05,5.21476e-05,
6.67428e-01,4.14543e-02,7.39142e-05,1.35212e-04,
-1.77373e-01,-1.24550e-01,-9.14560e-06,-1.85878e-05,
-1.67206e-04,-1.66290e-04,-1.10351e-04,-2.17925e-05,
4.30490e-01,2.36640e-01,8.74695e-05,-6.76389e-05,
-7.89546e-05,7.38054e-05,1.84989e-04,6.05360e-05,
-5.81937e-01,-1.17520e-01,1.06655e-04,-7.76889e-05,
3.53219e-02,5.99271e-01,-2.74870e-04,1.16125e-04,
-2.20833e-02,-4.50811e-01,7.03861e-05,1.74966e-04,
-3.61999e-05,8.48585e-05,-4.55634e-05,-1.68129e-04,
-1.38001e-01,-7.09874e-01,-1.72900e-04,-1.24505e-04,
1.33291e-04,-1.60307e-04,1.27333e-04,2.06985e-04,
1.17837e+00,-1.21036e-02,-7.77043e-05,2.53550e-04,
-3.29718e-04,-1.93886e-04,-2.19715e-05,3.71229e-05,
1.50294e-04,-2.84392e-05,-7.13646e-05,3.45148e-04,
-2.15695e-01,-8.50228e-01,-2.91284e-04,-2.50258e-04,
-7.11589e-09,1.80714e-04,-1.60360e-04,-2.06326e-04,
2.45505e-04,7.55362e-05,2.26851e-04,3.34188e-05,
1.30556e-04,-5.23605e-05,1.01409e-04,-1.33422e-04,
7.40920e-02,3.65912e-01,-3.88919e-05,-2.02914e-05,
9.29027e-05,-1.56866e-04,7.57172e-05,-5.83660e-05,
1.03823e-01,1.74704e-01,-2.64730e-04,-8.46926e-05,
-3.26102e-05,1.34325e-04,-2.99034e-05,2.66187e-04,
-2.17626e-05,2.47249e-04,-1.40084e-05,-1.10711e-04,
-3.83096e-02,2.17646e+00,-6.26347e-06,5.19912e-05,
-1.65753e-04,5.48572e-05,-2.42281e-04,-1.35248e-04,
1.98205e-01,-3.42613e-01,-1.65003e-04,6.67812e-06,
-1.93221e-04,-1.56375e-04,2.49368e-04,-1.38809e-04,
8.27754e-02,3.23787e-01,4.83853e-05,3.89019e-05,
9.11467e-01,1.73238e-01,6.78209e-05,1.50634e-04,
2.41191e-04,1.94157e-04,-1.08648e-04,-3.26090e-04,
-1.06307e-01,5.98794e-01,-6.81994e-05,-1.30834e-05,
-8.48605e-05,1.09217e-04,8.16409e-06,-1.28127e-04,
-9.64160e-05,1.35914e-04,-1.64404e-04,-2.94859e-04,
-2.52507e-04,3.29622e-04,-1.37262e-04,2.64941e-04,
3.98383e-01,1.13058e-01,-8.52274e-05,-2.44145e-05,
-2.41130e-04,1.08515e-04,8.94499e-05,-7.52104e-05,
2.15373e-01,-1.18658e-01,-3.60651e-04,-2.50406e-05,
-6.19024e-06,3.20137e-05,-1.87116e-04,3.19743e-04,
-7.13239e-01,-1.06601e-01,-8.43421e-05,8.78366e-05,
-3.08296e-04,-1.33874e-04,2.91038e-10,2.17698e-05,
-1.59328e-05,-1.34873e-04,6.97417e-05,1.11681e-04,
1.64876e-04,5.74326e-05,1.26758e-04,4.34693e-05,
7.14903e-03,1.04415e+00,-2.82185e-05,-1.77516e-04,
-7.62090e-05,5.09231e-05,-1.35921e-04,8.85955e-05,
-2.96252e-05,-7.55823e-05,5.93250e-06,1.78464e-04,
1.81351e-04,-1.29810e-04,-2.15391e-04,-4.68832e-05,
-1.03053e-04,-2.63926e-05,-6.14834e-05,1.33039e-04,
3.40034e-05,2.03132e-04,1.88836e-04,-8.75418e-05,
-2.07781e-05,-1.55141e-04,-9.14527e-06,-7.60098e-05,
-4.17171e-05,-2.59807e-04,-9.05648e-05,-8.85953e-05,
9.12512e-05,-2.38863e-05,-2.22559e-04,-5.82650e-05,
1.64979e-01,-3.63861e-01,5.51295e-05,7.29200e-06,
-9.13608e-05,2.47237e-04,2.47383e-10,-1.92429e-05,
6.46684e-01,-1.09445e-01,2.36225e-04,-3.18584e-04,
3.25416e-02,-1.58840e+00,9.11696e-05,-1.17674e-04,
1.45376e-01,2.27404e-01,-9.26588e-05,1.60545e-04,
2.94182e-05,1.16415e-10,8.76323e-06,-2.91076e-04,
-1.66299e-04,-1.31655e-04,9.65198e-05,-1.68176e-04,
-7.83355e-01,-7.59947e-02,-2.66504e-05,6.02883e-06,
-9.91813e-06,1.33301e-04,4.57533e-05,1.63283e-04,
-5.47295e-05,-1.03917e-05,-5.86484e-05,1.66678e-04,
4.74662e-01,2.47831e-01,1.82350e-04,-1.10336e-04,
-3.00783e-01,2.78634e-01,-1.33421e-04,-1.86824e-05,
1.09217e-04,-1.77542e-05,-1.32612e-04,1.58861e-04,
9.95129e-01,-5.22038e-02,9.18657e-05,-1.44492e-04,
-4.19216e-05,1.66251e-05,-1.80413e-04,3.03888e-05,
-1.02308e+00,-2.65530e-01,-7.80689e-05,6.26419e-06,
4.42451e-04,4.29320e-06,1.37512e-04,2.52214e-04,
-2.24033e-04,-2.44979e-04,9.71368e-05,2.51309e-04,
3.12752e-02,8.30376e-01,5.12308e-05,6.83682e-05,
-3.48606e-02,1.12444e+00,-1.13476e-04,-9.94226e-06,
-1.95723e-09,5.01950e-05,8.14173e-05,1.98351e-04,
5.85006e-01,-3.42231e-01,-8.43789e-05,2.38685e-04,
1.08027e+00,7.94362e-02,-7.27596e-12,7.48476e-05,
1.20517e-04,6.35860e-05,1.01410e-04,-1.14885e-04,
-3.39954e-01,3.60840e-01,1.60075e-04,-2.00760e-04,
-2.37435e-05,1.12232e-04,-7.44474e-05,-1.75023e-04,
-7.07367e-05,6.21550e-05,1.98076e-04,7.83184e-05,
6.67954e-01,1.50965e-01,7.60595e-05,-2.74870e-04,
-2.64059e-01,-1.11725e-01,-1.22375e-04,6.00922e-05,
-2.24956e-05,-2.16307e-04,2.71799e-04,-6.53745e-09,
2.48309e-05,7.39544e-05,4.17216e-05,-1.29763e-04,
-9.99859e-01,-2.29481e-01,-3.23508e-05,-2.60723e-04,
1.59533e-01,2.52496e-01,1.78817e-05,7.21203e-05,
-2.13230e-04,6.02741e-05,1.26831e-04,7.06908e-05,
-7.50977e-05,3.34352e-05,8.49562e-06,3.30608e-04,
-2.33279e-01,-3.72272e-01,-2.32409e-06,1.26819e-04,
-1.58358e-01,-1.07780e+00,-6.38433e-05,1.67729e-05,
-8.51947e-05,-1.36463e-04,6.24485e-05,-2.84529e-04,
7.03357e-01,-1.73439e-01,1.57785e-04,4.08080e-05,
9.09476e-01,-7.74521e-02,1.21776e-04,1.81383e-04,
5.64745e-01,-1.22117e-01,-1.10771e-05,1.95923e-04,
-1.79880e-01,1.87660e-01,-1.98532e-04,-2.72719e-04,
9.54135e-05,-1.62101e-04,1.31890e-04,-3.03912e-05,
-1.53784e-02,-1.01010e+00,3.57228e-05,2.19271e-04,
-1.40264e-01,-3.00848e-01,-1.57026e-04,1.44913e-04,
-3.94461e-05,9.95705e-05,4.85179e-05,4.17305e-05,
1.08682e-04,-7.46824e-05,-6.86201e-06,-8.64805e-05,
-3.02284e-05,1.93898e-04,1.10832e-04,5.65482e-05,
1.74068e-04,-1.31278e-04,1.91042e-04,1.50342e-04,
-2.48888e-01,1.18334e-01,-4.87730e-05,-2.83704e-04,
-1.30807e-04,1.69339e-04,8.49903e-05,1.32665e-04,
-1.25858e-01,-7.07559e-01,-3.93936e-05,-4.89492e-05,
-1.32795e-04,1.81484e-04,8.43722e-05,-1.64334e-04,
6.41816e-01,-1.96822e-01,-2.11003e-10,-3.27083e-07,
-3.73186e-01,-6.75215e-03,-3.64490e-05,-5.58388e-06,
-3.97394e-01,-2.00306e-01,-6.37346e-05,3.06372e-05,
1.31863e-04,7.40891e-05,2.05995e-04,8.26756e-05,
-3.43369e-02,-6.74868e-01,-1.37379e-06,-1.15051e-06,
-5.11177e-02,-1.06964e+00,-8.99882e-06,4.92493e-05,
1.49779e-01,8.62631e-03,1.79840e-04,2.04665e-04,
-1.06875e+00,-1.65910e-01,1.06544e-04,-3.39736e-04,
1.78236e-06,-1.19450e-04,1.71327e-05,5.75238e-05,
-5.17066e-05,-2.61703e-05,-2.34319e-04,-2.16448e-04,
-1.29714e-04,9.22854e-05,6.83558e-05,7.76371e-05,
3.11311e-05,5.48390e-05,-3.85460e-05,-9.16263e-05,
1.27211e-01,-2.35094e-01,1.99155e-04,1.50423e-04,
-1.10121e-04,1.30686e-04,5.60686e-05,1.06774e-04,
-4.28406e-05,-2.01853e-05,1.33308e-04,1.55186e-04,
-8.59898e-01,1.22800e-02,2.76288e-05,-8.46927e-05,
-2.68946e-02,1.39158e+00,1.02196e-04,1.67729e-05,
-3.41863e-05,-2.77909e-05,5.99580e-05,4.63545e-05,
9.77959e-01,9.72106e-02,1.71861e-04,8.74690e-05,
7.39650e-05,-1.29446e-04,-1.65605e-05,-1.65093e-05,
-3.34949e-02,1.11358e+00,7.83694e-05,6.97426e-05,
-1.92585e-01,-9.56843e-02,-1.41331e-04,-4.64971e-05,
9.46897e-01,2.17644e-02,-1.57627e-04,8.72073e-05,
3.56395e-06,-4.55831e-05,1.67283e-04,2.50505e-04,
1.72331e-01,1.90487e-01,-8.63799e-05,-4.08080e-05,
-8.34013e-02,2.11201e-01,-1.70119e-04,1.52406e-05,
-2.43997e-04,1.38442e-04,6.50626e-05,-1.37254e-04,
-1.59289e-01,5.24020e-02,-6.36325e-05,3.53791e-04,
1.11898e+00,6.98751e-02,-1.20252e-05,-2.93396e-05,
2.36294e-02,-2.31471e+00,-1.36775e-04,-2.68901e-04,
-2.69067e-01,5.12750e-02,-1.74478e-04,2.74870e-04,
-3.43422e-01,-1.31548e-01,1.68129e-04,1.67729e-05,
8.69407e-01,-3.90987e-02,9.68715e-05,7.47038e-05,
1.09347e-02,1.07026e+00,-2.73193e-06,-1.75011e-04,
9.52423e-09,9.87855e-05,-1.50275e-04,-1.49201e-04,
1.55716e+00,2.81642e-01,-2.59583e-04,7.38894e-05,
8.48296e-01,4.83480e-02,-3.93993e-05,-3.38272e-04,
5.90967e-01,-4.82585e-03,-4.54674e-05,-8.61359e-05,
3.29659e-04,-3.11344e-04,-1.33657e-04,1.72211e-04,
-1.58551e-04,1.04486e-04,-1.67967e-04,-7.64448e-07,
-4.07331e-02,-1.03186e+00,1.74338e-04,-3.75443e-05,
-1.73732e-01,-5.07652e-01,-2.99057e-05,-1.29325e-04,
-4.68253e-01,-1.81608e-01,7.87495e-05,1.30431e-04,
7.40696e-05,-8.40451e-05,1.29793e-04,1.45664e-04,
3.34356e-05,9.54240e-05,-1.36595e-04,1.67894e-04,
1.19252e-01,-7.97291e-02,-1.70826e-05,1.31786e-04,
-1.89808e-01,5.22019e-01,-3.62018e-05,1.68228e-04,
-2.65201e-02,-1.47916e+00,7.51019e-05,-3.40856e-05,
5.46606e-07,-2.99017e-05,-1.33041e-04,-3.42939e-05,
1.31326e-04,-2.36469e-10,3.42631e-06,8.60476e-06,
-1.66123e-04,-1.29310e-04,5.57896e-05,1.55041e-04,
3.37855e-01,3.17234e-01,1.74766e-04,5.98776e-05,
-1.47800e-05,1.01307e-05,-2.35158e-04,6.26871e-05,
-3.65713e-02,
-4.43749e-01,
-1.31272e-01,
-2.01453e-01,
-4.72347e-01,
-5.09945e-01,
-1.66748e-01,
-6.86593e-02,
-1.08778e-02,
-2.22506e-01,
-8.72679e-01,
-1.95037e+00,
-1.73256e+00,
-1.37535e-02,
-1.10534e+00,
-9.76171e-02,
-1.84390e-01,
2.20593e-02,
1.58759e-01,
-6.07819e-01,
-5.24984e-01,
1.16132e+00,
-8.50732e-01,
-4.78916e-01,
-1.87572e+00,
-2.00513e+00,
3.07598e-01,
2.01272e-02,
-1.19070e+00,
-1.03705e-01,
-1.84158e-01,
-1.26772e+00,
-9.20477e-01,
-2.36066e-02,
-7.61330e-02,
-1.27305e-02,
-2.01523e+00,
-4.59897e-01,
-2.83376e-02,
-8.27794e-02,
-8.59552e-03,
-8.10410e-03,
-9.09466e-03,
-4.25207e-02,
-4.27749e-01,
-1.15234e-02,
-3.86779e-01,
-1.08726e-02,
-2.49059e-01,
5.38734e-01,
2.73903e-01,
-1.13844e-01,
1.47394e-01,
-1.06398e-01,
-1.69427e+00,
-5.56551e-02,
2.30945e-01,
-6.32820e-02,
-5.13733e-01,
-2.00704e-01,
1.83737e-02,
9.86464e-01,
-2.95147e-02,
-3.13053e+00,
-1.43003e-02,
-2.33809e+00,
-7.81438e-02,
-9.08485e-02,
-2.12058e+00,
-1.21842e-01,
-6.44109e-01,
5.96482e-01,
-3.34015e-01,
-1.47787e-01,
1.43440e-02,
1.81568e+00,
-3.88580e-01,
-7.25379e-01,
-2.84526e-01,
-1.09169e-02,
-5.01177e-01,
-2.40077e-02,
-7.38213e-02,
-5.91760e-03,
-2.14511e-02,
-5.79902e-02,
-1.55262e+00,
-2.48795e-01,
-1.15006e-01,
-7.68417e-02,
-1.53680e-02,
-7.04738e-02,
-4.07819e-01,
-1.15820e+00,
1.06115e+00,
-2.07298e-02,
-2.99360e+00,
-9.11442e-02,
1.99508e-01,
3.54401e-01,
-7.50575e-02,
-1.00123e-01,
1.58327e-01,
-7.62208e-02,
-1.76134e+00,
-1.80291e-02,
-4.99681e-01,
7.27736e-01,
-7.45001e-02,
-9.92865e-02,
-1.64179e-01,
-2.23745e+00,
-8.71952e-02,
1.23051e+00,
-2.19930e-01,
-8.58394e-02,
-1.03778e+00,
-6.85521e-02,
-5.91310e-01,
-4.70082e-02,
-3.50227e+00,
-1.37947e+00,
-5.33188e-02,
-2.83911e-01,
-1.16232e-01,
-9.55225e-02,
-2.65144e-01,
-3.41519e+00,
-4.43329e-02,
1.37231e+00,
-1.29808e-01,
6.36712e-01,
-8.69099e-03,
-1.72912e-01,
-5.77239e-02,
1.36010e-01,
-6.25333e-02,
-1.04642e-02,
-1.21877e-01,
-1.33314e-01,
-4.72536e-01,
-6.99464e-02,
-4.26502e-02,
-1.12244e-01,
-1.09252e+00,
-1.29340e-01,
-1.34549e-01,
-5.14663e-01,
-1.25140e+00,
-7.78778e-02,
-6.91705e-01,
-1.79588e-01,
-1.47517e-01,
-8.46234e-02,
-1.85874e+00,
1.51997e+00,
-2.30310e-02,
-5.76112e-01,
-1.02469e-01,
-6.96311e-02,
-2.54239e-01,
-9.57956e-02,
1.15416e-02,
-3.83476e-01,
-1.63815e-01,
-1.32225e+00,
-2.51453e+00,
-6.63273e-02,
-1.54515e+00,
-9.54781e-02,
-4.28063e-02,
-1.35890e-01,
-7.12996e-01,
-1.86571e-02,
-9.60825e-03,
-3.06956e-01,
-6.28846e-02,
-1.57623e-01,
-2.55164e-01,
-1.58341e+00,
5.48468e-01,
-4.41393e-02,
-1.89167e+00,
-1.93011e+00,
8.01817e-01,
8.18074e-02,
-1.03834e-01,
5.13310e-01,
4.77643e-01,
-1.71465e-01,
-8.89486e-02,
-5.69035e-02,
-4.68656e-01,
-3.18162e-01,
-1.23552e-01,
9.92232e-01,
-1.65267e-01,
-1.26343e+00,
4.99489e-01,
-1.39175e+00,
-2.44236e-01,
2.67790e-01,
-1.95949e-01,
9.89908e-01,
4.77014e-01,
-2.36380e-01,
-4.74079e-02,
-2.32163e-01,
-3.57760e-02,
-2.19392e+00,
-2.23958e-02,
-6.40499e-02,
8.57031e-01,
-3.56086e-01,
-3.63018e-02,
-1.96942e+00,
-3.30960e-02,
-3.71965e-01,
3.27625e-01,
-1.25062e+00,
-3.04305e-02,
-7.17561e-01,
8.96750e-01,
-4.66870e-01,
-6.76779e-01,
-1.89950e+00,
-1.14844e+00,
-2.79010e+00,
1.75152e+00,
-1.03381e+00,
1.05585e-01,
-9.32418e-02,
-8.58602e-01,
-1.38653e+00,
-8.90814e-01,
-3.24017e-02,
-3.64655e-02,
-1.86547e-01,
1.68924e-01,
-2.94349e-02,
-1.38824e-02,
-3.21437e-02,
2.97829e-01,
-6.31351e-01,
-7.81143e-01,
-4.15570e-02,
-1.26135e-02,
-1.24410e-02,
-3.29971e+00,
-2.16137e-01,
1.98983e-05,1.54973e-04,-2.47275e-04,-5.45981e-01,2.05722e-01,1.67943e-01,1.01102e-04,3.06279e-04,-5.21479e-05,1.01050e-05,7.43460e-01,-1.93913e-01,-1.58163e-01,-1.80850e-04,-2.25068e-02,-1.04304e-04,8.02496e-05,-1.58268e-01,-2.66084e-01,-4.10145e-01,1.97709e-02,2.62070e-01,-2.17127e-01,-5.12246e-05,-6.99302e-01,2.51318e-01,-1.88522e-01,-8.61105e-02,-3.17305e-01,-7.57666e-05,2.15834e-04,1.01926e-01,1.89348e-02,-4.96587e-01,1.27594e-04,-5.03567e-05,-2.22681e-01,1.13375e-04,1.32772e-04,-2.26518e-05,3.34188e-05,-2.90380e-02,-2.84408e-05,-1.42132e-04,-5.56687e-01,1.20962e-01,-1.23548e-04,-1.94495e-02,3.18405e-01,-1.20697e-02,5.35580e-01,-1.68444e-04,-9.97153e-02,2.44755e-05,-9.81887e-02,-6.99450e-05,-3.60277e-01,8.46931e-05,3.97213e-02,-4.49689e-04,-1.90401e-03,1.52966e-04,4.80117e-05,-2.64137e-02,1.29732e-01,1.04892e+00,6.00068e-05,-1.01347e-04,2.32904e-01,3.98038e-02,1.04057e-01,-1.65545e-01,-3.07163e-05,-8.48542e-05,-6.80660e-02,2.11529e-01,4.54826e-01,-6.00409e-01,1.01404e-04,2.11741e-04,-6.81905e-05,1.20964e-04,-1.29535e-04,-2.16073e-04,-7.40056e-05,6.00653e-05,-6.10640e-01,9.50015e-05,-1.09739e-04,4.80825e-05,1.65848e-04,-3.29892e-04,6.74198e-02,-1.34343e-01,-2.17868e-01,-5.26248e-05,2.78691e-01,2.40425e-04,3.06034e-01,5.42241e-02,5.06008e-02,1.37200e-04,-7.96442e-02,2.15732e-04,2.00250e-01,-2.42602e-04,-6.83888e-05,1.15927e-01,1.30240e-04,1.86183e-04,9.92020e-05,1.15461e-01,3.84903e-05,-4.16331e-02,9.46542e-05,-1.31263e-04,-8.74797e-02,1.66815e-04,-1.58605e-01,-8.57572e-05,3.98689e-02,6.17336e-01,5.99572e-05,4.98456e-02,-1.33134e-04,1.29288e-04,-1.80874e-04,-1.58948e-01,-2.41135e-04,1.00627e-01,2.67944e-05,4.64398e-01,-5.62721e-05,-3.74724e-05,4.73837e-05,-8.15133e-02,2.15632e-05,-5.48547e-05,1.80682e-04,2.34892e-05,-1.10627e-04,2.07034e-04,4.71168e-05,-1.02279e-05,1.88958e-02,-8.57591e-05,4.63507e-01,-1.31431e-01,-1.63511e-01,-9.26089e-05,-1.66251e-05,2.93295e-01,-2.15781e-04,1.03323e-04,-1.58264e-01,2.08167e-01,-5.82617e-05,-4.70620e-01,2.15932e-04,6.05578e-01,-2.92155e-05,1.07210e-04,-5.37831e-02,5.52683e-02,-1.59360e-05,-2.59253e-01,5.38682e-01,-9.34197e-05,5.17276e-02,-2.47267e-04,5.11774e-05,3.15133e-01,-3.76207e-02,-1.94293e-04,-7.86405e-05,-6.25373e-01,-1.17457e-02,-1.23188e-04,7.77003e-05,6.63445e-02,1.13050e-01,1.48014e-04,3.00141e-01,4.46201e-01,-2.62007e-01,1.02531e-01,1.31928e-04,-9.32315e-02,4.62006e-02,1.17744e-04,-9.25455e-05,2.52649e-04,-7.69806e-05,2.21249e-01,-2.15878e-04,-1.07111e-01,-1.00411e-04,-2.94019e-01,-3.13825e-01,-4.34522e-02,9.84519e-05,1.14224e-01,1.41276e-02,-7.24431e-02,-6.87997e-01,2.43780e-05,-7.60171e-05,1.29825e-04,3.11347e-04,-1.22297e-01,-7.05521e-05,1.12237e-04,-7.59393e-01,1.00032e-01,1.39437e-04,-6.15820e-01,8.93535e-05,7.87901e-02,1.63635e-01,-8.19075e-01,1.84100e-05,1.60947e-01,1.88725e-01,-1.63189e-04,-7.95133e-03,-2.36390e-01,3.56945e-02,1.70118e-02,2.15722e-01,4.00816e-01,-9.62091e-02,-2.38119e-05,9.65691e-01,-1.30072e-01,9.67454e-02,1.12803e-04,1.13883e-06,1.23109e-02,-6.87389e-02,-1.50426e-01,1.12813e-04,7.06861e-05,1.17928e-01,-1.31608e-02,1.26317e-03,-7.61538e-05,6.28640e-05,1.44874e-04,1.77990e-01,7.88020e-05,
-3.54040e-05,2.55151e-04,1.12557e-04,-6.09958e-01,2.60694e-01,1.14119e+00,5.33064e-05,7.58134e-05,-3.33230e-05,1.25259e-04,-3.70508e-01,2.23596e-01,1.60393e-01,1.14132e-04,-2.49648e-01,1.86479e-05,-1.51220e-04,-1.06319e+00,3.65726e-01,-2.70625e-01,2.63624e-01,1.91895e-01,-2.02879e-01,-2.90606e-05,3.06632e-01,3.95712e-01,-1.66308e-01,-6.73936e-01,-2.49489e-01,1.52487e-04,1.29604e-04,7.89483e-02,1.54761e+00,-5.51829e-01,2.46937e-04,1.29659e-04,3.31774e-01,9.01848e-06,-2.15931e-04,-4.88729e-05,1.18836e-04,-4.88551e-01,-9.94199e-06,5.26248e-05,-6.06287e-01,-6.69846e-01,7.40675e-05,-3.90805e-01,-3.34733e-01,8.98466e-01,5.84488e-01,-1.38558e-04,-6.69916e-01,2.16812e-04,2.03262e-01,-1.11748e-04,-3.38437e-01,-4.80888e-05,2.41014e-01,5.98300e-05,4.95122e-01,5.55366e-01,-2.15890e-04,-9.69510e-02,-6.86764e-01,-5.31743e-01,1.95330e-04,7.44628e-05,-1.52978e-02,-5.28209e-01,1.92787e-01,-2.67117e-01,-1.27989e-04,-1.14334e-04,-8.92042e-01,-3.99873e-01,3.73348e-01,-4.41675e-01,1.66037e-04,1.23873e-04,-1.12509e-04,-1.16546e-04,9.07490e-06,1.36426e-04,1.94158e-04,-1.89981e-05,-4.59547e-01,-1.66037e-08,-1.78014e-07,-3.17147e-05,6.33302e-05,2.17768e-05,4.89841e-01,3.50449e-01,-1.08374e-01,-2.46517e-04,-1.12393e-01,2.44599e-04,3.01236e-01,5.26835e-01,-3.45481e-01,-7.07367e-05,-5.67913e-01,-1.92158e-05,-8.61743e-01,-2.16305e-04,3.29915e-04,7.14301e-01,-1.32708e-04,-9.75933e-09,1.94193e-04,-1.61236e-01,2.55151e-04,-2.22633e-01,-2.20223e-05,-2.47249e-04,-2.14330e+00,9.13844e-05,-2.37499e-01,-1.72888e-05,-5.45843e-02,8.64330e-02,-1.73457e-05,-5.53149e-01,8.48733e-05,-3.74724e-05,5.70456e-05,-3.70799e-02,-6.04582e-05,2.68535e-01,1.14883e-04,3.20148e-01,-5.26248e-05,-1.80954e-04,1.64037e-04,9.65733e-01,-6.24251e-05,1.12719e-04,-5.48548e-05,3.99509e-05,9.65755e-05,-2.16024e-04,-5.93600e-05,2.14798e-04,2.51642e-01,-1.80872e-04,-1.85799e-01,1.29769e+00,6.30211e-02,2.57202e-04,-2.35417e-05,4.96719e-01,6.26048e-05,1.32110e-04,2.42662e-01,3.59282e-01,-7.60302e-05,5.65782e-01,-9.45911e-05,5.50150e-01,-2.00481e-05,-1.49428e-04,-7.42773e-01,1.01267e+00,-7.58127e-05,-3.57276e-01,-7.34514e-01,5.37556e-05,-2.91582e-01,5.15263e-05,-5.77938e-05,2.47593e-01,-1.53791e-01,-1.38279e-04,-3.01079e-05,-5.60404e-01,-2.20168e-01,-1.03515e-04,-3.10331e-05,2.06799e-01,8.90302e-01,-1.25804e-04,4.47251e-01,6.42543e-01,3.96161e-01,1.67905e-01,-2.27317e-05,8.59444e-01,2.52127e-01,-1.93147e-04,-7.07448e-05,-3.52891e-05,7.17187e-05,1.11736e-02,-9.52420e-05,-6.42804e-01,1.12895e-05,-3.89078e-01,1.13385e-01,-2.31283e-01,7.57841e-05,5.28915e-01,-8.83822e-01,1.76867e-01,-5.44133e-01,1.47470e-04,-8.11352e-05,5.93619e-05,2.44011e-04,1.71197e-02,1.94274e-04,1.01507e-04,1.22423e-01,1.18951e+00,-2.03143e-04,6.01043e-01,-1.35438e-04,1.00740e+00,-7.58794e-02,2.84345e-01,1.59360e-05,4.08153e-02,-2.21564e-01,1.93603e-04,8.05405e-02,8.47625e-01,-2.24008e+00,5.48201e-02,-2.64834e-01,-4.82901e-01,9.77656e-01,1.01889e-04,7.80828e-01,5.88294e-01,-2.68055e-01,-1.17848e-04,1.94163e-04,-8.46258e-01,-3.97066e-01,-3.25140e-01,3.34330e-05,-3.29721e-04,-7.98219e-02,-4.53636e-01,1.28878e+00,-9.37445e-05,-1.53525e-04,-1.72773e-05,-1.66301e-01,1.46905e-04,
5.07571e-01,
-8.46208e-01,
