// Neural Network File Format by Kyle Julian, Stanford 2016
//Number of Layers,Number of Inputs,Number of Outputs,Max Layer Size,
4,6,3,64,
//Input Layer size, Hidden Layer Sizes, Output Layer Size
6,64,64,64,3,
//The next line is an unused flag, after that we have minimum input values, maximum input values (network inputs are truncated to fit in this range), mean input values (as well as outputs), and input (as well as output) range values 
0,
-3.0,-3.0,-3.0,-1.0,-1.0,-1.0,
3.0,3.0,3.0,1.0,1.0,1.0,
0.0,0.0,0.0,0.0,0.0,0.0,0.0,
6.0,6.0,6.0,2.0,2.0,2.0,1.0,
//Weights and Biases start here
4.14289e-01,3.63156e-01,5.78837e-02,-3.30513e-01,-7.84953e-01,-6.64479e-02,
3.95801e-01,4.86704e-01,-5.42701e-01,2.95340e-01,5.11533e-01,2.69937e-01,
4.67523e-01,-2.63645e-01,9.06763e-01,5.74188e-01,2.08584e+00,-8.60872e-02,
4.11369e-02,4.23590e-01,-1.07514e+00,-8.33269e-01,-1.17352e+00,-1.20887e+00,
-7.72386e-02,1.35171e+00,-4.03592e-01,1.11588e+00,5.20702e-01,-1.17160e-01,
1.34890e+00,-2.91929e-01,-5.15108e-01,-2.74502e-01,-1.22543e+00,7.69228e-03,
-2.58537e-02,-2.71412e-03,-9.19513e-01,1.97907e+00,6.57719e-01,2.76746e-01,
-2.12512e-02,-2.27309e-01,-3.64283e-01,-4.68772e-01,-3.69874e-01,-2.18855e-01,
-4.77421e-01,-6.49895e-01,-1.57458e-01,-3.38349e-01,-1.67021e-01,-1.82007e+00,
1.26302e-01,9.54344e-02,3.13797e-01,-1.45896e-01,-9.21496e-01,6.73682e-01,
-3.21391e-01,1.99070e-01,-5.70132e-02,-3.15293e-01,-1.78817e-01,2.98290e-01,
5.39529e-01,-3.02955e-01,7.83263e-01,5.65460e-01,3.60259e-01,1.86661e+00,
1.03168e+00,6.40564e-02,-3.43376e-01,1.86097e-01,2.02813e+00,9.06567e-01,
1.55564e-01,8.14634e-03,2.30487e-01,-4.18439e-01,8.48437e-01,1.58571e+00,
6.75081e-02,1.33566e+00,-1.07990e-03,-5.45024e-01,-4.49349e-01,-1.26445e+00,
-2.28700e-01,-1.53595e-01,2.14357e-01,3.20089e-01,-5.19895e-01,2.82422e-01,
-2.84644e-01,8.33024e-01,-6.69576e-01,-2.49274e-01,3.72074e-01,-1.43673e-01,
-8.49562e-02,-1.10206e-02,3.47265e-02,2.54293e+00,-2.94311e+00,-1.21150e-01,
1.01918e+00,-6.67260e-01,-8.24185e-01,-5.58699e-02,8.71429e-01,-9.54824e-01,
3.80159e-01,-5.83276e-01,2.67905e-01,1.80137e+00,-6.74461e-01,-1.19769e+00,
1.10988e-01,1.69205e-01,-6.70373e-02,-3.73287e+00,4.59268e-01,-2.78279e+00,
-2.83113e-02,-5.80736e-03,-8.04758e-02,-3.63486e+00,-2.17625e+00,1.92403e+00,
-5.67567e-01,-4.29880e-01,-7.77092e-01,-3.57028e-03,-2.19116e-01,1.36000e-01,
1.04843e+00,-7.20451e-01,-3.29867e-01,1.67346e+00,1.82122e+00,3.76678e-01,
-7.71339e-02,-7.50246e-02,-7.44799e-02,2.37263e+00,-1.78764e+00,1.44788e+00,
-6.66815e-02,1.60083e-01,1.11031e-01,2.55037e+00,2.01551e+00,7.06625e-01,
1.32116e-01,1.55336e-01,2.01772e-01,-2.14908e+00,7.14799e-01,4.26522e+00,
6.73717e-01,-3.20708e-01,-4.99754e-01,1.49612e-01,-5.36949e-02,-5.29087e-01,
2.23170e-01,4.53403e-01,-9.60992e-01,-7.21369e-01,1.22391e+00,-4.64597e-01,
-3.89381e-01,-4.87385e-02,-6.44813e-03,-1.03064e+00,-4.09281e+00,3.90834e-01,
-8.52126e-03,-7.06721e-02,4.26000e-01,1.99847e-01,1.41134e-01,-5.08883e-01,
-6.55146e-01,-6.27859e-02,9.10617e-01,-2.24778e-01,5.21725e-01,3.29919e-01,
-5.02468e-01,-6.66458e-01,-3.78048e-01,-2.89969e-01,1.49811e-03,1.47333e-02,
-4.37595e-02,-1.13760e-01,2.33148e-01,-1.09350e+00,5.78424e-01,-7.03140e-01,
5.37585e-02,4.73564e-01,-3.67025e-02,3.23312e+00,2.82001e+00,1.26558e+00,
-2.88065e-01,6.67043e-04,1.89589e-02,1.79956e-01,-1.59173e+00,-2.62123e-01,
-9.69836e-01,5.08464e-01,4.60689e-01,-3.15482e-01,5.15884e-01,-3.67698e-01,
5.70289e-03,9.09561e-03,5.99933e-03,1.90713e+00,9.01948e-01,-4.87478e-01,
-9.38387e-01,-5.97495e-01,3.90342e-01,1.32268e+00,1.41600e+00,1.52529e+00,
-2.90660e-03,2.57003e-02,-5.41331e-03,-2.66933e+00,1.96445e-01,-1.34363e+00,
-2.71528e-01,-3.38360e-02,-3.81503e-01,1.58263e-01,-5.27772e-01,7.10320e-03,
7.09381e-01,-5.63837e-01,-4.37406e-01,1.69662e+00,1.18935e+00,2.97268e-01,
-2.74665e-01,6.56181e-01,-9.94833e-02,-1.23668e+00,-1.62652e+00,7.29560e-01,
2.67445e-01,-1.37904e-01,3.44221e-02,7.10132e-01,-2.25854e+00,2.12506e+00,
-4.38323e-01,7.61072e-01,7.83104e-01,7.26086e-01,5.91583e-01,4.04848e-01,
-3.06091e-01,-3.90544e-01,-2.84944e-01,-4.14850e+00,-6.18527e-01,-2.33735e+00,
-3.08649e-01,-2.66561e-01,1.24003e-01,3.21037e+00,1.69791e+00,3.54355e-01,
7.29042e-01,2.21929e-01,-1.09307e-01,2.55970e+00,9.51606e-01,-2.06771e-01,
2.80246e-01,4.35442e-01,2.59485e-02,-1.32714e-01,2.61592e-01,6.20074e-01,
-7.04559e-01,-4.63138e-01,2.44057e-01,-2.26813e+00,6.94659e-01,-2.43141e+00,
1.06679e+00,-2.03480e-01,6.39094e-01,-1.94800e-02,-6.85189e-01,-3.73447e-02,
-4.94137e-01,1.63999e-01,9.57830e-02,1.77212e+00,-5.24298e-01,-1.20526e+00,
-6.02662e-01,4.72682e-01,7.75805e-02,3.25342e-01,9.91248e-02,1.45080e+00,
6.11592e-02,1.72137e-01,-1.63198e-01,1.78856e-03,-7.60283e-01,9.78938e-01,
-4.88112e-01,-3.30480e-01,3.54739e-02,-4.80401e-02,-6.51044e-03,-1.66914e-01,
1.01958e-01,-6.31578e-01,1.32675e+00,-1.59376e+00,-9.66452e-01,2.94731e-02,
6.55865e-01,-1.08209e+00,2.39774e-01,-8.05114e-01,-6.32232e-01,-8.22711e-02,
1.66422e-01,-9.91994e-01,4.73507e-01,-2.05384e-01,4.91570e-02,-2.85435e-01,
-7.33633e-01,-3.94419e-01,3.87169e-01,-8.38688e-01,-1.69400e+00,-3.75058e-01,
5.39190e-02,-2.41165e-01,-3.06512e-01,-1.35870e+00,-3.04664e+00,-2.64200e+00,
-1.01574e-01,-5.02172e-01,3.10947e-01,1.79370e+00,1.23209e+00,7.96067e-01,
1.27181e-01,1.07946e-01,1.62033e-01,-1.31272e+00,3.42126e+00,2.79738e+00,
8.64493e-02,1.76261e-01,1.13086e+00,1.57639e+00,-5.49684e-01,-3.75549e-01,
6.46957e-01,-1.97063e-01,-1.43062e-03,-9.50561e-01,-6.46954e-01,-9.40034e-01,
7.73230e-01,
-5.79825e-02,
-1.07951e+00,
-1.91916e+00,
-1.19002e+00,
-2.09244e+00,
-6.18656e-01,
1.14217e+00,
-1.41583e+00,
1.34997e+00,
3.62690e-01,
-1.25997e+00,
-1.71135e+00,
2.69372e+00,
-2.04458e+00,
2.14221e-01,
-4.70275e-01,
4.44266e-01,
-2.07416e+00,
-5.81955e-01,
-1.33658e+00,
-7.74334e-01,
-2.32775e-01,
-2.96035e+00,
2.09866e-01,
1.01224e-03,
-1.22089e+00,
-1.72034e-01,
-9.29119e-01,
-1.96191e-01,
4.97639e-01,
-2.08347e-01,
-1.59623e-01,
2.61200e-01,
-3.21911e+00,
1.26873e+00,
-9.57217e-01,
1.44631e+00,
-2.22394e+00,
1.31775e+00,
1.28368e+00,
-6.43543e-01,
-4.38364e-01,
-1.42918e-01,
-1.14198e+00,
-1.96905e+00,
-2.84762e+00,
-6.54456e-01,
7.44295e-01,
-2.71908e+00,
-1.30471e+00,
-3.67818e-01,
-5.08429e-01,
1.18024e+00,
1.11225e-01,
-2.61314e+00,
-1.30655e+00,
-7.57819e-01,
-1.38232e+00,
-3.01415e+00,
-4.44595e-01,
-5.52188e-01,
-2.22153e-01,
-1.98889e-01,
2.01953e-01,-6.71468e-01,-1.02687e+00,3.02389e-01,-7.67592e-01,7.67270e-02,5.07592e-01,-2.71203e-01,1.03158e-01,9.11373e-01,9.14029e-03,-8.49517e-02,-1.12212e+00,5.52669e-01,-5.18050e-02,-1.63096e-03,-4.90700e-01,1.14431e+00,-9.05215e-01,-8.99324e-01,3.99899e-04,6.60371e-01,-6.52623e-01,-3.54058e-01,5.07324e-01,2.40571e-01,-9.87082e-01,5.40072e-02,6.47469e-02,-2.13760e+00,-7.34451e-02,-1.38511e-01,-3.41121e-01,-6.05800e-01,-1.50035e+00,2.26443e-01,-4.38741e-01,3.77641e-01,-1.32850e+00,-1.95431e+00,6.75669e-01,4.38926e-01,-1.51481e+00,5.75922e-01,-5.78675e-01,-5.61879e-05,-1.84757e-01,-1.09438e+00,-8.78740e-02,-3.43234e-05,-2.21568e-01,-4.29055e-01,3.58392e-01,1.82300e-01,8.14985e-02,7.74364e-01,-1.82304e+00,-2.80184e-03,2.10375e-02,2.24484e-01,3.59588e-01,-1.27477e-01,-8.00757e-01,-7.59707e-03,
1.90692e-01,-1.25694e-02,9.67183e-02,-1.57504e-01,1.56032e-01,1.86270e-02,1.90797e-01,-7.68511e-05,-2.57785e-01,8.26509e-04,-9.68903e-01,-9.43361e-03,3.04277e-01,-1.85143e-01,8.88827e-02,2.01918e-02,-1.81871e-01,3.15347e-01,-1.06507e-01,-3.13563e-02,5.61436e-02,5.22727e-01,2.26162e-01,-5.73973e-01,-9.05969e-01,-4.38618e-01,-1.79657e-01,4.76089e-01,2.07471e-02,-1.57126e-01,-1.35290e-01,1.65367e-01,9.16700e-03,-2.10399e-01,-1.63525e+00,2.77828e-01,3.03361e-02,2.28349e-01,-8.26164e-02,2.74002e-01,3.42109e-01,6.87492e-02,1.31517e-02,3.48637e-01,2.86818e-02,-2.78630e-01,-3.30216e-01,-2.40398e-02,3.10571e-03,-1.75782e-01,-1.81973e-01,-1.71372e-01,1.71191e-01,-4.49052e-01,3.78101e-02,2.64219e-01,1.24430e-02,-1.42274e-01,-2.38590e-01,-5.33932e-01,8.44973e-02,-2.75222e-02,-1.68547e-01,-3.91639e-01,
2.92583e-01,-8.16872e-04,-1.10774e-01,-7.00477e-02,1.60098e-01,-5.90866e-04,3.72690e-02,2.67888e-01,-2.65514e-01,1.47294e-01,-1.20013e+00,1.38904e-01,-1.16707e-02,-4.20707e-01,-1.14973e-01,2.98625e-02,1.20719e-02,1.30488e-01,-4.80645e-01,1.73624e-01,-2.31657e-01,1.04904e-02,8.58976e-02,-1.38911e-01,2.87627e-01,1.88378e-01,-2.24733e-01,-2.17363e-02,-2.20233e-01,-3.49905e-01,-1.68375e-02,-9.00175e-02,-1.06613e-01,3.65684e-01,-3.72605e-02,1.10567e+00,4.43098e-02,-3.51215e-01,1.88151e-03,4.20476e-01,2.28061e-03,-7.31568e-03,-1.22461e-01,2.64213e-01,8.83311e-02,-2.30783e-01,-3.42898e-02,-1.04233e-01,-1.34958e-01,-3.37327e-01,-6.93755e-02,-4.26047e-02,-7.09392e-03,4.50197e-01,-1.77692e-01,-1.33201e-02,-1.36090e-01,-8.58435e-03,1.62037e-01,1.65563e-03,-3.95973e-03,6.19505e-02,-1.31053e-02,1.07266e-02,
2.83619e-01,1.06536e-01,-6.70698e-02,7.09331e-03,7.42606e-02,7.79758e-02,2.71014e-01,1.15265e+00,7.37269e-02,1.88481e-01,1.02749e-02,-3.72224e-02,-2.19226e-01,-6.68579e-01,-7.19930e-02,8.78025e-02,-1.62700e-01,-1.10508e+00,1.68908e-02,-1.82545e-01,-6.86140e-01,-4.03225e-02,4.58747e-02,6.66763e-02,9.14938e-03,4.64212e-03,7.27452e-02,-8.79392e-02,-8.53624e-02,-2.29918e-02,9.50842e-02,6.27780e-03,-8.69147e-02,-1.56360e-02,-3.73802e-01,8.54270e-01,-3.28707e-02,9.34066e-02,-1.69443e-01,4.31958e-01,-1.80885e-02,-1.23713e-01,2.19905e-01,2.43501e-03,-6.55857e-02,-1.42041e+00,2.48715e-03,-3.10264e-01,-4.83736e-01,-3.57215e-02,3.14564e-02,1.04092e-01,-3.20708e-04,2.89054e-01,2.66124e-02,2.39257e-03,-6.21341e-02,3.17536e-02,1.76633e-01,-1.84636e-02,2.57723e-01,-1.93694e-01,-8.79274e-03,3.26406e-01,
-2.33245e-04,4.20757e-01,5.39889e-02,-2.47790e-01,2.33239e-03,-4.15982e-01,2.78465e-04,-5.35461e-01,1.25326e-05,1.49222e-03,-1.04817e-01,5.12596e-01,1.10170e-01,1.57562e-01,-5.35057e-01,-2.11273e-01,3.49142e-01,-1.59681e-01,1.69020e-01,8.74461e-03,-2.22797e-01,1.84662e-01,1.31839e-01,-2.07978e-01,-6.54062e-01,-1.57650e-01,-1.13087e-01,4.28181e-01,-2.22693e-02,7.12941e-03,1.11525e-01,1.52295e-01,5.36829e-01,4.93952e-01,-8.48571e-01,-9.04869e-02,1.40219e-01,6.75523e-01,-4.46852e-02,-4.41888e-01,-1.59126e-03,1.69131e-01,-2.34340e-01,5.58419e-01,4.93684e-02,-4.71751e-02,2.56341e-03,3.92584e-01,7.22564e-01,-2.49287e-01,1.26771e-02,-7.60627e-02,2.13188e-01,5.01256e-01,-1.72333e-01,-3.79466e-02,-1.21275e-01,6.58643e-01,3.04633e-01,6.01498e-03,-1.35112e-01,-1.66054e-03,-1.59288e-01,-2.37387e-01,
1.65869e-01,-2.66820e-01,2.69790e-01,-4.34254e-01,-4.22214e-01,-1.29377e-01,-1.20292e+00,2.71549e-01,2.91346e-02,-4.93682e-01,3.61514e-01,3.90097e-01,-5.84825e-01,2.89485e-01,3.73369e-02,4.08395e-02,2.78911e-01,-5.07273e-01,-2.64164e-02,-4.25268e-01,-1.00513e+00,1.37303e-01,6.59409e-01,4.80637e-01,4.77892e-04,-1.20310e+00,-5.91142e-01,8.16518e-01,3.43373e-01,-5.51738e-01,1.05829e+00,9.56382e-01,1.78870e-01,-2.42879e-01,3.50982e-03,2.28929e-01,-3.07869e-02,6.65068e-01,2.12857e-01,5.67382e-02,1.10093e+00,2.84023e-01,-3.75477e-01,4.27770e-01,-1.88625e-01,-1.73045e+00,-5.99071e-03,-2.08260e-01,6.10236e-01,-5.58189e-01,1.66892e-02,-4.66517e-01,7.50677e-02,-2.67420e-02,1.00593e-02,2.51559e-02,-4.55536e-01,-4.73568e-03,-5.74185e-02,-1.74664e+00,-1.67454e+00,-5.36926e-01,-1.36281e+00,-3.15545e-02,
3.38300e-04,1.64126e-04,8.62646e-05,-2.17028e-04,2.82489e-04,9.85717e-05,1.57698e-04,6.24215e-05,8.73115e-11,-1.71466e-04,-9.76405e-05,-1.06299e-04,2.53686e-04,-2.22968e-05,-1.23038e-04,2.25641e-05,-1.21809e-04,8.49567e-06,-1.31845e-04,7.46416e-05,1.16102e-04,1.78833e-04,-1.19035e-04,2.12298e-05,1.40041e-05,-4.98661e-05,1.55186e-04,-9.34103e-05,-2.19580e-05,1.31890e-04,-4.20116e-05,1.05033e-04,1.79590e-04,-1.60551e-04,9.30698e-06,1.07544e-04,5.67891e-05,-5.92092e-06,-3.01566e-04,7.06303e-05,-1.63855e-05,-5.37466e-05,6.10044e-05,-8.48772e-05,-9.31128e-05,1.38243e-10,1.55416e-04,-9.55140e-05,-7.46666e-05,8.30337e-05,5.97728e-05,-2.48324e-05,-2.09446e-04,-1.77586e-04,1.98557e-04,-2.07834e-04,-2.19463e-05,2.83621e-04,-1.43123e-04,-8.64788e-06,3.26170e-05,-1.16911e-04,1.22012e-04,-1.50294e-04,
8.74633e-01,-4.28284e-01,-1.77621e-01,-1.36109e-01,6.57620e-02,-6.24621e-01,-9.37711e-01,-7.76854e-04,-3.43417e-01,1.37851e-01,1.80599e-03,-2.61763e-02,-4.49283e-03,9.65025e-03,-2.96298e-01,1.27820e-02,-5.40722e-01,-5.01745e-02,-6.06896e-01,3.64936e-01,7.74937e-04,5.86323e-01,-3.86319e-01,-1.64776e-03,-1.41692e-01,-1.37655e+00,-4.12122e-03,-3.73687e-02,-4.00389e-01,2.11860e-01,-2.48309e-02,-3.70791e-02,-4.25028e-01,2.87875e-03,-1.08022e-01,2.32292e-02,-1.22711e+00,2.04167e+00,-1.51583e-02,9.20361e-03,-2.99793e-01,-1.50826e-01,6.57731e-01,8.02038e-02,-2.30556e-02,-3.37714e-01,-1.77677e-02,-1.97072e-01,-1.52421e+00,-1.62135e-02,3.32720e-01,-4.77540e-01,6.78944e-03,-4.80304e-01,-7.08786e-02,1.71751e-02,-7.48207e-01,-6.84144e-01,5.32653e-01,-6.34980e-01,5.92002e-01,-3.91266e-02,-1.31882e+00,6.98357e-01,
-3.59779e-02,-8.07886e-02,3.09944e-01,-1.32218e-01,2.22594e-01,3.42482e-02,-1.23602e-01,-3.36817e-03,-2.10644e-01,6.47668e-01,-4.95009e-01,1.00353e-01,1.91714e-01,-4.12028e-01,-1.08207e-01,-1.16106e+00,2.50217e-01,-6.76532e-03,-1.86061e-01,-2.66447e-01,-4.18228e-01,1.26967e-01,1.38032e-01,1.80025e-02,-3.80502e-01,1.13102e+00,4.16289e-01,7.97518e-03,9.73613e-02,4.45201e-01,4.82427e-02,2.12488e-01,1.79594e-01,-1.01307e+00,-3.61317e-01,-1.20763e-03,-1.59221e-01,7.79096e-01,-1.72392e-02,-2.52919e-01,-3.25198e-04,3.65902e-01,-2.99797e-01,3.92178e-02,9.07991e-03,-1.41719e-01,3.14222e-01,1.22600e-01,-1.49136e-02,-1.60970e-03,1.81326e-02,4.13227e-02,-2.36885e-03,-1.99568e-01,-1.81557e-01,-9.79329e-02,-3.29181e-01,8.21562e-01,-2.38338e-02,-2.45751e-01,-7.75156e-04,6.54477e-02,-4.69318e-02,-3.71166e-01,
-7.49550e-03,-1.03544e+00,-8.36630e-01,1.80959e-02,-1.42436e+00,3.76910e-03,1.67612e+00,1.38903e-01,1.47652e-01,3.97610e-01,-6.03454e-03,4.47605e-01,-6.70763e-01,-7.84714e-01,1.01863e-02,-5.49274e-02,-2.14276e+00,-2.34389e-01,-9.34543e-01,-5.35890e-01,6.03657e-03,4.82206e-01,-8.54246e-01,-1.06178e+00,-1.29150e-02,2.51708e-01,2.42319e-01,-2.58061e+00,-1.66864e+00,-5.76005e-01,1.43618e-03,-1.51156e+00,-6.28537e-01,9.23517e-03,-4.93943e-01,8.94963e-03,-1.52164e+00,5.30454e-01,5.22093e-02,-5.22638e-01,1.12838e+00,4.30876e-01,2.19303e-02,-1.58394e-01,1.77026e-01,3.30608e-01,5.80725e-02,3.18214e-02,-2.63231e-01,-9.60060e-03,-1.34513e+00,1.32952e-01,-4.67446e-02,7.12681e-03,-1.46340e-02,2.15163e+00,3.87656e-03,-2.15068e+00,8.28651e-01,-2.68202e-01,-4.10781e-02,6.04878e-01,1.08343e-01,3.41559e-01,
2.32108e-01,-5.32279e-03,-2.67525e-01,-3.97240e-01,2.58604e-01,4.91752e-02,8.13456e-02,-4.26444e-04,1.70036e-04,-4.66636e-02,-9.04206e-01,-3.30530e-01,7.12484e-04,-2.64903e-03,-1.61891e-01,7.52071e-03,1.93179e-01,1.15438e-02,9.64970e-03,-2.16804e-02,-6.78324e-02,1.37340e-01,4.32197e-03,3.32565e-01,-2.03184e-01,-6.95645e-01,1.88585e-01,-2.62632e-01,-2.06794e-01,2.73539e-02,2.21369e-01,-1.16119e-01,4.35742e-03,-1.34868e-02,-2.29977e-01,3.09961e-03,-7.24196e-03,3.52522e-01,-1.54625e-02,-4.42723e-01,-1.06236e-02,8.53047e-02,-4.72256e-01,1.89630e-01,2.55089e-01,-3.15745e-03,-6.23521e-02,9.88127e-02,1.55382e-01,2.31102e-02,-2.06216e-01,6.05766e-02,1.95868e-02,4.36332e-02,-5.38497e-02,-7.85517e-01,-6.28058e-01,5.62436e-01,-9.91808e-02,4.09277e-03,-4.29306e-03,1.27436e-02,-4.74765e-01,7.31318e-01,
1.72742e-01,-1.36006e-01,9.59694e-03,-8.71118e-03,-2.20237e-03,1.77687e-01,-2.20561e-02,-3.23230e-01,-8.10204e-02,-4.51393e-02,3.57520e-01,1.46507e-01,1.36031e-01,1.89358e-01,-1.02044e-01,7.09434e-02,3.00981e-02,-2.98468e-01,8.15610e-02,1.94337e-01,-3.87546e-01,9.71260e-01,3.26830e-02,6.13594e-03,-3.81863e-01,-7.16564e-01,5.75932e-02,-7.02614e-02,-7.66615e-04,-4.93711e-02,3.71932e-01,8.95413e-02,4.70476e-02,1.26426e-01,5.64475e-02,-1.96687e-03,5.70467e-03,6.68932e-01,5.08172e-03,-4.00563e-02,-1.96210e-01,-9.34558e-02,1.23961e-01,2.91410e-01,-1.02117e-01,-1.72532e-01,2.73640e-01,-6.24169e-02,-4.10935e-01,-4.25486e-01,-1.23869e-01,-1.07354e-01,-2.94766e-02,-9.05549e-02,3.50252e-01,1.77840e-03,-2.82316e-01,-3.19906e-02,-2.14614e-01,-9.25543e-02,-1.27472e-01,-1.11156e-01,-5.17982e-03,7.07951e-02,
1.00478e-05,-1.35921e-04,2.65845e-04,-8.99873e-06,-1.26848e-04,5.64549e-06,1.61524e-04,-2.49386e-05,5.70243e-05,9.23089e-05,-2.26612e-05,1.82090e-04,-1.19023e-04,1.14866e-04,-1.55460e-04,1.74803e-04,-2.12832e-04,-7.86579e-06,1.72383e-05,1.27266e-04,-3.43020e-05,-1.30675e-04,-7.73085e-05,1.12724e-04,1.44271e-04,-2.68237e-05,2.87660e-04,9.14575e-06,-2.25459e-04,1.07212e-05,1.79836e-04,-5.57666e-05,2.23659e-04,-1.03362e-07,1.37275e-04,2.24968e-05,-5.95228e-05,5.85360e-06,-1.81894e-04,2.24100e-05,1.82017e-04,-3.67254e-04,1.47420e-05,1.77734e-04,2.19759e-04,8.98044e-05,8.79646e-07,3.38031e-05,3.84723e-05,-4.83852e-05,-9.24701e-05,-1.92694e-04,1.43571e-04,-1.37512e-04,-2.73320e-04,-1.21741e-04,-2.12673e-05,1.40048e-05,4.59256e-05,4.76413e-04,-1.75010e-04,2.04840e-04,5.60455e-05,-1.28134e-04,
-4.34117e-02,6.51263e-01,4.27291e-01,-1.08203e-01,-4.35568e-03,-2.01846e-03,9.52860e-02,-7.11106e-01,-1.31159e+00,-6.52170e-03,3.28752e-03,7.63801e-01,2.43859e-01,1.94626e-01,-2.18154e-01,-6.57361e-02,2.96344e-01,-3.70602e-01,-2.70817e-02,-4.02233e-01,-4.65349e-01,-2.66201e-02,4.22614e-01,4.06957e-01,4.27344e-02,4.29302e-01,3.22584e-01,1.66589e-01,9.20053e-02,-1.22192e-01,-4.46116e-03,4.10621e-01,3.01946e-01,-3.25872e-01,-4.06602e-01,-1.43145e-01,6.30680e-01,-3.68316e-01,2.02971e-01,-8.71551e-01,-7.17772e-03,5.61593e-01,-3.52558e-01,1.27408e-01,7.06686e-02,-6.22524e-05,-6.53184e-04,4.87037e-03,6.69375e-01,-5.80072e-01,9.75175e-02,4.66784e-01,3.02849e-01,2.65314e-01,-2.11679e-03,-2.13808e-01,-9.04414e-02,4.64785e-01,-1.02294e-01,3.00497e-09,1.53792e-03,-1.39126e-01,-1.75940e-01,-6.80355e-01,
-7.12727e-01,6.36153e-01,3.42911e-01,3.79154e-01,2.38383e-01,5.66121e-03,-5.67832e-01,-6.06186e-03,-2.89884e-02,-1.26115e+00,1.27760e-01,-6.88390e-01,7.44654e-01,-1.34663e+00,2.01169e-01,-1.96243e-02,-1.34087e-01,-3.73958e-04,4.25978e-01,-1.73243e-02,9.17437e-01,-5.09565e-01,-6.05742e-01,-3.17688e-01,-5.05509e-05,-4.36945e-01,-2.45329e-01,8.17827e-02,3.02116e-01,6.90965e-01,-3.74734e-01,4.23011e-01,3.64957e-01,2.27286e-03,-3.14474e-05,-5.40634e-01,2.51124e-01,-9.27444e-01,-3.30301e-01,-1.35758e-01,-3.22037e-01,-4.29380e-01,5.06456e-01,4.02367e-05,6.52199e-01,1.68100e+00,-2.16428e-04,3.74981e-02,3.70021e-02,8.21116e-01,1.46913e+00,-5.16373e-01,-2.50050e-01,-5.60040e-01,-5.01047e-01,1.54633e-01,5.01625e-01,1.64360e-01,-5.23124e-01,-7.97918e-01,-9.98753e-01,6.93688e-01,5.90446e-01,-9.20837e-01,
9.27011e-02,3.06292e-01,1.71109e-01,3.98800e-01,1.60017e-01,6.01806e-01,-6.68570e-01,-1.50709e-02,2.51508e-01,-4.00785e-01,-1.09063e-02,-1.13050e-01,1.96115e-01,9.40329e-01,-2.98473e-02,1.46317e-03,5.02441e-03,-4.38084e-03,2.28500e-01,-1.40628e-01,-7.24658e-01,2.25365e-01,-2.77720e-02,-4.00449e-02,-2.23644e-01,-5.22123e-01,3.82551e-02,8.75943e-03,4.63277e-01,-1.66570e-02,2.64111e-01,4.42562e-02,-3.06732e-02,2.43042e-01,-1.18730e+00,-9.39235e-01,4.78344e-01,5.06816e-01,-5.74868e-02,-6.71729e-01,2.08084e-01,-4.78951e-02,-3.42032e-01,5.53021e-02,3.28235e-02,-8.23324e-01,1.53928e-01,-1.83624e-01,-8.55147e-03,-4.30714e-01,-6.72973e-02,2.64717e-01,4.25110e-01,-7.28009e-03,6.60072e-01,1.48467e-01,6.85237e-02,2.89514e-01,-2.85170e-01,-8.75400e-01,-6.13473e-01,-8.01444e-01,2.84729e-01,-4.93348e-01,
1.57713e-01,-1.34779e-02,-2.22668e-01,-2.68922e-01,-1.26955e-02,-9.27332e-02,3.37238e-01,-4.82632e-02,-1.71215e-01,2.12183e-03,1.46027e-01,1.37392e-01,-2.51623e-01,2.91296e-01,-1.28021e-01,-1.87311e-01,-3.58259e-02,4.88975e-02,-9.79213e-02,-1.32188e-02,-5.06586e-01,4.61866e-01,-1.08424e-01,2.75412e-01,-4.63815e-02,-4.91859e-01,-4.19996e-02,-5.62563e-02,6.17955e-02,-1.36456e-01,-3.54227e-01,-3.88916e-02,-1.79283e-03,8.43008e-01,-3.11677e-01,-7.45275e-01,2.03843e-01,7.22184e-01,-6.42063e-02,2.93461e-01,4.41695e-01,-2.05891e-01,4.35659e-03,-1.13393e-01,-2.09585e-01,-7.40127e-01,-1.69637e-02,2.10304e-01,-2.88288e-02,-8.39819e-03,-1.48075e-01,-7.52004e-02,-5.48973e-01,-1.02998e-01,1.64332e-02,-1.15170e-01,1.15715e-01,-5.47580e-03,9.84602e-03,-7.47466e-01,-5.99862e-01,1.32646e-01,3.84929e-02,-1.34649e-01,
-7.24286e-05,2.13817e-04,-1.03822e-04,1.75044e-04,8.21114e-06,-2.42588e-05,-1.39702e-04,-4.82238e-05,6.87353e-05,-6.71114e-05,5.99282e-05,1.46982e-04,-1.32834e-04,1.88004e-04,2.45413e-04,-1.66251e-05,5.42467e-05,5.93619e-05,3.12653e-04,-7.25450e-05,-1.14414e-04,-1.35379e-04,1.17375e-04,-1.22694e-04,9.60193e-05,3.26315e-05,7.12952e-05,1.63600e-04,4.20937e-05,-4.33428e-05,5.22863e-04,-2.35575e-05,-1.93848e-04,-2.48098e-04,-9.06773e-05,7.18741e-05,2.17556e-05,-7.17348e-05,-4.96204e-05,-2.50871e-05,1.33456e-04,2.46504e-04,1.96337e-04,-3.86487e-05,1.00022e-04,-2.15596e-04,1.80571e-04,-1.52540e-04,9.09381e-05,2.15880e-04,1.53504e-04,6.75149e-05,6.02085e-05,-5.31491e-05,1.78039e-04,-1.41417e-04,-1.05534e-04,2.28914e-04,-1.21813e-04,-2.01879e-04,-1.10160e-04,-1.56836e-04,-1.09690e-04,1.04255e-04,
4.80237e-01,-1.55221e-03,-9.52532e-02,-2.18307e-01,-3.62849e-01,-4.41378e-01,6.98463e-01,-6.08202e-03,-1.10981e-01,9.89514e-02,-3.30492e-01,2.95433e-02,-6.36147e-02,9.67032e-02,-1.87545e-02,8.99768e-03,-8.62635e-01,-6.49135e-02,-1.81242e-01,-3.47179e-02,-2.63991e-01,-6.68770e-02,-8.65105e-02,-6.52338e-01,1.00765e-01,3.88944e-02,-6.16164e-02,-4.44825e-01,1.36130e-01,1.37545e-02,-1.24468e-01,-1.06233e+00,-1.01783e+00,6.82273e-01,-1.48258e-01,5.27836e-01,-3.93253e-01,-4.59931e-01,2.75480e-01,3.68482e-01,-8.82451e-03,5.24684e-01,6.10562e-03,1.34469e-01,-3.53953e-01,-4.16919e-01,-4.70601e-01,3.99012e-03,-3.34485e-03,-2.77396e-03,-2.08243e-01,-8.73211e-01,-8.92470e-01,1.48220e-01,-3.34021e-02,-1.74750e-01,-2.13975e-01,-4.04274e-01,1.06233e-02,-4.25229e-02,4.70976e-01,-8.89473e-02,9.94446e-02,-6.92669e-04,
1.52419e+00,1.01472e+00,4.29592e-01,-1.58369e+00,8.90456e-01,-2.78610e-01,-6.99009e-01,-9.44131e-02,4.77833e-01,7.96849e-02,-5.09987e-01,1.62224e-01,6.61970e-01,-1.81874e-02,-7.98667e-01,3.27723e-01,1.39359e+00,-9.28202e-01,4.00931e-01,3.02183e-02,-2.53852e+00,7.09726e-01,2.49807e-01,9.42491e-01,-1.91071e-01,1.62889e-01,-1.97451e-01,8.87749e-01,3.69064e-01,-2.42228e+00,1.18061e+00,8.26290e-01,3.88098e-01,-1.60652e-01,-1.64511e-01,-1.16987e+00,6.66483e-01,-1.14399e-02,9.20113e-02,-9.82918e-01,-2.83651e-01,3.15818e-02,-9.51732e-01,1.44146e+00,2.57499e-01,-4.33991e-03,-6.18476e-01,-9.78118e-03,4.97365e-03,-8.59993e-01,-4.00789e-01,4.32170e-02,1.23582e+00,-1.16933e+00,1.01231e+00,-4.11021e-02,-1.24970e-01,-8.16620e-02,1.99160e-03,-2.17904e-04,-3.00535e-01,1.89491e-01,2.42814e-01,-1.87181e+00,
-4.83224e-02,1.14773e-02,-1.22143e-01,-7.80567e-03,-1.52074e-03,-3.78565e-02,4.12525e-01,-3.90495e-03,-2.55877e-02,2.07994e-03,-1.32316e-02,7.78789e-02,3.59343e-01,2.43219e-01,-6.91768e-02,-2.02505e-02,1.24816e-01,5.88292e-01,-4.54789e-01,-1.21380e-01,-5.91935e-02,6.74442e-01,-2.79268e-01,-8.81224e-02,-5.47440e-03,-8.10705e-01,-9.65004e-02,-1.89189e-01,-7.46232e-01,-3.07990e-01,1.41384e-02,-2.65370e-01,-2.28116e-02,2.29088e-01,-9.58596e-03,-1.41044e-03,-2.27208e-02,-1.71567e-01,-1.92651e-01,8.38645e-03,-1.96264e-01,7.88733e-01,6.38969e-02,-1.59369e-01,-7.92890e-03,-2.31284e-02,-2.05029e-02,-1.38896e-01,-6.25987e-01,6.07005e-03,-2.85384e-01,8.45494e-01,-9.81828e-03,-8.13123e-01,-4.79908e-01,-9.62182e-02,-3.77430e-01,-5.31765e-01,-7.00727e-01,-5.56644e-01,-6.22745e-02,6.72333e-02,9.68176e-02,1.06324e+00,
2.44424e-01,-7.86128e-01,-2.17452e-01,-2.54331e-01,3.55654e-01,2.41570e-01,8.57191e-01,1.49534e-02,-3.33577e-01,5.45811e-03,-1.96349e-03,7.46519e-01,-1.36409e-01,1.69945e+00,5.34283e-01,8.25414e-03,5.10504e-01,-8.32981e-01,-6.42369e-02,-1.40198e+00,-1.46421e+00,4.61572e-01,-5.25389e-01,-6.62486e-01,8.38591e-01,-1.57576e+00,-5.69691e-01,-1.53368e-01,-1.06970e-01,4.00122e-03,-4.97478e-01,-5.08009e-02,5.03540e-01,1.34209e-01,1.81014e-02,1.41433e-02,5.76513e-02,6.59213e-01,6.60623e-02,1.21066e-01,-2.90601e-02,-9.12258e-02,-3.59930e-01,1.54727e-01,-7.59827e-01,-3.31544e-01,1.32132e-03,2.25808e-01,-4.38244e-01,-7.75286e-01,7.32508e-02,-5.46115e-01,1.60421e-02,2.93372e-02,2.11753e-01,-4.13917e-01,1.40987e-01,2.52741e-01,3.86281e-02,-4.63142e-01,3.09789e-02,-5.70738e-01,5.44777e-01,-8.51728e-02,
-1.00371e+00,-7.24408e-01,4.74244e-01,-3.76430e-01,-1.62315e-02,3.33428e-01,-5.75928e-03,7.41503e-01,-9.48478e-05,-7.48164e-01,1.42669e-02,-8.86608e-01,-5.43075e-02,6.74954e-01,-3.44399e-01,3.17158e-02,6.83850e-01,1.03635e+00,7.99235e-02,-3.09137e-01,-1.36534e+00,-7.25173e-01,-1.59190e+00,-8.27449e-02,-1.10104e+00,-3.02898e-01,-1.70241e-01,3.40486e-01,-1.56041e-01,-6.51018e-01,-9.71542e-03,-2.38834e-01,2.60823e-01,3.27675e-01,-1.90210e+00,1.28647e-01,-1.16914e+00,-9.10654e-03,1.01785e-02,3.37899e-01,2.53373e-01,-9.32285e-01,-3.99017e-01,-2.40000e-02,-1.11386e+00,4.10724e-03,-1.72493e+00,-1.65504e-01,-5.31894e-02,-1.81501e-01,4.38671e-03,7.93510e-01,3.09440e-01,8.77474e-03,4.82666e-01,9.92385e-01,-1.04540e+00,-5.78205e-01,-6.01983e-01,-1.82987e-02,1.78562e-01,5.84030e-01,-1.34310e+00,2.94374e-02,
-6.48239e-04,-3.58580e-01,-3.40258e-02,7.82500e-01,4.05327e-01,6.85238e-01,-3.33928e-01,2.17755e-03,-2.56621e-01,1.72174e-01,-1.70631e-02,1.13443e-02,-1.79395e-01,-5.85241e-01,-3.29978e-01,-5.38650e-03,2.68860e-01,1.39381e-02,2.43183e-01,1.89510e-03,-2.70886e-01,-3.43336e-01,5.23391e-02,2.10518e-01,-2.55591e-01,-1.28148e+00,3.93455e-01,4.74082e-03,1.92955e-02,3.61970e-01,-1.75601e-03,4.50155e-01,1.53306e-03,-4.12447e-01,1.82875e-05,1.14229e-03,-9.15266e-02,1.02416e-01,2.29632e-01,-7.51944e-02,-6.05540e-03,-6.95488e-04,1.82609e-01,-1.22936e-01,2.10935e-01,1.22845e-02,-1.43765e+00,6.03576e-03,-9.94521e-04,-1.19748e-01,1.50289e-02,-5.44428e-02,2.25975e-03,3.49829e-03,8.54589e-01,2.10533e-02,1.60995e-01,4.53459e-01,-1.33663e-01,-1.64654e+00,-8.42050e-02,-1.27565e+00,1.93992e-01,7.46664e-02,
-5.11865e-01,9.53728e-04,-2.84903e-02,1.39764e-02,1.41320e-01,6.25615e-02,3.77598e-02,2.07740e-03,3.11209e-01,-1.51504e-01,-3.98673e-01,-1.44291e-01,-4.67630e-02,1.86182e-01,4.14361e-01,-6.65155e-04,-1.12061e-01,-1.08078e-04,-2.21883e-02,6.08240e-01,-1.50683e-01,-1.77238e-01,-3.07563e-03,-4.18228e-01,1.08600e-01,-1.95175e-04,4.24426e-02,1.51604e-02,-1.10865e-01,1.59360e-01,-6.09241e-01,-1.08963e-01,1.56896e-01,3.41642e-01,8.11633e-02,1.45682e-03,-8.83681e-02,-3.45353e-01,1.75414e-02,2.25201e-03,-1.98486e-01,4.22327e-01,-1.54877e-01,7.49478e-02,-1.33240e-01,-5.07693e-01,9.60305e-03,1.16582e-02,-2.18588e-03,6.61265e-02,1.84302e-02,-4.64313e-03,7.78966e-03,-4.44344e-01,3.76402e-01,2.84459e-01,2.49172e-02,-1.89557e-01,1.54927e-01,-8.90285e-01,-3.08060e-01,1.93843e-02,1.56552e-01,1.55564e-01,
7.76043e-01,-3.24274e-01,-3.05662e-01,-6.41243e-01,-1.72818e-02,-4.57150e-01,2.06609e-01,6.56289e-02,-1.89937e-01,7.53929e-01,-2.05955e-01,-4.54813e-01,-4.73840e-01,1.75921e+00,-7.70145e-01,6.24456e-02,5.84563e-02,-1.34486e+00,-4.00341e-01,2.60770e-01,-1.07245e+00,1.03231e+00,1.71339e-01,-5.07620e-01,-1.23918e+00,2.68877e-01,-3.51714e-01,1.95937e-01,-5.10736e-01,-4.66120e-01,8.17124e-02,-3.15123e-02,-2.53352e-01,-6.36925e-03,-1.56384e+00,6.34343e-01,-6.44034e-01,1.89264e+00,6.88670e-01,-2.86702e-02,5.63790e-01,3.34985e-01,-3.17902e-01,-5.28361e-02,-2.73470e-01,-1.07974e+00,-1.51515e+00,-9.39772e-01,7.91116e-01,-7.34744e-01,-7.31606e-01,4.31640e-01,-3.50593e-01,4.81855e-01,-1.49604e-02,1.59018e-02,-4.66722e-01,-2.96403e-01,-2.31762e-01,-9.68144e-01,6.90704e-01,-8.91399e-01,-7.14987e-01,6.46646e-02,
-2.66570e-01,8.75902e-03,-3.93038e-02,2.00096e-01,6.06723e-02,2.79546e-01,-2.34019e-01,1.06342e-01,-5.63372e-03,-1.35981e-01,1.28095e-01,-6.96581e-02,-5.19250e-02,7.30885e-03,2.28474e-01,-4.85687e-02,-5.63810e-03,1.42745e-01,1.21496e-03,-4.54829e-02,-2.19033e-01,-4.35664e-02,8.40941e-02,1.45002e-01,2.78261e-01,-3.88712e-01,4.73459e-02,7.38534e-03,1.15682e-01,1.50831e-01,-6.62691e-02,1.91565e-02,1.00689e-02,2.01717e-01,-1.35779e-02,-4.28034e-01,1.04874e-01,1.44031e-01,-8.89887e-02,1.21889e+00,1.38386e-01,-1.34612e-01,1.42733e-01,-1.20182e-01,-8.25280e-02,3.52657e-01,1.14852e-01,3.12398e-02,-2.15742e-01,-8.15238e-03,5.93356e-02,5.48288e-02,8.58643e-02,8.34841e-02,1.42148e-02,-5.05295e-02,1.03743e-01,2.30740e-01,-1.43097e-01,-4.13434e-01,1.39069e-01,3.60525e-02,1.87278e-01,-5.50557e-02,
-3.59831e-03,3.78707e-01,3.40510e-01,-2.34599e-01,3.28225e-02,-5.68942e-01,1.29883e-01,-6.49549e-01,-2.17567e-01,-1.70146e-01,5.56807e-01,4.14668e-01,2.44461e-01,3.10512e-01,-2.09637e-01,4.36721e-01,4.80658e-01,-3.08698e-01,1.86903e-02,2.97696e-01,7.10726e-03,-1.19349e-01,1.07242e-01,-2.50796e-02,4.89499e-01,2.69594e-02,-8.30438e-03,-2.78668e-01,2.35610e-01,8.13046e-02,4.57894e-01,7.70449e-02,3.47341e-01,-4.22756e-02,3.40943e-01,6.56305e-02,3.42545e-03,1.75895e-01,2.78228e-01,-1.20980e-01,-4.07153e-01,-2.50346e-01,-1.12715e-02,-3.28683e-01,2.95432e-01,-2.06950e-01,1.37164e-04,1.98340e-01,2.68918e-01,-1.09520e-02,-1.68129e-01,-2.31627e-01,1.18712e-01,6.22913e-02,4.58882e-02,-4.15596e-01,1.89945e-01,4.58571e-01,-3.05310e-02,6.37478e-05,-5.14464e-01,1.53810e-01,-1.22141e-01,-2.11548e-01,
7.06768e-03,1.96825e-01,-5.36040e-02,6.35849e-05,1.29025e-01,5.52365e-02,1.63483e-01,-3.69605e-02,-1.58109e-02,2.25168e-03,-6.00169e-02,2.89998e-01,5.20826e-01,1.53430e-01,-3.55486e-01,-8.61572e-03,3.81903e-01,4.30107e-01,1.20491e-01,4.15961e-02,3.94008e-01,1.73820e-01,1.17699e-01,3.00692e-01,1.17047e-01,-3.14814e-01,-3.81624e-01,-3.20253e-01,-3.88032e-01,1.73783e-01,3.81628e-03,6.01360e-02,7.03671e-03,3.49214e-01,5.24285e-03,-3.45815e-01,2.81372e-02,5.27149e-03,5.07182e-02,5.28770e-03,-1.51111e-01,9.65289e-02,8.91453e-03,6.81245e-01,6.60776e-02,-1.11350e-01,9.99632e-02,3.53562e-02,1.02467e-02,-2.62522e-02,1.49084e-02,-3.89760e-01,1.35873e-03,3.88100e-03,-6.33889e-02,-1.15664e-01,7.70684e-02,5.29244e-02,5.27730e-04,-2.30233e-01,7.14848e-02,5.40156e-01,-2.10600e-01,6.75625e-03,
-6.36803e-01,1.18130e-01,4.24272e-02,3.64942e-01,1.93454e-01,2.08633e-01,1.37176e-02,9.14733e-02,1.08471e-01,-2.32857e-01,-8.84335e-02,1.51007e-01,2.56536e-01,5.08197e-01,1.14965e-01,-2.07550e-01,2.81163e-01,-9.99384e-02,1.71685e-01,-2.02622e-01,-3.44221e-01,-4.66244e-01,2.64005e-01,1.92725e-01,1.98709e-01,4.16712e-01,2.95919e-01,-1.80311e-02,-2.52583e-01,-5.58043e-01,3.35772e-01,1.28424e-01,-2.38608e-02,-6.31316e-02,-3.02453e-01,-1.59989e-01,1.66921e-01,-1.99030e-01,-4.46595e-01,-1.23288e-01,1.55640e-02,2.51391e-03,4.28309e-01,5.16183e-01,2.10838e-01,-3.70294e-02,1.36117e-01,3.53495e-02,1.75254e-02,-2.52887e-03,1.86364e-01,1.16812e-01,3.20689e-04,2.05831e-01,5.44284e-01,2.31860e-01,1.72727e-01,-1.44665e-04,3.32172e-01,-1.67542e-02,-1.93300e-01,1.21129e-01,-1.75627e-02,9.81842e-02,
-1.60728e-01,1.93786e-01,2.12050e-02,5.78160e-01,-1.75281e-03,2.65676e-01,-6.69238e-01,7.92929e-02,-3.08384e-02,-4.15409e-01,-8.16183e-03,-5.40700e-01,-1.41560e-01,-4.56615e-01,1.46014e-01,1.91014e-02,1.80540e-01,3.22276e-01,1.23301e-01,9.40715e-02,-1.03193e-01,-6.90346e-01,2.25388e-01,-1.42395e-01,1.87143e-01,-2.88915e-01,9.69906e-01,5.39600e-01,-1.22420e-01,6.48809e-01,4.22808e-02,1.25489e-01,1.20881e-01,1.00295e+00,-1.95754e-04,6.50639e-04,-1.45926e-02,-2.29863e-01,-2.97902e-01,9.61755e-01,4.75082e-01,-3.12021e-01,-1.32243e-02,1.88037e-01,7.27776e-02,-7.23553e-01,-1.47594e-06,2.56367e-03,-2.74246e-01,3.91791e-02,1.70544e-01,-3.72404e-02,-1.37034e-01,-7.52480e-01,1.41924e-01,5.48662e-01,8.58699e-02,4.78095e-02,1.29341e-01,-1.93006e-01,-1.16862e+00,4.64667e-01,-4.61923e-03,1.17814e-01,
-4.93975e-05,8.74690e-05,1.45904e-04,-1.52488e-04,1.47322e-04,9.65462e-05,-1.66392e-04,-8.62405e-05,-2.28931e-04,1.60667e-04,-3.28288e-05,-2.32831e-09,4.86484e-05,1.88739e-04,1.37482e-04,3.04879e-05,-2.99711e-07,3.43344e-05,7.59327e-05,-2.97592e-06,-8.49576e-06,-1.78577e-04,1.77736e-04,3.15815e-05,-1.47800e-04,-4.67564e-05,-4.96754e-05,-5.57123e-05,1.52085e-04,-1.12791e-04,1.52069e-05,4.19670e-04,2.26077e-04,1.53207e-04,2.03800e-05,1.58368e-05,-1.19965e-04,1.67457e-05,-1.23367e-04,-3.86907e-05,7.40554e-05,3.00632e-05,-3.38033e-05,2.48618e-04,-4.22499e-04,-4.17626e-05,2.84408e-05,1.68129e-04,-7.13197e-05,-3.74023e-04,3.94173e-05,-3.52972e-06,-1.91677e-04,4.00767e-05,-4.99130e-05,1.13994e-04,1.80324e-04,-1.19963e-04,8.20917e-07,4.28934e-04,2.13803e-05,6.15146e-05,1.66256e-09,-2.01557e-05,
2.98029e-01,-3.78680e-02,-3.54680e-01,-1.97842e-01,-4.75600e-01,-3.29824e-01,5.65681e-01,5.95646e-01,-3.51944e-01,7.01663e-01,8.94596e-02,-1.09938e+00,-8.43702e-01,1.28632e+00,-3.74214e-01,-3.17391e-01,-1.08981e+00,-1.16762e+00,-1.42279e+00,-2.13327e-01,-5.52492e-01,4.57146e-02,-3.82381e-01,5.09395e-03,-1.12748e+00,-9.07197e-02,-1.45216e+00,-5.72529e-02,-3.49146e-01,4.63676e-01,1.08874e+00,-1.48482e+00,-9.36855e-01,-8.21572e-02,3.57388e-03,5.34611e-01,-7.04918e-01,7.51324e-01,7.95188e-01,3.71565e-01,1.38218e-01,-1.56947e+00,1.19552e-01,3.45210e-01,-1.69342e+00,-7.04663e-01,4.27528e-04,-6.36952e-01,2.96127e-01,-5.22587e-01,-1.02210e+00,-2.31489e-01,-1.05072e+00,4.80581e-01,-4.28907e-03,-5.69636e-01,2.21993e-01,-1.05964e+00,-1.15179e-01,-1.22235e+00,-1.08389e-02,-5.77724e-01,3.40222e-01,2.45898e-01,
-1.30321e-02,5.13921e-01,-2.40792e-01,-1.14004e-03,5.23777e-01,1.18191e-01,-4.10415e-01,-1.30334e-02,-1.23973e-01,-5.04669e-01,3.61261e-03,2.17063e-01,-7.49731e-01,-7.46216e-01,9.31040e-02,-2.16751e-03,-2.44310e-02,5.16451e-03,1.19070e-02,-9.14058e-02,-1.20104e-03,-3.57227e-01,-5.39827e-02,2.39076e-02,2.76645e-01,-1.59716e-02,-6.74681e-01,8.38286e-01,-8.04175e-01,-9.19803e-02,1.17444e-03,1.69444e-02,2.63280e-01,-9.13334e-03,-2.83810e+00,5.90175e-01,1.46122e-01,3.26964e-01,-3.23716e-01,-6.23175e-03,-5.79824e-04,-1.31484e-01,1.53840e-01,4.35303e-01,1.38383e-02,6.45168e-01,-7.12329e-01,1.21724e-02,-5.93966e-03,-7.54962e-01,4.49184e-01,2.05572e-01,-2.14241e-01,6.43729e-02,7.42437e-01,4.63110e-01,4.06981e-02,5.73071e-03,-1.78550e-01,-4.00279e-01,-2.42001e-02,-2.14315e-01,2.57326e-02,-1.00701e-01,
-3.49984e-01,-1.04780e-02,1.08169e-01,-6.15421e-01,1.21060e+00,6.20462e-03,8.76534e-01,-4.58240e-01,-1.22279e-02,2.48925e-01,-6.08199e-04,-1.85436e-01,-7.45204e-02,1.28773e-01,-7.84886e-01,1.39578e-02,1.41820e-02,5.23352e-01,-3.21554e-01,4.07491e-01,-2.22376e-03,-3.51174e+00,2.68388e-02,9.18581e-03,-4.14609e-02,-1.64501e+00,8.56126e-01,5.51259e-01,9.76560e-02,5.21220e-01,-2.14801e-01,-7.20475e-01,1.38238e-02,6.19623e-01,2.86851e-02,3.01511e-01,3.31797e-01,-3.46957e-01,1.85054e-01,4.99989e-01,-1.42676e+00,-7.55378e-02,-4.49970e-01,1.38439e+00,-1.74201e-02,-2.73356e-01,5.65905e-04,2.00685e-02,-7.45513e-01,1.51193e-02,-2.14545e-01,-2.67448e-01,4.60703e-01,-1.84851e-02,-7.73613e-01,1.85968e-01,-9.58423e-01,-5.36177e-01,-2.93276e-03,-3.79354e-02,1.09366e+00,-2.00499e-01,-7.48484e-02,-2.87121e-01,
4.01798e-03,1.32023e-01,-2.36759e-02,-1.58492e-01,7.26326e-01,-3.60057e-01,-6.32109e-02,-3.12843e-02,-5.73227e-02,2.44160e-03,-1.74939e-01,3.50872e-01,4.05682e-01,-3.89765e-01,-3.46650e-03,6.07176e-03,1.24485e-01,9.27443e-01,-1.68681e-03,-3.22587e-01,-5.82784e-01,-1.61787e+00,-7.19517e-02,4.57581e-01,9.49933e-01,-2.04252e-01,1.19703e-01,-3.15715e-01,-1.01770e-02,-5.94366e-01,2.62917e-01,-3.20702e-01,-3.63170e-01,2.26334e-02,-2.70294e-01,-8.78660e-04,3.34731e-01,6.77314e-01,4.95303e-01,6.81395e-01,-4.54230e-01,-7.76342e-03,-8.23325e-01,1.50333e-01,-8.12278e-03,-2.76742e-03,-2.42916e-02,4.35131e-01,-1.26043e+00,-5.52759e-01,3.97210e-01,-2.72215e-01,5.61995e-02,-4.08916e-01,-1.89902e-05,-2.26624e-02,-5.81681e-01,9.57664e-02,-2.34818e-01,1.18468e-01,-7.07064e-01,-2.61903e-01,1.52309e-02,-2.51939e-01,
-2.96405e-03,-3.29859e-01,-3.37168e-04,-2.01118e-01,-3.01871e-01,-2.90840e-01,2.58372e-01,-6.72061e-02,9.19341e-04,-1.16275e-02,-3.01014e-04,-6.30813e-01,1.82135e-01,-2.70534e-03,-3.18358e-03,9.44960e-01,-6.95458e-01,3.09073e-01,-8.85481e-01,2.51877e-01,2.46057e-01,1.36484e-01,-1.16646e+00,1.22672e-04,8.87693e-05,-4.02943e-02,-1.05898e-01,-8.65783e-01,-7.86485e-02,-4.02123e-02,-2.20395e-03,-4.08026e-01,-4.61900e-01,2.10694e-02,1.34938e-02,3.61121e-02,-1.46663e+00,-2.24794e-01,-1.05846e-02,4.89702e-01,1.62643e-04,-1.41390e-03,2.13779e-01,-1.80230e-02,7.26414e-01,2.97913e-01,4.31099e-02,-3.06659e-02,-3.49882e-01,-3.39380e-01,1.37930e-01,1.70079e-01,4.45673e-01,-4.64599e-03,-6.14206e-02,-4.82124e-01,-4.73419e-01,-1.18653e+00,-4.96546e-01,1.19566e-01,4.87115e-02,1.62178e-01,-1.02178e-01,1.16978e-03,
6.81243e-01,-5.45054e-01,-9.37848e-01,2.22536e-01,-1.15361e+00,1.99020e-01,1.27872e+00,3.65270e-01,-2.63099e-02,3.78003e-02,6.79622e-02,-1.36934e+00,2.10509e-01,1.17687e+00,1.52200e-01,-7.20592e-03,-1.44044e-01,-1.08175e+00,2.66781e-01,-7.61847e-01,-1.10841e+00,-2.28579e-01,-1.00110e+00,-5.38841e-01,-2.35881e-03,3.01460e-01,-8.45155e-01,-1.64849e+00,-1.22706e+00,-6.27371e-01,4.27328e-01,-5.12170e-01,3.72772e-01,5.35003e-01,-3.26811e+00,4.36390e-01,-4.48858e-02,8.85302e-01,-1.25925e+00,4.75778e-01,7.01211e-01,-1.42428e+00,-3.31799e-01,-6.12425e-01,-2.68474e-01,-6.85153e-01,5.17739e-01,2.14000e-01,-2.44163e-01,-1.48852e+00,-4.01236e-01,-1.78900e+00,4.68823e-02,8.02187e-01,1.04402e-01,3.68642e-01,-6.83195e-01,-4.10596e-01,3.08486e-01,-1.69848e-01,-3.76089e-01,-5.31590e-01,-2.46020e-01,5.99031e-01,
-3.52867e-03,3.91957e-02,1.33181e-01,-8.63185e-03,3.19653e-01,-6.37216e-03,7.13770e-03,-3.77453e-01,-1.28917e-01,-1.43460e-01,-1.02875e-01,1.16214e-01,1.23020e-01,-9.44196e-02,-3.49941e-01,8.14618e-04,6.79451e-02,6.50113e-02,-3.95442e-02,2.66115e-01,-3.05712e-01,2.54430e-01,1.00655e-01,1.02558e-01,2.35288e-01,4.58330e-03,2.24225e-01,1.73988e-01,4.60326e-02,-3.52223e-01,5.47242e-01,-1.67810e-01,2.43121e-01,-7.19718e-01,1.45184e-04,1.07998e-01,1.15971e-01,1.26435e+00,-1.04720e-03,3.68884e-01,-1.79504e-01,1.91469e-01,-4.72056e-02,-1.57629e-03,-2.32195e-02,-2.39382e-02,-1.78662e-01,-9.61386e-04,2.48083e-01,-1.17659e-01,-1.55954e-01,-1.59913e-01,4.02499e-03,3.01296e-02,2.02412e-02,-3.16208e-01,-2.66504e-01,-2.51371e-01,-6.77404e-03,-6.81404e-01,6.83542e-02,-6.79347e-02,1.99960e-01,-1.85039e-01,
-4.64962e-02,5.36894e-02,-2.02701e-01,-1.74142e-01,3.35540e-02,-4.14823e-01,9.25487e-03,-3.18425e-01,5.24451e-03,-2.72988e-03,-5.60524e-01,-7.65759e-02,-7.25997e-03,-1.26760e+00,-1.58454e-01,3.86247e-02,-2.68330e-03,7.11879e-01,-8.10142e-02,5.23920e-01,6.44431e-04,-1.02485e+00,-1.83329e-01,-4.36039e-03,9.15971e-01,-5.50814e-01,6.97038e-01,2.52870e-03,4.34704e-02,-6.92055e-01,-4.06906e-03,1.89273e-01,-1.42991e-01,-3.91173e-02,3.37392e-01,-3.00616e-01,2.60675e-02,9.61143e-01,4.58428e-01,-2.11562e-02,-2.20960e-03,-3.14566e-01,-6.91734e-02,1.04566e-01,-4.53615e-02,-1.61743e-05,6.68137e-02,6.26604e-01,-2.31576e-01,-4.89090e-01,-2.02104e-03,-2.80557e-02,4.01618e-01,-2.66342e-01,-2.02546e-03,1.73281e-01,-1.49545e-01,-3.62267e-01,1.64013e-02,2.36546e-02,2.86154e-01,-9.09599e-02,1.31738e-02,-2.18137e-04,
1.22640e-01,3.70945e-01,-3.36479e-01,7.93800e-01,-3.45613e-01,-5.02630e-01,-4.43628e-02,1.00795e+00,-1.25978e-01,6.49516e-01,-3.12342e-01,-4.62493e-01,-4.68660e-01,1.48776e+00,9.78128e-02,2.88784e-01,-4.97680e-01,-1.15064e-02,3.69331e-03,-3.09965e-01,-3.51369e+00,-5.81059e-02,-4.90151e-01,-5.50494e-01,-4.75349e-01,-4.81707e-01,-9.14890e-01,2.62412e-01,-2.38783e-01,-2.58747e+00,1.02263e-02,-6.05900e-01,-1.57991e-01,-1.58298e-02,-2.23297e+00,9.62592e-01,1.23142e-01,1.81585e-01,-7.55244e-01,1.58019e+00,1.04896e+00,-7.96379e-01,-7.01790e-02,-4.12807e-02,1.02026e-02,-1.22202e+00,-1.33181e+00,-9.45412e-01,1.75434e-01,-5.60828e-01,2.31852e-01,-4.84449e-01,-6.01103e-01,5.21741e-01,4.33876e-01,-3.62039e-02,3.24154e-01,3.65295e-01,1.29787e+00,-4.85733e-01,-2.64375e-01,-1.27078e+00,-4.02486e-01,9.03090e-01,
8.68987e-01,-4.66816e-01,6.91490e-05,-4.51799e-01,1.62875e-01,-5.83547e-01,-3.42649e-02,2.19857e-01,4.33181e-01,-1.36987e+00,1.51575e-01,-1.72286e-01,-1.28206e-02,1.68921e-02,-4.49222e-01,7.87441e-02,-1.10740e-01,2.53398e-01,3.58799e-02,-6.47609e-01,2.49704e-03,4.47102e-01,-4.12546e-01,-1.75623e-01,8.55381e-01,-8.66447e-03,4.76366e-01,-2.15161e-01,-5.36185e-01,-1.76797e-01,-1.35204e-03,5.59828e-01,1.82364e-01,2.02983e-01,-1.91269e-01,-8.02735e-01,-4.30756e-01,5.14731e-01,-7.48333e-02,9.71447e-01,5.42954e-03,4.81179e-02,-8.90017e-01,1.06655e-02,-1.31971e-02,-1.18424e+00,1.09434e-03,1.44637e-01,-7.88005e-01,-6.63557e-01,-6.48766e-01,-1.09567e-02,-3.29616e-01,1.03194e+00,-3.82838e-01,-6.34919e-01,-3.72141e-01,8.41333e-04,-7.57810e-01,-1.00318e+00,3.56742e-02,-8.88322e-02,-5.04244e-01,1.91693e-01,
6.69500e-01,-9.85701e-02,-1.60922e-01,-5.82041e-01,1.84602e-01,1.93823e-01,4.00367e-01,-1.02535e-02,4.15611e-01,7.64045e-01,4.62040e-02,4.60810e-01,-2.53292e-01,-2.64710e-01,-3.11809e-01,3.81133e-01,1.22195e-01,-1.26884e-02,-1.04382e-01,-6.16474e-01,-1.08816e+00,6.64086e-01,-5.77138e-01,1.24034e-02,5.16267e-01,-7.02105e-01,-5.61661e-01,-1.88327e-01,1.63355e-01,-1.45904e+00,-3.09963e-02,1.12137e-01,5.05323e-01,-6.26723e-03,-1.32247e+00,1.37797e-01,2.99082e-01,-9.83620e-02,-1.64333e-02,3.78289e-01,4.24842e-03,1.92807e-01,-2.80028e-03,-7.01673e-03,-1.62684e-01,1.02900e-01,-9.99935e-01,2.92082e-02,6.16938e-04,-3.56727e-02,-1.69176e-02,8.56554e-02,4.68294e-01,8.17626e-01,-1.91037e-01,-5.92548e-01,-4.28453e-02,2.80740e-02,-1.84725e-01,-7.33509e-01,3.93216e-03,-1.05712e+00,1.09093e-01,4.62444e-04,
5.64847e-02,1.04771e-01,-4.22754e-01,3.09646e-01,-1.26654e+00,-7.50105e-01,-1.22657e-01,-1.37322e-02,-1.85493e-01,-4.10726e-01,-8.54526e-03,4.30384e-01,1.02086e-01,5.21524e-01,4.19278e-01,-2.21756e-03,5.69978e-03,1.55102e-01,4.00733e-02,2.69428e-01,-7.14981e-01,1.07553e-01,-6.28848e-01,-9.26537e-01,-3.22108e-02,-2.20229e+00,-4.46999e-01,-2.74354e-01,-1.36666e-01,-1.40864e+00,2.60151e-02,-2.05412e-01,-1.57798e-02,1.08355e-02,2.56800e-01,-1.07826e-01,7.36890e-03,1.29529e+00,3.65501e-01,-2.34329e-01,7.73620e-01,-2.30568e-01,4.32981e-02,-2.24351e-03,-3.99084e-01,-5.36160e-01,2.49518e-03,3.08277e-01,1.13068e-02,-9.36245e-02,-2.78618e-01,6.04213e-01,8.63496e-01,-3.09762e-02,4.72437e-01,-2.11312e-01,3.11352e-01,-1.35811e-01,-7.03185e-03,-6.63353e-02,2.51264e-02,3.57793e-01,-1.13881e-01,7.38116e-01,
-1.98610e-03,2.98573e-01,-5.30425e-02,-6.67293e-01,5.10516e-01,-4.81463e-01,-5.59007e-01,-3.55206e-01,3.26200e-01,-1.12900e+00,1.07139e+00,-6.43675e-02,-1.13883e+00,-5.09265e-01,-3.00419e-01,-3.50454e-03,-4.95425e-02,1.77740e-01,9.78240e-01,8.69144e-01,-3.35934e-03,-1.33150e-02,2.63750e-01,-2.57127e-01,-6.18859e-01,1.10165e-01,1.36427e+00,5.60314e-01,1.50132e+00,5.66773e-01,-1.35314e-03,6.24618e-01,-4.44628e-03,1.10125e-02,-1.60148e-01,-1.62876e-01,2.21158e-03,9.25660e-01,-1.96262e-01,-2.02174e+00,-1.01808e+00,-1.03184e+00,-3.88159e-02,-6.21004e-02,4.53323e-01,-3.19204e-04,-9.77828e-02,1.74665e-01,-4.74500e-01,1.01611e-03,3.75222e-01,1.12461e-01,-1.92548e-03,-2.06485e-01,9.25843e-01,-6.37363e-02,-1.12130e-01,-2.95915e-01,-1.06112e+00,1.43642e-03,4.36357e-02,1.66307e-01,-8.19395e-02,2.95891e-01,
-1.01753e-01,-1.93256e-01,-3.75109e-01,4.11019e-02,1.94549e-01,9.35964e-02,-3.04808e-01,7.09002e-01,2.47568e-01,1.97476e-01,-7.42387e-01,-8.80929e-02,3.31913e-01,2.00081e-01,-1.51850e-01,1.08487e+00,1.98442e-01,-6.58229e-01,2.02369e-02,-5.25063e-03,1.59715e-02,4.72059e-01,7.53881e-03,9.24384e-02,-7.50888e-01,2.21092e-01,-8.77336e-03,-2.49925e-01,2.82224e-01,3.26818e-01,6.38899e-01,-1.99806e-01,9.53813e-02,1.45943e-01,-6.42404e-02,-5.25309e-01,7.10906e-02,2.65393e-02,1.62315e-01,-2.29083e-01,-2.22016e-01,8.16200e-02,5.22328e-01,-1.09224e-01,-4.76483e-02,-4.18253e-01,-5.42999e-01,-1.65504e-01,2.48385e-02,-1.13340e-01,1.57054e-02,7.22214e-02,-1.78231e-01,-1.84689e-02,5.37859e-02,-4.60337e-02,-1.12853e-01,-1.57872e-02,-2.16943e-02,5.05578e-02,9.69604e-02,-1.68779e-01,-8.37748e-02,-2.56550e-01,
-3.92167e-01,4.63639e-02,-1.35714e-02,2.95835e-01,7.70939e-02,2.88156e-01,-3.64580e-01,8.71266e-01,1.73444e-01,-5.93236e-03,1.98276e-01,2.26253e-01,5.33470e-02,-9.81325e-01,3.77479e-01,9.83985e-02,9.01997e-02,-9.44103e-02,1.28820e-01,3.00789e-01,8.53442e-02,-2.70782e-01,-6.27116e-03,-6.85561e-02,-5.37368e-02,-5.32368e-01,1.78836e-01,7.52008e-01,7.54646e-02,1.67440e-01,1.46183e-01,2.20532e-01,-1.39220e-02,-6.12203e-02,3.56323e-04,7.37930e-01,7.16769e-02,-2.47917e-01,-2.83011e-01,2.87926e-01,6.58952e-02,-3.90730e-01,4.11515e-01,3.31537e-02,3.74619e-01,-1.45764e-01,2.13169e-04,4.44265e-02,-1.58923e-01,-1.47704e-02,1.58251e-01,-1.57410e-01,-3.31758e-01,-1.49228e-01,7.33308e-01,4.03887e-01,9.15524e-02,3.33985e-01,1.04190e-01,-2.66525e-01,-1.53086e-01,-5.11704e-01,8.46476e-02,8.64827e-02,
-2.19459e-01,-4.37024e-01,-4.57689e-01,-1.21654e+00,-2.27694e-01,-6.03368e-01,-1.48031e-01,8.88782e-01,1.00930e+00,-6.46229e-02,-9.97323e-03,-2.46509e-01,1.03454e-01,1.40983e+00,8.08001e-01,-5.65606e-01,-4.28677e-01,6.54857e-01,-5.17125e-01,-2.28012e-01,-2.97867e+00,-7.38268e-03,6.10365e-02,1.23791e-01,1.67681e-02,-3.18706e-01,-9.04243e-01,-1.15555e-01,1.27495e-01,-2.08864e+00,3.18360e-01,1.36320e-01,-8.34997e-01,8.70379e-01,-1.75988e+00,8.64330e-01,-3.00447e-01,1.75662e-03,-4.43818e-01,2.60869e+00,3.44937e-01,-6.83029e-01,-4.29379e-01,8.93751e-01,-1.53277e-01,-3.93394e+00,-4.95789e-01,-3.18371e-01,7.36338e-02,-2.08623e-02,-2.69352e-01,-5.77099e-01,2.00178e-02,2.47167e-01,1.21620e-01,7.86142e-01,2.01653e-02,-4.39976e-01,-2.15313e-02,-3.64132e-01,-5.04171e-01,-8.83434e-01,-7.44774e-01,5.57577e-01,
-2.75685e-02,1.30176e-02,5.33406e-02,-6.09284e-01,1.14412e-02,-6.23758e-02,1.36697e-01,-1.09379e+00,-2.05698e-02,-3.23851e-01,5.95281e-01,2.27992e-02,-6.46446e-01,1.25439e-01,-2.17868e-01,1.55853e-01,1.25204e-01,2.14382e-01,-9.16916e-03,-5.01047e-03,-2.52550e-01,2.20867e-01,9.58672e-02,8.28139e-01,3.62865e-01,4.36922e-02,9.61390e-01,2.31956e-03,-1.47957e-02,8.51069e-01,6.93351e-03,1.17031e-01,4.81791e-02,2.17930e-03,-6.61802e-02,-1.55965e-01,-2.28542e-01,6.04261e-03,1.44931e-01,7.37513e-01,6.64293e-01,1.04445e-02,3.43537e-02,-1.05850e+00,1.34570e-02,-1.45736e-01,7.99478e-01,8.05492e-01,2.37958e-01,-4.07948e-01,3.71085e-01,4.67726e-01,-1.93146e-01,-1.36894e+00,-2.06428e-01,-1.73538e-02,3.46947e-01,4.02638e-02,-3.68004e-01,-1.84318e-02,-3.05671e-01,1.91937e-02,-2.41058e-01,-2.23509e-01,
-6.79905e-03,-9.59135e-02,-2.87776e-01,1.21428e-02,-4.63517e-01,-1.49321e-01,1.17653e-01,-7.50404e-01,5.38366e-01,-2.80598e-02,1.86926e-03,-2.87949e-02,1.14622e-01,-3.01222e-02,9.29029e-02,2.64244e-03,-4.02724e-01,2.44175e-01,-3.48795e-02,-2.36432e-01,-6.33010e-04,-4.39251e-01,-3.58345e-01,-1.50896e-03,5.39963e-01,-1.96132e-01,-9.96586e-01,-1.97440e-01,2.34234e-01,-1.20499e-01,3.36815e-02,-5.80192e-01,2.21709e-01,-8.00427e-02,-2.55980e-01,-1.62715e-01,-9.19843e-01,8.62038e-01,1.30023e-02,4.42077e-01,-1.27952e-02,-5.49129e-03,-2.17983e-01,2.83894e-03,-1.86648e-01,2.01442e-02,6.44215e-03,-1.71081e-01,1.34504e-01,-1.21949e-02,-3.20327e-01,2.18514e-01,1.79620e-01,-1.70545e-02,-1.20992e+00,-1.75420e-01,1.99014e-02,-2.77164e-01,-4.58583e-01,7.50295e-02,3.70500e-01,-2.93190e-02,2.89551e-01,6.34329e-03,
6.21213e-03,2.23292e-01,-2.45803e-01,-2.55299e-01,7.45805e-01,-1.45413e-02,-7.18980e-01,-5.51829e-03,2.24273e-01,6.98901e-02,-6.85591e-02,7.69799e-01,4.51111e-01,1.07450e+00,-9.49904e-01,1.99737e-01,-3.08123e-02,8.66569e-02,-2.54440e-01,-8.72630e-02,-1.53833e+00,-1.26196e+00,1.14098e-01,-4.58177e-01,-1.03286e-02,-1.15011e+00,1.20617e-01,1.29275e-01,1.28277e-01,-1.12383e-01,-2.48476e-01,2.16813e-01,4.86468e-01,-1.84971e-01,-1.15649e+00,6.65665e-04,-5.33672e-03,2.91490e-03,3.62787e-02,1.32812e+00,-1.20919e-01,7.63744e-01,-1.10580e+00,-2.49474e-01,-1.68473e-02,-1.55550e+00,-6.23512e-01,-6.37341e-01,2.42802e-01,-2.45310e-01,-3.62603e-01,4.75546e-01,-1.10312e-01,3.03287e-03,4.98126e-01,-3.18825e-01,1.11692e-02,-3.02431e-02,-7.77717e-01,-6.10421e-01,-5.46636e-01,-1.88373e+00,-1.41953e-01,1.58935e-01,
-8.21246e-03,-2.77458e-02,-2.01374e-01,-1.34150e-01,-3.23846e-02,-1.38809e-01,-6.89520e-03,-1.71855e-01,-2.29407e-01,3.90425e-01,9.87881e-04,-1.07367e-01,-1.20059e-02,6.94312e-01,-9.20612e-02,4.23100e-03,-9.07826e-02,8.45939e-02,-9.56832e-02,6.57311e-03,-2.23542e-01,1.26266e-01,3.89217e-02,1.62944e-01,-1.34021e-01,-3.23995e-01,-3.47149e-02,2.70073e-01,5.21038e-02,-3.25282e-02,-1.95379e-01,5.57724e-03,2.22161e-02,-5.71906e-02,1.76957e-02,-8.31099e-01,-8.62786e-02,6.91488e-01,-1.39862e-01,-4.62369e-01,-1.51109e-01,-8.51445e-02,-1.05190e-01,-1.69901e-02,-2.08957e-01,-4.16818e-01,-3.07924e-01,-3.51438e-02,-2.57432e-02,4.71714e-02,2.56074e-02,2.14152e-01,-7.89687e-03,3.06436e-01,1.40698e-01,8.49377e-02,-7.25924e-03,2.17371e-03,3.46482e-02,-1.25332e-01,-9.24164e-02,-3.58526e-01,-1.34201e-01,-3.43447e-01,
-1.92453e+00,-4.83492e-01,-1.12095e+00,2.05684e-02,-1.22816e+00,-3.81253e-01,-1.73855e-01,4.18688e-01,5.29725e-03,4.83333e-01,-1.65822e-02,-3.87669e-01,-7.26733e-01,8.71377e-01,1.96317e+00,-1.09343e-02,-8.58268e-01,-2.81627e-01,-4.89392e-01,-5.15773e-01,-4.12971e-02,2.08260e-01,1.44951e-02,-6.70347e-01,4.23870e-01,-2.12745e-03,-1.92784e-01,-1.37733e-02,-8.57090e-01,1.01584e-01,-8.35982e-01,-1.31308e+00,-1.27652e+00,1.28324e+00,-3.83911e-01,-2.35535e-02,-3.62638e-01,5.25822e-01,3.67591e-01,-1.18594e+00,1.42687e+00,-2.42865e-01,4.55850e-01,-6.32870e-02,-1.01874e+00,2.19844e-01,-3.12097e-01,-2.35153e-01,4.82222e-01,-5.03640e-01,-5.09516e-01,-3.59152e-01,-8.87778e-01,2.72718e-01,4.09291e-02,-3.53323e-01,2.30066e-02,-4.32580e-01,-5.50830e-03,-5.23533e-02,3.20172e-03,-3.70150e-01,5.10981e-01,2.18012e-01,
4.84797e-04,-1.03754e-02,3.62567e-01,-1.34422e-03,-1.19002e-02,3.14834e-01,-2.57509e-01,2.67927e-01,-1.94379e-02,2.61252e-03,3.21676e-01,-4.89134e-03,-4.80041e-02,-1.54588e-01,-4.73140e-02,1.03278e-04,6.22440e-01,1.88241e-01,4.93662e-01,-2.65508e-01,-2.43723e-01,3.84368e-02,-3.65290e-02,-7.24906e-01,1.78920e-02,-1.18055e+00,-3.74600e-01,3.40488e-01,5.19617e-02,5.04104e-02,6.46285e-02,3.99931e-01,-1.52806e-01,1.46058e-02,-1.89959e-04,4.09587e-01,8.54248e-03,5.21587e-04,-2.41172e-02,5.04726e-01,6.53747e-03,6.69922e-02,6.00832e-02,9.97703e-02,1.50371e-01,5.66658e-03,5.24631e-01,-2.08518e-01,3.47438e-03,-8.63815e-02,2.74346e-01,1.21042e-01,-2.74407e-02,4.71271e-03,6.90658e-01,-2.01318e-01,-2.04139e-01,-1.79715e-01,1.12216e-01,-3.38238e-02,6.27058e-03,-2.84994e-01,8.16596e-02,-3.34985e-01,
1.38033e-01,2.18827e-01,-7.18402e-02,-3.42073e-01,2.27004e-01,-4.73181e-01,-3.04257e-01,-5.08371e-01,2.95589e-03,5.75989e-02,-2.69838e-03,6.05953e-02,2.60814e-01,-3.38960e-01,-6.30371e-01,-9.08818e-04,8.26458e-01,-1.79724e-01,4.41588e-01,1.64256e-01,-1.18498e-01,2.37338e-01,2.56898e-01,-8.55721e-03,-3.19988e-03,-3.01748e-01,-3.71711e-01,3.73015e-01,1.61261e-01,1.51850e-02,4.54538e-01,3.98543e-01,1.83886e-01,2.20664e-03,-2.40090e-01,-8.94175e-04,9.07760e-02,-2.96445e-01,-1.08340e-02,2.39519e-01,-6.12503e-01,9.02601e-03,-5.27273e-01,2.41421e-01,1.91996e-01,-5.01660e-01,-5.99633e-02,2.18567e-02,2.91281e-03,-1.75126e-01,-5.67043e-02,-9.52317e-02,1.19652e-01,-2.97423e-02,2.66444e-01,-1.28390e-02,-1.29582e-03,2.85856e-01,-1.41541e-01,-5.31418e-03,-1.45113e-01,-1.02929e-01,-1.11413e-01,1.81835e-03,
-8.73766e-05,3.44984e-05,-2.91006e-05,1.44860e-04,1.40666e-04,1.20107e-05,1.31649e-04,-1.03802e-04,-8.51274e-06,1.27387e-04,8.43025e-05,5.09969e-05,6.25201e-05,-1.29291e-04,6.14492e-05,-5.98938e-05,2.81963e-04,9.63848e-05,4.74694e-04,4.59254e-05,-7.78627e-05,5.58876e-05,6.77063e-05,-2.52879e-05,-3.23618e-05,-9.35273e-05,2.11039e-08,-1.74523e-04,1.50294e-04,2.11778e-04,1.50634e-04,2.70569e-04,2.14059e-04,-5.66464e-05,-5.19926e-05,-8.99726e-06,-1.15246e-04,9.66153e-05,6.44688e-05,-4.65097e-07,-5.98916e-05,5.13217e-05,1.60844e-04,-5.36655e-05,-5.23961e-05,-1.36958e-04,-5.12494e-05,-1.00895e-04,1.39372e-04,5.25629e-05,-5.89731e-05,2.41790e-04,1.24005e-05,1.94510e-04,-1.69835e-05,-1.44436e-04,7.86204e-05,-1.35941e-05,-1.07246e-06,9.32760e-06,1.00672e-04,1.13886e-04,3.10313e-04,-1.59510e-05,
3.23721e-01,1.92210e-01,-7.84226e-03,-8.22424e-02,3.51288e-03,-3.41491e-02,-1.56768e-01,-1.45069e-01,1.93911e-01,5.56409e-01,-4.60514e-01,1.14451e-02,3.04149e-02,6.43482e-01,1.26990e-01,1.32031e-01,-2.56341e-02,2.13463e-02,-1.10720e-02,-1.46691e-01,-2.54734e-01,2.13310e-02,-3.27251e-02,-4.66509e-02,-4.83644e-03,6.96563e-03,-2.34228e-02,4.42536e-01,5.45150e-02,1.08074e-01,4.11793e-01,1.54162e-01,2.17645e-01,-7.28663e-03,-3.96059e-01,-2.13157e-03,7.00846e-01,-1.98959e-01,1.31728e-01,-4.47660e-01,-4.80856e-01,3.53062e-01,8.71500e-02,-5.09119e-01,-4.77256e-01,-5.23040e-01,-1.32356e-01,-2.39129e-01,-1.95485e-02,1.09258e-02,-4.45325e-01,7.22313e-03,-2.22995e-01,2.16908e-04,-3.26310e-02,-2.12807e-02,3.24053e-01,7.94410e-03,6.60821e-02,-5.55219e-05,4.74653e-01,-1.96501e-01,-4.41573e-01,-1.06182e-01,
4.88770e-03,-9.30070e-02,-8.01316e-02,-3.66318e-01,-8.65672e-01,6.12933e-02,3.75008e-01,-7.29834e-02,4.50697e-01,3.62736e-03,1.74304e-02,1.82817e-01,-1.02767e-02,8.44420e-03,-2.97152e-02,9.52006e-01,-5.24406e-01,2.63568e-02,-1.00786e-01,-9.55275e-02,-1.09855e-01,-1.59344e+00,-3.48295e-01,2.94263e-02,5.33978e-02,-9.23378e-01,-2.11618e-02,-3.83668e-01,-9.55350e-01,-3.57747e-02,1.51467e-01,-1.30438e-02,-8.26878e-03,-1.72264e-02,-1.12708e-02,-1.73915e-03,-5.04867e-01,8.10957e-01,3.29671e-01,-3.42907e-01,3.57274e-03,4.14600e-01,1.63392e-01,6.78838e-03,-6.22594e-03,-6.26804e-01,3.43052e-02,-3.05787e-01,1.45017e-01,-4.31421e-01,-1.33824e-01,-4.83867e-01,-3.27153e-02,5.02028e-04,-3.46861e-01,-4.15818e-02,-1.66354e-01,-4.34531e-02,1.39141e-02,3.75842e-01,3.31137e-01,-2.23595e-01,2.43654e-01,-1.61870e-01,
-6.73771e-02,-3.29368e-01,-1.54147e-01,-6.97452e-02,-2.77051e-01,-1.18797e-01,6.67260e-02,-1.20837e-01,-3.69255e-01,-2.83954e-02,-4.77418e-02,2.26521e-03,-4.82927e-02,9.93228e-01,9.27357e-02,-3.37534e-01,-3.22063e-01,3.95046e-01,-1.34722e-02,-8.56589e-02,3.65815e-01,1.87932e-02,-3.24371e-02,-6.00624e-02,-6.67912e-01,1.19423e-02,4.36108e-02,-4.27553e-01,2.58616e-01,6.21208e-03,-3.48140e-02,-1.79963e-01,-1.24673e-01,-4.10152e-01,-2.03530e-03,-2.58409e-01,-1.02587e-01,-1.22528e-01,3.76904e-01,-1.10921e-03,-1.81026e-02,-2.58192e-02,-1.50819e-01,5.52707e-01,-3.19671e-01,-7.30492e-02,-4.24359e-02,-3.19232e-02,1.13324e-01,3.73890e-01,-3.04305e-02,-4.73490e-01,4.17671e-01,-3.00552e-01,-4.54461e-01,-2.97817e-01,-1.40162e-01,-3.77150e-02,1.64380e-02,-3.79914e-01,3.74947e-01,4.00431e-01,1.22574e-01,-1.08056e-01,
2.55188e-01,2.65472e-01,-4.88635e-02,1.30436e-01,-6.99401e-02,-1.09703e-01,-8.87211e-02,-3.24028e-01,-3.13474e-01,-5.52540e-03,4.88387e-01,1.96980e-01,4.19709e-02,6.59116e-02,-2.69845e-01,3.38972e-03,5.41592e-01,3.54127e-01,4.45602e-01,8.91846e-04,-9.58131e-01,3.96440e-01,8.27367e-02,7.32014e-01,-4.71001e-01,1.50736e+00,-2.17746e-01,2.16204e-01,2.09998e-02,-3.78965e-01,1.81373e-01,4.91637e-01,-2.37599e-02,3.10484e-01,-7.00881e-01,7.38995e-02,9.97897e-03,-1.98709e-04,1.12535e-01,-5.64812e-01,-1.48013e-02,-4.48975e-01,-2.48879e-01,-7.32746e-02,-7.66967e-02,5.21229e-06,-3.04654e-01,-4.62694e-02,2.24117e-01,-3.93231e-01,-1.77601e-01,2.09127e-01,7.72047e-02,3.56350e-01,3.23944e-01,-4.71948e-01,1.29063e-01,4.89493e-01,-9.61854e-01,-1.70874e-02,-2.83460e-02,1.57052e-01,4.34311e-02,-2.43915e-02,
1.09688e-03,-2.38073e-01,9.14424e-02,-4.96002e-05,1.59580e-02,1.57023e-01,-1.29359e-03,1.21408e-02,1.61357e-01,-6.22211e-01,-2.74154e-01,3.52756e-01,-8.65939e-03,8.28021e-01,-1.58939e-02,6.87466e-03,1.85156e-01,4.56107e-01,9.96761e-03,-4.55687e-01,-2.18825e-01,-1.42467e-01,6.96263e-04,1.38045e-01,-6.36038e-01,-8.21612e-04,1.52805e-01,1.66553e-02,-7.63916e-01,-1.92409e-01,-1.80450e-03,-9.61403e-03,-1.04193e-04,1.94540e-04,-1.08417e-01,-1.69599e+00,3.99654e-01,-1.72767e-06,2.64793e-01,-1.13363e+00,5.43555e-03,-2.35199e-01,4.20317e-01,1.29096e-01,5.08351e-01,-2.61052e-01,3.99400e-01,-9.36119e-01,1.03652e-01,-9.27108e-03,2.41189e-01,6.79062e-01,-6.34609e-05,5.94144e-03,8.67916e-03,7.11311e-01,1.12186e-02,2.68536e-04,6.72134e-01,1.24797e-04,-3.60574e-02,-3.21839e-01,-4.97236e-01,1.22692e-02,
2.55471e-01,-4.07119e-02,-1.32568e-01,-3.98407e-02,-6.39784e-02,2.89473e-01,1.43481e-01,3.15049e-01,-6.46121e-02,1.65881e-01,-1.24843e-01,2.19981e-01,4.59981e-02,-7.33837e-02,-5.21952e-02,-4.12077e-04,5.95368e-03,-4.22593e-03,-3.72502e-02,-1.16726e-01,-6.62681e-03,-3.10107e-01,-9.53782e-02,-1.25332e-01,-9.13655e-02,-5.18635e-03,1.02065e-01,1.22427e-02,-9.66412e-02,3.91117e-02,-1.33740e-01,3.79246e-02,3.08305e-02,2.71233e-02,1.27807e-04,9.95163e-02,2.04828e-02,-8.96209e-01,-1.50493e-01,3.84611e-01,-1.36756e-01,9.40839e-02,1.31862e-01,2.89516e-01,-8.24283e-02,-2.75955e-01,-2.45741e-04,2.34455e-02,-8.18577e-01,5.33342e-02,1.73692e-01,-7.12814e-02,-1.42549e-01,1.07824e-03,2.56768e-01,3.24307e-01,6.07997e-02,4.35087e-02,-1.58420e-01,-3.20047e-01,-4.06833e-01,-1.21385e-01,-2.01820e-01,1.06200e-01,
8.12521e-02,-9.46417e-02,7.25194e-03,-6.64710e-01,-2.35204e-01,8.72091e-03,-4.79464e-04,-3.59241e-01,7.19216e-02,4.86151e-02,1.89445e-02,-1.46400e+00,7.43111e-01,1.54097e-01,5.92528e-03,5.79532e-01,-3.48216e-01,4.53042e-01,-5.64006e-01,-1.65860e+00,7.77541e-03,6.29853e-02,4.84924e-03,3.94435e-01,4.68564e-01,-5.04182e-01,1.44093e-01,-1.28294e-01,-6.33168e-02,-2.14699e-01,6.16933e-01,-1.39194e+00,-5.23377e-01,1.79453e-03,-1.42171e-01,5.14967e-03,8.03965e-02,-1.92527e-02,-1.93872e-01,6.26263e-03,8.58980e-03,3.03312e-01,1.86001e-02,-4.15606e-01,-2.62377e-01,3.88787e-01,4.53814e-01,-2.89380e-01,-1.48540e-01,-1.60608e-01,3.71095e-03,1.06385e+00,-2.91412e-02,1.75078e-02,7.26875e-02,-2.03434e-01,-8.78848e-01,-4.01646e-03,-2.47928e-01,-7.73847e-01,9.16928e-03,1.87270e-01,1.48122e-01,5.30003e-01,
-5.24758e-03,1.17974e-01,-1.18014e-01,-6.43228e-01,7.25172e-01,-5.81153e-02,-7.03992e-02,6.04089e-03,-7.64445e-03,-1.00607e-03,-2.64811e-03,4.61772e-02,5.37415e-02,-2.67049e-01,-3.39780e-01,-7.92114e-03,4.23949e-02,2.30591e-03,2.70202e-01,3.69686e-01,-4.71270e-01,3.59403e-01,-7.05229e-03,6.73333e-01,-1.35812e+00,-1.33262e-01,8.89641e-02,4.28656e-02,9.08357e-01,9.16559e-02,8.55912e-01,1.05340e-01,-9.24095e-02,8.36565e-02,-2.82680e-01,-5.72212e-01,-1.75597e-02,9.74197e-01,2.00931e-01,-1.56266e-01,-6.99381e-01,1.24026e-02,-2.41655e-01,2.73271e-01,1.10307e-01,1.98293e-03,-1.48996e-01,-7.53032e-02,-1.04447e+00,-4.22234e-02,-8.40229e-02,5.61154e-03,6.13827e-01,-4.19643e-01,-1.12270e-02,-7.33233e-01,-1.93388e-01,-4.46904e-04,-9.81748e-03,1.65526e-02,-2.15932e-01,2.95833e-01,4.12967e-01,2.45868e-02,
1.54934e+00,
6.32174e-01,
-5.49460e-01,
3.16765e+00,
-2.37091e+00,
2.65410e+00,
-1.05703e-01,
7.21080e-01,
-1.49264e+00,
2.99198e-01,
1.18891e+00,
8.29934e-01,
-8.72318e-02,
-3.73692e+00,
-4.20447e+00,
6.70408e-01,
-3.72210e-01,
-2.38858e-02,
-5.28091e-03,
-1.09435e+00,
2.85536e-01,
1.31246e+00,
8.97805e-01,
1.67836e+00,
1.24465e+00,
3.83812e+00,
-2.01574e+00,
-2.41580e+00,
-2.93817e+00,
-1.38969e+00,
-3.98956e+00,
-1.24659e-01,
2.20950e+00,
-7.73162e-01,
-1.71729e-01,
-4.11043e-01,
1.35289e-01,
2.62497e+00,
-1.94166e+00,
-1.64488e+00,
4.14220e+00,
-4.65162e-01,
-4.04019e-02,
1.32258e+00,
-1.63590e+00,
6.19545e-02,
-2.30178e+00,
3.07793e+00,
-2.07372e+00,
-8.17347e-01,
1.48812e+00,
1.48565e+00,
1.43278e+00,
-2.78449e+00,
1.90482e+00,
-1.05981e-01,
-1.53424e+00,
-3.70726e-02,
-3.69636e-01,
-3.54673e+00,
-2.32857e-01,
-2.52402e-02,
-9.73496e-01,
-4.41094e-01,
-1.29225e-01,-2.32979e-02,5.90231e-02,-3.04614e-01,-3.01669e-03,3.65758e-02,9.34419e-05,2.12974e-02,-4.59474e-01,-6.55755e-02,-7.00764e-03,1.67400e-02,-1.50294e-04,-2.52870e-01,-1.38938e-01,-2.22988e-02,1.89175e-02,-1.88362e-04,-1.76727e-01,-4.09983e-02,-1.06093e-03,-1.23763e-02,3.49772e-02,-9.89927e-02,3.07869e-01,5.20788e-02,7.47844e-03,3.20028e-02,1.70650e-02,6.31040e-02,-1.73177e-01,9.23974e-05,-7.96759e-03,-6.17964e-03,-1.50058e+00,-1.51340e-01,-8.51910e-03,3.19061e-02,-3.10509e-02,-7.02870e-03,-3.02435e-02,2.24682e-01,-3.71597e-03,2.53745e-03,-6.19680e-02,4.31556e-01,-3.80542e-01,1.02852e-01,3.60323e-02,-2.12111e-02,5.04330e-02,-2.83339e-01,2.86907e-03,-3.50523e-02,-6.44209e-02,5.29149e-06,-2.58380e-01,-5.56244e-02,5.33304e-03,-3.80804e-01,-4.69811e-03,2.84615e-01,-3.39514e-01,2.93085e-01,
-1.05671e-01,1.93888e-01,-3.87381e-02,-2.47921e-01,4.52659e-02,-8.61246e-02,1.26823e-04,-8.02211e-02,-5.28862e-02,4.10553e-03,-1.42133e-01,2.05599e-03,1.52085e-04,-4.31465e-01,-2.22964e-02,2.05851e-03,7.74025e-03,-8.73115e-11,4.93989e-03,-1.59614e-02,-1.21209e-01,5.96229e-02,-1.50182e-01,-4.54564e-01,-5.08692e-02,-3.53837e-02,1.98701e-01,-8.21434e-02,4.22086e-01,-1.08853e-01,5.69797e-02,1.15797e-04,6.53905e-02,-3.78941e-01,-8.48778e-01,-6.01492e-03,6.33393e-02,2.19015e-02,-1.07417e-01,-1.51619e-03,-7.36711e-02,6.60347e-02,5.12017e-02,7.25692e-02,8.16128e-06,-6.65225e-03,-2.78206e-01,8.12547e-03,-7.31079e-02,3.52340e-01,3.69839e-02,-1.23456e-02,-6.84448e-02,4.90110e-05,7.88739e-02,-3.96029e-04,4.10777e-01,9.28434e-03,2.24529e-01,3.83858e-03,-2.35897e-01,8.09790e-02,-7.53753e-01,-1.01186e-01,
1.45749e-01,1.33076e-02,1.20111e-01,-4.71014e-02,-2.12182e-01,-8.61335e-02,2.93894e-05,7.59184e-03,1.01294e-01,-3.71021e-01,7.51262e-02,8.01936e-02,2.13391e-05,-8.04600e-01,-2.45576e-03,-3.54097e-03,1.87055e-01,6.15432e-05,1.77915e-01,-1.04648e+00,-4.20317e-01,-5.22177e-02,-9.66546e-02,2.05024e-03,5.02308e-01,9.99715e-02,7.23637e-02,-4.35003e-01,3.74331e-01,-5.67918e-02,1.74343e-01,-8.47390e-06,3.67014e-02,5.29426e-02,-1.64405e-01,3.10032e-02,-1.10982e-01,2.03980e-02,1.10918e-01,3.88698e-01,-5.62017e-02,-1.47876e-01,-2.19089e-01,-7.67461e-02,-1.63747e+00,-4.27853e-01,9.68659e-02,-6.46491e-02,-1.09676e-01,-2.06155e-03,1.17282e-01,-1.60408e-01,-1.22656e-01,2.26200e-02,-1.59913e-01,-9.45297e-05,2.12368e-01,-2.77501e-01,-1.02728e-01,1.08257e-01,-1.76911e-01,-8.95074e-02,-3.13197e-01,-5.71286e-01,
-5.27591e-02,1.62900e-03,-1.34796e-01,1.66390e-02,-1.64748e-01,4.03033e-02,-9.34931e-05,-1.48583e-01,2.82639e-02,-2.34102e-01,8.46727e-02,-1.13739e-01,1.06698e-04,6.88360e-02,1.73468e-04,2.07776e-01,-2.33676e-01,4.84528e-05,7.73832e-02,-4.48947e-02,-3.64977e-01,7.32507e-03,-1.75016e-01,-9.85257e-02,4.25845e-01,4.15118e-02,-4.35211e-01,1.22614e-01,6.63737e-02,8.21943e-02,1.14553e-02,-1.03518e-04,8.75048e-02,-1.83663e-01,-2.08824e-01,-2.20319e-02,1.51739e-01,-5.01362e-04,-6.06036e-03,4.58349e-01,-5.97896e-02,-1.41037e-01,1.47066e-01,-3.17800e-02,-3.30078e-03,-2.27186e-01,4.04802e-02,-2.30471e-03,-2.30670e-01,1.62285e-03,-1.09699e-01,-1.99541e-03,1.02938e-02,1.38112e-01,3.55209e-02,1.12134e-06,-1.65186e-02,-3.01696e-01,2.68996e-03,1.43610e-02,8.67064e-02,6.55248e-02,-1.30216e-01,3.97140e-02,
1.27856e-02,-6.11243e-03,4.34121e-01,4.78635e-04,2.31837e-01,-1.35095e-02,1.02265e-04,-7.36961e-03,5.22466e-02,1.07452e-02,-4.39979e-01,-6.33613e-01,-2.53216e-04,-3.76177e-01,-1.00003e-02,2.85597e-01,5.07334e-01,5.56223e-05,1.76622e-02,-1.88070e-01,-2.11863e-02,8.87378e-02,-1.56237e-01,-2.92158e-02,1.88114e-03,4.94133e-02,3.16323e-02,-2.16135e-02,9.50629e-02,3.07249e-01,-3.54643e-01,9.21899e-05,-3.38412e-02,9.13662e-02,8.17081e-02,-3.55861e-01,2.83431e-02,1.41538e-03,2.99373e-01,1.55049e-01,4.39729e-02,1.96247e-02,1.96036e-02,-2.77181e-01,-3.48119e-02,1.94233e-01,5.52089e-03,-5.01475e-02,-7.63328e-02,5.13992e-01,6.81223e-02,-5.13182e-01,6.34333e-04,-4.72237e-01,-2.88043e-01,1.09209e-04,3.56545e-01,-4.24979e-01,1.11479e-01,-2.34037e-02,-3.42307e-01,1.52698e-01,-2.51204e-01,1.48725e-01,
-3.97711e-01,-3.81563e-02,-8.77387e-02,5.70805e-02,2.17669e-01,-5.80590e-02,2.36574e-04,2.26599e-02,-2.50860e-01,1.79887e-01,2.01944e-01,-8.25925e-02,-1.33431e-04,-5.44311e-01,-5.55067e-01,4.39836e-03,-3.82285e-01,3.23493e-05,-3.93511e-01,1.56218e-02,-9.02120e-02,-1.79281e-01,1.30724e-01,-2.19915e-03,1.77574e-03,1.12504e-01,-2.41007e-02,1.39490e-02,1.62203e-02,9.22383e-03,-6.58912e-03,1.76522e-05,-4.74223e-02,3.88237e-01,-2.87501e-01,-2.09755e-01,5.80712e-03,6.44381e-02,-3.34244e-03,2.43708e-02,-8.95649e-03,3.44917e-03,2.00866e-01,-5.91932e-02,4.73319e-01,-3.73622e-01,-4.36659e-01,2.29659e-02,-1.18462e+00,1.81301e-02,-2.66897e-01,-3.47218e-01,-2.85670e-02,-1.35585e-02,-3.70235e-01,-8.99870e-06,6.82850e-01,-8.81282e-01,-9.05912e-02,1.35473e-01,2.01472e-01,2.25936e-01,-3.29005e-02,-6.71095e-01,
-8.25600e-02,-7.14780e-02,1.37762e-01,-2.54165e-03,-3.74412e-01,-8.69651e-03,1.12724e-04,-1.48052e-01,-7.28265e-02,-4.25279e-01,-2.63312e-01,1.37693e-01,2.22179e-04,9.33367e-03,1.73185e-03,-1.89664e-02,-2.85535e-03,1.09739e-04,-7.35327e-02,-1.45836e-01,6.07780e-01,-4.18955e-02,1.30483e-01,-9.55667e-02,-8.68086e-03,1.54396e-01,8.62662e-02,-1.68695e-01,1.28658e-01,2.36033e-01,-1.52431e-01,2.17142e-04,5.53101e-02,2.73311e-01,6.16218e-03,3.17858e-01,-7.17401e-01,-8.23200e-02,2.19465e-01,-1.35689e-01,-4.23778e-02,-3.00598e-01,6.74377e-03,1.26476e-01,-1.06958e+00,2.10759e-01,-1.66994e-01,-6.12997e-02,-2.95100e-01,-9.21452e-03,-3.32570e-02,1.76423e-01,1.62406e-01,3.34854e-03,5.82059e-01,3.14042e-04,8.88245e-02,-7.39311e-02,-7.87293e-02,-1.69636e-01,-2.85281e-01,-2.45739e-01,-4.42395e-01,-2.39368e-01,
1.13534e-01,8.10616e-02,5.88563e-02,8.22626e-02,-4.93836e-01,-4.08455e-04,1.56244e-04,-4.94178e-02,-3.39622e-01,1.27607e+00,-2.81629e-01,8.21646e-03,2.13957e-04,-3.49017e-01,3.60878e-01,6.56464e-02,-2.15807e-04,-8.20555e-05,-2.07719e-01,-1.24630e-01,1.12416e-01,1.43787e-01,2.69316e-02,1.24641e-01,-1.33412e-01,4.87881e-02,1.55669e-01,-1.92261e-01,-1.43843e-01,2.50568e-01,3.13355e-01,1.60693e-04,7.04722e-02,1.42130e-01,-1.00304e-01,-4.44871e-02,4.27354e-01,-6.32355e-02,-5.60848e-01,-2.98702e-01,-7.60540e-03,2.13165e-01,7.24847e-02,6.97513e-02,-4.30481e-01,-1.24955e-01,1.07013e-01,4.77046e-02,2.08826e-01,-3.37778e-01,9.53929e-02,-6.61006e-02,9.87229e-02,-2.78392e-01,8.15908e-01,-3.48588e-05,-1.99027e-01,2.56501e-03,1.48016e-01,-5.85450e-01,-5.41139e-01,6.31531e-02,2.28697e-02,6.06910e-02,
9.72454e-02,-7.65920e-02,-3.05691e-01,1.43414e-01,-8.81178e-02,-1.99798e-01,-1.80534e-04,1.61315e-01,-4.42905e-01,-8.86190e-01,-3.54768e-01,-2.59615e-01,-8.90648e-05,-8.02468e-01,-2.50378e-02,1.98418e-03,5.32259e-01,-7.33371e-06,1.22227e-01,4.73627e-03,3.76630e-02,-1.28006e-03,-7.21044e-02,6.78674e-02,2.31389e-01,5.31857e-02,-1.37117e-01,-6.03462e-02,4.75416e-01,-6.51246e-03,4.19928e-02,2.50843e-04,-1.82067e-02,2.89007e-02,-4.86153e-03,4.54446e-03,-1.28512e-01,-4.09071e-03,2.15346e-01,-3.93579e-02,4.44147e-02,2.48128e-01,6.95638e-02,6.84962e-02,-8.08441e-02,1.73216e-01,2.06161e-01,-4.27641e-02,2.75660e-01,-3.85735e-01,7.44590e-02,-1.17062e-01,1.10918e-02,-9.87284e-02,-2.56782e-01,-6.81047e-05,-9.34665e-04,-3.28892e-02,3.39004e-02,-4.83259e-01,1.24776e-01,1.86806e-02,2.11597e-01,8.94599e-02,
6.64518e-02,9.25513e-03,-2.58059e-01,-6.20959e-02,-9.90831e-03,1.53562e-02,-7.57629e-05,1.73764e-01,9.99128e-02,3.26253e-01,-3.66871e-02,-1.70013e-02,7.55374e-05,-9.26685e-02,-7.67534e-03,1.07239e-01,-9.83416e-04,3.23533e-05,-8.57375e-02,-5.81282e-03,-2.28589e-01,-7.07426e-03,2.00471e-01,2.42750e-02,4.01705e-02,8.81080e-02,4.21191e-03,-3.48372e-03,-2.50319e-02,6.17017e-03,3.91913e-02,-3.13915e-05,6.73431e-03,-3.19189e-02,-5.87131e-03,5.86463e-02,1.09844e-01,-1.01693e-01,8.43189e-03,2.78056e-01,-6.59901e-02,-1.78909e-01,8.73887e-02,-1.88886e-01,3.83526e-02,-3.79599e-03,-6.39220e-02,3.76359e-03,3.57945e-02,1.20116e-01,-1.59877e-01,1.02240e-01,5.37721e-02,-2.01987e-02,8.12849e-02,-7.57737e-05,-5.42763e-03,1.11204e-02,-5.03068e-02,1.21750e-01,-1.12663e-01,3.34253e-01,-1.89694e-01,-2.16402e-01,
-2.10838e-02,-1.20745e-01,-4.39214e-03,5.31820e-02,-2.75217e-01,5.11170e-02,1.63397e-04,3.26340e-02,-1.57739e-01,3.97433e-01,3.24652e-03,9.25515e-02,-4.66094e-05,-3.31603e-01,2.56376e-03,1.91499e-01,3.07697e-03,-2.13265e-05,-2.39630e-01,-2.00570e-01,-1.26998e-01,-8.89209e-03,2.26404e-01,1.41791e-01,-1.02341e-03,-7.03226e-03,1.02045e-02,-6.20712e-01,2.72318e-02,7.96989e-02,1.54846e-01,4.00006e-05,3.55929e-03,3.73462e-01,1.28527e-01,2.51765e-03,4.18401e-01,-3.68446e-03,-3.58734e-01,3.83251e-02,2.63607e-02,3.36481e-01,1.05014e-01,1.53659e-01,-3.02177e-01,9.17015e-02,1.20255e-01,4.68900e-04,4.44883e-02,-5.15438e-02,5.72973e-02,2.07509e-01,1.35222e-01,-2.64046e-02,6.52751e-01,3.48021e-05,-1.85604e-01,1.01191e-01,1.73791e-01,-5.69970e-01,-3.33918e-01,2.35312e-02,4.29730e-02,3.01701e-01,
-9.52149e-02,-1.94676e-02,-4.58417e-01,3.77315e-03,1.00849e-01,-2.09070e-02,6.06485e-05,3.73518e-02,-1.39308e-02,-3.19068e-03,1.45003e-02,2.51562e-01,2.50317e-04,2.84748e-01,-6.00642e-02,1.24414e-01,3.96429e-02,8.98236e-05,-1.32457e-01,-4.27787e-02,4.92527e-02,-5.94420e-02,-1.20186e-02,-2.35719e-01,-1.00219e-01,1.13164e-01,1.78775e-01,-2.15786e-02,-2.87806e-01,1.45310e-01,-7.49237e-02,-2.33359e-04,3.87094e-02,-3.65037e-02,-2.57775e-01,3.22413e-01,4.44502e-01,-2.53393e-02,5.01840e-02,-2.30840e-01,9.18697e-05,4.61955e-02,3.47744e-01,5.22458e-02,1.43560e-01,-3.73559e-01,4.16681e-02,3.55688e-02,-2.79253e-02,1.15307e-01,-1.14961e-03,-2.06038e-03,-4.96037e-02,1.50826e-02,3.27272e-02,2.33469e-04,3.31088e-03,2.70071e-01,-1.94750e-01,8.18979e-03,-2.88965e-01,4.94388e-02,2.01630e-01,-8.43903e-02,
-8.52251e-02,-4.20875e-01,1.09117e-01,-4.63922e-02,-8.80027e-02,-1.05790e-02,-1.78111e-04,2.22082e-02,-2.72638e-02,9.82020e-02,2.02643e-02,-2.56583e-01,-3.22819e-04,2.65133e-02,5.69082e-03,1.27001e-01,-1.71471e-01,7.18166e-06,-8.50877e-01,2.71646e-01,2.51787e-01,1.53486e-02,1.84028e-01,-3.57228e-01,4.09639e-02,-4.65208e-02,-3.97282e-02,-3.71114e-02,-5.98640e-03,-1.41945e-01,-1.74027e-01,-1.06119e-05,7.87994e-02,1.33038e-01,-8.41497e-03,1.84422e-01,-3.98399e-01,6.41564e-02,-9.04832e-02,1.32512e-02,9.53728e-02,2.44101e-01,1.83805e-01,-4.87738e-01,1.23827e-01,9.21185e-02,-6.72344e-02,-1.18429e-01,7.10690e-01,6.21927e-02,1.60114e-01,-1.46349e-02,1.80428e-01,-5.50196e-01,-4.88387e-01,1.78814e-04,1.62066e-01,7.55911e-01,-4.97079e-02,-2.50974e-01,3.56907e-01,-1.47695e-02,-1.44390e-01,-1.77751e-01,
-2.53275e-02,-3.06556e-02,-5.90276e-02,-9.88251e-02,-4.01053e-01,2.94141e-02,1.19889e-04,-4.05983e-01,-2.48653e-01,-2.36073e-01,3.98913e-01,-1.30134e-01,1.77736e-04,-1.36406e-01,-8.83377e-03,3.43996e-01,-1.54481e-01,-3.34169e-05,6.85200e-02,-1.87290e-03,5.03510e-03,5.70804e-02,2.88667e-02,-1.81200e-01,1.28214e-03,1.71605e-01,-1.93311e-01,-2.13875e-01,-2.59883e-01,2.64468e-03,5.07945e-03,1.40469e-04,-1.16227e-01,-1.54148e-01,-2.41562e-02,-1.07556e-02,-6.17923e-02,-1.84792e-01,-2.45905e-02,-1.34786e-01,-8.84359e-02,-6.83692e-01,-7.72281e-02,5.88002e-03,-6.32865e-02,-1.07655e-02,7.29553e-02,8.00187e-02,7.05498e-02,-1.63649e-01,-5.41368e-02,1.38555e-01,1.56315e-02,4.78372e-01,1.11060e-01,-3.91482e-05,-9.35168e-03,-2.00883e-01,1.83442e-01,-3.44786e-01,3.81621e-04,-5.70658e-02,8.93009e-03,3.65484e-02,
2.97868e-04,-2.32277e-02,3.01808e-02,2.01572e-02,-6.10232e-03,-2.32695e+00,1.83159e-04,-1.70864e+00,-1.59547e-02,-2.36472e-01,-3.58826e-04,-2.97749e-02,-1.27329e-09,-1.43776e-02,2.61422e-01,-1.78746e+00,1.23105e-01,1.21771e-04,-1.92378e-05,-2.01920e-02,1.11822e-01,-2.18500e+00,-1.58731e-03,-1.17851e-02,2.76991e-02,-2.44795e+00,3.71385e-02,1.52148e-02,4.35410e-02,-3.27050e-02,3.47948e-03,5.35778e-05,-2.65899e+00,2.56965e-02,-9.16018e-01,-3.30066e-02,2.55182e-03,-2.56042e+00,-9.94665e-03,-6.91318e-02,-2.56615e-03,1.89071e+00,4.50951e-02,-1.92912e+00,1.04823e-05,2.48854e-02,6.79701e-03,-5.90074e-03,1.52055e-02,1.82337e-02,-1.26498e-02,1.79923e-07,-2.61548e-03,2.02456e-03,2.63408e-02,-1.55192e-04,1.61523e-02,-5.79904e-02,1.25943e-01,-6.21284e-06,-6.11249e-05,-3.99693e-03,-1.17916e+00,-5.23141e-02,
-7.41636e-02,-1.10727e-01,-1.69896e-02,3.85192e-02,1.63010e-01,1.60965e-02,-1.71200e-04,6.90390e-02,7.87012e-02,-7.38384e-01,-7.97459e-02,-1.69282e-01,-3.23524e-05,-2.20681e-01,1.95176e-03,1.11014e-01,-3.88845e-03,-1.74251e-04,4.35708e-01,-7.66654e-02,1.80840e-01,4.67401e-02,-1.30030e-01,1.25775e-01,4.92453e-02,8.08002e-02,3.97471e-02,2.97861e-01,3.45728e-01,2.54041e-01,1.15214e-02,-2.45713e-04,-6.82222e-02,6.35989e-02,-1.08473e-01,1.44910e-02,5.34616e-01,8.95075e-02,2.03786e-01,1.31327e-01,-1.61838e-01,1.17535e-01,-7.74641e-02,1.67272e-01,-1.46336e-01,-1.52367e-01,-1.11646e-01,1.02585e-01,-7.43085e-02,-8.47823e-02,6.69132e-02,-7.92075e-02,-2.94068e-02,2.31759e-01,-1.06867e-01,6.01127e-05,6.72462e-02,5.95294e-03,7.82552e-03,-4.03291e-02,-3.87928e-03,5.88078e-04,2.27607e-03,3.69075e-01,
-1.17793e-02,-3.68817e-01,8.30118e-02,-2.18718e-01,3.50178e-01,1.87029e-02,2.22857e-05,5.95592e-03,-4.44690e-01,2.39117e-01,-3.20762e-01,6.79405e-03,2.70623e-04,3.06675e-01,-1.13911e-01,1.38970e-01,4.49051e-02,1.45993e-05,-1.55492e-01,-9.86364e-02,2.47602e-02,-9.01364e-02,-6.96346e-02,-7.74997e-02,-4.45382e-01,1.44710e-01,-6.34040e-02,-2.93106e-01,-8.34987e-02,1.32950e-01,5.43677e-02,-6.97348e-05,-1.20566e-02,-3.07258e-01,-5.89782e-02,3.44223e-01,1.76864e-01,9.17241e-02,-3.27766e-01,-1.47526e-01,-3.26422e-02,6.82780e-03,2.58804e-02,2.01694e-03,1.23789e-01,5.22537e-02,-5.99735e-01,-2.72748e-03,7.07334e-02,1.88291e-02,7.10098e-02,-5.02424e-01,-1.33648e-01,-3.58358e-01,-1.04885e-01,-1.19939e-04,4.10474e-03,3.26681e-01,-1.00517e-01,-6.89494e-01,-1.09273e-01,-3.00614e-01,4.39884e-01,5.23527e-01,
1.89551e-01,8.76616e-03,-2.40769e-01,3.43347e-01,2.38466e-01,-2.64542e-02,-2.38630e-04,-1.53070e-01,-3.34439e-01,5.17497e-01,3.29460e-03,-2.70205e-01,1.04731e-04,-1.35065e-01,2.42175e-03,3.08621e-02,1.30654e-01,3.59432e-09,-2.56001e-03,-4.65874e-02,-2.40878e-01,-7.18685e-02,-7.40406e-03,-1.96980e-02,6.20566e-01,-1.68486e-01,-3.53183e-01,1.87174e-01,-4.58386e-01,-1.34627e-03,-9.63353e-01,-6.63842e-05,1.30181e-01,-5.00227e-01,2.33228e-01,1.76216e-01,-3.58886e-02,-3.85256e-02,1.07791e-01,1.21291e-01,-2.66604e-02,-3.90518e-02,1.38806e-01,7.16521e-02,4.61152e-01,9.03161e-02,2.65296e-02,-7.95806e-02,9.75341e-02,-6.16983e-01,-2.04500e-03,-4.13136e-04,1.04320e-02,-4.97411e-02,2.06025e-01,-6.83758e-05,-2.70078e-03,-4.42921e-01,7.61387e-02,-1.25300e-01,-8.71575e-03,4.46432e-01,-5.52406e-02,-7.99922e-01,
-3.97525e-03,-1.55322e-01,-1.00936e-01,1.86510e-01,-2.12937e-01,6.07745e-02,-1.14419e-04,1.39590e-02,7.24511e-02,7.92939e-01,1.32547e-01,-3.27990e-02,4.87733e-05,-2.63826e-01,9.49230e-03,2.57193e-01,-1.21632e-01,5.37962e-08,4.40934e-02,-1.25983e-02,2.04920e-01,-5.69527e-03,9.91547e-02,5.61906e-02,1.01727e-02,5.35291e-03,-2.11764e-01,5.45676e-03,-4.42589e-03,-1.35770e-02,6.38878e-01,3.32865e-05,-3.12644e-02,-2.78175e-03,-4.79020e-03,7.02588e-02,-1.45305e-02,2.73426e-02,-4.16698e-01,-2.69445e-01,4.96676e-02,-1.80284e-02,1.92331e-01,-6.96958e-02,-2.19040e-01,-6.76114e-01,-2.05710e-04,-1.02337e-01,6.63474e-03,-1.44591e-02,-8.39410e-02,-8.43645e-02,-7.36827e-02,3.37903e-01,3.57462e-01,-3.30333e-05,9.57653e-02,7.61897e-02,2.54623e-01,-4.43041e-01,-1.86313e-01,-4.43820e-01,3.11835e-01,-1.50089e-01,
2.31267e-03,6.08723e-01,5.55371e-02,1.66235e-01,-3.35395e-01,6.41146e-04,-7.07610e-05,-1.95139e-01,8.23269e-01,-1.24415e-01,2.81815e-02,-3.08356e-01,3.32891e-05,4.49987e-03,-7.34428e-01,-2.88395e-01,9.66830e-02,2.08219e-05,-2.35190e-01,-2.14530e-01,-2.43263e-01,-1.91293e-01,1.57609e-01,1.75538e-01,2.57130e-01,-2.12949e-01,7.97128e-01,-4.57861e-01,2.97842e-02,-5.20354e-01,3.46897e-01,9.30365e-05,4.55246e-02,-9.09778e-02,-2.14275e-01,-5.77866e-01,-5.99966e-01,-3.10821e-02,-1.81323e-01,8.57995e-01,7.86882e-02,1.20602e-01,9.98459e-02,-5.52852e-02,-1.29500e+00,1.47767e-03,3.65101e-01,-3.61658e-02,7.95894e-03,2.28515e-01,-6.58156e-02,-2.59730e-01,1.10613e-01,4.78614e-01,3.29687e-01,1.14122e-04,-2.22550e-01,-2.15596e-01,-4.14896e-01,-1.26037e-01,6.19914e-03,1.02910e-01,-2.72138e-01,-3.83984e-01,
2.30513e-02,3.10562e-01,2.42229e-01,3.04403e-02,-8.15212e-03,-5.58507e-03,1.38182e-04,-1.26848e-01,-2.72565e-03,4.40560e-02,3.33702e-03,-2.05774e-01,-1.53184e-04,-6.01948e-02,-3.33665e-01,-7.68670e-02,-2.25910e-01,1.88705e-04,-2.63670e-01,-1.65507e-01,-2.40753e-01,-6.77324e-02,1.58949e-01,3.31915e-02,-1.47700e-02,-3.00702e-02,2.21886e-01,-3.16341e-03,5.70536e-01,-1.65021e-01,7.37571e-02,-8.08682e-06,9.00678e-02,-8.33946e-02,-3.04833e-01,-7.49135e-01,-1.79425e-01,-1.34646e-02,-2.24136e-01,8.00315e-01,-5.19744e-02,6.84138e-02,1.44180e-01,2.60380e-02,5.98480e-01,5.67424e-02,2.93656e-02,2.99169e-03,2.98349e-01,-1.24318e-01,-1.24227e-01,-6.65303e-03,2.75428e-02,3.95212e-01,1.81793e-01,1.75561e-04,-7.34472e-02,-2.97733e-01,-2.49166e-01,-2.08471e+00,-1.06479e-01,-2.05804e-03,-3.18161e-03,-5.61557e-02,
6.04309e-02,-1.91958e-01,6.75310e-02,2.27910e-01,-9.96361e-02,1.20961e-01,1.07544e-04,-8.61013e-02,-2.53730e-03,-4.86847e-03,2.20665e-01,5.25622e-01,-1.32696e-04,-1.04611e+00,-3.88126e-03,-2.40490e-01,4.17015e-01,1.67266e-04,5.86944e-02,-5.38492e-02,-4.39899e-01,-6.22484e-03,-2.61150e-01,-3.52793e-01,-2.60529e-01,-2.08244e-01,-1.55327e-01,5.47317e-02,4.06164e-02,-2.29741e-01,3.13475e-01,-2.14546e-05,-6.73728e-02,2.34293e-04,-1.01893e-01,1.48515e-01,3.38130e-01,5.35632e-02,-1.64081e-02,2.54526e-01,-9.47322e-02,-5.36496e-01,8.72253e-02,1.26433e-01,-1.98804e-01,-1.47201e-01,1.85598e-03,9.43213e-03,-4.06104e-01,-1.75347e-01,1.96713e-01,-1.01634e-02,-1.21207e-01,-2.58210e-01,-1.98053e-03,1.03282e-04,5.59808e-01,-2.03745e-01,-6.64104e-02,2.62883e-02,-3.16413e-03,-2.95928e-01,-6.34091e-01,-9.69797e-02,
1.63097e-05,1.32320e-04,-3.55495e-05,-8.09210e-05,-1.30818e-04,-4.57771e-05,-5.60903e-05,-5.45697e-11,-1.47420e-05,-8.82611e-05,-7.97378e-06,1.09739e-04,-1.20270e-05,-3.23213e-04,-2.27586e-04,-2.44949e-04,-1.11984e-04,2.68687e-05,1.37673e-05,-4.50246e-05,-4.76490e-05,-7.24359e-05,-1.93236e-04,1.99102e-04,1.92904e-04,1.60258e-04,5.01107e-05,-7.62173e-05,-1.71556e-05,2.63351e-04,-1.74319e-05,-1.34848e-04,7.06951e-05,3.12752e-04,-2.70684e-08,-7.88228e-05,-4.94786e-05,-4.96519e-05,-2.68490e-04,-1.33932e-04,-1.80016e-04,1.31995e-04,1.43861e-04,-2.55151e-04,-8.71850e-05,-1.41363e-04,-1.67014e-04,1.96802e-04,-5.26248e-05,-1.19716e-04,-1.57001e-04,-9.73633e-05,5.70860e-05,4.94920e-05,-1.00599e-04,-6.36325e-05,-3.08152e-04,1.71731e-05,-6.62597e-05,9.14515e-06,-2.77556e-04,-5.31135e-05,5.97795e-05,-2.24956e-05,
-1.00186e-04,2.59828e-04,-3.91484e-05,-4.21461e-05,-1.87511e-05,2.52750e-05,-2.04123e-07,4.47569e-05,2.94733e-05,-1.00214e-04,1.90585e-04,6.29383e-05,-1.82090e-04,1.11702e-04,2.66458e-05,1.76101e-04,-1.44374e-04,-2.94950e-04,-3.16161e-04,-1.95912e-04,9.72189e-05,1.52274e-04,-9.07713e-05,9.91228e-05,3.64250e-04,-1.86225e-04,-1.29465e-04,1.78736e-04,-1.07477e-04,-1.50970e-04,-4.12210e-05,1.36598e-05,4.52693e-05,-1.25612e-04,1.81077e-04,1.50301e-04,1.10832e-04,-1.55180e-04,-1.15936e-04,-1.09739e-04,-5.77836e-05,7.84580e-05,6.88148e-06,4.17169e-05,1.08848e-04,-6.86314e-05,-9.13054e-05,-1.88500e-04,-8.91849e-05,1.81590e-04,-7.21203e-05,2.15391e-04,-5.42677e-06,1.17510e-04,-2.29095e-05,6.01488e-05,-2.62105e-06,3.87172e-04,-6.39879e-06,7.50977e-05,-1.84925e-04,-7.27339e-05,1.20116e-04,2.14155e-04,
1.21528e-01,-2.54607e-01,4.50667e-02,-1.16709e-01,3.69655e-01,-1.97588e-01,2.38668e-04,4.55411e-02,-1.10658e-01,6.99223e-02,3.25943e-03,-8.02871e-03,-5.28331e-06,-6.84038e-01,-7.14509e-02,-1.89207e-01,-3.29925e-03,6.06775e-05,-1.06857e+00,-8.88135e-03,-3.33894e-03,-5.81906e-02,9.51541e-03,-1.49416e-02,2.70737e-01,2.11038e-01,4.25912e-02,4.23550e-01,1.62693e-01,5.14066e-03,2.07111e-01,-8.43431e-05,-1.96372e-02,2.74169e-01,2.88973e-02,4.58150e-02,3.72451e-01,7.12691e-02,1.50674e-02,-7.84815e-03,-3.98047e-02,9.27269e-03,-1.71805e-01,2.52138e-03,6.09582e-01,3.04831e-01,-8.38785e-02,-5.04828e-02,1.28763e-01,-6.46081e-03,8.04196e-02,-1.99150e-01,-1.61549e-02,2.54466e-01,-5.08601e-02,-4.42126e-05,-4.08602e-02,-8.45160e-01,-3.39662e-01,-4.00586e-01,-2.39913e-01,2.86063e-01,-2.71662e-01,-8.43196e-01,
6.56640e-03,-2.92868e-03,3.61427e-03,-2.38217e-02,7.82540e-02,-2.61698e-02,-1.06103e-05,3.22861e-03,-6.28397e-02,-4.60954e-01,-8.19328e-02,-8.90008e-03,-3.62981e-04,-5.12893e-01,1.59846e-04,6.03260e-02,1.12177e-01,9.16191e-06,9.13514e-02,-9.23032e-02,-2.62230e-01,-7.14183e-02,-1.90692e-02,1.31944e-01,-2.09266e-02,-1.56168e-02,-2.33991e-01,8.58377e-03,-3.21518e-02,2.46104e-02,-1.47844e-01,-1.44449e-04,1.09407e-02,2.91012e-01,1.46173e-01,-3.49687e-01,-4.77778e-01,-1.29984e-01,5.05371e-02,-5.41732e-02,-2.12959e-03,1.52191e-01,4.20597e-02,1.38373e-01,-3.85641e-01,-2.24001e-01,-5.45390e-01,8.32755e-02,-1.32632e-01,3.92693e-01,-1.57321e-01,5.01523e-03,5.52405e-03,-6.24146e-02,9.70526e-02,-1.80128e-05,-1.70834e-02,-2.81222e-01,-1.43020e-01,1.15504e-01,-1.02259e-02,-5.28858e-02,-1.36677e-03,-6.59161e-03,
-1.25983e-01,4.15628e-01,-3.38465e-01,-9.73126e-02,-3.61109e-01,1.04888e-01,-4.18944e-05,5.08519e-02,1.33474e-01,-2.80721e-01,-1.54764e-01,-3.59014e-01,-2.50221e-04,-1.81578e-01,-6.36965e-03,1.02291e-01,-1.33491e-01,-2.32872e-05,-1.49493e-01,-1.56557e-01,-3.89460e-01,2.49772e-02,1.02552e-03,-1.79860e-02,-5.15072e-02,-6.88289e-02,-2.88104e-01,-5.30282e-01,1.84331e-01,7.44258e-02,9.15468e-02,2.07918e-04,1.16727e-02,-2.54985e-01,4.72099e-02,-3.30062e-01,2.34371e-01,-8.66078e-03,1.36609e-01,6.68014e-01,-9.26569e-02,-1.26819e-01,1.76312e-01,1.18025e-02,-6.05538e-01,-1.04673e-01,-3.75510e-01,4.73404e-02,5.14702e-01,-3.20342e-03,-4.06954e-02,-1.08522e-01,4.46708e-03,1.69400e-02,-1.14278e-01,1.12968e-05,-1.35192e-02,-7.20211e-03,-1.12633e-01,-3.73653e-01,-4.41988e-02,9.68023e-04,3.24905e-03,-3.73884e-01,
1.95080e-01,1.37996e-01,-3.23969e-02,5.29401e-03,-1.35631e-01,-1.81857e-02,-9.24885e-05,-1.10047e-01,1.34873e-01,1.32282e+00,4.92859e-03,-5.06731e-02,3.96734e-05,-5.54867e-01,-4.76767e-03,5.48776e-03,2.34639e-01,1.49681e-04,-6.97538e-04,-7.57536e-03,-1.57361e-01,-1.87885e-02,5.00321e-02,9.42915e-04,-2.45137e-02,-6.74907e-03,2.16949e-01,-3.25710e-01,-2.85465e-01,1.38087e-01,1.06005e-01,8.70961e-06,-1.51806e-02,2.19376e-01,-8.00250e-02,-1.53489e-01,-1.73722e-01,-3.17138e-02,-2.43892e-01,3.17317e-01,-3.04649e-02,6.58945e-02,5.27165e-02,-1.77012e-02,-9.00102e-01,-1.22327e-01,-2.76356e-01,1.25633e-02,6.31170e-02,1.16701e-01,-5.51193e-02,-2.89506e-02,9.54201e-03,-2.50785e-02,5.28221e-02,-9.26645e-05,-8.41192e-02,1.12011e-01,-1.39852e-01,-2.51395e-01,-2.47934e-02,-6.21111e-02,-1.41097e-01,-3.56262e-01,
1.36976e-01,2.69155e-01,6.23904e-02,1.06204e-01,2.17385e-02,1.37730e-02,1.89789e-04,-2.94327e-01,2.53071e-01,1.82242e-01,-1.42493e-01,1.06351e-01,5.31053e-06,7.21416e-02,-2.25593e-03,-6.34481e-01,5.93653e-02,-6.99398e-05,-2.40193e-01,2.91417e-01,1.42889e-02,-5.90113e-02,-1.34196e-02,1.54223e-01,1.04861e-01,-1.69171e-01,-9.84374e-02,-2.88749e-02,1.34242e-03,-5.62464e-01,-8.41284e-01,-5.57570e-05,4.82305e-02,1.33023e-01,1.47045e-01,-1.81046e-01,7.79300e-02,1.88295e-02,-1.16448e-01,-1.69398e-01,-6.06996e-02,3.22333e-03,-1.59469e-02,1.45196e-01,-2.53008e-02,3.66568e-01,-1.69500e-01,1.10185e-01,1.61873e-01,-1.94961e-01,1.60013e-02,3.43796e-01,4.12117e-02,-3.50012e-02,2.71783e-01,-1.11419e-06,-1.00971e-01,-2.04965e-01,2.02509e-01,5.58578e-01,2.30910e-02,-2.77736e-02,4.39569e-01,-4.28668e-03,
2.00728e-02,9.56648e-03,7.80350e-02,-1.13775e-01,4.79100e-01,9.31616e-03,-2.97421e-04,5.99307e-02,-3.67296e-01,-9.59853e-02,8.02011e-02,2.66117e-02,7.21427e-05,-1.50923e-02,1.16016e-04,4.52616e-01,-5.33485e-01,-2.11003e-10,-2.18335e-01,-1.19421e-01,-5.52379e-01,2.92387e-02,-5.87379e-01,7.90943e-02,1.31045e-01,6.06053e-02,-3.23658e-01,1.57149e-01,-1.51250e-01,-2.61726e-01,-3.20724e-01,-2.37572e-04,-9.05383e-03,-1.07221e-01,1.15502e-01,2.50033e-01,1.83516e-02,-4.75751e-02,-6.26826e-01,-1.22733e-01,1.89234e-03,6.28748e-03,-2.49573e-01,1.16840e-01,3.34064e-01,-9.38288e-01,1.06376e-01,-1.90023e-01,2.71180e-01,-6.67066e-02,-9.39123e-02,-2.73216e-01,-4.66766e-02,-7.98155e-02,-3.97758e-02,9.82743e-05,1.02322e-01,8.75940e-02,1.24348e-01,-6.59325e-02,-6.53178e-01,-2.84756e-02,-2.73312e-01,-6.57881e-01,
1.52865e-02,-1.72085e-02,-3.49356e-01,-4.08724e-02,-2.10504e-01,6.36114e-03,2.71556e-04,2.15354e-02,-7.49101e-01,1.55192e-01,1.03305e-01,-2.35756e-02,-2.74870e-04,2.80765e-01,-2.63785e-01,9.25518e-02,-4.72457e-01,1.72648e-05,-8.99510e-02,1.41686e-01,2.08541e-03,3.40370e-03,1.40037e-01,-2.97483e-01,-6.72798e-02,-3.76423e-02,1.46238e-01,1.21001e-02,8.39290e-03,-1.71377e-01,-1.27489e-02,6.74799e-05,-4.89412e-02,2.61950e-03,1.52783e-01,1.31020e-01,-4.62557e-01,-1.09625e-02,-1.72449e-02,-6.52671e-02,2.61326e-02,-2.10869e+00,-5.93459e-02,-1.27103e-01,9.25219e-02,-3.01341e-01,5.20999e-01,-3.72527e-02,-9.54508e-03,-1.50496e-01,-9.21809e-02,-1.78873e-01,2.20803e-02,-1.09593e-02,-9.94846e-02,-6.07362e-05,1.96263e-01,1.36347e-02,-3.14016e+00,-2.29338e-01,-6.84175e-01,1.92538e-02,-4.02941e-02,-3.06552e-01,
3.63728e-02,4.23232e-01,-5.15156e-02,1.16147e-01,-5.46917e-01,8.07044e-03,1.77456e-05,-2.00901e-02,9.80463e-01,5.48012e-01,-1.99527e-01,-5.96592e-01,-1.67894e-04,-2.95312e-01,-1.78139e-01,-3.82410e-01,-4.77714e-02,9.23714e-05,-3.57605e-02,-8.44446e+00,1.00453e-01,-1.87609e-01,-3.36377e-02,2.31967e-01,1.71519e-01,-9.13585e-02,-1.12443e-02,-5.73592e-01,-9.11428e-02,7.36022e-02,-3.06710e-01,6.00331e-05,-2.61367e-02,-4.56902e-01,1.77552e-01,-2.73461e-01,-1.80528e-01,8.19847e-02,3.67080e-02,5.22952e-01,-4.31667e-02,-3.21034e-01,3.73650e-01,-3.59286e-02,-1.29797e+00,-3.39249e-01,3.63955e-01,2.32392e-02,1.46177e+00,8.38165e-03,-1.56772e-03,4.83107e-02,2.55293e-01,2.71590e-01,2.18412e-01,3.54097e-05,-5.59077e-01,-5.08241e-02,-1.31586e-01,-2.22605e-01,-1.21176e+00,6.69452e-01,7.71499e-02,-5.36820e-01,
-1.83202e-02,-1.97540e-01,1.02467e-01,1.34190e-01,2.43858e-01,3.46977e-03,6.00043e-05,4.48782e-02,-2.64565e-01,-2.32285e-02,-1.02916e-01,-3.54227e-01,5.57823e-05,-1.04105e-01,4.62109e-04,6.85564e-02,-1.30326e-02,-2.01724e-05,1.39214e-01,-3.85675e-02,1.16240e-01,2.50432e-04,-4.15226e-03,5.45566e-02,-3.84190e-04,-6.10372e-02,-2.39620e-01,1.79434e-01,2.36176e-01,9.65137e-02,-7.67214e-01,-1.50617e-04,7.77680e-04,1.69384e-01,3.08123e-01,-3.86092e+00,-1.06602e-01,-6.06024e-02,-8.15018e-01,-2.38488e-05,-3.23095e-02,3.97266e-02,2.22590e-01,-9.63228e-02,-2.86298e-05,-1.01693e-02,-2.55090e-01,1.11578e-01,-2.28464e-01,-1.69774e-01,-2.23954e-02,-1.23816e-02,6.20519e-02,7.92553e-03,1.86126e-01,7.46417e-05,-5.84428e-03,-1.56030e+00,-5.55347e-03,-4.97344e-04,1.09643e-02,-7.20542e-03,-7.41101e-02,-5.68771e-02,
-3.38235e-02,-9.40254e-02,-7.34393e-03,-1.38792e-01,-1.54296e-01,6.36750e-02,1.04565e-04,-2.63098e-02,2.24614e-01,3.82882e-01,-3.94568e-02,2.56333e-03,-1.93137e-04,-4.59601e-02,-3.31197e-03,2.97512e-02,1.36600e-01,1.07255e-06,-5.42831e-02,-1.12725e-01,-4.78740e-03,-3.08376e-02,2.55412e-02,-8.33699e-02,6.08492e-02,-2.54722e-02,2.49446e-01,-4.63024e-02,2.33570e-01,-4.36506e-02,1.67322e-01,3.13765e-05,1.88306e-02,5.87899e-02,-4.56018e+00,-6.41874e-02,-1.81204e-01,-2.56903e-02,-1.01019e-02,2.94614e-02,-3.34728e-02,-8.88379e-02,-1.81299e-02,2.44351e-02,1.46529e-02,2.67953e-01,-1.44065e-01,1.66393e-02,-2.71173e-01,4.72825e-03,-2.34270e-02,-3.54275e-01,4.97696e-03,1.42716e-01,5.68561e-02,-8.00446e-05,-1.03278e-02,-2.22708e+00,1.10976e-01,-1.06390e-01,1.64535e-01,-3.29160e-02,-4.53661e-01,6.49035e-02,
-4.97506e-02,2.03260e-03,1.74230e-01,-1.96560e-03,-8.38550e-02,5.36539e-02,2.23347e-06,1.79870e-01,-9.35150e-02,4.62080e-02,2.43606e-02,-2.35717e-02,4.72911e-05,-1.60483e-02,5.58710e-01,2.83796e-01,1.98074e-02,4.95710e-05,7.06783e-01,-1.01795e-01,1.06828e-01,1.58270e-01,-2.23145e-01,2.34154e-01,5.34563e-01,6.16620e-02,-1.09319e+00,2.32822e-01,-5.72801e-02,3.59456e-01,-9.80585e-01,-4.55383e-05,1.59069e-01,-6.57405e-02,-2.70808e-01,-8.35094e-02,9.19356e-01,2.53849e-02,1.51566e-01,6.22617e-01,-6.02653e-02,-1.85049e-01,-5.91705e-02,1.39333e-01,3.59929e-02,2.49161e-01,-8.81877e-01,7.25805e-02,-6.36833e-02,1.72976e-02,4.35030e-04,-5.10383e-02,-1.25047e-01,-4.01322e-01,-5.38196e-03,4.20218e-05,-1.38898e-03,-5.31230e-01,2.04991e-01,-1.20772e-01,-4.14460e-02,2.08636e-01,5.46989e-02,7.18258e-02,
1.70911e-01,4.31927e-02,2.87253e-01,4.52939e-02,-1.00192e-01,-3.26266e-02,6.33009e-06,-7.24389e-02,-2.33454e-01,1.32039e+00,-4.46975e-02,2.48267e-01,9.21692e-05,-1.13400e-01,1.13362e-02,-9.63133e-02,-1.63265e-01,-3.02447e-05,-9.84018e-02,-6.90471e-02,-1.50564e-01,9.32864e-02,-1.78204e-02,-1.00860e-02,-1.89374e-01,-2.88917e-02,2.45305e-01,1.39226e-01,-1.06432e-01,-3.08517e-02,-1.12793e-01,-1.30755e-04,-3.68206e-02,1.39930e-01,-4.17514e-02,6.42495e-02,-1.31177e-03,-1.41220e-02,-9.77442e-02,-3.33279e-02,6.16114e-03,1.07103e-01,-2.32412e-02,4.42007e-02,5.88252e-01,-1.12021e-01,9.99176e-02,1.82758e-02,7.96348e-02,5.08160e-03,9.04306e-02,-2.38370e-03,5.02349e-02,-1.88248e-01,1.68221e-01,1.47735e-04,-4.18696e-03,2.44751e-02,-1.61212e-01,-4.52572e-01,1.99270e-02,-3.20712e-03,-6.08113e-02,-5.26625e-01,
8.83227e-02,-7.23044e-03,8.67506e-02,6.52228e-02,-6.02117e-02,-2.78997e-02,-4.95988e-05,-2.28550e-01,-3.45696e-01,-1.16141e-01,2.91823e-01,-8.72071e-02,7.91262e-05,-5.39751e-03,-1.97464e-01,-2.94759e-03,5.02200e-03,1.54243e-04,-4.16753e-01,-1.05202e-01,-2.07456e-01,-8.44646e-02,4.17254e-02,1.64840e-02,-1.78086e-01,1.41682e-01,1.05005e-01,2.00412e-01,-5.99323e-03,1.21160e-02,6.29421e-02,1.53487e-04,-1.77145e-02,-4.70760e-02,-3.40412e-01,-9.52250e-02,2.60065e-02,-4.08385e-02,1.24535e-01,2.23269e-01,-5.55500e-02,9.21763e-04,1.12463e-01,1.22565e-03,-2.43826e-03,-8.88921e-02,5.62486e-02,-2.92250e-03,1.79503e-01,3.27976e-01,1.07232e-03,-3.03855e-01,1.35329e-01,2.46917e-01,-4.87710e-02,-2.09932e-04,-6.37601e-01,1.38562e-01,-1.71714e-01,-5.65646e-01,1.69338e-01,3.37664e-01,1.60579e-01,1.34943e-01,
-1.52401e-04,4.41283e-05,1.20103e-04,1.35651e-04,7.83435e-05,-3.92615e-05,2.46166e-04,-1.21725e-04,-1.70554e-05,-1.99792e-05,-1.73237e-04,1.38589e-04,-3.09356e-04,2.62411e-04,-1.17729e-04,7.11792e-05,-6.08567e-05,2.40395e-05,-1.60684e-04,-1.02284e-05,2.53906e-04,6.62271e-05,-2.72627e-04,3.03821e-05,7.46382e-05,-1.17444e-04,-1.65354e-04,-1.65153e-05,-4.37050e-05,3.00699e-05,-7.91161e-05,1.72810e-05,6.03893e-05,-1.11724e-04,-1.91554e-04,-2.01464e-06,9.39072e-05,1.93259e-04,1.63289e-04,-9.36459e-05,-5.26248e-05,7.36508e-05,1.97537e-04,-1.09686e-04,-1.68034e-04,-6.50565e-05,-8.11126e-05,2.48956e-05,7.26528e-05,-4.09233e-04,4.20231e-07,-8.88189e-05,1.54245e-04,-1.26811e-04,1.08686e-04,1.14778e-09,-2.86076e-04,-1.94333e-04,8.44129e-05,1.28827e-05,1.42330e-05,1.09464e-04,1.46756e-04,-7.51236e-05,
4.78126e-03,5.21542e-02,1.26466e-02,1.68117e-01,5.33917e-03,5.58678e-03,1.44457e-04,-5.78142e-02,-1.08441e+00,5.37835e-01,1.97003e-02,-1.25774e-02,-7.90959e-06,-8.19721e-01,-8.32462e-05,-3.18623e-02,2.92325e-02,-4.76924e-04,-2.26148e-03,-4.54825e-03,-7.63361e-04,-1.44884e-02,3.08962e-02,-1.24953e-02,-5.46145e-03,-1.00061e-01,-1.92526e-01,4.51744e-03,-3.19650e-01,7.13877e-02,-1.07869e-01,-1.06914e-04,4.66779e-02,-8.95543e-02,4.70096e-02,-6.20284e-02,1.07412e-01,-2.37620e-02,4.23440e-01,-3.32757e-01,-1.09407e-01,1.04383e-01,-1.62872e-02,5.71402e-02,-3.32040e-03,1.75293e-01,-1.51580e-01,6.41465e-02,-1.46036e-01,2.14350e-02,5.13521e-04,3.23402e-03,2.23968e-02,-3.82629e-02,4.70666e-02,-1.74470e-04,-1.98068e-01,1.24313e-01,2.01682e-01,-7.30259e-01,4.55347e-04,1.99951e-02,-5.20531e-02,2.20947e-01,
-8.04513e-05,1.36516e-04,3.64180e-05,-7.50977e-05,-1.16284e-04,-1.18919e-05,1.35883e-04,2.26696e-04,1.41512e-04,-6.74339e-05,-4.83833e-05,-1.46443e-04,1.26888e-04,4.31142e-05,-1.31851e-04,1.06454e-04,5.90639e-05,5.99426e-05,-6.63809e-05,9.14781e-06,-3.15600e-04,-1.57330e-04,-2.48078e-05,1.00947e-04,7.08713e-05,-2.29348e-04,-1.26542e-04,2.38880e-04,-5.49918e-05,-8.68767e-05,3.10336e-05,1.67266e-04,7.66701e-05,-3.11309e-07,7.78812e-05,-1.07076e-04,3.18038e-04,3.85586e-05,9.58405e-05,1.66251e-05,-1.18965e-04,6.38399e-05,2.45726e-04,2.12945e-04,-2.43521e-05,1.75457e-04,-1.10458e-04,2.81005e-04,-2.12627e-04,2.47019e-09,2.19083e-04,-3.79008e-05,-1.74140e-04,-1.15579e-04,-1.07126e-04,-8.95703e-05,-5.31519e-05,-2.47316e-05,-6.97365e-05,5.50302e-05,7.75053e-05,2.05025e-05,4.19430e-05,-2.33591e-04,
2.68895e-02,1.72270e-02,6.39392e-02,-1.07546e-01,1.05611e-01,-7.55033e-02,2.46958e-04,1.43800e-01,-3.24650e-01,-2.06651e-01,1.26068e-01,-3.18525e-04,2.71779e-05,2.25276e-01,1.86641e-02,-2.15223e-01,1.10977e-01,-6.67826e-05,-6.83394e-03,-1.01574e-01,-7.48119e-01,9.34508e-03,-6.45180e-02,-3.59364e-03,9.34571e-03,-5.96277e-03,-1.11463e-01,-1.35651e-01,-5.95455e-01,3.83071e-02,5.06302e-02,-4.30775e-05,-2.41875e-02,1.96333e-01,2.75535e-01,1.59061e-02,2.52306e-01,4.05378e-02,-3.23232e-03,-1.85150e-01,-1.08744e-02,9.99053e-02,-1.54174e-01,7.47168e-02,-7.98139e-02,9.01034e-02,-1.39076e-03,-1.40520e-02,-3.15650e-02,-5.35099e-01,1.20054e-01,2.86659e-03,2.21790e-02,-9.75322e-02,6.25681e-02,1.49477e-05,-2.11907e-02,2.19518e-01,-2.14037e-03,7.31530e-02,-2.03176e-03,-3.39521e-02,5.17555e-02,-4.47979e-02,
-3.67540e-02,-1.85387e-01,6.18290e-03,1.82325e-02,9.18632e-02,1.86828e-02,9.11808e-06,6.95559e-03,1.99347e-01,-1.08543e-02,-1.73840e-01,-7.01289e-03,-8.44825e-05,-8.00543e-02,-4.57866e-03,-2.20730e-01,-5.31529e-02,-2.55401e-05,2.28983e-01,1.27116e-01,2.09515e-02,7.42529e-02,8.85792e-03,-5.76466e-02,8.25487e-02,-3.56860e-02,4.97175e-02,1.52527e-03,1.00960e-01,-1.26615e-03,-3.71019e-01,5.53581e-05,-5.00573e-03,-1.40141e-01,-2.69641e-01,-1.69205e-01,-2.48033e-01,3.82538e-02,-3.47262e-01,4.26758e-01,-7.17498e-02,-1.63091e-01,9.84695e-02,-1.45918e-01,-1.19636e-02,-6.76324e-02,2.21127e-01,3.53474e-02,1.09042e-02,3.75176e-02,1.70918e-01,-1.03997e-03,4.81105e-02,7.34662e-02,6.62316e-02,1.82112e-04,7.07039e-03,-2.80386e-01,-1.28066e-02,1.38144e-01,1.01235e-02,8.05158e-03,-1.96224e-01,2.86575e-01,
-5.74289e+00,-9.41957e-03,-5.96835e-01,-6.63410e-03,1.17745e-02,-1.68847e-03,-2.28011e-04,-6.60438e-03,1.26479e-02,-4.17955e+00,-2.23035e-03,-9.30486e-02,-8.68814e-05,-2.33537e-02,9.51935e-06,5.41095e-02,8.27595e-03,3.30753e-04,5.53465e-02,-2.65172e-05,6.76239e-01,1.39701e-02,-4.96242e+00,-2.30330e+00,4.41999e-02,3.28312e-02,-7.08152e-01,8.19989e-02,8.82354e-03,5.83504e-02,4.82674e-06,-1.78587e-04,2.68959e-02,1.22171e+00,2.13217e-02,1.04961e-02,-1.58224e-02,-6.08638e+00,1.02020e-01,6.98930e-02,-6.54011e+00,-1.59081e-03,-3.91218e+00,2.92629e-02,-1.40622e-02,2.89479e-02,-5.42909e-01,-5.67257e+00,4.96131e-02,1.77389e-02,-4.36131e+00,2.22682e-02,-5.60258e+00,2.90739e-07,-3.21695e-02,5.54750e-05,4.10650e-02,1.32478e-02,1.68677e-02,3.34684e-02,1.48894e-02,1.08469e-05,2.41763e-02,8.28559e-03,
-2.37902e-04,-2.48612e-04,7.85333e-05,1.99194e-04,-4.17174e-05,-7.42214e-05,-2.81106e-04,1.48583e-04,1.10095e-04,2.44375e-04,-1.70645e-04,3.36576e-04,1.15096e-04,-1.85112e-04,-1.12855e-04,2.17113e-04,1.39158e-04,1.43413e-04,-1.95351e-04,3.96878e-05,2.54909e-04,-4.68401e-05,-6.36050e-05,3.23492e-05,-1.57184e-07,6.00797e-05,1.00022e-04,-9.83859e-05,-1.70291e-04,1.29867e-04,-1.80283e-04,-1.07463e-04,4.46693e-05,-8.98402e-05,1.28122e-04,-6.18766e-05,1.38558e-04,1.99542e-04,-1.86379e-04,-4.30381e-05,1.94946e-04,1.02852e-07,-5.13452e-05,-2.61234e-04,7.53162e-05,2.46257e-04,1.09739e-04,-1.07194e-04,-2.62776e-05,-1.42226e-04,-2.44902e-04,-2.44599e-04,-1.71048e-04,1.09862e-04,-2.00389e-04,7.14696e-05,2.03747e-04,1.44374e-04,-3.41377e-04,-7.50361e-05,1.86043e-04,-1.66256e-09,1.32279e-04,2.15463e-05,
5.06625e-03,2.97823e-01,-3.06272e-02,6.31273e-02,2.51538e-01,3.16391e-02,-1.05288e-04,-2.02613e-02,-8.03636e-01,5.24601e-04,-4.03749e-01,3.21830e-01,3.45209e-04,3.12623e-01,-2.12853e+00,3.34237e-02,-1.43142e-01,1.68988e-04,-4.52149e-02,6.62643e-03,7.27997e-02,-1.27968e-01,4.10355e-02,-2.05997e-01,8.20046e-03,-9.65901e-02,-2.81352e-02,2.43786e-01,4.08945e-01,-3.61106e-01,-1.99761e-02,-1.32707e-04,-1.01524e-01,-1.58680e-02,1.64601e-01,6.83357e-03,-5.32549e-02,-2.75833e-02,-1.03202e-02,2.19956e-01,-1.57243e-02,-9.18433e-04,2.28557e-01,-3.94167e-02,-2.55560e-03,-2.40623e-01,-6.16595e-01,-3.56562e-02,2.88210e-01,-6.29548e-01,2.32140e-01,-4.67620e-01,2.09768e-01,2.44487e-01,9.54006e-02,7.49002e-05,3.02772e-01,5.22855e-02,-1.33125e-01,-1.75820e-01,-7.28227e-01,1.03212e-01,1.13380e-02,1.70172e-01,
-9.54202e-02,-6.11112e-01,5.89834e-04,-2.23080e-01,-4.79921e-01,7.00751e-03,-1.16503e-04,2.54035e-01,-3.37825e-01,-2.39089e-02,-1.62434e-01,-1.07176e-01,1.45519e-10,9.38864e-02,-1.65424e-04,2.61890e-01,2.67359e-01,-1.07353e-04,3.99974e-02,-1.95456e-02,3.26117e-01,1.71116e-01,-8.48305e-02,-5.26833e-01,-8.85125e-02,1.76837e-01,-7.56363e-01,-2.32538e-02,-1.50100e-02,3.79581e-01,-1.92080e-01,-3.35270e-04,1.32820e-02,2.97226e-02,-6.27640e-03,4.03460e-01,8.59038e-01,-2.34325e-02,2.56270e-01,-1.85762e-01,-1.49023e-01,3.76129e-02,6.39654e-02,2.28947e-01,-2.70082e-01,1.16364e-01,-9.76871e-02,8.99274e-02,1.88029e-01,-2.91472e-01,-3.86372e-02,1.50256e-01,2.10618e-01,4.08914e-03,-1.40596e-02,1.75683e-04,1.53783e-01,3.07078e-03,-7.03744e-02,-3.76194e-01,-4.12489e-01,2.27459e-01,1.38532e-01,2.22832e-01,
-6.90858e-02,3.85290e-01,-1.03943e+00,-2.93889e-02,4.24427e-03,-6.64028e-03,1.40868e-05,1.22422e-01,1.43933e-01,-7.70243e-02,6.55718e-02,2.91036e-02,1.71333e-05,-3.36647e-01,4.31036e-01,1.99223e-01,6.54440e-03,-1.12954e-04,2.54881e-01,-1.53679e-01,-2.03617e-02,-3.25117e-02,5.86493e-03,-1.11783e-02,-8.44229e-02,2.63188e-02,1.15686e-02,-1.40997e-01,-4.11362e-01,4.30096e-01,-2.73607e-01,1.48116e-04,7.51451e-03,-1.19589e-03,2.71791e-01,1.04556e-01,5.41141e-01,-3.41524e-02,-2.04129e-01,1.12829e-01,-2.01423e-02,7.23643e-02,2.45271e-01,4.77757e-02,-3.44086e-01,1.52950e-01,-1.13633e+00,2.24291e-02,-1.85417e-02,1.00131e+00,7.83026e-02,-2.39881e-01,-1.59603e-01,-8.35985e-01,-2.13659e-01,7.33998e-05,-2.99348e-02,8.42495e-03,4.16239e-02,4.13191e-02,-3.22350e-01,9.48470e-02,4.23032e-01,-5.11216e-02,
3.65990e-02,-2.79764e-02,-4.69108e-02,-2.01734e-02,-2.63359e-01,-5.45436e-03,-5.10420e-05,9.88136e-02,-2.74716e-01,7.62907e-01,-1.88850e-01,-1.48887e-01,2.63099e-06,-8.55826e-01,5.38028e-03,1.27328e-01,-1.05863e-01,7.64482e-05,-1.19043e-01,-1.80227e-02,1.64848e-01,1.09983e-01,3.42654e-03,2.62661e-02,4.62837e-02,-3.51998e-02,-4.05351e-03,1.00445e-01,-2.56744e-01,9.95376e-02,1.19774e+00,-1.04816e-04,7.28633e-02,1.16383e-01,2.55382e-03,-1.91564e-02,4.07925e-03,-6.79136e-02,-2.35809e-01,-5.62386e-01,1.84083e-02,3.28040e-01,6.35159e-02,7.37802e-02,-2.27975e-01,-4.72933e-02,-9.33640e-02,2.78262e-02,6.17620e-03,-5.52901e-01,-1.24019e-02,1.78034e-01,4.19659e-02,6.26960e-02,5.90932e-01,-1.15125e-04,-1.65621e-01,1.13061e-01,1.00205e-01,-6.49113e-01,-4.05343e-01,4.92143e-02,1.20754e-01,-9.50918e-02,
1.76180e-01,4.33227e-01,-8.83253e-02,1.18772e-01,-7.37524e-01,-1.47430e-02,-8.82664e-05,-1.51163e-02,2.75599e-01,8.94906e-01,-1.29857e-01,-6.60597e-01,-3.03470e-04,-5.39180e-01,-1.89761e-01,-3.60415e-01,2.70987e-02,-2.81980e-05,-1.13061e-01,1.44307e-02,-1.20724e-01,-1.73087e-01,-7.31858e-02,2.49324e-01,2.46137e-01,-8.19341e-02,-3.39324e-03,-1.94693e-01,8.81506e-02,1.41104e-02,-4.10275e-01,-1.79890e-04,3.71275e-03,-3.69295e-01,3.60694e-02,-1.29238e-01,-3.16580e-01,1.02845e-01,2.58601e-02,4.50127e-01,-6.57253e-02,-1.06337e-01,3.93208e-01,-5.63155e-02,-1.26036e+00,-4.13242e-01,3.53381e-01,1.42415e-02,1.40263e+00,-7.79242e-02,1.01441e-02,-3.36929e-01,2.68043e-01,2.67326e-01,3.03550e-01,-8.85953e-05,-4.69276e-01,6.07166e-02,-2.04679e-01,-3.28033e-01,-1.04358e+00,7.52922e-01,2.62964e-01,-8.13593e-01,
9.46410e-05,-3.88762e-03,-7.16597e-01,-2.33474e+00,2.45385e-03,6.64577e-03,5.75163e-05,-3.37679e-01,9.08363e-05,-8.22640e-03,-1.91387e-01,1.45084e-01,-5.41967e-06,1.89067e-05,-2.33757e+00,5.80940e-03,-8.67017e-02,1.52063e-05,-7.15715e-01,-4.77036e-03,-4.74961e-02,-7.61140e-02,4.43849e-02,-1.55930e+00,1.50027e-01,-1.09753e-01,8.33265e-02,-1.03172e-01,9.25530e-02,-2.40346e-01,2.48382e-02,1.13266e-05,-1.86233e-02,-2.29970e+00,-1.18604e-02,-1.50539e+00,-4.31033e-02,-1.88061e-02,-9.60985e-02,-5.53683e-05,1.96251e-02,4.78524e-02,9.75988e-02,2.90920e-02,2.57193e-04,4.86184e-02,4.88972e-02,3.24075e-04,5.67365e-03,2.30082e-02,-3.80060e-01,-6.18112e-02,-7.57567e-03,2.68925e-01,3.61184e-03,6.19844e-05,5.29134e-02,-1.30078e-04,-1.83057e-01,-4.28340e-05,-6.02155e-05,5.19118e-02,2.56050e-01,-2.54419e-03,
-6.24941e-02,1.09579e-01,-5.24971e-05,6.60080e-02,8.15670e-02,6.40549e-02,-5.49866e-06,-1.24139e-01,-5.15534e-02,2.98381e-01,1.01565e-01,-2.15597e-03,-2.72872e-05,-2.24534e-01,-1.53854e-03,2.93561e-01,-1.71363e-01,1.47501e-04,-1.07816e-01,-1.35897e-01,1.34570e-03,-4.77937e-02,1.10042e-01,6.26609e-02,-6.40701e-02,-1.22656e-03,-1.26291e-01,8.31029e-02,2.05339e-02,2.13579e-02,-1.67419e-01,-8.24359e-06,8.77079e-05,-7.43090e-02,5.81178e-02,2.48228e-01,8.21170e-03,2.99916e-02,-3.24953e-01,-5.71813e-02,-7.60982e-02,8.12525e-02,-2.68010e-02,1.72914e-02,5.93430e-03,-1.66427e-03,8.08695e-02,7.48995e-02,8.00097e-02,1.89394e-01,-2.27782e-02,-1.23566e-03,5.01613e-02,-4.94558e-02,3.45588e-03,-2.73904e-04,-3.64404e-01,-4.46185e-01,-4.08536e-02,-1.25024e-02,-5.81145e-03,-1.89389e-01,3.57891e-01,-1.51546e-02,
