// Neural Network File Format by Kyle Julian, Stanford 2016
//Number of Layers,Number of Inputs,Number of Outputs,Max Layer Size,
5,12,3,64,
//Input Layer size, Hidden Layer Sizes, Output Layer Size
12,64,64,64,64,3,
//The next line is an unused flag, after that we have minimum input values, maximum input values (network inputs are truncated to fit in this range), mean input values (as well as outputs), and input (as well as output) range values 
0,
-100,-100,-100,-100,-100,-100,-10,-10,-10,-10,-10,-10,
100,100,100,100,100,100,10,10,10,10,10,10,
0.0,0.0,0.0,0.0,0.0,0.0,0.0,0.0,0.0,0.0,0.0,0.0,0.0,
200,200,200,200,200,200,20,20,20,20,20,20,1.0,
//Weights and Biases start here
-5.49545e-01,1.93050e-01,-4.99954e-01,1.55877e-01,5.35075e-01,6.25881e-02,-5.01352e-01,-1.46837e+00,-6.20667e-01,-6.19272e-01,3.94682e-01,4.64538e-01,
-2.01271e-01,-2.17332e-01,-6.32546e-01,-7.56730e-01,-5.46229e-01,4.15579e-01,4.06922e-01,2.84470e+00,1.35004e-01,6.26679e-01,-6.38957e-01,5.43880e-01,
7.51218e-01,-5.53245e-01,6.23625e-01,-1.97744e+00,1.23153e-01,1.54335e-01,-1.34553e-01,-5.42008e+00,-8.39046e-01,-9.93036e-01,3.97284e-01,1.18313e-01,
4.67288e-02,-1.96435e-01,5.34131e-01,4.71704e-01,-1.22852e+00,-4.17857e-01,-5.14919e+00,-1.63444e+00,-1.49328e-01,-6.67679e-01,-3.93126e-01,-3.24845e-02,
-4.23703e-01,-1.75596e-02,-1.98499e-01,-7.69268e-01,-9.94733e-01,1.63163e-01,-2.82114e+00,-1.20772e-01,-1.34315e+00,-1.63234e-01,-3.27308e-01,-1.58457e+00,
-1.33770e-01,-2.44695e-02,1.19965e-01,-2.24723e-01,-5.76636e-02,-3.24120e-01,-3.65978e-01,4.36916e+00,1.08651e-01,-7.14839e-01,4.88838e-01,4.43601e-01,
8.49088e-01,4.16988e-01,-3.11246e-01,-4.78675e-01,6.43923e-01,-6.76161e-02,1.10685e+00,2.21335e+00,-2.14587e+00,-9.17004e-01,2.73145e-01,-2.04179e+00,
-3.86691e-01,-7.34737e-01,2.31942e-01,-1.25534e+00,-5.47450e-01,-7.34148e-01,3.36829e-01,9.25792e-01,6.64140e-01,-2.12585e-01,4.69589e-01,-8.28018e-01,
3.72594e-02,2.00467e-02,-7.38438e-01,3.02016e-01,-5.86414e-01,9.26509e-01,-2.56365e+00,-1.01884e+00,3.05859e-01,-2.07385e-01,3.72523e-01,7.71417e-01,
-5.03993e-01,1.73413e-01,9.79143e-01,-1.31387e+00,2.80085e-01,-1.30566e+00,9.69344e-01,-2.46675e-01,-7.29334e-01,1.96788e-01,-2.16523e+00,-5.93056e-01,
1.62259e-01,-1.85089e-02,-1.84869e-01,1.04964e+00,4.76510e-01,-1.82672e-03,3.51895e+00,-4.67001e+00,-3.14814e-01,7.84997e-01,-5.32426e-02,-4.18120e-01,
8.79046e-02,-1.45851e-01,7.47816e-01,1.23232e+00,1.70049e-01,-5.59602e-01,2.67989e-01,2.78559e+00,1.91688e+00,9.34311e-01,-8.81173e-02,9.17676e-01,
1.30606e-01,-1.77840e-01,-1.26758e+00,1.50584e-01,1.09540e-02,4.93562e-01,-2.65715e-01,-3.81876e+00,4.37115e-01,1.53656e-01,-1.16578e+00,-1.88764e-03,
1.25819e-02,-2.96368e-02,-6.13557e-01,5.24409e-02,5.28040e-02,9.29862e-01,-3.83251e+00,1.74158e+00,-3.48117e-02,-4.64768e-01,1.53584e-01,-2.18478e-01,
-1.33305e-01,1.83808e-01,7.96820e-01,-6.63588e-01,3.11861e-01,-7.69218e-01,1.18692e+00,1.19013e+00,1.24224e-01,4.02172e-01,-1.31848e-01,-6.48653e-01,
3.34831e-01,4.32409e-01,-6.42994e-01,-6.84161e-02,1.20323e+00,-6.45171e-01,-2.99410e+00,-1.35753e-01,1.06635e+00,-5.31960e-01,4.10302e-01,-6.46750e-01,
2.00832e-01,1.25234e-01,3.03579e-01,5.60221e-02,-1.94837e+00,-4.13788e-01,4.57324e+00,-1.74913e-01,1.32621e-01,-5.71139e-01,-3.23220e-01,-3.17252e-01,
1.54829e-01,1.30364e+00,1.22054e-01,-4.28493e-02,-5.84201e-01,-2.24109e-01,-9.33442e-01,2.00734e-01,3.32669e+00,-7.56441e-01,-1.20760e-01,-6.05347e-01,
-2.55965e-02,7.55604e-01,7.56711e-01,-1.06686e+00,-7.52262e-01,-5.31104e-01,-4.88107e-01,-3.35858e+00,-1.60075e+00,1.78068e-01,3.83249e-01,2.43169e-01,
1.42974e-02,-3.80946e-01,-4.01210e-01,4.95449e-01,-8.13022e-01,5.07090e-02,8.77903e-01,4.16089e+00,1.24167e+00,1.62983e+00,-8.72006e-02,1.40963e+00,
-8.71123e-04,6.26755e-01,1.74000e-01,1.97643e-01,2.56270e-01,3.59786e-01,-1.61006e+00,-1.52157e+00,5.13535e-01,-1.97046e-02,-1.36339e+00,4.40995e-01,
-7.37876e-02,-2.08187e-01,-2.49475e-01,2.07113e-01,1.79456e+00,9.31733e-01,-3.96214e+00,2.89557e-01,-2.44676e-01,5.73047e-01,5.44981e-01,-3.20704e-02,
7.25287e-03,3.28803e-02,-1.60388e-01,9.08067e-02,1.34300e+00,-1.05209e-01,6.28864e+00,2.17345e-01,-1.14574e-02,1.20863e+00,-2.25428e-02,4.01750e-01,
8.41478e-02,1.52543e-01,1.07000e+00,-2.53918e-01,6.24948e-01,-1.16283e+00,-1.77651e+00,1.24960e-01,-5.59880e-01,-8.66964e-03,3.09311e-01,-1.72914e+00,
-9.43352e-02,-2.41366e-01,-3.82055e-01,-3.33079e-01,-1.43487e-01,7.04086e-01,1.56696e+00,-2.47090e+00,-2.30699e-01,1.16996e-01,-9.56706e-01,-1.78862e-02,
6.79064e-01,5.42948e-03,4.20731e-01,1.20287e+00,-2.13389e+00,1.31614e+00,-9.59799e-02,9.18770e-01,1.05025e+00,1.15266e+00,1.07869e+00,-1.12464e+00,
-4.36290e-01,-3.47073e-01,-6.46643e-01,2.33760e-01,-6.00988e-01,1.66267e+00,4.18365e-01,-2.28092e-01,-9.91641e-01,1.54784e+00,1.45991e+00,-1.25369e-01,
-2.00623e-01,-3.31435e-01,-7.97301e-01,-5.26257e-02,3.93447e-01,-9.16265e-01,-6.13642e-02,2.30587e+00,-3.29622e-01,2.57400e+00,4.38837e-01,-8.07161e-01,
-5.68698e-01,2.59700e-01,-1.07975e+00,-9.62514e-02,-6.39821e-01,-6.36947e-01,1.85370e-01,-3.98161e+00,2.21606e-02,-7.61239e-02,4.93395e-01,-1.01461e+00,
-1.17476e-01,2.63489e-01,-1.07304e+00,-4.05322e-01,6.19166e-01,-1.89892e-01,1.61964e+00,2.71409e+00,6.28947e-02,-9.18159e-02,3.89516e-01,-8.45331e-01,
-3.92009e-01,7.47136e-01,3.44363e-01,-1.33997e+00,2.93828e-01,-7.11571e-01,4.21461e+00,1.87874e-01,5.43085e-01,-2.71735e-01,-3.84664e-01,2.66062e+00,
9.90820e-02,1.22414e-01,2.89688e-01,6.41191e-01,-3.40027e-02,-8.30632e-01,1.63194e+00,2.87154e+00,-4.48494e-01,2.88555e-01,1.89989e-01,-1.58161e+00,
-3.01753e-01,-4.28250e-02,7.56501e-01,-6.02083e-01,2.87219e-01,2.43580e+00,-2.34791e-01,1.39372e+00,1.13815e-02,-1.97056e-02,-1.23246e+00,2.46982e-01,
-2.96711e-01,1.43210e-02,1.99203e-01,3.24574e-01,1.90224e-01,6.79444e-01,-1.24995e-01,-2.56514e+00,2.61322e-01,-8.67044e-02,-1.25619e+00,-9.56867e-01,
2.22775e-01,1.90623e-01,-4.54922e-01,5.72746e-01,-1.70440e-01,4.21626e+00,-1.69813e-01,3.84575e+00,-4.56739e-01,-5.91299e-01,1.42134e+00,-6.51621e-01,
3.75499e-01,-1.28847e+00,-4.46601e-01,-2.90481e-01,6.36507e-01,-1.04216e+00,2.80019e-01,-2.15886e+00,-2.53878e+00,3.12643e-01,-8.44433e-01,2.51336e-01,
-2.95249e-01,8.39085e-02,9.44703e-02,-2.99703e-01,-2.31482e-02,-2.95591e-01,-4.05518e-01,8.35029e+00,2.76085e-01,1.13934e-02,6.61655e-01,2.83410e-01,
2.10037e-01,-3.36304e-01,-8.64010e-01,-6.73848e-02,-3.30412e-01,-5.64966e-01,-2.69322e+00,3.04880e+00,-3.87768e-01,-3.61796e+00,2.10885e-01,-2.44387e+00,
4.72678e-01,-2.34799e-01,-7.69751e-01,5.49123e-01,-9.70443e-01,3.13412e-01,-1.67345e+00,-1.36556e+00,-7.52210e-01,1.21317e+00,3.67568e-01,-1.45221e+00,
-1.52095e-02,-1.97684e-02,-7.87679e-01,-2.84287e-01,5.67460e-02,1.19589e+00,9.23935e-01,3.40590e+00,-9.49768e-03,7.16339e-02,5.19682e-01,1.34726e-01,
2.27552e-01,-6.02200e-02,1.72555e-01,1.22575e-01,8.11061e-01,1.62794e+00,2.26598e+00,-5.13969e-01,-9.18880e-02,-2.52981e-01,-1.18082e-01,5.00284e-02,
2.13265e-01,4.03433e-01,-1.33224e+00,7.28539e-01,2.04026e-02,-2.92680e-01,7.00510e-01,-3.34344e+00,-7.30218e-02,-9.39842e-01,-9.18218e-01,1.07158e+00,
4.60003e-04,1.56076e-01,4.25400e-02,5.85839e-01,-2.51057e-01,-6.02321e-01,3.95310e-01,-2.83963e+00,-2.29057e-01,1.85672e+00,1.00713e-01,5.58134e-01,
2.84001e-01,-7.37909e-01,-8.07785e-01,-8.71093e-01,2.79896e-02,-7.86961e-01,1.33352e+00,6.08338e+00,9.24247e-01,-6.53019e-01,-8.82098e-02,6.28789e-02,
1.81149e-01,-2.70845e-01,-1.85615e-01,-6.81279e-02,1.64157e-01,-2.34734e-01,1.51010e-01,-2.04033e+00,-1.53901e+00,8.99049e-02,2.92364e-01,1.38264e-02,
-6.57706e-02,1.17256e-01,-1.07807e-01,1.70917e-01,1.15579e-02,2.08379e-01,2.31525e+00,2.40473e-01,1.03307e-01,6.25158e-01,4.48955e-02,1.06868e-02,
4.28209e-01,-1.45825e-01,-1.77239e-01,5.76059e-01,1.62961e-01,4.12745e-01,1.60738e+00,2.11835e+00,-7.99532e-01,7.75225e-01,8.69749e-01,-1.86196e+00,
1.63974e-01,2.21086e-01,-1.26972e+00,-2.84788e-01,-7.49593e-01,-1.25194e+00,-3.38524e+00,-2.18850e-01,1.65750e+00,1.51499e+00,-5.51078e-01,1.20260e+00,
3.02432e-01,-6.35382e-02,-7.92159e-02,3.24367e-02,-4.69969e-01,-5.12217e-01,-5.28536e-01,-3.40438e+00,-1.61526e-01,-6.15370e-01,3.83627e-01,-1.34278e+00,
-1.82511e-01,-9.29484e-01,-6.09989e-01,8.67746e-01,1.48945e-01,-3.61344e-01,2.15999e+00,9.96367e-01,1.37792e-01,-1.33424e+00,1.31660e+00,-3.68315e-01,
-1.93091e-01,-1.41220e-01,4.05751e-01,-9.07335e-01,3.66666e-01,-9.63108e-01,-6.29492e-01,-2.09723e+00,5.44766e-01,6.29089e-01,-5.02220e-01,1.37383e+00,
3.18798e-01,-4.76956e-01,1.27251e+00,-2.58808e-01,-7.11936e-01,-1.10193e+00,-2.52809e-01,-2.29170e+00,-9.02969e-02,4.02397e-01,8.07057e-02,-5.64714e-01,
-4.13144e-01,1.32163e-01,1.02827e+00,2.53385e-01,-1.09744e+00,1.37307e+00,3.55896e-01,-1.88294e+00,-4.63064e-01,-4.63987e-03,-7.53739e-01,-1.81690e-01,
7.21557e-01,9.70168e-02,6.83544e-01,-1.20145e+00,-2.21497e-01,-4.01033e-01,-5.14106e-01,4.57546e+00,-6.10285e-01,7.34485e-02,8.40148e-01,1.21743e+00,
7.23949e-02,-4.93046e-02,1.15725e+00,4.55050e-01,-1.96693e-01,-1.34187e+00,1.79237e-01,-1.69001e+00,-1.08401e-01,7.83302e-02,-1.16898e-01,2.31972e-01,
3.34575e-01,7.29949e-02,-1.92360e-01,-1.23993e-01,3.54053e-02,3.82747e-01,-1.93330e-01,-4.66087e+00,1.89845e-01,-2.09562e-01,-4.54836e-01,-7.71511e-02,
7.20573e-01,1.20926e-01,3.18540e-01,1.61547e+00,-5.35668e-02,-5.72001e-01,-1.24197e+00,5.41108e-02,-3.77791e-02,-8.08431e-01,-4.28729e-01,-1.28610e+00,
-1.42459e-01,5.24356e-01,-3.31757e-01,-3.90496e-01,-4.05117e-01,-8.31345e-01,-1.19880e+00,3.73810e+00,-1.47934e+00,-1.63815e-01,-1.02130e+00,7.18137e-01,
-3.68101e-01,-9.05400e-02,6.91662e-01,7.15224e-01,-4.57345e-01,-1.52572e-01,3.77380e-01,2.58104e+00,-7.76921e-01,-6.10217e-01,5.47151e-02,1.25429e+00,
-8.38721e-03,2.40345e-01,5.29637e-01,5.08203e-01,1.19387e+00,-9.83396e-01,-3.58935e-01,-2.29689e+00,6.39303e-01,-4.29241e-01,5.35951e-01,9.81326e-01,
3.96285e-02,-3.70228e-01,-5.07208e-01,1.11088e+00,-2.69264e-01,3.39129e-01,2.28536e-01,-3.41527e+00,-1.01806e-01,-1.11989e-03,-1.28391e-01,8.75123e-01,
-9.88439e-01,-2.13369e-01,1.34969e+00,-1.39829e+00,-1.04442e-01,9.24927e-02,5.85284e-01,1.01349e-01,1.41298e-02,-9.90692e-03,1.43186e+00,-6.54873e-01,
1.62119e-01,-4.55573e-02,5.46959e-01,9.52649e-01,4.61548e-01,7.65179e-01,-5.89897e-01,2.07628e+00,-9.20087e-01,4.20461e-01,-9.74446e-01,-2.51929e-01,
4.71010e-01,-2.59465e-01,2.96648e-01,5.12290e-01,1.56257e-01,-6.00376e-01,-7.85102e-01,2.44302e+00,-3.13303e-01,-1.31700e-01,-1.60457e+00,5.30923e-03,
1.53045e-01,
5.57574e-01,
-2.21106e+00,
-6.80993e-01,
3.11788e-01,
6.81479e-01,
-1.04265e+00,
-3.93844e-01,
1.39447e-01,
-9.62784e-01,
-3.04752e-01,
-1.34932e+00,
-3.41421e-01,
8.89764e-01,
5.61805e-01,
-7.12142e-01,
-1.46747e+00,
-1.19331e+00,
-1.27406e+00,
-8.37090e-01,
3.27434e-01,
-9.83215e-01,
-6.04356e-01,
-1.01545e+00,
4.73945e-01,
-1.67157e+00,
-9.88221e-01,
-9.13257e-01,
-1.24295e+00,
-1.35542e-01,
-1.73248e+00,
-1.87139e-01,
-1.53735e-03,
5.95802e-01,
-2.11906e-01,
-1.47006e+00,
1.60624e-01,
-1.49982e+00,
2.47133e-01,
6.01039e-01,
-1.38052e-01,
-9.28897e-01,
-3.02706e-01,
-1.08932e+00,
2.93508e-01,
8.92531e-01,
5.35745e-01,
-2.24912e+00,
-3.28859e-02,
-9.24983e-01,
-2.48744e-01,
-9.70146e-01,
-6.89702e-01,
-6.86494e-01,
4.08800e-01,
7.20604e-01,
-8.48799e-01,
-6.74544e-01,
-4.29384e-01,
-7.10277e-01,
1.89440e-01,
-7.63967e-01,
-1.35910e-01,
-2.71289e-01,
-1.28369e-02,-2.76150e-01,-1.02593e+00,7.01804e-01,-2.76706e+00,1.11863e-01,1.29220e+00,3.63301e-01,6.52832e-01,-2.31253e-01,1.66093e+00,1.66801e+00,1.34768e+00,-7.05121e-01,-1.40551e-01,5.29948e-01,8.30291e-01,7.47440e-01,6.93047e-01,-3.11852e-01,-2.69828e-01,-4.04533e-01,4.19812e-01,7.06057e-01,-7.13843e-01,-7.14640e-01,-3.74227e-02,2.97431e-02,2.75175e-01,-1.86542e+00,-5.93524e-01,4.34003e-01,3.54697e-01,2.88283e-01,-1.93149e+00,1.01458e+00,-1.64285e+00,1.44075e+00,-1.02884e+00,-2.00421e-02,5.21676e-01,-4.52967e-01,-3.04397e-02,7.52025e-02,5.04957e-02,-5.56156e-01,6.42919e-01,7.82323e-01,7.63338e-01,-1.97440e+00,5.27478e-01,1.82048e-01,8.53081e-04,1.62246e+00,-4.41463e-02,-9.56652e-01,8.08918e-01,-2.03997e+00,7.56861e-01,-6.23350e-01,-3.28994e-01,-1.77452e-01,7.23388e-02,6.69929e-01,
-3.44819e-01,-6.68654e-01,5.69046e-01,-1.16377e+00,-2.83254e-01,5.57461e-01,-3.80584e-02,7.75668e-02,-1.45633e+00,2.94370e-02,-1.65532e+00,6.63166e-01,-8.18183e-01,-6.40796e-01,7.98067e-01,2.15789e-01,9.93305e-01,-1.93454e-02,1.15348e-01,4.74434e-01,-7.30763e-02,9.43531e-01,-1.15430e+00,-7.72755e-03,2.60315e-01,-2.48380e-01,1.30836e-01,-9.76571e-02,-1.96342e-02,-8.32585e-01,-1.16249e-01,6.25138e-01,-4.71811e-01,-2.05758e-01,-1.22319e-01,2.33482e-02,-2.85350e-01,-8.27422e-02,-3.93124e-01,-1.05451e+00,-1.26772e+00,-3.65998e-01,2.15631e-01,-3.46790e-01,4.40979e-01,-4.40091e-01,2.41698e-01,-1.38886e-01,2.43517e-02,4.62902e-02,6.92879e-01,-1.10051e-01,-3.13156e-01,-7.43394e-01,2.03796e+00,-3.72648e-01,-1.62620e-01,-1.75060e-01,5.06316e-01,2.27896e-02,-7.83018e-01,-2.12812e-01,-5.37893e-02,6.00369e-01,
6.05920e-02,5.66910e-01,2.41727e-01,9.50690e-02,6.00669e-01,-1.39125e+00,1.56489e+00,2.71580e-01,7.97680e-02,-3.80046e-01,-1.12235e+00,-9.43118e-01,6.91896e-02,-3.34478e-01,-3.33753e-01,5.79828e-01,-3.35874e-01,1.33296e-01,6.94125e-02,5.53120e-01,-2.66174e-01,-6.50496e-02,-8.83847e-01,-8.22358e-01,1.01074e-01,-1.35168e-02,3.72297e-01,-8.99448e-01,1.92370e-01,4.80323e-01,4.69221e-01,-1.14881e+00,9.91631e-01,1.14248e+00,3.40856e-01,5.83775e-01,-4.32784e-01,-6.23812e-01,2.10778e-01,-6.01622e-01,8.24883e-01,4.84773e-01,-2.24594e-02,8.60301e-01,-4.03429e-01,7.64286e-01,-9.15023e-01,-6.93119e-01,-1.69687e+00,2.55583e-01,-1.29209e-01,2.68725e-01,-1.35021e-01,1.54625e-02,-9.76247e-01,-2.98469e-02,4.92319e-01,6.40659e-03,-4.62118e-01,-3.12721e+00,6.65128e-01,3.45806e-02,1.06582e+00,-6.75687e-01,
-1.89376e-01,-3.83691e-01,2.11290e-02,1.26960e+00,-2.28441e-01,-7.73177e-02,6.74270e-01,3.91030e-01,9.42934e-01,1.89445e-03,-1.12154e+00,-6.57539e-01,-4.53569e-01,-9.19080e-01,7.72543e-01,-1.56574e+00,-6.58502e-01,-5.50829e-01,2.20436e-01,-9.34196e-01,-2.54137e-01,-9.27076e-01,-1.42642e+00,3.51870e-01,-1.72854e-01,-1.63879e+00,5.46664e-02,8.12480e-01,1.25723e+00,4.23375e-01,-4.34730e-01,1.07443e+00,-3.82538e+00,2.05311e-01,3.78776e-01,-1.37370e-01,4.80231e-01,-2.24248e+00,1.52298e-01,-1.16962e-01,1.26602e+00,8.44659e-01,-5.01294e-01,-8.20603e-01,8.38637e-02,1.61825e+00,7.92936e-02,-1.86932e-01,6.70280e-01,1.74402e+00,-2.70181e-02,-1.06428e+00,1.19179e+00,8.80176e-01,2.94414e-01,-1.93680e-01,6.36692e-02,-3.10598e-01,3.70185e-01,-2.56650e-01,-4.39586e-01,-1.02760e-01,3.68122e-01,-9.39638e-02,
-3.44064e-05,2.61559e-04,-6.44161e-06,-1.73506e-04,-3.94476e-05,4.58385e-10,6.72293e-05,-1.39682e-04,-3.23564e-05,-1.39467e-04,-1.26779e-04,-2.34167e-05,1.19121e-04,3.31011e-04,-1.20734e-04,-2.75472e-04,-1.71360e-05,-7.06909e-05,1.33396e-04,-9.04398e-06,-3.07218e-04,-1.04446e-04,2.38422e-04,-5.30689e-05,2.03854e-05,5.16995e-05,-3.06080e-04,-2.38365e-04,-4.81533e-05,5.96974e-05,-6.45365e-07,-1.37789e-04,-4.20273e-05,2.12297e-05,-1.56795e-04,-3.08790e-04,-1.81437e-04,-1.67456e-05,6.90919e-05,-2.62827e-04,1.69319e-04,4.62921e-05,2.34187e-04,-6.75505e-05,1.35990e-04,1.35212e-04,-9.42600e-09,-1.00697e-04,-6.99110e-05,4.89513e-05,-2.63600e-05,1.94437e-05,6.59294e-05,8.07107e-05,-1.02309e-04,5.23885e-05,-2.83628e-04,6.25504e-05,5.24530e-05,2.17924e-05,-6.78127e-05,8.55346e-05,-1.87568e-05,5.86870e-05,
-1.41079e-01,-9.72073e-01,1.21314e-01,-1.06658e-01,-5.29844e-01,-3.64373e-01,-3.81648e-01,1.17469e+00,-4.06474e-01,-6.95843e-01,7.23138e-02,-1.78680e-01,-6.74071e-01,6.81775e-01,2.36017e-01,-1.27363e+00,3.20529e-01,2.50735e-02,-6.27659e-01,-2.60855e-01,-1.99957e-01,-6.22510e-02,-9.80276e-02,8.95962e-03,3.29058e-01,-6.07973e-01,1.74933e-01,2.42063e-01,4.90047e-01,-1.48758e+00,3.52363e-01,7.90792e-01,1.03538e+00,-1.31949e+00,8.87884e-01,1.44507e+00,9.35036e-01,1.07174e+00,-6.30304e-01,1.39726e+00,-4.74834e-01,-4.14180e-01,-1.49278e-01,-5.68308e-01,5.84916e-01,-4.42246e-01,-7.66889e-01,-6.82907e-01,-3.80877e-02,-4.45303e-01,-1.23355e+00,1.02005e+00,-4.11898e-01,-1.37831e-01,-7.47027e-02,8.29847e-01,4.31067e-02,1.05267e+00,-1.31713e+00,1.01545e-01,7.19568e-01,-3.68792e-02,-2.20967e-02,-5.33311e-01,
5.71441e-01,1.03682e+00,-1.22542e+00,8.37627e-02,-9.16062e-01,4.01156e-01,-1.84785e+00,6.68052e-01,8.23615e-04,-7.93602e-01,6.79545e-01,3.25534e-01,5.48425e-01,2.11978e-01,1.79821e-01,1.26027e-01,3.32753e-01,5.03839e-01,-1.35776e-01,3.45210e-01,-7.54262e-01,8.33545e-01,-2.57786e+00,6.46859e-02,-5.60095e-04,-3.02954e-01,6.10632e-02,3.28527e-01,8.67094e-02,-2.44187e+00,-4.47868e-01,-2.68347e-01,1.24196e-02,-1.92479e+00,-9.81224e-01,8.70614e-01,2.46947e-01,-9.14338e-02,-1.46900e+00,-1.18021e+00,1.99116e-02,-3.82053e-02,-5.20952e-01,4.94741e-01,-5.57844e-01,-9.90053e-01,1.34239e+00,1.14282e+00,1.19517e-01,-8.78835e-02,-2.20058e-02,-3.55792e-02,1.19156e+00,6.91352e-01,2.77831e-01,-2.51251e-01,8.81803e-02,4.19033e-01,-1.06299e-01,7.27242e-01,9.63346e-01,-5.62219e-01,1.26746e-01,2.18031e-02,
-2.24533e-01,-1.34618e+00,3.15105e-01,-6.31858e-01,1.30521e-01,-3.91806e-01,-9.88763e-01,-5.56455e-01,8.17877e-01,-2.20598e-01,-4.87712e-01,-3.73803e-01,4.21214e-01,-5.60958e-01,-2.42391e-01,2.97052e-01,3.49508e-01,4.09338e-02,-1.49770e+00,-6.15380e-01,-5.18773e-01,-4.87765e-01,-1.89957e-01,2.34600e-02,9.17204e-02,4.60462e-01,-1.79277e-01,2.67146e-01,8.90479e-01,6.33531e-02,1.23567e-01,-7.75425e-01,2.50997e-02,3.17320e-01,-9.17229e-01,5.47570e-01,-2.11301e+00,2.28855e-01,-5.83981e-01,-1.38156e+00,3.21792e-01,-1.98387e-01,1.07298e+00,4.55928e-01,1.13903e-01,1.18971e-01,3.51741e-01,1.40283e-01,6.25726e-01,-5.35326e-01,-5.52173e-01,-1.30358e+00,-1.58145e-01,-2.24497e-01,4.63236e-01,5.66926e-01,-6.44168e-02,-1.29380e-01,4.20494e-03,4.51601e-01,6.79996e-01,-8.43969e-02,-8.24143e-01,4.74577e-01,
-5.36213e-01,-1.69311e+00,2.18459e-01,2.23471e-02,-3.58795e+00,5.78167e-01,9.69651e-01,-1.27726e+00,7.43576e-01,-1.73149e-01,6.05294e-02,-5.82438e-01,-4.71927e-01,-9.05283e-01,-1.72421e-01,8.03117e-02,2.08692e-01,4.51414e-01,2.23702e-01,-3.00673e-02,4.89094e-01,7.71744e-02,-1.42759e+00,1.33393e+00,2.22536e-01,-1.39978e+00,-4.31255e-01,-8.17517e-01,2.96357e-02,-2.74522e-01,-1.16369e+00,6.28863e-01,-3.21837e-01,-7.36015e-01,-2.77683e-01,8.74512e-01,1.62661e-01,1.17880e+00,-1.10261e+00,9.37052e-02,-6.89545e-02,8.29429e-01,1.66003e-01,-1.90038e-01,6.16329e-01,2.58091e-01,1.00281e+00,1.11971e-01,7.85489e-01,-2.09156e-01,-1.27485e+00,4.15690e-01,-1.13922e-01,-8.91779e-01,1.75129e-03,1.84356e-03,-5.06102e-01,-6.69327e-01,8.94450e-01,2.42069e-02,3.85253e-01,1.45373e-01,-3.49152e-01,-1.80781e-01,
-1.28923e-01,-1.83212e-01,1.36211e-01,-7.58425e-02,-2.15710e-01,1.13474e-01,-1.38838e-01,-7.17438e-02,1.07888e-03,-2.32506e-01,-2.30025e-01,4.26203e-01,-1.48115e-01,5.66067e-01,1.41511e+00,-1.40124e-01,1.67447e-01,-2.32861e-02,3.73477e-03,-1.02168e-01,-1.46646e-01,2.10108e-01,-4.52610e-01,1.94766e-01,-1.58664e-01,6.07752e-02,3.05306e-02,-3.56190e-02,-1.69173e-01,-2.49814e-01,7.46658e-02,1.47686e-01,6.59670e-02,-4.13745e-03,6.19311e-02,1.16277e-01,-1.15651e-02,2.14936e-01,-2.85766e-01,-1.45592e-01,4.90676e-02,-3.94159e-02,-2.75294e-01,-2.60210e-01,3.68768e-02,1.23816e-02,-2.84794e-02,1.65986e-01,-1.59185e-01,-1.11747e-01,7.85675e-02,2.54382e-01,1.51665e-01,7.71843e-02,1.99234e+00,5.14825e-01,-8.23341e-02,-1.62401e-01,5.91423e-01,5.12414e-02,4.90597e-03,1.68265e-01,3.03755e-01,2.62135e-01,
4.10775e-01,8.35878e-01,1.73154e-03,-1.13219e+00,-8.33589e-01,1.78800e-02,-1.47151e-01,-1.71574e-02,-2.46166e+00,-2.57610e-01,-7.98834e-01,-2.93365e-01,6.76400e-01,7.80177e-03,-1.77043e-01,-8.37381e-01,-2.90421e-01,1.48763e-01,-2.23100e-01,-1.50360e-01,5.91450e-01,1.46242e-01,-1.25866e+00,-5.92485e-01,1.29957e-01,5.05367e-03,-2.84919e-01,-1.15516e-01,-9.88248e-01,-5.94202e-02,2.58937e-01,5.57431e-01,-6.24607e-01,-6.41681e-02,-3.54336e-02,-6.21445e-01,-1.31167e-01,-6.32567e-01,-1.15106e+00,4.56043e-01,-1.63686e+00,5.28847e-01,-4.38601e-01,-7.45316e-01,9.95162e-01,1.29503e-02,7.95521e-01,1.68209e-01,-3.20532e-02,2.90114e-01,8.39764e-01,3.39665e-02,-6.88245e-01,8.61944e-02,-7.41681e-01,-1.14823e-01,-4.00144e-01,-2.89038e-02,-1.13653e-01,-1.30198e-01,-1.20891e-01,-2.86641e-01,2.45181e-01,4.80379e-01,
1.50955e-01,-8.83183e-03,-2.57550e-01,3.04687e-01,-1.27743e-02,-6.02186e-01,-6.66955e-02,-6.65163e-02,7.80659e-01,2.86299e-01,3.62308e-02,-1.09196e+00,-1.34376e-02,1.24152e-01,-1.23546e-01,-6.31172e-01,-6.20986e-02,-1.52540e-01,-2.77423e-01,-3.01070e-01,1.17477e-01,-2.21527e-01,2.93796e-01,-2.33294e-01,-2.71437e-01,3.34012e-02,-3.16165e-01,1.60022e-01,3.25228e-01,4.47697e-01,-3.25240e-01,-4.24115e-01,-6.21938e-01,-1.21959e-01,-1.09857e-01,-1.98437e-01,-9.04412e-02,-3.02161e-01,-5.74882e-02,-1.53707e+00,4.74461e-02,-6.83641e-01,-3.49137e-01,4.65183e-01,2.14416e-01,3.31390e-01,-2.00554e-01,-4.19499e-02,1.36680e-01,2.97489e-01,3.05611e-01,-1.48484e-01,-7.37342e-02,-1.51555e-01,-1.70327e+00,7.08211e-01,-3.19066e-01,7.45498e-01,-4.20859e-01,-2.61659e-01,-8.90321e-01,5.61038e-02,1.03508e-02,4.64712e-01,
-4.68257e-01,8.03170e-01,-1.45719e+00,1.41842e+00,-1.12105e+00,9.57738e-01,8.14114e-04,-1.48388e-01,6.77237e-01,-5.92534e-02,-6.33819e-02,-2.47022e+00,-1.36619e+00,-1.00396e+00,-8.81659e-01,-8.32455e-01,5.36397e-02,5.31574e-02,1.08695e+00,3.11406e-01,-4.86636e-02,4.63491e-01,-2.43146e-02,2.41472e-02,-3.66979e-02,-7.77679e-02,-1.63875e-01,5.19868e-01,-1.65723e-01,-4.75640e-02,-5.04190e-02,-2.41642e-01,8.79254e-01,-9.39881e-01,-7.88798e-01,-5.31349e-02,1.29525e+00,2.42882e-02,1.20914e+00,-2.83227e-02,1.24871e+00,-2.65851e+00,5.94891e-01,3.85310e-01,-2.67455e-01,-4.35322e-01,-5.24734e-02,2.09679e-01,-2.58588e-01,5.23978e-01,-1.11774e-02,1.64954e+00,1.19582e-01,-5.66751e-01,-2.54331e+00,-8.18083e-01,-9.88660e-01,3.97405e-01,-6.21058e-01,-7.18922e-02,1.22429e+00,4.76097e-01,8.36616e-01,-1.29490e+00,
8.14946e-01,3.48245e-01,3.55135e-01,-2.80737e-01,5.74929e-01,6.24219e-01,-7.07150e-01,9.00148e-01,-4.46065e-02,-1.98208e-01,3.40462e-01,-3.48252e-01,1.90151e-02,1.31840e-01,4.47995e-01,-2.47811e-01,-6.95279e-02,-3.06291e-01,2.38695e-01,-3.37612e-01,-6.74436e-02,6.49724e-01,2.98917e-01,5.62320e-01,-1.81188e+00,2.58196e-01,1.08479e+00,-4.67428e-02,-5.78013e-01,-1.43599e-01,-1.14362e+00,-3.77063e-01,-2.03134e-01,-3.36818e-01,2.34660e-03,1.16994e-01,1.13914e-02,1.42985e-01,-9.31513e-02,5.80746e-01,1.05800e+00,-5.74844e-01,1.71580e-01,-4.29010e-01,-1.92362e-01,-4.08949e-01,1.45171e-01,6.41991e-03,-2.21040e-01,-1.68155e-02,-3.67032e-01,-3.91486e-01,-5.24067e-02,1.84993e-01,-1.00944e+00,4.08226e-01,5.18474e-02,1.09578e+00,-8.83915e-01,3.22836e-01,2.51197e-01,7.82354e-02,2.45129e-02,7.36109e-01,
-8.44949e-01,7.18883e-01,-1.06717e+00,-2.06767e-01,-5.94831e-01,6.16059e-01,2.43404e-01,3.64655e-01,1.89198e+00,4.58938e-01,1.26655e+00,-8.08501e-01,-1.30299e+00,-1.89126e+00,1.23179e+00,6.95607e-01,-1.81201e-01,8.55543e-01,1.04375e+00,9.68710e-01,1.28644e+00,-2.02359e-01,-7.71159e-01,-3.09586e-01,-1.43652e-01,-7.21914e-01,9.18184e-02,-1.38740e+00,-1.86604e+00,-7.66064e-02,-3.52536e-01,5.04095e-01,8.26145e-01,-2.79285e-01,5.47331e-02,-4.72041e-01,-1.83321e+00,1.15109e+00,4.39786e-01,-8.11773e-01,9.30275e-02,-8.72686e-01,-4.29977e-01,-5.98572e-01,-3.68049e-03,-2.56560e-03,4.46591e-01,-5.06990e-02,-6.86922e-02,-8.78432e-01,4.19592e-01,-9.76556e-01,2.22858e-01,3.90560e-02,-3.15790e-02,6.05522e-02,-2.92428e-01,2.56771e-01,-1.65519e-01,7.96903e-01,1.18319e+00,-1.73185e+00,3.67864e-01,-2.03830e-01,
1.54372e+00,-6.63039e-01,-1.78508e-01,9.70659e-01,-2.18366e-02,-1.71235e+00,4.11913e-02,-9.44498e-01,1.98590e+00,5.88162e-01,-3.29182e-01,-1.08574e+00,-4.60427e-01,-9.42731e-02,1.10644e-01,3.30230e-01,3.36446e-01,-3.81556e-01,-3.43051e-01,3.06231e-02,-4.48422e-01,-2.06548e-01,7.45360e-01,2.53981e-01,1.06452e+00,-1.32113e-01,-1.53686e-01,1.17091e-01,2.17239e-01,-1.28271e+00,-1.08781e+00,4.13650e-01,2.01988e-03,4.59924e-01,-2.59833e-01,1.32162e-01,-8.65854e-02,-5.99913e-02,1.58082e-02,3.08994e-02,-2.26082e-01,8.56696e-01,-5.46121e-01,-1.18625e+00,3.26866e-01,-4.26184e-03,-4.10187e-02,-5.99194e-02,6.04353e-03,2.74597e-01,-3.56802e-01,1.45802e-01,2.00718e-01,7.39573e-01,3.22480e-01,2.74595e-02,5.03609e-01,-2.82262e-01,-2.42829e-01,2.03648e-01,-9.72361e-01,4.57974e-01,-1.83440e-01,-8.18079e-02,
-3.70165e-01,-1.54299e+00,1.25387e+00,-1.01320e-01,-1.29410e-01,-7.39395e-01,4.27622e-01,6.53970e-02,-7.23258e-01,-8.58297e-02,-2.03512e-01,-4.12700e-01,-9.31433e-02,-2.51252e-02,7.52559e-01,-6.08878e-01,6.39855e-01,2.84296e-01,6.03979e-01,-2.15208e-01,-7.81799e-02,6.74767e-01,-6.86614e-01,5.64173e-01,1.03811e+00,-5.21379e-01,-4.89115e-01,6.38814e-02,3.07619e-01,-1.75317e+00,-1.43760e-01,-4.25615e-01,-7.16117e-01,-2.09192e-01,-7.08856e-01,8.12108e-02,-1.75368e-01,1.38741e+00,-1.42894e-01,2.70827e-02,-2.88538e-01,-2.53739e-01,-4.94436e-01,7.33918e-01,-9.06575e-01,1.80930e-01,-4.40268e-01,-7.40468e-02,-1.86948e-01,6.36598e-01,9.42063e-01,-1.33426e-01,-5.55854e-02,2.66785e-03,4.05253e-01,3.01413e-02,3.22642e-02,-1.94838e-01,5.04752e-01,-7.95575e-02,-2.86569e-01,7.73450e-01,-5.47496e-01,-2.30735e-01,
5.06783e-01,-1.54066e-02,4.56170e-01,6.69484e-01,7.47853e-01,1.56112e-01,4.06342e-01,-2.33268e-02,-3.50225e-01,-1.03776e+00,-5.57486e-01,1.18227e+00,8.21815e-01,-9.54429e-01,1.03438e+00,2.04048e-01,-1.52021e-01,1.50798e-01,-7.54930e-01,4.06549e-01,2.12326e-01,-3.07480e-01,-6.07610e-01,-1.51976e+00,-6.44214e-01,-5.10479e-01,2.07355e-01,5.54020e-01,2.77188e-01,4.05480e-01,2.06694e-01,-1.12465e-02,-6.94531e-01,-3.40372e-01,-3.70962e-02,1.03890e-02,3.81960e-01,4.56576e-01,-3.83042e-02,1.45608e-01,-3.68280e-01,1.44680e+00,-2.43706e-01,4.18289e-01,2.79297e-01,1.35126e-02,9.57534e-01,9.47187e-02,2.14057e-01,-4.26415e-01,5.34413e-02,-2.00511e+00,1.11621e-02,4.69485e-01,-9.47329e-01,-3.73715e-02,-4.10509e-01,-6.10013e-01,1.12619e-01,-1.38534e+00,2.48263e-01,2.33310e-01,3.91791e-03,-5.82040e-02,
-1.14524e-04,-4.24725e-05,-3.18769e-05,4.91602e-05,-1.91554e-04,-5.79618e-05,1.14860e-04,1.03936e-04,-1.57041e-04,1.72097e-04,-1.36856e-04,1.88283e-04,4.17203e-05,-1.64496e-04,8.65266e-05,-9.46434e-05,8.65216e-05,1.84611e-04,1.81996e-04,-9.69074e-05,-2.35418e-04,4.13464e-06,-1.38019e-04,5.73485e-05,1.95529e-04,4.58109e-05,-1.94931e-04,2.87107e-04,1.26822e-04,1.64125e-04,1.70112e-04,7.99272e-05,-1.29959e-04,1.83663e-05,5.93619e-05,2.54479e-04,1.68025e-04,1.34844e-04,3.87593e-05,6.54440e-05,1.04157e-04,-1.58807e-04,-5.42626e-05,8.51136e-06,5.68714e-05,-1.29430e-04,6.96200e-05,-7.84577e-05,3.93747e-05,5.86418e-05,1.94193e-04,-1.77634e-05,-9.18873e-07,2.42858e-04,7.72700e-05,-9.33477e-05,-5.62505e-06,5.40618e-05,-6.40707e-05,-3.75417e-05,-1.03888e-04,-1.78145e-07,-2.34306e-04,1.96842e-04,
-1.92960e-02,2.91225e-01,6.13138e-02,2.45083e-01,5.57234e-01,-3.05429e-02,-2.50321e-01,-1.00889e-01,-4.96220e-01,4.45743e-01,1.07657e+00,1.56280e-01,1.37556e-01,2.82789e-02,-7.82083e-01,-5.37915e-03,3.20820e-01,4.14891e-02,-7.56752e-02,-2.55361e-01,3.23006e-01,-1.26544e-01,2.02165e-01,2.24916e-02,9.06628e-01,4.80133e-02,1.07207e-01,2.11797e-01,-1.09877e-01,-9.24435e-02,7.50975e-01,-9.69651e-01,4.61693e-01,2.96843e-01,-2.64096e-01,4.51193e-01,-2.01464e-01,5.47698e-01,4.30452e-01,-6.63417e-01,-3.39663e-02,-6.76943e-01,8.07824e-01,2.90830e-02,-6.24279e-01,1.79951e-02,1.76341e-01,-1.97342e-01,-5.46909e-01,-4.04532e-01,-6.91526e-01,-9.45524e-03,-1.32640e-01,-2.84069e-01,1.17973e-01,1.68080e+00,1.32422e-01,2.02705e-02,7.09795e-02,-9.98149e-02,1.01936e-01,-1.86105e-01,-8.38320e-03,-7.19291e-01,
-1.23460e+00,-1.49260e-01,8.42924e-02,3.18202e-01,5.12938e-02,5.50773e-01,9.18955e-01,-1.32504e-02,-6.87008e-02,-4.54389e-02,7.82755e-01,5.75774e-01,6.21414e-01,1.10668e+00,-1.71959e-01,1.00637e-01,8.91347e-01,-2.96242e-01,5.63369e-01,3.47101e-01,-8.36462e-01,1.53458e-01,1.47090e+00,9.30130e-01,-4.47565e-01,5.03535e-01,-2.93763e-01,2.35411e-01,2.39439e-02,-3.62848e-01,-1.10528e-01,-2.11561e-01,3.63824e-01,6.44110e-02,-4.07051e-01,2.89533e-01,5.23469e-01,-1.66638e-01,4.47922e-02,-6.83364e-02,-1.01802e+00,-1.15489e+00,-8.54651e-02,-1.38703e-01,-7.24469e-01,4.44425e-02,-5.74664e-01,-5.46132e-01,-7.79572e-02,-3.94065e-01,1.11244e+00,1.58495e-02,3.53172e-02,-4.24882e-01,-1.45547e-01,-3.99440e-01,-4.84683e-01,-3.36420e-02,-1.15006e-02,-1.40918e+00,-1.08678e-01,9.18908e-01,-2.91976e-01,-2.12554e-01,
-1.21303e-01,-5.15720e-01,-2.96825e-01,9.14607e-01,2.39047e-01,-7.39094e-01,9.46415e-01,-2.80839e+00,1.48686e-01,-4.65661e-01,6.95440e-01,4.25516e-01,-8.62728e-02,1.31398e-01,-1.04815e+00,7.94014e-02,6.87457e-01,1.27163e-01,-1.13319e+00,-7.90047e-01,9.75228e-01,6.66683e-01,8.13675e-01,-3.76106e-01,2.05334e-02,-1.40061e+00,-5.11079e-02,-8.73805e-01,-2.21368e-01,4.29517e-01,1.19974e+00,4.41693e-02,5.25778e-02,7.65427e-01,-6.47447e-01,-1.00518e-01,-2.79648e-01,9.55779e-01,1.62101e-01,-8.10487e-02,-1.66708e-01,3.07172e-01,-6.25650e-02,1.29679e-01,-2.89428e-01,1.68320e-01,1.97798e-02,1.84001e-01,2.18412e+00,2.37902e-01,-2.12321e-01,1.37428e+00,2.97378e-02,-4.66610e-02,7.90409e-01,4.15809e-02,-8.33547e-03,-9.26787e-01,3.69653e-01,-4.84135e-02,8.23200e-01,5.30105e-03,3.33941e-02,1.53966e-01,
-4.63018e-01,3.82094e-01,-1.41625e-01,-3.98930e-01,-1.96848e-02,1.69507e-01,-1.17792e+00,1.45341e-01,-8.93366e-02,-4.43782e-01,-2.41999e-01,-2.99743e-01,-6.18116e-01,-9.58565e-01,1.15654e+00,1.04443e-02,6.74751e-01,-1.05933e-01,2.24610e-01,-8.80845e-02,-4.86347e-01,3.78035e-01,-6.49298e-01,-1.60333e-01,2.61814e-01,-2.42038e-01,4.03335e-01,2.40343e-01,-2.98320e-02,2.30078e-01,2.35317e-01,-9.75751e-01,-6.26769e-01,2.27374e-01,-5.64173e-01,-7.92537e-02,-7.53252e-02,-1.98284e-02,3.87214e-01,-5.48324e-01,-5.00792e-01,-2.97558e-01,-3.75815e-01,-5.73715e-01,4.68174e-01,1.70428e-01,-3.53212e-01,-4.34501e-01,2.11315e-01,1.85437e-02,1.66890e-01,3.23773e-01,-1.68849e-01,9.36530e-02,1.04449e+00,4.22950e-02,-5.12117e-02,2.01914e-01,2.65193e-02,-3.74405e-01,-5.05562e-01,7.33771e-02,2.21535e-01,-1.86643e-01,
-3.89069e-01,-5.62879e-01,-3.63489e-01,-1.11776e-03,-1.82167e-01,3.64547e-02,3.85197e-01,5.79279e-01,1.06379e+00,2.18832e-01,8.14808e-01,1.21405e-01,1.83162e-01,-2.48339e-01,1.79455e-01,3.94447e-01,-6.00923e-01,-2.37776e+00,-2.13336e-01,-1.25426e-01,1.82926e-01,3.63514e-01,-7.36444e-01,1.02549e+00,4.96772e-02,1.51856e-01,6.72931e-02,-3.53017e-01,3.35396e-01,3.63227e-01,-8.77656e-01,4.25355e-01,-1.24204e-01,-8.02074e-01,1.26230e+00,3.98915e-01,-5.36703e-01,-7.06954e-01,4.18330e-01,-2.17228e-01,-1.32520e-02,2.90619e-01,-1.34894e+00,-2.74428e-01,1.97330e-01,-1.05856e+00,1.27725e-01,-5.53291e-01,-2.07973e+00,7.88365e-01,1.12375e-02,9.33182e-02,5.38534e-01,1.57421e-01,5.29081e-01,1.07172e-01,-2.42826e-02,-1.48131e+00,-2.08736e-01,-1.57049e-01,5.09446e-02,1.75983e-01,-5.60357e-01,1.04816e+00,
-1.98871e-01,-4.17983e-01,6.75126e-02,2.47602e-01,3.28012e-01,4.72433e-01,5.50023e-01,1.13860e+00,1.30016e+00,-2.69201e-01,-8.33131e-01,2.34811e-01,3.40509e-01,-1.44022e+00,1.88264e+00,9.50072e-01,-1.22816e-01,-2.70680e-01,-5.73460e-01,-4.98504e-01,-9.76314e-02,1.27964e+00,1.51160e+00,-3.74053e-01,-8.25645e-02,5.64223e-01,-7.20120e-01,-3.70332e-01,-1.15069e-01,-5.68523e-01,9.88365e-01,1.33213e-01,-9.26356e-01,-3.60926e-01,-3.33909e-01,5.66102e-01,-1.14510e+00,1.62244e-01,-2.56899e-01,-5.61822e-01,-1.88906e-01,7.17799e-01,-6.32530e-01,2.38568e-01,2.75809e-01,9.53433e-01,1.36375e-01,1.28699e+00,3.09873e-01,1.34628e-01,-9.25209e-01,-1.12378e+00,6.30453e-01,-1.33780e+00,-8.82764e-01,2.13043e-01,-1.34682e-01,-6.52142e-01,5.24231e-01,-4.66797e-01,-4.18557e-02,-1.24969e+00,1.89572e-01,-7.03901e-01,
1.03797e+00,-1.75452e-01,-1.09427e-01,4.04486e-01,-2.31452e-01,1.04552e-01,-2.92146e-01,9.01800e-01,1.48564e+00,6.44750e-01,-5.07544e-01,3.18108e-01,2.96873e-01,-1.67666e-02,-2.22471e-01,-7.27656e-01,7.15094e-01,-5.70097e-01,-1.40643e+00,1.32543e+00,-2.09228e-01,-1.36905e+00,8.20565e-01,8.27783e-02,2.57259e-01,-5.41362e-01,-7.93547e-01,4.49425e-02,1.10768e+00,9.77227e-01,-2.92761e-01,-4.27960e-01,9.82980e-02,-7.29497e-01,2.77326e-01,-8.10728e-01,-9.31351e-01,4.18405e-02,-2.56618e-01,-4.86771e-03,-2.25603e-01,-5.57436e-01,-9.73797e-01,-1.00396e-01,4.58926e-02,-5.38870e-02,-1.48448e+00,4.00490e-03,-3.44050e-01,5.78661e-01,1.75724e-01,3.55158e-01,7.06944e-01,4.74478e-01,4.51519e-01,-2.27513e-01,-2.46171e+00,-6.66007e-01,-2.34788e-01,8.11584e-01,1.09313e+00,-4.61955e-01,-2.63642e-01,-2.41041e-01,
-2.46775e-02,-4.29670e-01,4.81712e-01,8.55629e-01,-1.11506e-01,1.29472e+00,9.30303e-03,-4.55460e-01,1.72187e-01,-1.48390e-01,-8.33058e-01,-5.86473e-02,5.65431e-02,7.03297e-01,1.07944e-01,7.02100e-02,-7.99224e-01,-3.80857e-01,3.99137e-01,3.62467e-02,1.45697e-01,-3.62839e-01,4.67701e-01,1.45533e-01,-1.10796e+00,-1.77322e-01,5.07325e-02,-9.62652e-01,8.23194e-01,-7.73159e-02,-2.17267e-01,2.38306e-01,-1.01213e+00,-9.74934e-01,-3.24005e-01,1.03185e-01,1.02222e+00,-8.16616e-01,1.05600e-01,1.01245e+00,-4.87218e-03,1.10927e-01,1.69443e+00,9.52144e-02,6.10772e-01,5.74726e-01,2.41742e-03,1.60700e-01,-2.53383e-03,1.39660e-01,-7.27316e-01,5.12677e-01,4.73911e-01,1.00092e-01,-9.52317e-01,-6.13097e-02,1.82823e-02,9.43221e-02,4.62938e-04,6.62476e-01,-3.53847e-03,7.40843e-01,8.06561e-01,-1.23129e+00,
-3.40736e-01,1.97780e+00,7.42409e-02,6.43512e-01,-2.22748e-02,-1.34379e-02,-3.74246e-01,-3.65665e-01,-1.73511e+00,-4.84486e-01,-5.77532e-02,-3.82606e-02,-2.07104e+00,-1.34156e+00,-5.62988e-01,5.26673e-01,-5.09721e-02,1.12862e-01,-1.58486e-01,2.08961e-01,6.33109e-02,2.91748e-01,4.27275e-02,-2.97428e-01,1.22221e+00,8.98145e-02,-1.45432e+00,1.57359e-02,1.44168e-01,4.10038e-01,-6.21404e-01,-2.80064e-01,-5.00286e-01,9.55742e-01,-1.41877e-01,3.01957e-01,-2.13110e-01,-2.74907e-01,-4.17155e-01,-2.29116e+00,-9.51844e-01,-4.46483e-01,1.61631e-01,-2.52625e-01,9.85630e-02,-5.28618e-01,7.30054e-01,3.13115e-01,-4.82659e-01,-1.04698e+00,-7.20217e-01,-8.90085e-01,-2.75993e-01,1.13414e+00,-2.77678e-01,8.10893e-01,6.39398e-01,-9.12941e-01,5.33186e-03,-6.82599e-01,1.10884e-02,1.44612e-01,3.46430e-01,3.13602e-01,
1.07889e-01,-3.99547e-01,-2.41473e-02,-6.78228e-02,-9.11363e-01,3.88292e-01,6.62896e-02,-9.24031e-01,-1.58961e+00,-1.09646e+00,1.56571e+00,9.48651e-01,1.35150e+00,-1.99218e+00,-7.54779e-01,6.29016e-01,9.98493e-01,-5.54371e-01,-5.32658e-02,-4.06880e-01,1.04072e-01,-3.07997e-01,3.73478e-01,-4.34080e-01,-1.23224e-01,-3.47832e-01,1.03642e+00,-6.75005e-01,-1.09901e+00,1.03096e-01,-1.24773e-01,1.86375e-02,9.99836e-01,4.34786e-01,-5.88184e-01,1.13683e+00,-2.36372e-02,4.12401e-01,1.52399e-02,-7.46630e-01,-1.47659e-01,4.13909e-01,7.00995e-01,3.28970e-01,-1.02026e-02,-1.61670e-02,-2.65852e-01,-1.34804e+00,1.40506e-01,1.69680e-02,-5.52065e-01,-1.65461e+00,2.31753e-01,-2.91212e-02,-9.66196e-01,3.71116e-01,-1.30577e+00,-3.51059e-01,-1.35522e+00,-3.11302e-02,-1.25765e+00,-1.42641e-02,6.00816e-03,6.70647e-02,
5.67085e-01,-6.42465e-01,1.31342e-01,-3.03933e-01,1.29778e-01,-1.60572e+00,-1.77714e-03,4.65188e-01,2.37279e-02,-5.08182e-02,-2.35753e-01,5.50870e-01,1.02666e-01,-9.81633e-01,6.28355e-03,-5.39030e-01,-4.05423e-01,-1.52217e-01,-2.24907e-01,1.35168e-01,-6.37603e-02,7.98254e-01,-4.00767e-01,-1.07019e+00,4.45966e-01,-1.85762e-01,3.14909e-02,-5.30103e-01,2.75749e-01,1.86870e-01,1.54685e-01,1.82652e-02,-4.26858e-02,3.31102e-01,6.06211e-01,3.10165e-01,-1.94796e+00,5.75386e-02,2.81461e-01,-8.85013e-01,2.54016e-02,8.14909e-01,-3.89836e-01,-2.39945e-01,8.02960e-01,-1.20496e-01,-6.88875e-01,3.76184e-01,5.21728e-01,5.01809e-01,3.76249e-01,6.58980e-02,-7.78659e-02,9.02254e-02,1.28373e-01,1.94875e+00,7.00446e-01,-7.31351e-01,-3.59768e-01,4.83204e-02,-1.48431e-01,-5.35820e-01,-6.04700e-01,1.11874e+00,
4.26637e-02,-2.93307e-01,3.02456e-01,-6.18897e-01,9.51178e-01,-2.20899e-01,2.61362e-01,-3.59540e-01,-2.67281e-02,-8.69127e-01,-1.89739e-01,-3.24463e-02,-6.30212e-01,-9.57085e-03,-1.62651e-01,6.76966e-01,2.47212e-02,7.72190e-01,5.68815e-01,2.32850e-01,1.61627e-02,8.21096e-01,-1.18759e+00,-2.01317e-01,1.07862e-01,-1.13492e-01,4.27751e-01,1.79402e-02,3.07337e-01,1.86686e-01,-1.98271e-01,1.55632e-01,-1.46352e-01,-4.74055e-01,-9.18660e-01,3.61000e-02,-9.11710e-02,-2.01039e-01,2.06261e-02,4.81550e-03,-1.06973e+00,5.13504e-01,3.92981e-01,9.17927e-01,1.03040e-01,8.04580e-01,-1.06329e-02,-1.15452e-02,-2.23299e-01,3.25425e-01,1.63077e-01,-2.64989e-01,-1.87546e+00,-2.17343e-01,-3.22381e-01,-1.07399e+00,6.29733e-01,-1.42289e-02,3.62162e-01,-1.39519e+00,5.76383e-01,1.61107e-02,-1.64030e-01,6.08293e-01,
-4.47897e-01,-8.25198e-01,-1.99591e-01,3.89820e-01,4.56948e-01,3.07568e-02,-3.40822e-01,4.69948e-01,4.21789e-01,-1.26822e-01,-7.83397e-02,5.06023e-01,7.44058e-01,8.53092e-01,4.16166e-01,-1.85115e-01,-1.40264e+00,3.77883e-01,-1.06253e-02,-3.79102e-01,-5.10985e-02,5.88481e-02,3.89138e-01,-3.37043e-02,2.02760e+00,-1.25884e-01,2.45897e-01,6.03772e-01,-5.22898e-02,-6.06395e-02,-1.22591e-01,9.37116e-02,-2.16109e-02,-6.60743e-01,-5.20575e-01,5.47010e-01,-1.04907e+00,-2.05397e-01,3.80171e-03,-1.60346e+00,6.57513e-01,1.37331e+00,-2.46306e-01,-1.87720e+00,1.02687e-02,7.75068e-02,-2.95159e-01,4.60904e-01,-2.40193e-01,3.53716e-01,-3.19277e-02,-1.15963e-02,9.79289e-01,3.15040e-02,7.17273e-01,1.46537e-02,9.80082e-02,-5.55422e-01,1.11386e+00,-8.72820e-01,-8.22190e-01,-2.52024e-01,8.48681e-02,4.64541e-01,
-6.37016e-01,-2.90597e-02,4.22282e-02,-1.16007e+00,3.57756e-01,-1.03421e-02,5.20719e-02,1.73673e-01,-5.11713e-01,-1.68010e-01,-4.80195e-01,9.73687e-02,-3.27536e-01,-7.18109e-01,-5.66242e-01,-7.81713e-01,-4.80249e-01,-2.26007e-01,4.38232e-01,-3.46961e-02,6.17723e-01,1.45384e-01,-6.46257e-01,4.50728e-01,3.10594e-01,-2.42187e-02,-1.01281e-01,-2.45585e-01,-2.59881e-01,2.78265e-02,-4.12728e-01,-2.06229e-01,5.04440e-02,-3.57287e-02,2.06358e-01,4.36627e-02,5.04137e-01,-1.48483e-02,5.36832e-01,-1.01836e+00,4.74763e-02,1.04995e-01,-6.77138e-02,2.82905e-02,-2.70219e-03,1.64594e+00,-1.88907e-01,8.34010e-01,-7.23226e-01,-1.38203e-01,2.30273e-01,-7.04136e-01,-3.94996e-01,2.65091e-01,4.34017e-02,1.39067e-01,-9.68652e-02,6.39037e-01,-3.59226e-01,8.16018e-01,7.26337e-01,-1.61301e-01,2.34917e-02,-3.96496e-01,
1.04068e-01,-5.59099e-01,6.07822e-01,8.95936e-01,-3.94647e-01,-4.06738e-01,-1.15752e+00,-2.26288e-02,3.19186e-02,-8.10550e-01,-1.54334e+00,-6.98390e-01,1.62724e-02,-1.74283e-01,-4.51004e-01,1.00223e-02,-2.59377e-03,-4.38272e-01,-3.59963e-02,2.12949e-01,3.57811e-01,-1.69958e-01,7.85957e-01,6.60530e-02,1.74942e-01,-3.58657e-01,-9.02078e-02,1.11032e-01,-2.28729e-01,-2.45947e-01,-2.40810e-01,5.55108e-01,7.56210e-03,-8.67441e-02,-5.12795e-02,5.56253e-01,-4.55935e-01,2.90011e-01,5.38682e-01,1.60699e-01,-4.18951e-02,-2.78431e-01,-8.24776e-01,-7.88738e-01,-4.05625e-01,9.30860e-01,-1.98926e-01,-4.15912e-02,-1.07702e+00,-1.26731e-01,-6.71148e-01,4.38699e-01,-3.91461e-01,5.05644e-01,-5.32417e-02,9.58746e-01,1.11945e-01,-1.01304e-01,-8.07579e-01,-2.01605e-01,1.86849e+00,4.66671e-01,2.88959e-01,-5.50135e-01,
-4.20344e-01,-9.61378e-01,3.30737e-01,-3.38138e-01,-4.67686e-01,-2.64225e-01,-3.59599e-01,-3.75161e-01,-6.19923e-01,-3.36398e-01,-6.06627e-01,-2.01095e-01,-3.77144e-01,2.41537e-01,1.29074e+00,-3.31569e-01,6.86664e-02,-9.07298e-02,1.71450e-01,-2.50578e-01,2.26079e-01,3.13901e-03,5.00367e-02,7.45479e-01,-7.93235e-02,2.38718e-02,1.27740e-03,3.33565e-01,3.59445e-02,6.16442e-02,-1.96344e-01,-1.61546e-01,-1.76642e-01,5.64893e-02,-5.05057e-02,-1.50594e-02,1.75672e-01,-3.46003e-01,-2.17208e-01,3.36110e-03,-1.26751e+00,8.27305e-01,-1.95186e-01,-2.09760e-01,-7.99876e-02,-6.44139e-01,5.71552e-02,-5.79717e-01,-5.25711e-02,-3.64343e-02,9.92423e-01,-6.96893e-01,3.67327e-02,-1.44822e-01,-8.10791e-02,-3.09876e-02,2.66717e-02,-1.45100e-02,-1.53897e-02,1.23234e+00,-2.75536e-01,6.19250e-03,8.40438e-01,4.31639e-03,
8.79845e-01,7.60265e-03,1.77004e-02,-2.44116e-01,-2.08171e-01,5.29161e-01,1.08973e+00,-2.48839e-01,-7.85907e-01,4.07637e-01,5.50074e-01,-7.66488e-02,-2.71511e-01,-1.88030e-01,-4.28979e-02,-1.87076e-01,2.00629e-02,4.18764e-01,5.44223e-01,-1.26978e-01,6.39441e-01,1.41989e-01,-5.86990e-01,1.68101e-01,1.51676e-02,-1.82118e-01,1.80771e+00,9.61866e-02,-9.97188e-02,-4.66024e-01,-9.32614e-02,1.93116e-01,1.90496e-01,-6.34589e-01,-2.28613e+00,6.70042e-02,-8.38168e-01,4.37299e-01,-2.89020e-01,-7.32024e-01,-1.12417e-01,-5.76677e-01,5.44241e-01,1.01986e+00,2.55421e-02,-1.75461e-01,-1.11088e+00,3.81522e-01,1.43940e-01,-7.16179e-01,-2.49145e-01,-2.21709e-02,5.24577e-01,-3.19314e-01,4.05777e-01,-4.15083e-01,-1.32987e+00,2.49932e-02,-1.32422e+00,-4.37077e-01,1.20417e+00,3.95845e-01,1.45574e-01,2.69533e-01,
1.70227e-01,1.81918e-01,-7.81597e-01,-5.83223e-02,-5.03789e-01,-2.05300e-01,1.98273e-01,3.10588e-01,-1.02109e+00,-5.65652e-02,-2.19692e+00,5.03706e-01,-1.21480e+00,5.31942e-01,6.51673e-01,-5.16006e-01,8.69991e-02,-2.88954e-01,-1.73464e-01,1.63908e-01,-1.03656e-02,-5.81706e-01,-4.15865e-01,-1.86825e-01,-9.66086e-03,-5.85611e-01,5.83074e-01,-4.73349e-01,-2.37167e-02,2.11438e-01,3.58468e-01,-1.70603e+00,-3.27524e-01,-1.81628e-01,-4.46758e-01,4.19790e-01,-8.45797e-02,2.65051e-01,2.54414e-01,2.45541e-01,-1.72310e-02,4.57429e-01,1.07023e+00,-1.65772e-01,3.47866e-01,1.04733e+00,8.89786e-01,-7.71091e-01,7.30218e-01,-4.94451e-01,-1.18041e-01,-2.39728e-01,2.02105e-01,-8.79408e-01,-8.32988e-01,-4.97756e-01,3.98525e-01,-4.33602e-01,3.23786e-01,1.14684e+00,4.78893e-01,2.23526e-01,2.82243e-01,-1.15146e-01,
2.01470e-01,-1.24974e+00,4.49302e-01,-1.14207e+00,8.03297e-02,5.54572e-01,1.74552e-02,3.26937e-01,1.53519e+00,-2.85048e-01,-6.38375e-01,-1.17511e-01,7.91659e-01,-3.16880e-01,-4.87908e-01,6.50940e-02,4.40052e-01,-8.71366e-03,-2.95100e-01,4.53544e-01,4.00702e-01,4.14716e-01,1.88396e+00,6.69511e-02,-1.67387e-01,1.93732e-01,-3.35318e-01,-1.06961e+00,6.30353e-01,7.48704e-01,6.68958e-01,-8.04336e-02,-3.22136e-01,1.00252e+00,4.07846e-01,-1.11082e-01,-1.92990e-01,1.67665e-01,3.18639e-01,-3.94757e-01,-9.41769e-01,6.92758e-01,8.84576e-01,-8.02353e-01,4.30842e-01,-9.67767e-02,-1.42028e-01,-1.38101e-01,1.08499e-02,5.32955e-01,7.89505e-04,6.22626e-01,4.06869e-01,1.03212e-01,1.30901e+00,-1.99575e-01,2.68213e-01,1.79124e-01,-5.55385e-02,-4.26311e-02,-1.43199e+00,-1.78251e-01,3.44175e-01,4.56988e-01,
7.10107e-01,4.96380e-02,-8.25377e-01,-3.10844e-01,-3.46510e-02,-2.00530e+00,-1.65284e-01,1.41728e-02,-7.88259e-01,-5.95668e-01,5.68049e-01,3.21345e-01,-7.76539e-01,1.18280e-01,9.67876e-01,6.15179e-01,-3.21397e-01,-1.01551e-01,4.09518e-01,-1.40343e-01,-1.49730e-01,-7.26190e-01,-2.10617e+00,-1.72150e+00,-6.12475e-02,-6.76687e-02,-1.56305e-01,2.84964e-01,-1.10572e-02,-1.14600e-02,-9.84863e-01,-1.40302e-01,-6.34954e-01,1.66911e+00,-1.58470e+00,-2.60866e-01,-3.84017e-02,-1.38906e-01,1.04870e+00,-1.93047e-01,-1.90088e-02,1.16961e+00,1.36982e-02,-3.84881e-01,6.66949e-01,3.58063e-02,-4.29971e-01,-1.50042e+00,5.62104e-01,1.53299e-01,6.63861e-01,5.19691e-01,1.69497e-01,4.28910e-01,-1.58443e+00,-7.14697e-03,-6.96920e-01,4.48027e-01,1.35701e-01,8.16714e-01,5.83429e-03,-6.93334e-01,6.57615e-01,-2.39990e-01,
8.16944e-01,3.59726e-01,-2.22767e+00,2.01136e+00,-1.62728e+00,3.72616e-02,-2.25633e-01,-8.48910e-01,-5.97691e-01,-4.71540e-01,-2.03081e+00,8.66503e-01,1.43229e+00,-5.98995e-01,-3.80307e-01,-4.74305e-01,1.10857e-01,3.11339e-01,-2.47517e-02,5.11748e-02,5.40076e-01,4.71163e-01,1.86972e+00,4.11972e-02,1.02758e-02,-7.48021e-03,-2.60184e+00,-9.52574e-01,3.22168e-01,-2.31142e-01,2.76735e-02,-1.32602e-01,-4.78646e-01,-2.13446e-02,-2.00227e-01,3.47071e-01,6.44367e-01,-2.62793e-01,1.97215e-01,-8.14417e-01,5.17199e-01,1.47611e+00,8.75453e-01,-5.61959e-01,1.34300e+00,-1.01597e-02,-7.17985e-02,5.57054e-01,6.22706e-01,-5.23402e-01,5.27837e-01,9.33919e-02,-5.69281e-03,4.13951e-01,6.36135e-02,-2.21440e-01,-1.20142e+00,-9.67488e-01,7.16854e-01,-3.35114e-01,-1.17934e-01,-1.46320e+00,1.18439e-01,8.14679e-01,
-4.76401e-01,1.03269e+00,-6.40383e-01,1.04784e+00,-2.11013e-01,6.39800e-01,-1.27954e-01,3.28654e-01,1.38712e-01,6.13390e-01,1.07246e+00,-6.60423e-02,-6.65977e-02,4.71937e-02,-2.09790e-01,2.93498e-01,-1.95077e-02,1.50835e-02,3.11171e-01,1.15457e+00,-5.37569e-01,-2.95881e-01,9.69977e-01,5.79004e-02,-8.88322e-01,1.39632e-02,-3.93821e-01,-1.89156e-01,-2.30415e-01,6.52791e-01,2.43688e-01,3.64321e-01,3.37707e-01,-5.68276e-01,2.85441e-01,1.01080e-01,3.37838e-03,1.11303e+00,-2.58660e-01,-2.00830e-02,-1.35927e-01,-1.36595e+00,-7.11683e-01,-5.08335e-01,2.32982e-01,-1.48778e-01,-5.06078e-01,3.63963e-01,-1.18493e+00,-9.12162e-01,-6.63191e-01,6.83696e-01,-4.57949e-01,3.46376e-01,-1.41262e+00,-9.52460e-01,-1.00180e+00,4.87908e-01,-5.68491e-01,-6.43160e-01,-1.41498e+00,6.18339e-02,1.15844e-01,-1.56685e-01,
7.03283e-01,4.67818e-02,-1.58068e-01,-8.05319e-03,-3.40936e-02,-2.94076e-01,7.81198e-01,-3.32369e-01,-7.89526e-03,-2.27770e+00,-2.16610e-01,6.92352e-01,-2.27136e-01,-1.02056e-01,1.55997e-01,-1.43314e-01,-1.35342e+00,1.09822e-01,3.87171e-02,-2.93644e-01,-1.67615e-01,-4.23149e-01,1.92794e-02,5.29296e-01,-3.41638e-01,-1.11787e-01,9.11541e-01,-7.46506e-01,3.83238e-01,-1.77277e-01,8.73866e-01,-1.23388e+00,-1.67380e-02,-4.13884e-01,-2.17588e-01,1.31891e-02,-1.48822e+00,-1.64777e-01,5.52123e-01,-4.69740e-01,4.10823e-01,7.69213e-02,-4.49256e-01,-4.76159e-01,5.56520e-01,8.21759e-01,-6.48085e-01,3.22581e-01,5.73323e-02,7.98951e-01,1.39701e+00,-1.25224e+00,1.64415e+00,-1.04711e+00,6.82423e-03,3.87161e-01,5.72342e-01,1.51617e-01,-7.70763e-01,4.55957e-03,-1.94209e-01,4.15361e-01,1.89220e-02,-3.28458e-01,
-4.17298e-03,-2.80436e-01,2.26992e-01,4.35492e-01,1.01804e+00,6.08251e-01,-2.68256e-01,2.04324e-01,9.34561e-02,-2.15681e-01,-7.26251e-01,5.50760e-01,9.97570e-02,3.19934e-01,-4.10769e-01,-1.59248e-01,1.88200e-01,2.65006e-01,4.20911e-01,3.05338e-01,4.33128e-02,1.12014e-01,-4.29007e-01,-5.72293e-01,7.98388e-03,-1.13290e-01,-2.39938e-01,8.78995e-01,-4.38593e-02,-6.67726e-01,-1.00611e+00,3.65460e-02,-1.30788e-01,-8.61110e-01,5.77497e-01,1.11970e-01,-5.18627e-03,1.27983e-01,-2.26993e-01,-1.16053e+00,-8.79139e-01,3.01427e-01,3.17185e-02,-5.70507e-01,-2.81972e-01,-1.88790e-01,1.02359e-02,3.16056e-01,2.19459e-01,8.52923e-02,1.04610e-01,-1.40234e-01,-4.90641e-01,-2.15489e-01,-3.45168e-01,2.71286e-01,-9.00335e-03,2.98864e-02,-4.73817e-02,-1.07615e+00,1.88384e-01,-1.89888e-01,-2.96763e-01,1.73810e-01,
-4.92831e-01,-5.86772e-01,5.11196e-02,9.69776e-01,7.63110e-01,1.94439e-02,-1.72056e+00,-7.52681e-01,9.95464e-02,-9.02297e-01,1.11774e+00,2.13229e-01,1.27765e+00,-1.99290e+00,-3.33766e-01,-1.12966e+00,-3.70115e-01,1.30382e+00,6.88283e-01,3.53615e-01,-1.09539e-01,-1.41596e+00,1.10054e+00,-2.99514e-02,-5.11353e-02,-4.22598e-02,3.01100e-02,-8.78851e-01,1.51175e+00,-7.12543e-02,2.41014e-01,8.96019e-01,-3.76785e-01,-4.43856e-01,-2.86329e-02,4.11744e-01,-1.99164e+00,-1.12261e+00,-6.45138e-03,1.03926e-02,-6.41628e-01,-6.11450e-01,1.27026e+00,-2.15540e-01,4.95788e-01,2.28185e-01,-3.34167e-02,-1.84643e-01,1.27177e-01,-6.54247e-01,1.96958e-01,3.81102e-03,1.75862e-01,5.72553e-01,-1.99797e-02,-1.03605e+00,-6.44928e-01,-6.26529e-01,3.52810e-02,7.09075e-01,7.23677e-01,-1.87149e+00,4.57481e-02,-8.26395e-01,
4.98662e-02,-4.23828e-01,3.59067e-01,-6.51310e-01,-2.20445e-01,-2.25907e-01,-3.81494e-02,5.65457e-01,-6.47155e-01,-6.20913e-01,2.49037e-01,6.85030e-01,4.66632e-01,-1.01131e+00,3.31356e-01,1.22195e+00,9.57021e-01,1.08742e-01,8.00502e-02,2.26431e-01,-3.51328e-02,8.07631e-01,-6.30883e-01,-1.68108e-02,-3.65851e-01,1.66731e-01,-1.20285e-01,-5.66945e-01,7.57095e-01,-7.21164e-01,4.41663e-01,-3.55684e-01,-1.42469e+00,3.42838e-01,-1.93230e-02,-1.87933e-01,4.86324e-01,-8.28470e-01,-9.19571e-02,-1.41975e+00,-7.83362e-01,2.22121e-01,-8.93386e-01,2.02503e-01,6.73165e-01,-4.86214e-01,-3.52756e-03,1.07903e-01,8.83256e-02,1.93465e-01,2.02992e-01,-4.91278e-01,-7.25403e-02,-1.53623e-02,-2.98068e-01,-1.02374e-02,-1.73651e-02,-4.08980e-01,1.53631e+00,-1.28548e+00,-4.10603e-01,-8.63594e-02,1.21257e+00,2.42025e-01,
-1.11944e+00,9.90279e-01,-8.78359e-01,-1.33559e+00,2.38000e-01,-4.54917e-01,5.00211e-01,4.60059e-01,-3.08269e-02,-9.41544e-01,-3.59437e-01,-4.17810e-01,-4.25198e-01,-4.36448e-01,4.51366e-01,1.19177e-01,2.92473e-01,5.74738e-01,-1.42389e-01,9.22354e-01,-4.37881e-02,-9.77496e-02,-6.02745e-01,6.01582e-01,5.00132e-02,8.95838e-01,3.21279e-01,9.12080e-02,5.84313e-01,9.68706e-01,-2.65167e-01,-2.18666e+00,-2.55422e-01,-1.19133e-01,2.23801e-01,2.66882e-01,5.94104e-03,-5.00668e-01,1.99741e-01,2.22520e-01,6.08343e-02,-1.82473e-01,-1.32591e+00,-1.63363e+00,2.62919e-01,6.59119e-02,-9.46425e-02,-1.24662e-01,1.51096e-01,1.90501e-01,1.59219e+00,2.02405e-01,4.62548e-01,2.71741e-01,1.76698e-01,5.19739e-01,-4.30781e-01,3.68432e-01,1.76837e-01,3.36164e-02,-5.52150e-01,-1.63235e+00,-2.28937e-01,-2.69350e-01,
-2.71821e-02,4.30055e-01,-5.05832e-02,-7.60105e-01,1.36037e-01,-7.91970e-01,-6.77586e-01,3.15221e-01,3.21080e-01,3.55666e-01,-2.46741e-01,-2.81433e-01,-5.20386e-01,-8.56448e-03,-3.01568e-02,4.84156e-01,2.05710e-01,-1.12587e-01,8.05739e-01,-5.24704e-01,9.44015e-02,1.63465e-01,-1.65685e+00,5.22630e-01,2.19708e-01,4.66222e-01,-9.87415e-01,-1.32467e-02,-1.51251e+00,-1.24210e-01,4.85579e-02,-1.20656e+00,1.01137e+00,1.62363e-01,4.40072e-01,-1.26842e-01,-2.42608e+00,-3.81495e-01,4.75206e-02,4.05513e-01,1.26244e+00,-7.01414e-01,3.28367e-01,3.12815e-03,-3.86608e-01,1.03691e+00,4.85454e-02,1.59679e-01,-2.48018e-01,1.09580e-01,3.32998e-02,1.27209e-01,-6.83711e-02,5.78672e-02,-2.20205e-01,-2.45430e-01,-3.63041e-01,3.04211e-01,1.86554e-01,-2.98870e-02,4.40262e-02,2.88462e-01,-5.10796e-01,-1.41174e-01,
-1.33118e-02,-2.50495e-01,-1.11105e-01,2.27919e+00,-5.73885e-01,-3.26838e-01,-7.04215e-02,-1.39229e-01,3.93544e-01,-2.40914e-01,1.26776e-02,-4.43941e-02,6.82503e-01,-8.60485e-01,-1.58118e+00,9.00273e-01,7.11798e-03,-2.60623e-01,-9.72230e-01,4.47845e-01,8.23840e-01,-2.08338e+00,8.34315e-01,3.03620e-01,-7.27782e-01,-2.20968e+00,8.09903e-02,-3.75365e-01,-4.09152e-01,2.87170e-01,1.08014e+00,2.03170e-01,-2.70292e-01,-7.12408e-02,2.31276e-01,1.02485e+00,-1.85530e+00,-3.06772e-01,1.17324e+00,-7.05436e-01,6.25632e-01,-3.68305e-02,4.11885e-01,-1.53211e+00,3.48800e-02,1.29294e-02,6.35622e-01,4.11133e-01,-1.03520e-01,-2.54257e-01,-1.70966e-01,2.78276e-01,1.31598e+00,-1.16471e+00,-1.78008e-01,2.68566e-02,1.00371e-01,-8.54082e-01,-2.02859e+00,2.52465e-01,1.24768e-02,5.82363e-01,-1.22933e+00,-6.30418e-01,
1.33359e-02,-5.51064e-01,1.78063e-01,-2.28830e+00,-4.19577e-01,-7.63399e-01,-3.29707e-02,9.48529e-02,-3.57889e-02,3.17293e-01,1.41375e-01,2.88259e-01,9.26152e-03,-3.73557e-02,1.45240e+00,-1.71343e-01,4.74962e-01,1.25314e-02,2.81418e-01,9.52422e-02,-1.08992e+00,-2.12247e-03,3.78683e-01,2.55310e-01,1.23480e+00,-3.70513e-01,1.62187e-01,1.44279e-01,2.82504e-01,-2.46032e-01,5.48291e-01,1.25019e+00,-1.20657e-01,-4.12867e-01,-1.20927e-01,1.64297e-02,1.39347e-01,-2.83681e-01,-4.68542e-01,3.08483e-01,5.25522e-01,5.28525e-01,-1.23586e+00,9.69225e-02,9.29712e-02,1.52674e-01,-2.68590e-01,-9.37533e-01,1.30759e-02,-7.56607e-02,-2.51501e-01,-2.31644e-01,-5.28305e-01,-2.03049e-01,-3.68221e-01,8.29804e-03,1.25647e-01,-2.42630e-02,1.92381e-01,-2.73409e-02,-9.25941e-01,2.05336e-01,-1.68409e-02,5.50258e-01,
-1.97632e-01,2.08226e-01,-1.27445e-01,1.47852e-01,-7.88522e-02,2.27109e-01,9.63448e-03,-3.13934e-02,-3.40810e-01,1.41293e-02,1.95952e-01,-1.93143e-01,3.61013e-02,-1.00160e+00,-1.02441e-01,-3.37522e-02,1.03911e-01,-2.35084e-02,-9.64969e-02,-2.91150e-02,-9.18661e-02,-9.88653e-02,2.91118e-01,1.15562e-01,3.66492e-02,3.24714e-02,1.78223e-01,-2.11658e-01,6.77671e-03,-4.89337e-02,4.49898e-02,-2.34827e-01,-5.70702e-02,-2.64526e-02,-1.34754e-01,-4.03765e-02,-2.76303e-01,-7.23108e-02,-6.27132e-02,4.94384e-01,2.69341e-01,8.20861e-02,-9.09440e-02,1.16252e-01,1.85297e-01,2.73649e+00,1.55480e-01,-2.01005e-01,2.19994e-01,6.33719e-02,6.54901e-02,9.67660e-02,-6.33382e-02,7.20817e-02,-5.41107e-01,2.58022e-02,-1.18678e-02,-3.62883e-03,-7.67028e-02,-2.28169e-02,-2.12504e-01,2.76180e-02,9.77268e-02,-4.11469e-02,
-1.72719e-01,-8.48038e-01,3.83253e-01,7.21499e-01,-5.48028e-01,-1.40380e-01,3.57166e-01,1.47698e-01,1.63109e-01,2.86754e-01,6.44505e-01,-3.06614e-01,-2.94950e-01,1.10628e+00,3.42833e-01,-1.83897e-01,-2.61069e-01,1.84541e-01,6.25996e-01,-7.95078e-02,-2.20433e-01,-3.05632e-01,1.03829e-01,-9.59882e-02,-3.29431e-01,-4.98492e-01,-1.03206e-01,8.69467e-01,1.67073e-02,-7.32656e-01,-3.46909e-01,-1.30315e+00,-1.37578e-01,7.83783e-01,-2.16992e-01,-4.41093e-01,-1.74226e+00,3.93148e-02,4.73788e-02,1.50901e-01,2.68190e-01,6.91930e-01,3.46978e-01,-1.94907e-02,-2.06865e-02,1.19807e-02,1.87855e-01,-8.30172e-01,3.88604e-01,-3.28205e-01,-4.36070e-01,-4.16552e-01,-4.88489e-01,-2.28615e+00,3.91468e-01,4.90217e-02,-1.53318e-01,-3.70369e-01,3.68410e-01,8.24297e-02,-1.89885e-01,-9.84308e-01,4.90389e-01,-6.07997e-01,
-4.47679e-03,-2.51901e-01,2.03770e-01,2.82902e+00,-2.07528e-01,7.08125e-03,-2.46655e-01,4.95540e-02,-5.80162e-01,-4.57059e-03,-1.85827e-03,1.22931e+00,6.87702e-01,3.65796e-02,1.17210e-01,4.51766e-01,2.74367e-02,1.76855e-01,2.32205e-02,-6.96241e-01,-2.03075e-01,9.85828e-02,-1.12420e-01,1.27507e-01,-8.73329e-02,-3.03722e-01,5.46261e-03,-8.81781e-02,-6.67881e-01,6.50793e-02,-1.65109e+00,-9.68189e-02,-5.49817e-02,-1.11582e+00,-9.94297e-01,-9.08386e-01,-2.70216e-01,1.26971e+00,-1.12346e-01,-3.03140e-01,-4.82642e-04,2.93798e-01,-8.50962e-01,-9.94761e-01,1.33038e+00,-5.02284e-01,-4.62999e-01,2.89448e-01,-2.73354e-01,-6.57830e-01,1.11304e+00,-1.28084e-01,-2.70000e-02,-7.76800e-02,-1.44252e-01,-3.90166e-01,-5.37968e-01,2.05572e-01,6.50810e-01,7.81517e-01,1.03374e+00,-3.67958e-01,-2.31080e-01,2.03370e-01,
6.61529e-01,8.14085e-01,7.93374e-01,-4.51954e-02,-2.32157e-02,2.04753e-01,9.69911e-01,-5.16195e-01,-1.17542e-01,-6.53124e-01,5.30525e-01,6.80394e-01,-5.12964e-01,1.83985e-01,-1.10153e+00,9.55517e-01,9.51509e-01,-6.38620e-01,-4.10630e-02,3.66501e-01,-2.07007e-01,-7.63418e-01,-7.14199e-01,-5.88917e-01,4.37340e-03,-6.50675e-01,1.23337e-01,9.80564e-02,-1.47650e+00,-7.39852e-02,1.49639e-01,7.67606e-01,1.18843e+00,2.55335e-01,6.55355e-02,1.00278e+00,-4.10146e-01,-4.43201e-01,7.76943e-01,-1.83484e-01,9.74078e-02,7.87116e-02,5.28581e-01,-1.67249e-01,-6.60021e-01,7.67899e-01,-1.36687e+00,5.30380e-01,-9.64621e-02,-1.40112e-01,2.32999e-01,-1.10595e+00,8.27771e-01,-2.27858e-01,1.52254e+00,-6.03444e-01,1.67018e-01,-3.28243e-02,-1.10624e+00,2.35069e-01,-1.33708e+00,-1.23213e+00,3.50775e-01,3.38534e-01,
-1.41718e+00,-1.69976e-01,1.91250e-01,-6.13692e-01,-1.24192e+00,4.13592e-01,-3.91384e-01,-1.14188e+00,-1.70429e+00,-8.98142e-01,-3.56870e-02,-3.73462e-01,2.13738e-01,6.50777e-01,4.23817e-01,-2.45385e-01,5.16752e-01,3.56840e-01,-1.04528e-01,-1.60991e-01,7.52910e-01,3.65727e-01,-7.65476e-01,2.10025e-01,-8.90199e-01,7.08327e-01,8.23205e-03,4.36129e-01,-1.19358e+00,4.86820e-01,-1.58503e+00,5.03056e-02,-6.44771e-01,-7.53240e-01,-7.76876e-01,-8.39715e-02,1.90977e-01,2.16684e-01,-7.36786e-01,3.32140e-01,-2.26086e-01,-5.17776e-01,-2.21121e-01,7.66050e-01,-8.17617e-03,-4.40816e-01,-6.38426e-02,-2.25830e-01,5.08541e-02,-4.29048e-02,-2.98162e-01,1.18745e+00,-1.20159e+00,-1.94643e-01,4.21118e-01,-3.60167e-01,2.98407e-01,7.52161e-01,6.81939e-01,-4.39434e-01,2.66727e-02,-3.30951e-01,1.46320e+00,-1.18909e-01,
6.96238e-01,-2.46853e-01,-1.02791e-01,6.64022e-01,5.05656e-01,5.25815e-01,8.25954e-01,7.29314e-02,5.84923e-01,4.77445e-01,-2.18744e-01,-1.20136e+00,-9.85697e-02,2.17048e-02,-2.32109e-02,-6.75974e-01,-1.36684e+00,-5.53196e-01,-5.35129e-01,-1.86993e-01,-2.64458e-01,1.57685e-01,-1.81213e-01,-1.20615e+00,6.03598e-03,9.72985e-02,1.80015e-02,2.97913e-02,6.26863e-01,3.57980e-01,8.42978e-01,1.00758e+00,-1.55625e-01,1.72715e-03,-1.47641e+00,-1.34446e+00,1.91303e+00,-3.36351e-01,-5.27579e-01,-2.90567e-01,-1.29766e+00,9.17105e-01,1.03274e+00,8.48670e-01,5.83640e-02,6.51750e-01,-1.15880e-01,-2.00614e+00,-5.56230e-02,2.65327e-01,2.56944e-01,4.93160e-01,-1.43136e+00,6.47781e-02,-4.93091e-02,-5.38267e-01,-1.88602e-01,5.82698e-02,4.03125e-01,3.68842e-01,1.78549e-01,4.12681e-01,2.20448e-02,-1.16251e+00,
6.91559e-05,9.84608e-06,2.68235e-05,9.33409e-05,7.83651e-05,3.37921e-05,-6.24322e-05,5.84750e-06,7.71266e-07,-7.91426e-05,-1.33335e-04,-4.38149e-05,1.21054e-05,-7.76340e-05,8.46457e-05,9.42067e-05,1.38458e-04,1.51202e-04,-8.82047e-06,7.97753e-05,-1.25184e-04,2.66935e-04,-2.72250e-04,-7.95659e-05,-4.26644e-05,2.42203e-05,2.90519e-05,2.03673e-04,-3.14388e-05,8.65356e-05,7.12491e-05,6.92130e-05,-1.29125e-05,1.26799e-04,1.68938e-04,1.22856e-04,1.30232e-04,-8.79248e-06,3.58623e-05,-1.44424e-04,1.04797e-04,-5.60368e-05,3.04838e-05,-2.04687e-04,9.62998e-05,4.75772e-05,3.28780e-04,8.55460e-05,1.79562e-04,5.44508e-05,-1.22460e-04,-1.30652e-04,-1.47421e-05,1.66521e-04,-4.62023e-10,1.59679e-05,-7.51923e-05,-1.56868e-04,8.02497e-05,2.89665e-05,2.73636e-05,4.91531e-05,-2.50716e-04,-7.61103e-05,
-5.14815e-01,2.11406e-01,2.76450e-01,-8.05359e-01,-5.18976e-04,-5.34787e-01,-4.43547e-01,-7.40932e-02,1.19757e+00,6.15812e-01,-6.38480e-01,6.37260e-01,-7.59786e-01,-6.59219e-01,-4.84822e-02,2.20402e-01,-2.76526e-01,-6.00294e-02,2.75044e-02,2.21418e-01,-3.75521e-01,-1.15804e-01,-1.48307e-01,-9.82993e-01,-3.17488e-01,2.28112e-01,7.46802e-02,-4.40845e-01,5.67853e-02,5.72247e-01,-5.55642e-01,-1.96127e-01,2.29215e-01,7.56918e-02,1.00986e+00,1.44436e-01,6.54697e-01,2.04369e-01,4.32007e-01,-3.79574e-01,1.35016e-01,-6.55459e-02,-5.10686e-01,-5.24916e-02,-3.11553e-01,1.56293e+00,1.94932e-01,-5.06406e-02,-6.96347e-01,-9.31610e-02,-3.29879e-01,-3.52136e-03,-6.68776e-02,6.21620e-01,-4.53700e-01,-9.60726e-01,2.99098e-02,3.88215e-01,-2.16056e-02,-3.86240e-01,4.79020e-01,3.13267e-01,4.20686e-01,-3.19150e-01,
-6.83600e-01,9.49126e-01,3.02059e-01,6.38245e-01,-2.41886e-02,-1.36876e+00,-2.63322e-02,-7.12634e-01,1.33059e-02,7.91340e-01,8.50289e-01,3.19671e-02,-7.04817e-01,6.70363e-02,1.34570e+00,-2.66337e-01,2.96028e-01,-3.77131e-02,-9.94342e-01,6.51127e-01,-7.89525e-01,9.32931e-02,2.24047e-01,8.64863e-01,-1.28627e-01,1.98739e-01,-1.78477e-01,-5.04829e-02,-7.16595e-02,9.47578e-03,-1.00001e+00,-2.85614e+00,1.98535e-01,-3.58118e-02,1.98286e-01,-2.05252e-01,8.21774e-03,-3.23910e-02,-1.74912e+00,7.54957e-01,4.90969e-01,-1.81510e-01,-1.11768e+00,-4.22694e-01,-5.64014e-01,6.07129e-02,-2.09356e+00,1.08264e-01,2.55478e-01,-5.01639e-01,-7.62214e-01,-2.81254e+00,-5.84852e-01,-8.58344e-02,6.13178e-01,7.80294e-01,-4.98438e-01,1.09615e+00,3.60845e-01,7.39985e-02,-4.43500e-01,2.04705e-01,2.51786e-01,-4.26406e-01,
4.44504e-01,-7.68727e-02,4.75485e-01,3.05215e-01,3.56602e-01,3.54206e-01,-3.46096e-01,-8.30876e-01,8.10767e-01,2.29440e-01,-1.62017e-01,-3.90452e-01,1.87740e-01,-8.18866e-01,2.62646e-01,-1.50217e-02,8.97397e-01,4.54986e-02,-2.54425e-01,9.81176e-01,-1.17140e+00,4.30971e-01,-3.05072e-01,-2.13555e-01,-5.06569e-01,-8.16936e-03,3.38134e-01,7.81632e-01,8.71699e-01,3.25374e-01,1.86038e-01,-1.48692e+00,-9.77238e-01,3.29686e-01,-1.08427e+00,-7.84171e-01,1.25030e+00,-1.41265e+00,-2.26053e+00,1.26239e+00,8.27477e-01,7.11353e-01,4.23120e-01,5.20399e-01,-7.02897e-01,-2.64042e-01,-1.29424e+00,1.85175e-01,-1.31015e+00,1.22785e+00,-3.42305e-01,-2.65038e-01,-2.61047e-01,-3.37740e+00,7.66210e-01,1.29790e+00,3.69683e-02,-6.89430e-01,3.84546e-01,5.64807e-01,1.59692e-01,1.75084e-01,1.77688e+00,5.00664e-01,
3.86048e-02,-4.80760e-01,1.06222e-02,1.67902e-01,6.00257e-02,1.00279e-01,-1.52304e+00,-3.14230e-01,1.14595e+00,2.95325e-01,-1.42472e+00,7.28496e-01,-5.00601e-01,-9.87982e-01,-2.75015e-02,8.86359e-01,5.41154e-01,-1.05204e+00,3.19273e-01,-8.92198e-01,-3.50907e-01,7.40935e-02,-6.53913e-01,2.37212e-01,-6.56499e-01,-3.24164e+00,-8.65539e-01,-8.49035e-01,-1.88460e-01,-4.77100e-01,3.09879e-01,3.84046e-01,6.84039e-01,-3.77203e-01,2.32524e-01,-5.35090e-02,9.77996e-01,4.43245e-01,-2.54463e-01,5.93145e-01,1.74151e-04,4.50831e-01,-5.38714e-02,-8.08379e-01,8.73691e-01,4.25115e-03,2.73894e-02,1.17799e-01,2.12841e-01,-4.00894e-01,3.20244e-01,-4.02673e-02,2.59345e-02,-3.45722e-01,1.16984e+00,-2.62056e-01,-7.82985e-01,-2.50922e-01,-5.88299e-01,2.53295e-01,-3.14464e-01,-4.68438e-01,-1.61877e+00,-6.79655e-02,
-7.79297e-06,-1.17722e-04,7.94747e-05,5.64645e-05,-9.79196e-05,-1.03917e-04,-8.32507e-06,3.15959e-05,-1.88675e-04,-4.23009e-05,1.44468e-05,3.53851e-05,1.74374e-04,1.91521e-04,-9.05734e-06,9.40691e-05,7.19767e-05,-8.26999e-05,-4.81336e-05,-7.71324e-07,-9.30744e-05,8.99305e-05,1.23593e-04,1.38580e-04,-2.42588e-05,1.55165e-04,5.11541e-05,8.69459e-05,-1.89362e-04,1.66537e-04,2.54920e-04,-1.56363e-04,1.42195e-04,1.61986e-05,-7.49002e-05,-2.44599e-04,-1.88847e-04,3.21643e-05,2.16237e-04,-6.00155e-05,-2.76143e-05,1.99061e-05,1.52321e-04,2.10935e-05,6.15430e-05,1.78808e-05,1.35441e-04,-1.68839e-04,1.67442e-04,8.11465e-05,-9.73513e-05,-2.48834e-05,-4.38651e-05,1.34733e-04,1.95212e-04,1.82081e-04,-1.94514e-04,-1.25641e-04,-1.27516e-04,2.60294e-04,2.98718e-05,-1.63551e-05,-1.85000e-04,-3.32443e-04,
-2.33333e+00,-6.33626e-02,-2.76914e-01,-1.26917e+00,-1.68934e-01,6.24092e-03,-2.31101e-01,3.16710e-01,7.68197e-01,-1.38269e+00,4.35161e-01,-1.10067e-01,-1.59779e-01,2.78410e-03,-1.19267e+00,-4.07592e-01,-4.28250e-02,-2.47111e-01,5.50135e-01,-5.53761e-03,1.10819e-01,-1.65401e+00,1.88007e-01,-8.84495e-01,3.97871e-01,-8.75298e-02,-2.06568e-02,-3.64053e-01,-1.42744e-01,-1.08725e+00,-1.10795e+00,5.93280e-01,-3.02820e-01,1.42935e-01,-2.12787e-01,1.43038e-01,8.32115e-03,-5.17902e-01,1.47029e-01,-2.71961e-01,-1.77699e-01,5.57344e-01,-3.39537e-02,-6.06983e-01,4.49156e-02,-9.27752e-02,4.84894e-02,2.42716e-02,6.42478e-01,4.79843e-02,5.23134e-01,1.08540e+00,6.76762e-01,-3.00057e-01,1.34770e-01,5.55282e-01,1.98456e-02,-5.63949e-01,1.07920e+00,9.69411e-02,5.97490e-01,-6.30484e-01,-1.20007e-01,5.51483e-01,
-6.47714e-01,-4.86730e-01,-2.53334e-02,5.28907e-02,1.45264e-01,9.69103e-01,4.09307e-01,3.40007e-02,-3.94842e-01,-1.72454e-01,-3.92934e-02,-6.00694e-01,-6.55675e-01,7.42102e-01,7.39140e-01,-2.16755e-02,1.81926e-01,2.23973e-01,4.70848e-01,-1.56919e-01,6.54230e-02,-7.54245e-01,4.38673e-01,-2.02060e-01,-1.62864e-01,5.26242e-02,-6.85018e-01,4.20630e-01,-2.97442e-01,7.71120e-03,-1.81551e-01,-6.01496e-01,7.41105e-02,1.81755e-01,1.96092e-01,-2.28087e-01,7.31003e-01,-5.55099e-01,7.06885e-01,-6.00636e-02,4.63076e-01,-4.04844e-01,-5.11589e-01,6.32173e-01,-4.81744e-01,3.35428e-02,1.73492e-01,-2.72486e-01,-1.56425e+00,9.97514e-01,9.61967e-03,3.98292e-01,-2.68115e-01,1.54647e-01,-5.84496e-01,-5.84725e-01,-5.81373e-01,-7.44272e-02,1.07262e-01,-2.96360e-01,-2.18097e-02,-7.57352e-01,9.27202e-02,-6.45070e-01,
-2.17029e-01,-4.29756e-01,2.29594e-02,-2.72213e-01,3.22269e-01,6.13911e-01,-3.96849e-01,-6.22104e-04,-4.34865e-01,5.68972e-01,-3.68096e-01,-1.27875e-01,3.24875e-01,1.21311e+00,-1.42052e+00,-1.59621e-01,-4.16218e-01,-7.29052e-01,-2.66079e-01,-6.38403e-01,8.57507e-01,-5.01448e-01,4.79258e-01,1.30011e-01,-9.03274e-01,6.28760e-01,-1.03243e-01,-3.31183e-01,-4.23562e-02,9.80573e-02,-5.31678e-02,-6.48416e-01,6.79048e-03,1.85948e-01,-5.71572e-02,8.81829e-02,-2.71760e-01,-5.12609e-01,-3.93903e-01,-7.96874e-02,1.40268e-01,9.89599e-01,-4.64956e-02,1.14303e-01,5.78141e-01,-7.52361e-01,3.01300e-01,-5.19232e-02,-4.39607e-01,-2.87063e-02,1.12803e+00,-3.38028e-02,6.14852e-02,2.65792e-01,-1.00276e+00,1.60117e-01,-2.71753e-01,-3.38635e-02,-8.20300e-01,1.32276e+00,7.08150e-01,6.83130e-02,3.66078e-01,-5.09467e-01,
-4.04156e+00,
3.31840e+00,
-9.42091e-01,
-1.79853e+00,
-1.19729e-01,
-8.35321e-01,
-1.32923e+00,
3.01989e+00,
1.51238e+00,
-4.93150e+00,
3.08710e+00,
4.55162e+00,
-2.34825e+00,
-1.15262e+00,
-1.41970e+00,
-1.33363e+00,
-2.01426e+00,
-1.32795e+00,
-1.11466e-01,
-9.18152e-01,
-8.74880e-01,
-4.78659e+00,
5.93983e-01,
-1.70641e+00,
3.54927e-01,
-8.98389e-01,
-2.04076e+00,
3.76850e+00,
-6.55639e-01,
2.05667e-01,
7.29327e-01,
-1.34076e+00,
2.32809e+00,
2.60311e-01,
7.63538e-01,
2.15163e+00,
2.14486e+00,
-4.79089e+00,
1.80156e+00,
-2.92963e+00,
3.09486e-01,
1.28117e+00,
8.83408e-01,
-1.90791e+00,
2.98140e+00,
-3.40528e-01,
1.21776e+00,
-5.33589e-01,
-1.13986e+00,
-4.08624e-01,
7.40856e-01,
-4.82801e+00,
-1.23143e-01,
1.14230e-01,
-2.28777e+00,
-6.81993e-02,
4.69202e-01,
-1.58236e+00,
-3.39809e+00,
-8.10347e-01,
-1.12739e-01,
7.66244e-02,
6.88539e-01,
2.50139e-01,
-6.03033e-01,-1.86307e+00,-6.19090e-01,6.38770e-02,-5.51316e-06,-1.19173e-01,-1.55099e-02,-1.32355e+00,2.22005e-01,3.69792e-02,5.23505e-01,3.73492e-01,1.88597e-01,-7.82008e-02,-1.40367e-01,-1.35644e+00,5.87622e-02,4.56504e-02,-2.92939e-05,3.38447e-01,6.18046e-01,-9.30016e-01,-3.37801e-01,1.55138e-01,3.40097e-01,2.27178e-01,1.86595e-01,-3.95894e-02,-6.94750e-01,-1.53416e+00,5.34372e-01,-4.02478e-01,-1.28374e-01,-1.46983e+00,-6.01631e-01,-9.01705e-02,-2.18682e-01,8.50615e-01,-5.04381e-01,-7.49507e-01,1.87414e-02,-4.68981e-01,3.40621e-01,-4.08420e-01,-1.92896e+00,3.15480e-02,-2.17531e-01,-1.44839e+00,2.96104e-01,-1.32116e-02,-8.65089e-01,8.13271e-01,9.53148e-02,-5.01109e-01,3.17810e-02,1.03228e-04,1.51350e-01,-5.72374e-01,7.48361e-01,-1.91286e-01,-1.25153e-04,-1.86489e-01,-1.17320e-02,3.30346e-01,
-8.98805e-01,2.27658e-01,-1.20091e-01,1.20074e-01,-2.02303e-04,1.41508e-01,-4.79629e-01,3.84721e-01,-1.06151e+00,-1.25825e-01,-4.36832e-02,-1.97775e+00,-1.24841e-03,2.63505e-01,2.79020e-01,-3.00422e-01,6.41632e-01,-2.51476e-02,-2.79115e-04,-4.03094e-01,1.43478e-02,-2.07827e-01,2.54456e-01,-6.54486e-03,-1.12172e-01,4.66820e-01,-1.47623e-01,-1.37189e-01,-1.83073e+00,1.50552e-01,-1.35021e-02,2.32902e-01,1.81568e-01,-1.20418e+00,-1.65467e-01,-1.61077e-01,5.50464e-02,-3.25526e-02,-6.24364e-01,-1.83819e-01,1.01932e-01,2.14563e-01,1.80568e-01,-7.31915e-02,2.19536e-02,-1.36871e-01,6.19388e-02,-3.25746e-01,-8.49369e-02,-7.40141e-02,4.33499e-02,7.14198e-02,-1.64145e-01,-9.21058e-01,1.97664e-01,-2.71994e-05,5.30869e-01,-2.49758e-01,-3.48323e-01,5.78552e-02,-6.08145e-05,-6.23003e-01,3.76048e-01,1.13294e-02,
-1.21823e+00,-1.12343e-02,-6.42507e-02,-6.11503e-01,7.39582e-05,-3.80424e-01,-4.32608e-01,-2.99056e+00,-4.18416e-01,-4.15006e-03,7.65379e-01,-1.40813e-01,-1.74169e+00,2.59048e-01,-3.32581e-01,-1.28000e+00,1.16482e+00,-8.13445e-01,2.26406e-05,-4.52643e-01,-5.66861e-01,-1.17119e+00,4.06526e-01,-1.27937e+00,-9.84911e-02,7.37309e-01,-1.79933e+00,-3.25491e-01,1.47006e-05,-1.35513e+00,4.86389e-01,2.96064e-01,-1.22786e-02,-4.04253e-01,2.62299e-01,3.38539e-01,4.61812e-01,-3.45163e-01,-5.58422e-01,6.76929e-02,-2.43167e-01,-2.73163e-01,6.75357e-01,-3.80783e-01,-8.59918e-01,1.01256e-01,-6.35541e-01,-4.67264e-01,-7.24394e-02,-5.68540e-02,5.09841e-02,-4.95577e-01,7.68576e-01,-5.22638e-01,-2.37065e-01,6.95293e-05,-1.22199e-01,2.42285e-01,-9.86317e-01,4.28738e-01,-9.34971e-06,4.59945e-01,3.64440e-01,-2.73617e-01,
2.14970e-04,-8.64917e-05,2.34318e-04,6.88371e-05,-7.70489e-05,-1.45684e-04,-1.31209e-04,7.19218e-05,9.22399e-05,-2.02733e-05,-2.42543e-04,2.56209e-04,-3.09022e-05,3.11732e-04,-2.72192e-05,-6.59164e-05,4.93976e-05,-1.28127e-04,8.55331e-05,2.86368e-04,-6.97399e-05,-1.74524e-04,-1.44453e-04,1.05941e-04,1.41183e-04,-5.74254e-05,-4.50283e-05,-4.25107e-05,4.79826e-05,-8.82041e-06,-2.64847e-05,-1.64546e-04,1.41160e-04,2.44721e-04,4.60939e-05,2.53785e-08,1.96172e-04,1.80832e-04,1.40034e-05,-9.16689e-06,-8.93401e-05,2.37587e-04,-1.31426e-04,8.51215e-06,1.33737e-05,1.00028e-04,-3.08866e-04,-1.19957e-04,-3.36110e-05,4.62023e-10,1.89392e-05,-8.80855e-05,-7.10328e-05,-8.90531e-06,-1.38243e-10,4.12113e-05,1.84611e-04,-7.91260e-11,-1.30132e-04,-2.66600e-04,1.15181e-04,6.13786e-05,1.38854e-06,-6.08285e-05,
1.01834e-03,-2.54219e+00,-1.65393e+00,2.36891e-01,-1.67728e-05,-1.24858e-01,-1.03183e-01,-1.78186e+00,-1.87851e-01,3.65800e-01,5.20209e-02,-4.15937e-02,4.77063e-01,-2.57905e-01,1.59854e-01,-7.15001e-01,1.88143e-01,3.94586e-01,-5.99164e-05,1.02524e-03,5.88212e-01,-6.42279e-01,-1.26917e-01,-2.66104e-01,7.39582e-01,-1.12075e-02,-1.08710e-01,-4.81627e-02,-3.20675e+00,-8.32825e-01,2.18247e-01,3.75753e-01,-2.60069e-01,2.56185e-02,1.12689e-01,-1.46077e-02,2.63002e-02,4.80456e-01,6.61232e-01,5.81334e-01,9.83955e-03,-6.11026e-01,7.98060e-01,-4.53228e-01,-1.62025e+00,-1.33696e+00,-2.43862e+00,-2.25543e+00,-8.95455e-02,3.99912e-01,-1.06842e+00,4.79668e-02,3.18610e-01,3.68496e-01,-1.04094e-01,-3.33970e-04,3.31386e-02,-6.98605e-02,-1.68222e-01,-8.85561e-02,7.57521e-05,-5.71873e-01,-1.13163e-01,7.48127e-01,
-1.10640e-02,-1.72058e-01,-1.00435e-01,-1.16145e-01,9.11479e-05,-4.77092e-02,1.53002e-01,3.09426e-01,4.65931e-01,-5.95851e-01,5.41572e-01,-3.51998e-01,4.67218e-01,-4.20317e-01,8.87951e-03,-6.75312e-01,-6.46137e-01,-3.22648e-01,1.06717e-04,-7.67871e-01,-2.35509e-01,2.14546e-01,3.03816e-01,3.05935e-01,2.64477e-01,-4.10373e-01,4.90264e-01,1.95453e-01,-4.53300e-01,-6.17752e-01,-9.58820e-02,-4.25314e-01,2.40837e-02,-8.70911e-02,2.99349e-03,-1.14199e-01,-2.76730e-01,-1.26488e-01,1.97485e-01,2.06762e-01,-2.42309e-01,2.54757e-01,1.12784e-01,8.42693e-03,1.72670e-01,-9.66270e-02,-2.72315e-01,-1.39895e-02,2.09050e-01,-4.56912e-01,2.80244e-02,5.17630e-01,9.50770e-02,-1.66780e-01,-2.98343e-01,-6.50742e-05,2.50142e-01,-5.52279e-02,1.52870e-02,-8.33552e-01,-1.44424e-04,3.53529e-01,1.04099e-01,-3.93148e-01,
9.65288e-02,-7.75947e-02,-1.54681e+00,-8.57238e-01,-3.34186e-05,-1.96872e-01,2.03745e-02,-1.05702e+00,-6.38111e-02,4.14093e-01,-2.40059e-02,4.09635e-01,8.14016e-01,1.59732e-01,6.89602e-02,3.24347e-01,1.22151e+00,2.52537e-01,2.95763e-05,1.48713e-01,-1.21649e+00,-2.24628e-01,3.51321e-02,4.36804e-02,-2.34885e-01,-2.79982e-02,-9.67837e-01,3.04379e-01,1.01575e+00,-8.28182e-01,6.74147e-02,-7.48904e-02,5.96361e-01,4.94637e-01,-1.91902e-01,-1.56799e-01,7.09758e-01,-6.26377e-01,-1.89286e-01,-2.45396e-01,3.91192e-01,3.13829e-02,3.54341e-01,-2.02761e-03,-3.60840e-02,2.33546e-04,-1.56035e+00,2.00382e-01,6.89417e-01,-4.88017e-01,1.09250e-01,1.35274e-02,3.40958e-01,-2.81573e-01,2.16895e-01,1.76189e-04,-1.19227e+00,5.02042e-01,-4.76971e-01,2.10133e-01,-1.29981e-04,-4.65977e-01,-1.39072e-01,2.96021e-01,
1.27928e-02,-1.28010e+00,-1.88056e-01,-1.26315e-01,1.87567e-05,-2.48960e-02,-1.36953e+00,-5.67598e-02,-4.50781e-01,-3.80833e-02,-6.20433e-01,2.46447e-02,-4.52135e-01,-2.04776e+00,4.29354e-02,-2.25173e-01,-2.54653e-01,-1.49054e+00,6.69584e-05,-1.18421e+00,5.13141e-01,-2.73275e-01,-1.58134e+00,1.98623e-01,6.64887e-01,3.79979e-01,1.49990e+00,2.50392e-01,2.62322e-02,9.09965e-01,2.91578e-01,5.24699e-01,4.77600e-01,3.23482e-01,-2.33302e-02,-1.71976e-01,6.88072e-01,-1.48576e-01,4.08794e-01,-8.87304e-01,-2.04898e+00,6.42845e-02,-1.59197e+00,7.92160e-01,-3.78935e-01,-1.67324e-02,5.09956e-01,-3.24186e-01,9.26180e-02,8.46803e-02,3.30056e-01,1.20750e+00,-1.41180e-01,-2.24768e-02,-1.35145e+00,-2.76283e-05,-1.07368e+00,-3.80094e-01,-1.46333e-02,-2.90650e-01,-2.39617e-05,-2.08603e-01,-2.28761e+00,-5.39248e-01,
1.51781e-01,2.51463e-01,1.38154e-01,-2.56768e-01,-7.09133e-05,6.60742e-03,-2.06988e-01,-1.81267e-01,2.64352e-01,8.26334e-01,3.26671e-01,-4.40198e-01,-8.06377e-03,-5.35251e-01,2.64892e-02,-1.38324e-01,-6.52539e-01,-4.99174e-03,-2.03537e-04,-1.54893e-01,-1.50827e-01,2.63745e-01,3.73544e-01,3.74678e-01,4.08604e-01,-3.98925e-03,2.28865e-01,-3.95756e-01,4.56838e-05,-2.27817e-01,3.26219e-01,-3.13161e-02,-1.26521e-01,7.84419e-01,1.76725e-02,1.71768e-01,-3.16213e-01,-3.92909e-01,-1.25446e+00,-8.83813e-02,-9.09559e-02,-2.76502e-02,-2.10378e-02,-4.18676e-02,1.14563e-01,-1.32507e-02,-5.35722e-01,-1.55623e-01,-6.01120e-01,-3.10563e-01,-2.34599e-01,-1.72360e-01,-8.11877e-03,-2.13696e-01,-4.05221e-02,2.42203e-05,6.13933e-02,-7.10606e-03,3.10235e-01,-1.15543e-01,-3.24858e-05,-3.42240e-01,-1.25821e-01,-1.25825e-01,
-7.40679e-01,8.01971e-01,-1.38321e-01,6.54929e-01,-2.38637e-04,-2.33374e-01,-5.92258e-01,-1.23141e-01,-5.62088e-01,-4.71613e-01,-1.45949e-01,-3.61158e-01,-2.33959e-05,-2.75662e-01,-4.85501e-02,1.51836e-01,5.61222e-01,-1.13433e+00,8.61310e-05,3.14411e-02,-2.90177e-01,5.15049e-01,3.75993e-01,3.54459e-01,2.76983e-01,-2.11505e-01,-2.29944e-01,-1.76780e+00,-5.90427e-01,1.31771e-01,2.52532e-03,4.11811e-01,-1.13508e-01,1.65066e-01,3.94256e-01,-2.05294e-01,2.28059e-02,4.75141e-02,-4.42054e-02,4.40815e-01,-8.73467e-02,4.21356e-02,-9.76318e-01,7.04383e-02,1.89269e-01,1.80374e-01,-1.73864e-01,-7.09976e-01,-9.35016e-01,3.75782e-01,-1.06291e+00,4.74654e-02,-1.78653e-01,1.35785e-02,-1.94774e-01,-2.78759e-04,-2.29719e-03,9.31385e-01,-1.52182e-01,-5.93616e-02,-1.06156e-04,-3.21502e-01,-5.18303e-01,-2.35191e-01,
1.83253e-01,-6.59565e-01,-3.23542e-01,-5.74758e-02,-8.98282e-05,-1.82292e-01,5.45450e-01,-1.33210e+00,-1.25207e-01,5.29339e-02,1.93487e-02,1.27330e-01,5.96617e-02,4.28667e-01,-1.55768e+00,3.43935e-03,8.14060e-03,1.79975e-01,-6.24195e-05,-4.56027e-01,2.04884e-01,-1.45186e+00,-2.55980e-01,-1.19048e-01,3.45639e-01,1.24199e-01,2.62481e-01,-1.75556e-01,3.89407e-01,-4.55761e-01,1.17026e-01,-9.79074e-02,-1.45491e-01,-3.85012e-02,7.62326e-02,-1.13308e-02,-1.52357e-01,-2.11255e-02,7.90960e-01,1.23031e-01,3.48002e-01,5.15511e-02,3.51837e-01,-1.23978e+00,-2.13217e-01,-1.27836e-01,-1.96819e-02,-1.13726e-01,6.13076e-02,4.24093e-01,-7.03991e-01,7.72002e-02,-2.94739e-01,-2.68740e-01,1.48164e-01,-1.45394e-04,5.05604e-02,-1.89941e-01,2.17462e-01,2.44526e-01,-4.34668e-05,-1.76162e-01,2.15264e-01,-5.09708e-01,
-1.17097e+00,-9.10033e-01,-5.59371e-01,3.41856e-01,2.28739e-06,2.95360e-01,6.43569e-01,6.38173e-02,2.70142e-01,4.29589e-01,-1.21410e-01,9.01102e-02,7.59179e-01,-4.53481e-01,2.17892e-01,2.41371e-01,-1.67587e-03,1.31372e-02,7.34153e-05,1.25739e-01,3.71994e-01,-2.62881e-02,2.40142e-01,-4.34337e-01,-1.92845e-02,3.51378e-01,-6.53047e-02,-1.97765e-01,3.98617e-01,-3.40302e-01,5.24142e-01,2.04755e-01,-9.97937e-02,4.00408e-01,5.16055e-03,4.29751e-01,6.55873e-01,-7.95376e-03,1.67228e-01,-8.82780e-01,-5.00676e-01,3.53492e-01,-3.99183e-01,-2.24234e-01,1.01299e-01,-2.43219e-02,-2.61658e-02,5.17945e-04,-1.39983e-01,4.76657e-02,1.38667e-01,-2.79857e-01,2.25870e-01,1.43681e-01,-3.40100e-01,2.63838e-04,5.72080e-02,-3.14730e-01,-6.48598e-02,8.48226e-01,2.02034e-04,-7.39882e-01,4.06037e-02,6.59065e-02,
1.70734e-04,-1.40305e-04,-4.17320e-06,4.20255e-05,1.38060e-04,7.49836e-05,2.39590e-04,-1.14924e-04,-2.78858e-04,1.30878e-04,-2.21218e-04,9.31110e-05,-9.26782e-05,-1.63129e-04,-1.84465e-04,-7.46421e-05,5.85011e-05,-1.14829e-04,-1.95813e-04,7.76397e-05,-7.23852e-06,-2.22867e-04,-1.56607e-04,-4.78142e-05,-2.74870e-04,-4.81535e-05,-2.66718e-05,4.17237e-05,8.44132e-05,2.33901e-06,-2.41135e-04,1.43264e-04,-3.03757e-05,-3.57032e-05,1.95850e-04,-6.14903e-05,1.06011e-04,-8.07108e-05,-1.94510e-04,4.91632e-05,-1.94132e-04,-1.21944e-04,6.08230e-05,-2.15462e-04,-6.97352e-05,-9.92129e-06,6.74373e-05,-2.38528e-04,-4.85835e-05,-1.31618e-04,-2.52903e-04,1.27876e-04,7.75095e-05,-9.70516e-05,-1.30525e-04,-2.95375e-05,1.44452e-04,-6.28969e-06,1.67728e-05,-2.08441e-05,1.58745e-04,-4.83696e-05,-1.75253e-04,-9.30795e-05,
1.22005e-01,-1.36249e+00,-4.75613e-01,-1.09910e-01,2.75900e-04,-3.84694e-01,1.23820e-01,-1.35474e+00,-5.07467e-01,2.80282e-01,6.55156e-01,-1.66812e-01,1.65850e-01,1.55037e-01,2.55136e-01,3.46578e-01,-6.08964e-03,-8.25838e-01,-8.36735e-11,3.92763e-01,-1.82541e-01,-1.00343e+00,-8.69292e-01,2.01594e-01,1.18618e-02,6.21394e-02,-5.79706e-01,-2.15693e-01,-5.25192e-02,-1.07758e+00,-1.14528e-01,6.41038e-01,2.59848e-01,6.53787e-01,-3.91717e-01,-2.66475e-01,5.62046e-01,1.24428e-01,-2.17468e-01,2.79986e-01,9.02268e-01,-3.31204e-01,3.18812e-01,-5.27891e-01,2.45895e-01,-8.86724e-01,-5.75123e-01,-1.38224e+00,2.15852e-01,-1.92277e-01,-1.11822e+00,-4.80546e-01,-5.87510e-01,-1.07371e+00,-9.78496e-02,3.30508e-04,2.95417e-01,2.06929e-01,-3.22565e-01,-2.07521e-02,3.08968e-04,-1.18002e+00,2.86693e-01,2.04983e-02,
-7.76364e-04,4.77020e-01,2.81320e-02,1.68735e-01,4.77416e-05,-2.22068e-01,-1.81756e-01,1.50828e-02,-2.80909e-02,-1.90388e-01,-1.12082e+00,-6.26566e-01,-2.74765e-02,3.40389e-01,-4.81222e-01,-2.01883e-01,-4.97700e-01,-5.30117e-01,-6.15433e-05,-7.00056e-01,-6.72388e-01,8.28339e-03,5.95393e-01,1.88808e-01,-2.74573e-02,-2.02371e-01,2.07982e-01,6.71625e-01,4.84582e-02,1.01216e-01,-3.95112e-03,-4.92986e-01,2.85011e-01,-5.61290e-01,-6.17233e-02,3.80959e-01,-8.10440e-02,-1.53831e-01,-4.25319e-01,-2.25529e-02,-2.90117e-01,8.62271e-02,-1.53183e-01,-5.61498e-01,-5.16947e-01,-9.53304e-02,-1.32818e-01,5.65332e-02,-9.93346e-02,-3.47219e-01,9.20067e-02,-6.74458e-02,-5.45856e-02,-1.63838e-01,-3.42381e-03,1.56010e-04,1.82987e-01,4.86800e-01,1.48026e-01,-4.96396e-01,5.18859e-05,4.76278e-02,-2.56978e-01,-7.53850e-01,
2.80404e-01,-2.70591e+00,1.35563e-01,2.30192e-01,8.21166e-06,-1.40143e-01,-3.82715e-01,1.53817e-01,1.56827e-01,4.85392e-01,6.49324e-01,2.86420e-02,-8.17836e-01,5.47567e-03,-7.05836e-02,-4.88092e-02,1.75437e-03,4.14842e-02,-1.29164e-04,-5.65484e-01,5.85810e-01,-2.95772e-01,-2.37152e-01,-9.06039e-02,3.13041e-01,4.64479e-02,-2.58250e-01,2.06145e-01,1.59863e-01,-3.23914e-01,4.05072e-01,-1.05563e-01,4.49728e-03,-4.13614e-02,-3.58281e-01,3.39814e-01,-4.34068e-02,9.33949e-01,1.55160e-01,-3.95401e-02,-3.23447e-01,-3.82244e-01,4.44659e-01,-2.67348e-01,-4.55014e-01,1.47844e-01,-7.20096e-02,-3.30489e-02,2.08537e-01,1.45507e-01,4.99770e-03,7.30869e-01,6.06340e-02,-3.90880e-01,-1.62096e-01,6.94490e-08,-4.78231e-02,5.97421e-03,-2.96661e-01,1.35744e-02,1.40026e-05,4.30354e-01,-8.79330e-02,5.65185e-02,
-2.83092e-05,-2.10175e-04,-9.49705e-05,1.55703e-04,5.50267e-05,1.39625e-04,1.20567e-04,9.48742e-05,-8.48585e-05,-1.13233e-04,-2.34306e-04,-1.57394e-05,-4.46501e-05,5.53877e-05,-1.80832e-04,6.93659e-05,1.16867e-04,-4.48970e-05,-3.40889e-05,-1.26348e-04,6.34805e-05,1.39960e-04,4.47479e-05,-2.16718e-04,-2.50899e-06,-6.88493e-05,3.53334e-05,-1.91849e-05,-2.19031e-04,5.71509e-05,8.64805e-05,-1.17017e-04,-7.15584e-05,-1.81166e-04,-1.40901e-04,1.28122e-04,-5.37224e-05,1.65650e-04,8.12593e-05,-4.38120e-06,-8.17698e-06,1.02040e-05,-1.51278e-04,1.06266e-04,1.52389e-04,-9.39699e-05,-1.30861e-04,-1.85445e-04,-3.39325e-05,2.36680e-04,2.35894e-05,-2.11253e-04,1.49087e-04,5.55419e-05,1.64818e-04,1.74208e-04,-2.30865e-04,-1.04669e-04,-1.84290e-04,1.31089e-04,-1.01694e-04,-1.92310e-04,-4.34981e-05,1.47544e-05,
8.67671e-01,-2.00805e+00,-1.63282e-01,4.41684e-01,1.44498e-04,3.81185e-01,-3.67294e-01,1.05369e-01,-5.37800e-01,-5.37646e-02,1.90262e-01,-8.13887e-02,-2.08221e-01,-1.15513e+00,7.01995e-01,-1.24501e-01,-1.45150e+00,-2.04714e-01,-7.39102e-05,1.11042e-02,6.24544e-01,-1.89870e-01,-1.29822e+00,6.05604e-01,3.23252e-01,-1.99291e-01,2.04267e-01,-1.75993e-01,7.25640e-01,2.19855e-01,5.12429e-02,-9.03267e-02,-1.24393e-01,3.14820e-01,-1.42627e+00,5.41317e-01,3.14832e-01,4.80132e-01,4.75526e-01,-4.93216e-01,-1.86935e+00,1.12942e-01,5.18747e-01,-2.87396e-01,2.80169e-01,6.25502e-02,-3.42929e-01,4.26974e-01,-2.21678e-01,1.17207e-01,-2.89799e-01,7.26246e-01,-1.38350e-01,-3.63362e-02,-1.02641e-01,-5.57622e-05,-2.96974e+00,1.24208e+00,8.31645e-01,-1.32558e+00,-1.13235e-05,-1.04238e-01,-2.58401e+00,-6.28309e-02,
-2.12181e-05,-1.24165e-04,2.61870e-04,2.48918e-04,4.16538e-05,-6.75140e-05,-5.01569e-05,-6.09573e-05,5.28291e-06,-6.20654e-05,1.29347e-04,-3.29183e-04,9.27660e-05,2.14609e-04,-4.88671e-05,-7.50870e-05,4.83882e-05,5.57325e-05,-4.02252e-05,-5.88901e-05,1.20261e-05,7.97622e-05,1.82548e-04,-1.23015e-04,-8.47067e-08,1.97178e-06,3.16107e-05,-6.66093e-05,1.36093e-04,5.05357e-05,-2.00297e-04,-2.51481e-04,-1.02524e-04,4.63320e-05,-2.34306e-04,-3.45924e-06,-1.13188e-04,4.20115e-05,-1.61818e-04,1.58245e-05,1.09925e-04,1.04297e-05,1.93686e-04,-9.83249e-05,-3.74724e-05,-4.38714e-05,-1.66956e-04,8.66067e-05,5.90784e-05,4.49480e-05,-1.61909e-04,6.06775e-05,-1.13024e-04,-1.03843e-04,-2.32831e-10,-1.82310e-04,-1.23255e-04,-3.29811e-05,-2.42191e-04,2.68551e-04,2.44375e-04,4.93929e-05,-9.00333e-05,-6.36969e-05,
9.55851e-01,-6.68115e-01,-6.84863e-01,6.93789e-02,-5.58388e-06,-6.56202e-01,2.07842e-02,-2.70904e-01,-8.49626e-02,7.55487e-01,-2.54343e-01,-7.29149e-02,5.70533e-01,1.40959e-01,-4.37703e-01,4.45640e-01,-2.07940e-02,3.87776e-02,-5.03512e-05,-9.89630e-01,-1.61498e+00,-6.22243e-01,-9.37490e-01,-1.25925e-01,-1.75206e-01,1.53095e-01,3.00276e-02,6.27964e-02,3.47721e-01,3.58722e-03,8.45295e-01,-5.90684e-01,-2.98982e-01,-2.85729e-01,-4.32874e-01,-3.79338e-02,2.09420e-01,-1.06969e+00,2.40497e-01,-2.62664e-02,-4.61559e-01,-2.82965e+00,2.80680e-02,-4.99128e-01,-1.89153e-02,2.34830e-01,-6.85564e-01,-4.11802e-01,1.08811e-01,3.09946e-02,-2.12348e-01,-1.85282e+00,2.92231e-02,-3.08836e-01,-2.67887e-01,-9.32204e-05,-3.86026e-02,-6.28743e-04,-4.13153e-01,1.50752e+00,-1.72607e-04,2.53267e-01,-9.28697e-02,1.20496e-01,
-6.66928e-02,8.30273e-02,-5.73649e-03,-1.78884e-01,-1.38962e-05,3.57351e-02,1.66330e-02,-3.08021e-04,-5.94253e-02,-2.78890e-01,1.67513e-01,-2.43311e-02,-5.94562e-02,3.58250e-02,7.42825e-02,1.40302e-01,4.47822e-03,-1.14105e-01,-1.79484e-05,-6.52375e-02,1.91098e-01,-2.98277e-02,3.35321e-01,-2.84667e-02,1.05432e-02,-9.79867e-03,4.64800e-02,-2.87571e-03,3.19329e-01,2.90509e-02,3.21372e-03,-1.01405e-01,-3.33035e-01,2.85944e-03,-7.67353e-01,-1.60399e-01,3.42283e-02,1.39138e-01,-1.04179e-04,-1.20601e-01,-4.93323e-02,3.29811e-02,-4.22021e-01,5.15995e-02,8.55924e-02,2.70602e-02,7.74967e-02,-5.84837e-02,-5.83307e-02,-1.70972e+00,1.04588e-01,-7.71117e-05,2.03167e-02,-3.52083e-02,-7.18890e-02,9.96865e-05,-1.14906e-01,3.24421e-02,1.13916e-02,-3.04780e-01,2.17648e-05,-3.11877e-02,2.14616e-01,4.12478e-01,
-2.11723e+00,-7.92418e-02,-1.87944e-05,6.65433e-01,1.48770e-04,1.04193e+00,-2.02472e+00,9.01407e-02,-4.74041e-01,-1.90535e-02,2.05581e+00,1.83110e-02,-1.32023e-02,-1.99039e+00,-4.06529e-01,6.30593e-01,2.32299e-01,1.21278e+00,5.88624e-05,-1.27786e+00,5.34415e-03,-3.31887e-02,4.12078e-01,6.06267e-01,-2.51005e-01,-2.02762e-01,1.37898e-01,-1.20674e+00,2.98991e-03,1.48003e-01,-3.10131e+00,9.97228e-01,-1.05355e+00,1.71213e-02,-3.67862e-01,4.10043e-01,-7.37785e-01,-1.78766e-01,-7.51622e-02,-1.11858e+00,1.39609e-01,-1.54619e-03,-2.29476e+00,4.39314e-02,4.67526e-01,-9.42468e-01,-3.16665e-01,-1.03970e+00,-7.81966e-01,-6.74729e-01,-1.34426e-01,1.19942e-02,1.03260e+00,-1.21285e-01,1.79349e-01,-1.10776e-05,-1.30834e+00,-2.67721e-05,-1.96526e-01,8.54141e-01,2.96423e-04,-3.75176e-01,5.25082e-02,-2.95538e+00,
-3.29183e-02,4.72726e-01,-1.50624e-01,1.09802e-01,1.07207e-05,9.05021e-02,1.69375e-01,-3.21086e-01,-2.76757e-01,1.77361e-01,-8.29364e-04,-3.84778e-01,-4.47680e-01,-2.09310e-01,-1.14798e-01,1.40912e-01,-1.95315e-01,6.66515e-02,2.38672e-04,1.62901e-02,2.55184e-05,5.38322e-02,3.22362e-01,-1.95480e-01,6.90752e-02,-1.30641e-01,2.77439e-02,-1.16713e-01,-2.16813e-04,2.81948e-02,4.51573e-02,1.68235e-01,-7.52931e-01,2.81068e-01,-7.39591e-01,1.66991e-01,-3.00634e-01,-8.64604e-01,-3.77181e-01,1.05422e-02,1.65632e-02,-7.41723e-02,-3.33045e-01,1.41248e-01,1.34364e-01,-7.73998e-02,9.94646e-02,-3.48464e-01,-5.82013e-01,-3.22321e-01,8.50031e-03,3.45976e-01,-1.34988e-03,-8.89902e-02,1.04418e-01,1.63552e-04,1.82575e-01,-3.36362e-02,9.02119e-02,-3.56895e-02,1.61277e-04,1.58212e-01,-3.40045e-02,2.27136e-01,
-1.32468e-02,-1.83943e-01,-3.57220e-01,1.40733e-02,-3.79706e-04,-6.62728e-02,-5.07592e-01,2.05638e-01,-6.63591e-02,1.85911e-01,-6.03568e-03,-1.03389e+00,-5.18758e-02,3.92706e-01,-1.29460e+00,4.65582e-02,-2.63454e-02,-8.28320e-01,-3.57514e-05,9.52456e-02,-5.19079e-01,-1.67396e+00,-8.72060e-02,-1.63975e-01,1.67392e-01,-6.48247e-01,-1.04065e+00,-3.62601e-03,4.32325e-02,-1.16260e+00,3.92067e-01,-4.64578e-01,1.35176e-01,-3.41658e-01,-5.49072e-01,-5.17437e-01,2.64181e-01,4.19807e-01,-4.44797e-01,3.16039e-01,-1.05297e+00,-1.71228e-01,-5.47018e-01,-3.35974e-02,-1.80447e-01,4.79710e-01,-7.57710e-01,1.09998e-01,-1.39033e+00,-5.99110e-01,3.36510e-01,-5.40978e-01,-4.14228e-02,-5.33826e-01,4.79145e-01,2.39830e-05,7.50243e-02,-4.36454e-03,2.39210e-01,8.94697e-01,1.73375e-04,3.89685e-01,1.12386e-01,5.82415e-01,
2.91094e-01,-5.01659e-01,2.72896e-01,1.42581e-01,-3.35310e-04,-3.63761e-01,-1.81232e-02,-3.90900e-01,-1.53929e-01,3.19828e-02,-4.74492e-01,1.99751e-02,1.42108e-01,1.45852e-01,2.04793e-01,-2.85226e-01,4.21228e-01,3.00905e-01,-2.49531e-05,-3.33006e-01,6.60233e-01,-4.71140e-01,5.65022e-02,-1.19948e-01,2.13907e-02,-3.43282e-01,-2.17264e-01,2.98861e-01,-1.45901e+00,-5.94698e-01,-9.15605e-02,-3.36664e-01,3.86894e-01,3.05908e-01,-4.40716e-02,-9.00345e-02,6.33688e-02,-1.94126e-02,-2.34818e+00,3.43787e-02,7.41414e-02,-1.67254e+00,-2.42897e-01,-1.16785e-01,3.11017e-02,5.57954e-01,-2.85642e-01,-6.04406e-01,6.05679e-01,-2.17399e-02,-5.06672e-01,7.28878e-01,-1.25840e-01,6.49917e-01,-8.01168e-02,1.00954e-10,2.47970e-01,-1.06280e-01,-8.06066e-04,-3.05268e-01,-2.28277e-04,-4.30415e-01,2.51120e-01,6.04273e-01,
9.18250e-01,4.29442e-02,-7.59822e-01,-1.36678e-01,-8.48165e-06,-6.25020e-01,-7.05292e-02,-9.16579e-01,-1.19347e+00,-9.32965e-02,2.58965e-02,5.54525e-01,2.58525e-01,1.16783e-01,-5.93680e-01,-8.28542e-01,-5.83171e-02,2.56992e-01,-7.15843e-05,7.11563e-02,2.62467e-01,4.34017e-01,4.83724e-02,7.15259e-01,4.63693e-01,2.84259e-01,1.55130e-01,-6.91402e-01,3.89563e-03,-1.68390e+00,-1.03791e+00,1.35232e-01,-2.56623e+00,4.31880e-01,9.30719e-02,-4.45908e-01,-2.68961e+00,-2.88600e-01,3.50567e-01,-1.96556e+00,3.34133e-01,-6.30967e-02,-2.25889e-02,-7.71662e-06,3.15935e-01,-1.98562e+00,3.03434e-01,-1.71629e-01,-8.28394e-01,-1.44300e+00,4.90829e-01,8.65254e-02,4.13505e-01,1.44934e-01,2.27643e-02,6.16811e-05,-2.29318e-02,-2.07249e-03,-1.46296e-01,8.91436e-01,-9.06679e-05,-2.08097e+00,5.46609e-01,-1.33129e-01,
-4.70191e+00,-1.76266e+00,-1.15977e+00,-4.67785e+00,-2.38550e-04,-4.13431e+00,-4.96999e-01,-4.79323e-01,1.65450e+00,-3.09039e+00,5.35323e-01,1.73750e-01,-1.77149e+00,-6.57999e-01,1.79702e+00,1.65032e-02,1.51214e-01,-7.22834e-01,-1.82340e-04,-4.17709e-01,5.85603e-01,4.85885e-01,8.33129e-01,-5.34486e-01,-2.11253e+00,1.76964e+00,3.79895e-02,-7.85922e-01,3.21399e-01,-6.10898e-01,-5.69230e-01,-3.76633e-01,-2.17337e-02,-4.10766e-02,-5.31164e+00,-2.49414e+00,3.09438e-01,1.57218e+00,1.31920e+00,3.99678e-01,1.59556e+00,6.88592e-01,2.89325e-03,1.01815e+00,-1.86158e+00,-8.99742e-01,-6.06841e-01,-2.64580e-01,4.06202e-01,1.25185e-01,-3.52817e-01,6.68624e-01,-3.44842e+00,-2.25158e+00,-7.66926e+00,-1.95821e-04,-7.07379e-01,3.14339e+00,-5.96336e+00,-2.15219e+00,-1.20675e-04,-8.35090e-02,2.93465e-01,5.71304e-01,
-7.73670e-05,-6.87353e-05,-1.98157e-04,-2.65929e-05,-1.44259e-04,-1.50294e-04,1.43063e-04,1.27019e-04,1.79444e-04,1.42223e-04,-1.25427e-04,-2.39553e-04,1.31150e-04,-6.00715e-05,-1.81512e-05,-1.20806e-04,-2.22291e-04,-1.68577e-07,-1.73246e-04,-7.20787e-05,1.38279e-04,-6.02933e-05,6.71263e-05,-2.36848e-05,-1.09251e-05,2.24984e-05,1.88790e-05,2.65008e-05,2.06357e-04,-1.15507e-04,-1.08385e-04,-6.47904e-05,6.13308e-05,1.77736e-04,1.81609e-05,-1.39468e-04,-6.82247e-05,1.92273e-04,-8.43421e-05,1.68008e-04,4.71782e-06,1.74830e-05,1.30532e-04,-3.99747e-04,-2.52759e-05,-1.82091e-04,8.59750e-06,1.79752e-05,-1.65087e-04,-8.58180e-05,-8.94829e-05,-5.42668e-06,1.01862e-05,-5.84481e-05,-2.10652e-05,-9.31483e-05,-9.71874e-05,-2.46207e-04,2.83558e-04,-6.81948e-05,-3.84019e-05,3.89884e-05,-6.28676e-05,5.67378e-06,
4.62796e-01,-1.21240e-02,-3.08393e+00,-4.45337e-01,-9.65388e-05,2.53088e-01,2.02647e-02,-8.61687e-01,-3.24426e-01,-9.89303e-01,3.42776e-01,2.22683e-02,2.14506e-01,-3.30643e-01,3.26132e-03,5.61162e-01,-1.81150e+00,2.68970e-01,1.95471e-05,-2.71407e-02,-4.43150e-01,-2.44816e-01,2.58413e-02,-1.27600e-01,2.39397e-01,-4.03026e-01,-1.02995e-02,3.60957e-02,-2.73599e-02,-8.56056e-02,2.67427e-02,-1.47646e-01,-1.42731e-01,7.77918e-01,-7.50405e-02,8.17676e-01,-3.89784e-01,3.35871e-01,-7.26668e-01,-5.45592e-01,-1.13978e-01,-2.05300e-01,1.97774e-01,-1.14866e-01,1.20012e-01,4.18559e-02,8.91762e-02,-8.74163e-03,-1.14621e-01,4.29660e-01,-3.59354e-01,2.08647e-01,-2.73273e-01,2.60256e-01,-2.38093e-01,3.34336e-05,-2.32074e-01,3.79887e-02,1.34832e-02,3.98359e-01,-1.01702e-05,1.64798e-01,1.14158e-01,-5.04089e-02,
-2.43698e-05,-3.39997e-04,7.21295e-05,2.33966e-05,2.16805e-04,6.24211e-05,-1.38462e-04,2.43430e-05,8.46456e-05,2.18279e-10,-1.26799e-04,-8.60975e-05,1.26799e-04,-1.79463e-04,2.72871e-05,-2.61412e-04,7.88003e-05,1.14708e-04,-1.35212e-04,-7.76868e-05,-1.09994e-04,-7.75594e-05,7.77795e-05,-2.54452e-04,1.13018e-05,2.49386e-05,-1.50342e-04,1.23106e-04,-1.26546e-05,9.33979e-05,-5.24143e-05,-1.14473e-04,-9.10705e-05,1.33200e-04,1.69458e-05,-1.32837e-04,-4.01456e-05,-3.94482e-05,-9.65893e-06,1.98596e-04,3.94520e-05,2.54765e-05,-3.11408e-04,-4.26439e-05,-3.34352e-05,1.26481e-04,-2.44902e-04,4.52144e-05,-4.95987e-05,-1.73669e-04,-2.24250e-04,3.42917e-05,-1.13099e-04,-1.14223e-04,2.24992e-05,1.58745e-04,1.73300e-04,4.88646e-05,-1.60360e-04,2.73365e-05,-1.11083e-04,1.36591e-04,-1.55357e-04,-1.89789e-04,
3.51337e-01,-7.73535e-01,2.35619e-02,6.62045e-02,-3.45387e-04,-7.84367e-02,-1.89488e-01,1.57245e-01,-9.06434e-02,-1.34666e-02,1.27570e-01,1.45181e-01,-2.32648e-02,1.11809e-01,4.02967e-02,3.24475e-01,-3.95144e-01,-7.37547e-01,1.31876e-04,2.31944e-01,1.26412e-01,9.42233e-02,-7.44928e-01,-5.64551e-02,-2.98919e-01,-3.63540e-02,-3.30274e-01,-2.10230e-01,-2.48567e-01,-3.52442e-01,-1.22128e-01,-7.57006e-02,5.22017e-02,5.41247e-02,-3.81072e-01,-1.20351e-01,-7.14015e-02,-1.09228e-01,3.08826e-01,3.23977e-01,7.72317e-02,9.09517e-02,-2.59882e-02,-4.64075e-03,-7.09452e-02,-1.85174e-01,1.04960e-01,-2.21972e-01,6.47842e-02,5.30154e-02,3.81606e-01,4.45372e-02,-9.48098e-02,-8.88915e-02,-2.66263e-01,-1.76473e-04,-3.33306e-01,-1.41628e-01,-1.94991e-01,-1.04729e+00,-3.43028e-04,9.79220e-02,2.94653e-02,-3.45764e-02,
-7.67177e-02,-1.24858e-02,-6.25740e-02,-1.37161e-01,-1.66678e-04,2.94669e-01,6.42622e-02,-3.61033e-01,-9.04298e-02,3.77377e-01,-3.99762e-01,-1.20204e-01,-2.95865e-02,7.32673e-02,-1.50341e-02,3.52172e-02,2.00116e-01,2.67458e-01,-1.27042e-04,-6.58372e-01,1.05918e-01,-4.58396e-01,6.11122e-01,-1.17737e-01,-5.25534e-02,1.02501e-01,5.81661e-03,-4.05760e-01,9.47918e-03,-4.56062e-01,2.27400e-01,-3.33877e-01,-2.67602e-02,5.79593e-02,2.92100e-01,2.96101e-01,1.39035e-01,-1.94716e-01,-1.41896e-01,-2.26930e-01,-9.73870e-03,-2.77140e-01,-1.90126e-01,4.86867e-04,-8.69036e-03,-1.26449e-01,1.07310e-01,-4.23690e-01,7.97255e-02,-2.37464e-01,7.53240e-02,-1.42988e-01,-2.46148e-02,-3.36320e-01,2.76283e-01,2.25597e-05,-1.56144e-02,-3.22121e-01,7.51836e-02,7.76557e-02,9.82451e-05,1.22944e-01,-1.34312e-01,2.11376e-01,
-5.77158e-01,-2.94018e-01,3.99681e-01,1.70266e-01,2.41056e-04,-6.67617e-02,-5.18615e-01,-1.24866e+00,3.32219e-02,-3.01193e-01,1.04962e+00,-8.56684e-01,9.13961e-01,3.59674e-03,4.24475e-01,-2.31718e-01,9.67749e-01,-2.37210e-01,-1.01197e-04,4.60459e-01,2.84458e-01,1.26773e-01,4.29467e-01,5.84311e-01,-9.19374e-01,-1.25671e-02,1.68500e-01,-1.82524e-01,-1.32363e+00,-6.47294e-01,-2.01399e-01,-7.55578e-01,-2.30338e-02,2.05294e-01,1.77771e-01,5.29554e-03,2.17779e-02,8.59636e-01,-6.66638e-01,6.10275e-03,-2.69896e-01,4.33238e-01,-5.07893e-01,-9.60921e-01,1.78251e-01,-2.46548e-01,2.85594e-01,-3.33792e-01,-4.33584e-01,-1.21574e-01,6.12315e-02,2.59788e-02,6.19422e-03,-1.64883e-01,5.72830e-01,-1.35713e-04,2.10304e-01,-5.98787e-01,1.98131e-01,1.56213e-01,1.40363e-04,-5.88338e-01,1.04804e-01,-1.26602e-01,
-3.73826e-01,-4.49469e-01,-1.01760e-01,5.37978e-02,2.12298e-05,-1.49830e-01,-1.07111e-01,-6.97623e-01,-4.19387e-01,-9.93506e-02,-3.67610e-01,-8.09790e-03,-3.77708e-02,1.52822e-01,3.97288e-02,3.67451e-03,-5.13957e-01,2.41995e-02,-1.80264e-04,-2.68984e-01,-3.03492e-01,-1.11890e-01,4.59841e-01,-5.32888e-02,-2.35543e-01,1.13308e-01,-2.25509e-01,5.55390e-01,-1.39195e-02,-6.69882e-03,4.75073e-03,-4.10539e-01,9.85043e-02,1.70256e-02,1.23752e-01,4.59033e-01,2.63052e-01,1.30722e-01,2.08243e-01,5.01740e-01,-1.63275e-01,-4.51074e-02,-7.98520e-02,-1.69731e+00,-8.96743e-02,-3.82694e-01,1.56708e-01,-1.95959e-01,2.66236e-01,5.88848e-02,-3.43601e-02,-5.24523e-01,1.72179e-02,-2.43470e-02,-1.86104e-01,1.86131e-04,-1.16983e-01,-1.22243e-01,-4.08322e-01,2.77525e-01,-6.75035e-05,3.91324e-01,1.28141e-01,3.19232e-01,
2.33291e-04,2.15310e-05,-9.93838e-07,-2.42525e-04,5.79744e-05,-2.14440e-05,-1.44101e-04,-1.27031e-04,4.19928e-05,-1.33092e-04,-1.08412e-04,4.15772e-05,-2.50201e-04,-5.16361e-05,-1.77628e-04,2.68821e-04,1.20675e-04,-9.65347e-05,8.63107e-05,-7.69182e-05,-1.93467e-04,4.65429e-05,2.55151e-04,-8.63762e-05,1.25112e-04,-8.39730e-05,-1.06005e-04,1.66956e-04,1.88322e-04,7.87960e-05,2.34306e-04,-9.49734e-05,1.61409e-05,-2.00663e-04,6.08198e-05,-8.60717e-05,-8.57573e-05,7.76832e-05,-8.97843e-05,-1.59337e-04,-1.06077e-04,-1.32693e-04,7.73911e-05,-1.19605e-04,-1.57522e-04,1.55066e-04,-5.47448e-06,-1.48199e-04,6.11117e-05,-2.92637e-05,2.96419e-04,-2.06468e-04,4.44734e-05,3.91579e-05,-3.30883e-05,-1.50415e-04,9.33470e-05,2.16355e-04,1.57039e-04,2.03294e-05,9.68374e-06,8.67966e-05,-1.81876e-05,2.83227e-04,
-9.90290e-05,-2.50036e-05,-1.95715e-04,-1.50301e-04,-8.74717e-05,-1.38131e-04,1.79777e-05,-1.87130e-04,4.04694e-05,2.46792e-04,-1.88145e-04,9.71578e-05,6.26581e-05,3.57031e-05,4.07856e-05,-1.71324e-05,1.64224e-04,1.95715e-04,-6.01132e-05,-8.49972e-06,1.50276e-04,-3.14749e-05,-1.05989e-04,2.58609e-04,-2.86499e-04,-1.24356e-04,-1.70412e-05,1.30505e-04,7.30032e-06,-5.98068e-05,-5.73429e-05,1.74493e-04,-2.75641e-04,-7.05814e-06,6.46258e-05,1.07403e-04,-1.66541e-05,1.07544e-04,4.07310e-05,-2.77571e-04,-2.17823e-04,1.55192e-04,-2.69712e-05,1.68129e-04,-9.69374e-05,-7.45931e-08,-6.29590e-05,-1.04526e-04,-1.10044e-04,-3.33028e-05,-2.06069e-04,2.77442e-04,-3.33698e-04,7.43365e-05,5.92147e-05,7.75829e-05,-4.66614e-05,8.43787e-05,-1.37603e-04,3.43434e-04,5.31443e-04,-8.24184e-05,1.67495e-04,-1.48271e-04,
-1.08575e+00,-4.07006e-01,3.40968e-01,6.76894e-01,-5.21387e-05,2.53940e-01,-1.53893e-01,1.25360e-01,6.24959e-01,8.47523e-02,-2.88386e-01,4.76073e-02,-1.59099e-01,-8.72916e-02,5.87211e-01,4.56846e-02,5.15188e-01,7.90630e-02,-5.58064e-05,1.28170e-01,-3.97057e-01,-8.95789e-01,4.80475e-01,4.15047e-01,1.85911e-01,9.13942e-02,1.69379e-01,1.02481e-01,-4.89293e-01,-5.95922e-01,-8.22796e-01,-1.87557e+00,3.01483e-02,-1.62103e-01,-1.63877e-01,-1.24556e-02,-7.06851e-01,-2.74026e-01,6.36816e-01,8.18056e-01,-1.83772e-01,-3.51894e-01,2.60695e-01,-2.69665e-02,2.53018e-01,1.81550e-01,-1.47618e+00,8.95281e-02,-1.00976e+00,1.98110e-01,-1.88591e-01,-1.70349e-01,1.47909e-01,-2.35828e-01,3.34087e-01,2.26838e-04,2.78135e-02,7.46741e-01,2.02703e-01,4.09733e-01,-1.67519e-04,-1.39064e-01,-1.64410e-02,2.38938e-01,
-2.23340e+00,3.53471e-01,2.43217e-01,7.29027e-01,1.13795e-04,3.11923e-01,-3.49989e-01,-3.36816e-01,-9.43360e-01,-5.13683e-01,-3.94062e-01,-6.51295e-01,3.15519e-01,-1.36247e-01,1.97851e-02,-4.79173e-02,1.81002e-01,-1.75212e+00,1.47453e-04,-3.65531e-01,5.69455e-01,-7.89367e-01,6.70275e-01,1.32585e-01,1.93992e-01,-3.53439e-02,-8.50365e-01,-1.92420e-01,-7.07055e-02,5.14664e-01,2.21291e-01,-3.94240e-01,-1.17308e-02,-8.32744e-01,2.07407e-01,3.71168e-01,-9.61573e-02,6.70691e-02,-4.52479e-01,-3.87868e-01,-9.74853e-01,-4.19084e-02,-7.35214e-01,-2.15590e-01,-5.63327e-02,4.97984e-01,3.17308e-01,-1.82555e-01,-1.26770e+00,6.50428e-02,2.85532e-01,-7.26728e-01,-2.76767e-03,-2.92091e+00,3.24091e-02,-6.38351e-05,6.11568e-01,8.32804e-01,2.98702e-01,-4.80516e-01,-4.04015e-05,9.25860e-02,-8.73219e-01,2.95827e-01,
-1.04449e-01,-4.80926e-01,-8.33071e-01,5.26454e-02,1.66185e-04,1.55232e-01,1.80737e-01,-5.27786e-01,1.75894e-01,1.09566e+00,-2.99342e-01,-4.05284e-01,1.93473e-01,-4.02544e-01,3.62613e-01,5.00192e-01,9.12589e-01,-1.59389e-01,-3.93748e-05,6.24145e-01,6.52578e-02,-6.53542e-01,-9.01838e-01,-1.26671e+00,2.46867e-01,6.86067e-01,4.16213e-02,6.87809e-01,1.70661e-01,-1.48890e-01,7.46469e-01,-5.49766e-02,-5.38269e-01,3.47048e-01,-2.78879e-01,-1.35266e-01,3.73145e-02,-2.23303e-01,3.55235e-02,5.35764e-01,1.49172e-01,2.59709e-01,-8.36999e-02,-8.39220e-01,-3.00787e-02,2.59811e-01,-4.99256e-02,-6.82477e-01,1.90736e-02,2.19589e-01,-1.34686e-01,-1.24459e-01,2.29636e-01,-4.09927e-01,-5.19715e-02,-3.41783e-05,-3.14245e-01,-9.08728e-01,2.09811e-01,8.29144e-01,1.33191e-04,-3.34936e-01,-6.74393e-03,1.33251e-01,
-8.60135e-02,-2.10340e+00,-4.80445e-01,-8.77711e-01,-2.83345e-05,-1.52878e-02,-1.20208e-01,-2.18334e+00,-8.98062e-02,-4.06279e-03,5.70290e-02,8.33607e-02,-1.45522e-01,3.31266e-01,-9.28564e-01,4.10577e-01,-9.07460e-02,-8.87191e-02,5.91507e-05,-3.05244e-02,4.59141e-01,-1.17736e+00,1.79785e-02,1.53507e-01,3.35653e-02,-2.45809e-01,-8.84391e-02,3.88255e-01,3.39376e-01,1.70450e-02,5.02095e-01,-1.88193e+00,1.67253e-01,-2.77864e-01,-2.76569e-01,1.44108e-01,6.43778e-01,8.49176e-01,1.65005e-01,6.48469e-01,2.12407e-01,-5.06351e-01,3.61632e-02,-1.00836e+00,-1.06027e+00,-6.94685e-02,-2.47671e-01,-2.11187e-02,5.32558e-02,-6.93799e-02,3.44793e-01,4.99569e-01,-2.68141e-01,-4.22324e-01,-2.49626e-01,1.28867e-04,-3.08258e-03,-8.53988e-02,3.33218e-01,6.63813e-01,3.54766e-05,-6.56721e-01,4.73073e-01,-6.99488e-01,
-1.42849e-02,4.59486e-01,1.96049e-01,4.04065e-01,1.77055e-04,2.22878e-01,8.79461e-03,6.34044e-02,2.19642e-01,-5.32391e-01,3.60129e-02,5.76218e-01,-1.72345e+00,-1.69970e-01,-5.02089e-02,-1.30101e+00,-4.01429e-01,5.39563e-02,2.07395e-04,-1.27886e-01,2.14134e-03,-5.00690e-02,-3.59450e-01,-4.32885e-02,-5.10963e-01,-5.08262e-02,-8.77807e-02,7.12588e-03,1.72356e-01,1.16080e-01,2.17556e-02,-3.25303e-02,-1.01268e-03,9.76557e-02,-4.08125e-01,-1.05481e-01,9.29919e-02,-1.19100e-01,-5.10953e-01,7.44730e-02,-9.11965e-01,3.96906e-01,-1.51689e-01,-2.89142e-01,-3.27320e-01,3.18032e-01,-1.01386e+00,3.52935e-01,7.21526e-01,-3.04168e-01,1.07080e+00,3.12079e-01,-1.99601e-01,-2.00974e-01,-6.89322e-02,1.60239e-04,1.51384e-01,-1.50236e-03,2.61502e-01,-3.43049e-02,6.56784e-05,4.34091e-01,-3.71916e-01,-3.01299e-01,
-4.15494e-01,2.48096e-01,9.70294e-05,1.73520e-02,-3.18952e-04,5.47105e-01,-1.39799e+00,1.02719e-02,-1.88893e-01,3.64082e-01,-9.00499e-01,-2.09239e-01,1.33340e-05,-9.63427e-01,-8.69226e-01,2.33335e-01,7.36435e-01,-3.98222e-06,4.95961e-05,-1.19826e+00,-7.63820e-02,-1.17290e+00,3.67739e-01,8.41119e-01,-6.38383e-01,-4.94446e-01,-3.44432e-02,-1.24502e+00,-1.19258e-04,4.28518e-02,-1.41554e-01,-4.40133e-02,7.52050e-01,-2.72591e-02,-2.99812e-01,-7.70533e-01,-9.23081e-01,2.86158e-01,7.76030e-04,8.27532e-01,8.35680e-02,-4.60376e-02,3.30605e-02,-4.36006e-01,4.02310e-01,6.08423e-01,-7.68811e-01,-6.69782e-02,-1.15134e+00,3.48211e-02,-1.17112e-02,-2.23521e+00,-1.03456e-01,-3.19982e-01,1.23322e-01,1.86257e-04,-2.51236e+00,-1.85038e-03,5.10555e-01,-2.11423e-02,3.48002e-05,-1.66907e+00,-1.48376e+00,-3.98066e-01,
5.43641e-02,-2.51946e-01,-1.10710e+00,5.13751e-02,-2.54452e-04,2.70829e-01,-3.04873e-01,-9.73879e-01,-2.06043e+00,1.95919e-01,-3.17002e-01,-3.67626e-02,-8.10967e-01,1.04182e-01,2.26701e-01,9.06204e-01,-6.41649e-02,3.48057e-01,-1.35192e-04,-4.87328e-01,-4.87338e-02,4.59309e-01,8.12762e-02,-1.38034e+00,1.22051e-01,5.53200e-01,-7.00950e-01,-6.30679e-01,-4.98463e-01,2.28629e-02,-1.72741e+00,3.59030e-02,-3.21120e-01,-4.87318e-01,-3.21305e-01,-3.57228e-01,6.79309e-01,1.35745e-01,2.89148e-02,4.26756e-01,2.69645e-01,-7.49084e-01,-6.36396e-01,2.75907e-02,2.58711e-01,-9.19562e-02,-2.21470e-01,2.20893e-01,-5.89973e-01,3.82168e-01,8.85474e-02,-3.06392e-01,-3.92094e-03,-7.08288e-03,2.43282e-01,1.53070e-04,-4.59412e-01,-1.86902e-01,-2.27582e+00,-1.45667e-01,2.34577e-04,-3.82753e-02,6.62754e-01,-2.11303e-01,
4.39319e-02,-3.63563e-01,4.39358e-03,-4.37186e-02,1.66860e-07,1.64127e-02,9.16201e-03,1.05662e-01,4.51507e-02,-1.03059e+00,1.77674e-01,2.66472e-02,1.99555e-01,3.55426e-02,-2.92049e-02,-4.78340e-02,-5.94611e-02,-9.13560e-02,-1.51304e-04,-5.58982e-02,1.01219e-03,8.78175e-02,-9.85460e-02,1.39806e-03,1.27623e-01,4.85907e-02,8.45749e-03,6.46830e-02,4.83231e-02,1.21719e-02,1.51913e-01,8.45895e-02,1.18519e-01,-6.76959e-02,-8.53954e-02,-5.24168e-02,1.03535e-01,9.09453e-02,1.08082e-01,5.98523e-02,5.48094e-02,4.54252e-02,1.52897e-01,3.40431e-02,8.87854e-02,1.23972e-02,5.03600e-03,-4.99967e-02,1.33756e-01,-1.60779e-01,-2.53996e-02,7.80479e-02,5.85016e-02,-4.59315e-02,-1.76889e-02,1.66908e-04,1.28039e-02,2.57301e-02,-2.17491e-04,4.41003e-03,9.43305e-06,1.24352e-02,-4.66449e-02,-7.22297e-02,
-2.08263e-01,3.79548e-01,-8.25023e-03,-1.54504e-01,3.33489e-06,4.83611e-01,3.53113e-01,-1.63879e-01,3.41787e-01,-2.30603e-02,-1.11822e-01,-8.36195e-02,3.79715e-05,-5.94475e-01,-3.92463e-01,-1.65646e-01,-1.05433e+00,1.78958e-01,3.22918e-04,-2.58363e-01,-1.28364e-01,1.23396e-01,5.84456e-02,-5.86424e-03,2.28213e-01,-3.05407e-02,-2.64506e-01,-7.01526e-02,-2.76947e-03,-6.64975e-03,-1.16265e-02,-1.48823e+00,7.08908e-03,3.23580e-02,-3.50716e-01,-1.89654e-01,-2.83628e-01,5.42376e-02,-3.53409e-02,-2.13809e+00,-1.12743e+00,-1.36150e-03,1.83116e-01,2.57502e-02,3.02509e-03,7.75094e-02,-4.10770e-02,4.31966e-02,8.14196e-01,-6.11562e-01,-1.54445e-03,5.00261e-03,2.54427e-01,1.87023e-01,2.44539e-02,7.32588e-05,2.17451e-02,1.26144e-05,-2.12877e-01,-2.73667e-01,-2.12858e-05,4.62673e-01,-2.48618e-01,4.36137e-09,
