// Neural Network File Format by Kyle Julian, Stanford 2016
//Number of Layers,Number of Inputs,Number of Outputs,Max Layer Size,
5,6,3,64,
//Input Layer size, Hidden Layer Sizes, Output Layer Size
6,64,64,64,64,3,
//The next line is an unused flag, after that we have minimum input values, maximum input values (network inputs are truncated to fit in this range), mean input values (as well as outputs), and input (as well as output) range values 
0,
-3.0,-3.0,-3.0,-1.0,-1.0,-1.0,
3.0,3.0,3.0,1.0,1.0,1.0,
0.0,0.0,0.0,0.0,0.0,0.0,0.0,
6.0,6.0,6.0,2.0,2.0,2.0,1.0,
//Weights and Biases start here
5.02564e-01,5.41087e-01,-1.80418e-02,-1.50529e-01,9.62623e-02,-1.88334e-01,
1.18110e+00,9.69931e-02,-8.63688e-02,1.85165e+00,-7.78700e-01,4.23054e-01,
5.63610e-02,-1.35640e-01,-7.61045e-02,-9.60335e-01,-2.40611e+00,-3.72075e-01,
-8.65883e-01,-2.13017e-01,3.13900e-01,6.53460e-01,-2.32492e+00,-1.99584e+00,
5.44337e-01,2.57767e-01,7.55038e-01,-6.98515e-01,-4.15194e-02,-2.79698e-01,
1.16978e-01,-5.43424e-02,-4.19014e-02,-9.97252e-01,4.32258e-02,2.51307e+00,
1.18087e-01,4.07630e-01,1.65757e-01,9.04997e-01,-1.68367e+00,2.84578e-01,
-5.58478e-01,-1.00056e+00,-3.19375e-01,-6.89680e-01,6.74183e-01,7.61863e-01,
-1.01268e+00,5.81521e-01,-2.17240e-02,-1.68549e-01,-1.17273e+00,1.49634e-01,
-5.61565e-01,3.73576e-01,3.71163e-01,-1.60334e+00,9.18609e-03,5.59070e-01,
-6.34773e-02,4.74683e-02,4.33542e-02,-2.31261e+00,7.37762e-01,-1.63667e+00,
-8.03871e-02,-2.17265e-01,-8.93450e-01,-1.81533e+00,2.57021e-01,-2.36477e+00,
-3.67972e-01,-5.14934e-01,8.81616e-01,-5.01536e-01,3.55166e-01,3.11753e-02,
-7.62308e-05,1.93360e-04,7.57870e-05,1.44896e-06,1.66251e-05,-2.48903e-04,
-2.43921e-04,1.40064e-04,-1.36614e-04,-1.20504e-04,7.72490e-05,6.72369e-05,
1.11687e+00,-1.19924e+00,-3.28652e-02,6.48179e-02,1.15359e+00,-3.18007e-01,
1.93423e-01,1.81502e-01,1.09712e+00,1.13668e+00,2.18344e+00,8.84143e-01,
-3.33932e-01,-5.39102e-01,-1.16696e-01,-1.71180e-02,1.85881e-01,-2.31496e+00,
2.78045e-01,2.96333e-01,3.49014e-01,-1.58800e+00,-7.71469e-01,1.69831e+00,
9.27263e-01,-1.20686e-02,-4.40237e-01,1.53148e-01,-4.12080e-01,1.04320e+00,
3.45296e-02,-1.17307e+00,-1.58871e-01,1.74523e+00,1.37666e+00,1.17237e+00,
-2.03730e-01,-4.18378e-03,-2.26269e-02,3.61559e+00,-1.87662e+00,-2.82742e+00,
4.90631e-02,5.76944e-01,-9.33246e-01,-5.53624e-01,9.32996e-01,-3.40818e-01,
1.57126e-01,5.05290e-01,6.47177e-01,4.58350e-01,7.28183e-02,1.82883e-01,
7.35614e-01,-3.41127e-01,8.02644e-01,4.94598e-02,1.08329e+00,1.09538e+00,
6.39402e-01,-2.84618e-01,-6.89816e-01,2.69971e+00,5.31280e-01,-1.20042e+00,
-4.95465e-02,1.37801e-01,2.71139e-02,4.17550e+00,8.69500e-01,1.62624e+00,
-6.11040e-01,7.20602e-01,3.15317e-01,2.76099e-01,1.39008e+00,1.04803e+00,
-4.59796e-01,4.08248e-01,6.35232e-01,7.51763e-01,2.08223e+00,-1.25345e+00,
-3.33315e-01,-3.64269e-01,8.08161e-01,9.64841e-01,-7.69966e-02,-8.64926e-02,
-1.23412e-01,5.88444e-02,-8.34342e-01,-1.00605e-01,-1.81230e+00,3.37311e+00,
1.70764e-02,-6.39904e-01,-6.56763e-02,1.28717e+00,1.06249e+00,1.00285e+00,
-1.87432e-01,1.19607e+00,-4.81651e-01,1.50259e+00,1.80479e+00,6.61495e-01,
4.93549e-01,-4.11108e-01,-6.72758e-01,1.13218e-01,-1.45634e+00,-1.19960e-02,
-6.48418e-02,1.37366e-01,-6.53404e-01,5.17175e-01,-1.47925e+00,-1.06305e+00,
-5.98108e-01,-6.60904e-01,-8.99470e-01,5.47628e-01,-1.97540e-01,-6.92789e-01,
-6.31157e-03,1.07546e+00,-4.84046e-01,-2.99321e-01,-1.03884e-01,-9.57627e-01,
-6.62105e-01,-3.03727e-01,-2.20286e-01,-2.48783e-01,-2.73034e-01,3.60819e-02,
3.67605e-01,2.99061e-01,1.99498e-01,2.69118e+00,2.89842e+00,-4.68581e-01,
-2.09247e-02,-2.87879e-01,-8.47500e-02,1.37487e+00,-2.52783e+00,9.21744e-01,
1.62016e-01,-8.93073e-01,5.80480e-02,-2.42110e+00,-1.86992e+00,1.46278e-01,
3.59160e-01,-2.05193e-01,-6.94535e-01,1.18751e-01,1.47389e+00,-1.81530e-01,
9.75851e-02,2.41316e-01,-7.73304e-03,-3.10832e+00,1.18401e+00,2.65956e+00,
-7.42246e-01,4.70804e-01,-3.36331e-01,1.38402e-01,4.85691e-01,1.10636e+00,
1.28797e-01,-7.69489e-01,4.83154e-02,1.71556e+00,-3.21095e+00,2.17362e-01,
6.72386e-01,2.88284e-01,-2.38630e-01,8.78667e-01,2.18640e+00,2.29701e+00,
2.04482e-01,-2.16670e-01,-1.52207e-01,-3.15376e-01,-3.83777e-01,-5.74554e-01,
3.10909e-01,3.35986e-01,6.97359e-01,1.61289e+00,-6.36401e-01,-1.04979e+00,
4.45785e-01,7.55255e-01,-8.28326e-01,9.84555e-01,-8.74984e-01,1.27259e-01,
1.61588e-02,4.49549e-01,8.29298e-02,-1.79262e+00,-1.25253e+00,-1.94339e+00,
-4.37676e-01,-9.60184e-01,1.03017e+00,5.99335e-01,6.04140e-01,-9.04927e-02,
-7.60383e-01,8.97981e-01,7.46852e-02,-5.37097e-02,3.51697e-01,-7.06812e-01,
3.27200e-01,-7.51592e-01,8.73351e-01,6.04414e-01,-2.12359e-02,1.74716e-01,
2.60319e-01,-4.09612e-01,8.89564e-02,-2.50439e+00,5.11933e-02,3.00402e+00,
1.41084e+00,-2.42739e-01,4.36162e-01,-1.39604e+00,-1.29308e+00,-7.36245e-01,
7.63562e-02,-7.41851e-02,1.09194e-02,3.08569e+00,1.29102e+00,-1.17485e+00,
8.41794e-01,-1.00330e+00,1.34458e-01,1.24271e+00,-6.10513e-01,-1.87132e+00,
3.24040e-01,-5.45499e-02,1.34024e+00,-6.00163e-01,-1.34147e+00,-1.03426e+00,
5.47651e-01,-4.62397e-01,3.27463e-02,-1.96514e+00,2.65502e+00,-1.58204e-01,
2.30615e-01,1.93907e-02,1.49996e-01,1.97039e+00,7.74451e-01,1.24331e+00,
-2.56666e-01,-1.12366e+00,7.59555e-01,-4.69554e-01,7.74647e-02,-1.63580e-01,
6.37746e-01,-8.08519e-02,-9.08619e-01,-9.18788e-03,3.16038e-01,-1.31629e+00,
7.89250e-01,-4.69947e-02,-7.53547e-01,1.96347e-01,1.54162e-01,-4.05187e-01,
-1.64055e-01,-8.99853e-02,5.80571e-02,-2.55389e+00,2.34305e+00,-1.41698e+00,
2.26443e-01,
-8.76783e-01,
3.11852e+00,
-1.94466e+00,
3.53328e-01,
1.87387e+00,
5.77263e-01,
-9.38179e-01,
-5.21095e-01,
-5.92471e-01,
1.97060e+00,
-1.93456e+00,
-1.13861e-01,
-1.01995e-01,
-9.14327e-02,
-1.40516e+00,
-1.52052e+00,
-1.23022e+00,
3.73628e-01,
-2.35362e-01,
-1.81446e+00,
-2.06035e+00,
-9.02605e-01,
-1.34337e-01,
-1.57392e+00,
-2.08252e+00,
-8.25618e-01,
-7.42959e-01,
-1.57002e+00,
-2.93528e-01,
-2.42701e+00,
-2.71009e-02,
-1.99039e+00,
-5.71717e-01,
-6.30024e-01,
-8.23274e-01,
-1.66864e+00,
2.06712e-01,
-2.03671e+00,
1.02559e+00,
-1.47412e+00,
-9.37454e-01,
1.05819e-01,
-4.45473e-01,
-6.02698e-01,
-1.47496e+00,
2.76262e-01,
-4.13755e-01,
-1.26646e+00,
-1.17683e+00,
-2.22013e+00,
-5.41498e-01,
-2.62739e-02,
-6.91512e-02,
-2.24839e+00,
7.82941e-01,
-1.07831e+00,
-1.71534e+00,
-8.55297e-01,
2.97080e+00,
-4.01913e-01,
-1.16843e+00,
-3.64496e-02,
-2.67726e-01,
-1.16107e+00,2.77164e-01,1.20102e-01,2.77427e-01,-1.33228e+00,3.58917e-01,3.81436e-02,1.47966e-02,-2.99943e-01,-3.21172e-01,1.18982e-01,5.57093e-01,-2.69825e-01,-4.84636e-05,3.11262e-04,-8.97369e-01,-5.76486e-02,7.98950e-02,-5.21087e-01,-1.79932e-02,2.04523e-01,6.96873e-03,-6.31855e-01,-1.05124e-01,-7.09447e-02,-1.68380e-01,7.62123e-01,-2.82772e-02,-2.18372e-01,-5.83011e-02,-1.87314e-02,4.30838e-01,-1.17626e-02,4.19158e-01,2.71483e-01,3.41647e-01,-5.05551e-03,-5.06481e-01,-2.90654e-02,1.75627e-02,2.54795e-01,-8.04044e-01,6.56728e-01,-3.60354e-01,1.93366e-02,-3.02527e-01,2.61296e-03,-1.30355e-01,-1.53759e-02,2.75595e-01,-5.20065e-01,-1.42859e+00,-8.80448e-01,1.23100e-01,2.11986e-02,8.55237e-02,4.01120e-02,-2.00558e-01,-9.21356e-03,4.99868e-01,-2.78701e-01,-3.11364e-02,-2.00298e+00,8.93976e-02,
1.54108e-02,-1.38071e-04,-5.03047e+00,1.34347e-01,-4.33891e-03,-1.06577e-01,-8.89040e-01,1.23501e+00,1.13822e-02,1.43090e-02,-4.16146e+00,-6.29123e-02,2.67277e-01,3.00137e-05,-1.43954e-04,5.11740e-01,1.62516e+00,-8.42968e-04,-3.23532e-03,4.52392e-01,5.33281e-01,1.56377e+00,2.53442e-01,2.11023e-01,1.92356e-01,3.74110e-01,6.81423e-01,6.26379e-01,4.29950e-01,4.61764e-01,-2.71781e-02,5.44005e-02,6.88076e-01,1.44616e-01,-4.19630e-01,6.76108e-01,8.40302e-01,-9.06088e-01,1.64940e+00,-1.91716e+00,-1.17748e-05,5.00137e-01,5.93191e-01,1.55946e-01,-8.32729e-01,1.47807e+00,2.93293e-02,1.41293e-01,1.50138e-01,-6.39970e-06,8.81627e-01,7.02093e-01,4.92071e-01,4.82857e-01,-1.48404e+00,2.21669e-01,6.75681e-01,-4.55790e-01,-1.01994e+00,-6.35406e-03,2.32721e-02,2.40522e-01,4.59957e-01,-2.01477e+00,
-4.28482e-03,2.75656e-02,2.56619e-02,-2.20677e-02,-5.00851e-01,-9.61298e-01,9.91052e-01,6.44739e-02,2.21770e-02,-5.50866e-04,-1.32029e+00,-1.97164e-01,-1.91952e-01,-1.55631e-04,9.67440e-05,-4.07880e-03,-1.34595e-02,-5.14375e-01,-2.45024e-01,-2.60535e-03,-6.20971e-03,7.31639e-01,-7.45365e-01,-3.42554e-02,6.02117e-01,-2.21989e-02,1.16886e+00,-1.15117e+00,-1.10177e-01,-1.15981e-03,1.00316e-02,2.69529e-01,-3.28763e-01,-5.84727e-02,3.57622e-01,2.06074e-02,-3.94347e-02,5.93221e-02,6.74186e-01,3.73917e-01,-4.39833e-01,-6.25988e-01,-8.85636e-01,-7.57177e-01,3.77758e-01,3.78397e-02,-1.57210e-02,-1.42520e-02,-4.13037e-03,6.29889e-02,1.01591e-02,-4.04765e-02,3.99949e-02,-3.82350e-01,6.85930e-02,4.04194e-01,-6.91399e-03,2.58573e-01,-2.34851e-01,-1.02033e-02,-1.10580e+00,-1.13380e-01,-5.80366e-02,1.77115e-02,
-6.93670e-03,-6.19636e-02,5.00561e-01,-6.58949e-04,-2.59782e-02,-1.05287e-02,1.16995e-02,2.80356e-01,2.42421e-01,-3.50340e-02,-7.26199e-01,2.45464e-01,-2.31527e-02,1.20675e-04,2.51425e-05,6.09727e-02,-9.78563e-02,-2.18546e-01,-3.61105e-01,-4.44039e-01,-1.82973e-02,2.26260e-02,5.60672e-01,8.14732e-02,1.34476e-01,-6.63456e-02,-7.65804e-01,-2.59286e-01,-1.93154e-01,4.62428e-01,-3.86952e-02,1.46002e-01,-2.41460e-01,1.95278e-02,-1.06561e-01,-1.77888e-01,4.71077e-01,4.17809e-01,-1.13350e+00,1.45944e-01,-3.02025e-03,1.33865e-01,6.05839e-01,-9.71520e-02,-1.08112e-01,1.11265e-01,-9.61492e-01,-3.43934e-03,-2.38496e-01,2.22141e-01,-1.58349e-02,-5.69866e-01,4.72494e-03,-4.66821e-01,4.22387e-02,4.59994e-01,-1.55335e-01,5.61342e-02,-4.24249e-02,-1.53140e-02,-2.02706e-01,-1.54856e-03,3.06545e-02,-4.74759e-01,
1.28284e-01,-7.28294e-01,2.30688e-01,-9.21379e-01,5.98927e-01,1.97985e-01,9.80092e-01,1.03901e-01,-8.43620e-01,1.91250e-03,2.43559e-03,3.30398e-03,-4.46925e-01,-1.25103e-04,-2.22204e-04,-3.59527e-01,-7.79977e-01,-7.98000e-01,8.68503e-01,-2.57966e-01,4.06071e-02,-1.41427e+00,-1.25498e-01,-4.69825e-01,6.11119e-01,-5.22401e-02,6.60111e-01,-1.81702e-02,-2.84400e-01,2.09258e-01,2.57573e-01,9.70281e-02,6.51577e-03,-1.75985e-01,-1.40439e-02,9.62106e-03,6.94080e-02,1.32448e-01,-3.08581e-02,6.73360e-03,-8.45087e-01,-3.16877e-01,2.59618e-01,8.40962e-01,6.99750e-01,-6.94380e-01,7.06226e-03,6.19325e-01,-7.52440e-01,2.68457e-01,8.08336e-02,-1.31813e+00,2.84814e-01,-7.40683e-02,-1.75463e-01,-7.40772e-02,3.10527e-02,-4.29163e-01,-1.30432e-01,-1.74607e-01,-4.38037e-01,-1.83836e-01,-6.29514e-03,2.75242e-02,
2.32447e-03,1.09243e-01,-6.55857e-02,1.08478e-02,-1.25652e-01,3.22516e-01,-1.78371e+00,4.41553e-02,2.13539e-01,1.47242e-01,4.47740e-03,-3.67677e-02,1.39891e-01,1.18661e-04,7.91554e-05,-2.36827e-01,-5.59807e-01,-4.95109e-03,2.68924e-02,-2.13238e-02,-1.15932e-02,1.73860e-01,6.25832e-01,9.60232e-01,1.66303e-04,-1.43206e-02,-2.60029e+00,4.10478e-02,1.64238e-02,6.02289e-01,-7.62082e-03,-7.38027e-04,1.68427e+00,-3.55904e-01,3.18756e-01,-2.78488e-01,-7.01918e-03,3.35592e-01,-1.52761e-01,4.07311e-01,-1.14790e+00,6.14691e-01,-2.12737e+00,-2.84343e-02,9.74077e-03,3.29836e-01,4.97294e-03,8.75327e-01,-1.03963e+00,-8.35091e-01,-1.57120e-01,7.13363e-01,9.59472e-01,-6.69039e-02,2.98428e-02,-5.35360e-01,2.63695e-01,-6.09828e-01,-2.94034e-01,8.90089e-01,2.81931e-01,1.18504e-01,6.03468e-02,-4.12663e-03,
3.27052e-01,-7.59172e-01,6.28693e-01,9.14723e-02,-8.52570e-01,-8.92014e-03,-3.36749e-03,1.16192e-01,1.10217e+00,-7.56909e-03,4.92290e-02,-7.03032e-03,2.34217e-01,9.52993e-05,7.32150e-05,7.58461e-02,-1.79532e-02,-2.39633e-01,-3.49864e-01,-1.75426e-02,-3.25927e-01,-4.20455e-01,5.25818e-02,1.33516e-01,-1.00245e-01,9.12363e-01,-2.55363e-01,-8.77974e-01,2.83275e-01,3.48104e-01,-4.30634e-02,-8.51720e-02,2.35297e-02,2.38194e-01,-1.06647e-01,2.89143e-02,2.15290e-01,-2.94412e-02,2.24709e-01,-1.02916e-02,1.02162e-01,-4.39679e-01,-9.34341e-02,7.23286e-04,-1.91368e-02,2.83259e-02,-9.98993e-03,-2.05911e-01,7.13765e-02,-2.30751e-01,1.18096e-01,7.91237e-01,8.99237e-01,-6.02313e-01,4.36752e-01,-6.25198e-01,5.41313e-01,3.42800e-01,6.59900e-03,-5.22781e-01,3.10734e-01,1.25587e-01,7.52576e-01,-7.18465e-01,
1.14387e-01,2.68311e-01,7.81801e-01,1.74382e-02,-2.04015e-01,-4.99403e-02,-1.17586e-01,-1.24802e-02,2.21483e-01,-1.71770e-02,-2.26278e-01,6.17430e-02,3.10917e-01,-1.18013e-04,7.47828e-05,-2.41712e-02,4.69664e-01,1.09317e+00,-1.74198e-02,-1.02310e-01,-3.91635e-01,-2.58580e-01,3.67737e-02,5.49982e-01,-3.22145e-01,1.97234e-01,-8.06481e-01,-4.98758e-05,-7.38464e-02,3.29291e-01,1.43809e-01,-4.12128e-01,-7.67181e-02,6.53590e-01,2.36893e-01,4.58012e-01,3.69383e-01,1.82433e-01,-2.72748e-03,-7.94800e-03,2.76157e-03,-8.28308e-03,-8.73780e-01,1.18184e-01,5.92452e-01,-3.84341e-02,5.42082e-03,-2.90414e-01,5.95302e-01,-1.97888e-01,-1.98298e-01,5.88035e-01,1.56992e-03,1.77696e-01,1.55252e-01,-4.71338e-01,2.59147e-01,1.14930e-01,-2.14434e-01,-3.89199e-01,2.67665e-01,-2.68333e-02,3.47269e-01,-4.47354e-01,
5.30742e-03,1.32617e-02,-6.79626e-01,3.35416e-01,-4.47838e-01,-2.16906e-01,8.13745e-02,1.13588e-01,1.56109e-02,-2.57706e-03,-1.19979e-01,3.36209e-01,-2.64756e-02,-1.87198e-04,2.35564e-05,6.51727e-03,7.40237e-02,4.68324e-01,-7.32489e-01,2.64376e-01,-2.94188e-01,-2.75488e-01,6.74677e-01,8.22891e-01,-3.24520e-01,6.63526e-01,-5.65932e-02,2.82657e-04,-2.32267e-01,1.07500e-01,-2.63889e-03,-1.45245e-02,-2.04350e-01,-5.81152e-02,-1.38066e-04,3.70330e-01,1.33189e-01,9.73361e-03,-1.29589e-01,-1.23821e-01,-2.52667e-01,2.58080e-01,5.26055e-02,2.87525e-01,2.38805e-01,-7.12414e-01,4.00048e-02,1.38240e-01,2.70825e-01,-2.81682e-01,-4.30542e-01,5.72369e-02,2.23396e-01,1.65341e-01,-5.42301e-02,7.19086e-01,1.19159e-01,4.56331e-02,8.29576e-02,8.18369e-01,-5.06447e-01,6.03501e-02,1.98772e-01,-2.76248e-01,
5.47068e-01,-9.66300e-03,-4.15359e-03,-1.52952e+00,3.36423e-01,-4.00686e-02,2.04569e-02,4.56201e-02,-3.39421e-02,8.22849e-03,-1.92773e-01,-1.51374e-01,6.19308e-01,-9.65829e-06,-1.63924e-05,1.32190e+00,1.83400e-01,7.53626e-04,-8.09202e-01,-4.29521e-02,1.21073e-01,8.97823e-01,-1.52034e-02,1.08162e-02,3.29743e-01,-6.76952e-02,-5.56392e-02,4.46543e-01,-3.56834e-01,1.65602e-03,-5.81710e-02,-1.18307e+00,5.91228e-01,1.40336e-01,3.34620e-01,-1.31005e-01,1.34207e+00,-1.68471e-01,-1.79010e-02,1.14075e-02,6.77111e-01,9.00126e-01,-8.85027e-01,-1.61714e-02,-3.61392e+00,-2.43470e-01,2.90622e-02,3.39100e-04,-2.78624e-01,1.34826e-02,2.21862e-01,2.85351e-01,-3.82183e-01,1.64818e-02,-9.96902e-01,-5.01804e-01,-3.87680e-01,2.35475e+00,-3.40556e-01,-3.32243e-01,4.91929e-04,1.40701e+00,2.17603e-01,5.53459e-02,
1.36156e-01,-2.21897e-01,5.29537e-01,-2.17430e-01,-5.94674e-03,-2.59287e-01,-4.65630e-01,-6.89171e-02,3.96376e-01,-4.09138e-01,4.23091e-02,8.10270e-02,3.02588e-01,1.80040e-04,-3.71769e-04,3.22557e-01,-1.61644e-01,1.12649e-01,4.85885e-02,4.02284e-01,-8.45600e-03,4.17885e-01,2.53992e-03,2.65481e-01,-3.01109e-01,-2.06922e-01,-8.93269e-01,-6.17120e-02,4.67361e-02,2.63505e-01,1.63303e-01,-6.98151e-02,-2.15085e-01,6.78892e-02,-3.70997e-02,1.74030e-01,2.31628e-01,4.62895e-01,1.00773e-04,2.70397e-01,-1.68985e-01,6.18330e-03,-5.19810e-04,-1.79491e-02,3.77251e-01,-9.83502e-02,-1.42673e-02,-1.80899e-01,9.10933e-01,-4.07732e-01,2.78833e-02,7.01345e-01,2.93542e-02,-2.88872e-01,1.10246e-02,-3.35790e-02,3.00132e-01,8.23727e-02,2.96086e-02,-1.43825e+00,2.88762e-01,1.89611e-01,3.97274e-01,7.47458e-01,
1.63448e-04,9.01008e-05,2.11797e-04,-1.65940e-05,-1.78114e-04,-9.03296e-05,2.35158e-04,3.47244e-05,1.12243e-04,1.88642e-04,2.33545e-05,-1.31858e-04,-1.38580e-04,1.84444e-04,-9.21490e-05,8.32729e-05,-8.67176e-05,-1.67729e-05,-1.28612e-04,1.94130e-04,5.71228e-05,-1.01499e-04,-2.06873e-04,1.70068e-04,1.52495e-04,4.94183e-05,1.35212e-04,3.66085e-05,8.09017e-05,4.16464e-05,-4.26496e-06,7.07760e-06,3.58769e-05,2.53889e-05,1.40097e-05,2.43305e-04,1.98054e-04,-1.56523e-04,2.58879e-05,-3.13562e-05,-2.38685e-04,-8.55839e-06,-1.46185e-04,-3.03900e-05,4.42552e-05,6.26080e-05,3.04254e-05,-5.03119e-05,-1.46915e-04,-2.53675e-04,6.27818e-05,-1.58787e-04,-6.36119e-05,2.45180e-04,-2.84051e-05,2.99033e-05,-2.58592e-04,3.05068e-04,3.95970e-04,1.39438e-05,-1.03873e-04,-2.64512e-04,-1.28657e-04,-5.15706e-05,
-6.53510e-01,-1.56784e-01,-1.07864e-02,-3.86917e-01,-1.95024e+00,6.21559e-02,-3.43566e-01,4.20696e-01,-1.60949e+00,-6.07557e-02,-1.61996e+00,-2.64525e-02,-1.25870e+00,2.50738e-06,-7.34387e-05,-1.08370e+00,1.91992e-02,-2.22233e-02,-3.67047e-03,-1.91467e-02,2.35714e-02,1.16982e+00,-2.29500e-01,-2.97585e-03,2.61254e-01,-1.12649e-01,7.47238e-01,-9.32470e-02,-1.33193e+00,-1.72801e-01,-7.87628e-01,2.39177e-01,-6.74124e-01,-1.15323e+00,-2.82247e-02,2.04635e-01,-2.29462e-03,-1.49054e-02,-3.65864e-01,1.64708e-01,3.69852e-04,-3.08269e-02,3.14554e-02,-2.25480e-01,-4.83555e-02,3.46994e-01,-1.82085e-02,-1.04021e+00,-4.28422e-03,1.00015e-03,2.44908e-02,-4.16422e-01,-3.94990e-03,5.66617e-01,2.37061e-04,5.42534e-01,3.13910e-01,-5.42751e-03,-3.37890e+00,3.29147e-01,-1.87863e+00,-3.48044e-01,-9.56698e-01,-9.82993e-01,
4.57561e-02,-3.67057e-03,-1.19320e+00,-5.79990e-03,2.04036e-01,2.27278e-01,-1.06005e-02,-1.79794e+00,-9.05565e-02,6.65665e-01,9.68649e-03,1.04607e+00,9.39285e-01,8.61819e-05,1.97180e-04,5.23548e-01,-4.44112e-01,-6.48134e-01,-5.08072e-01,2.12528e-02,9.01703e-01,-8.01501e-02,1.31924e-02,-2.05412e-02,-2.92927e-03,-6.19975e-03,-3.32855e-01,-8.05221e-01,1.47580e-01,6.29355e-03,1.21683e-03,1.32959e-02,1.26539e-01,6.50047e-03,1.08219e-02,-1.49865e-02,-9.70594e-01,8.40006e-01,-1.97693e-01,1.61928e-01,-2.68916e-01,1.23045e-01,1.05012e+00,-1.37321e-02,-7.62226e-01,5.44768e-02,-6.45556e-01,3.60607e-02,-2.45459e-01,3.52739e-01,1.18500e-02,-2.68692e-01,-2.18374e-02,5.02097e-01,6.03799e-01,7.25760e-01,1.84369e-01,-7.96495e-01,-1.30592e-01,8.85957e-03,1.09473e+00,-8.07451e-02,5.84853e-01,7.62153e-01,
1.70544e-01,1.51484e-01,2.36779e+00,-1.21511e-01,-3.44970e-01,-2.82480e-02,2.08535e-02,4.98715e-01,1.56132e-02,1.92184e-02,-5.51638e-02,-1.43995e-02,9.23853e-02,-1.79580e-04,1.03972e-04,3.46776e-01,-6.97185e-02,3.26531e-01,-8.33128e-03,1.78917e-01,-4.91411e-01,-2.66989e-01,-6.09212e-02,5.39804e-01,-9.13327e-02,-3.34808e-01,-9.08780e-01,-5.90658e-02,5.04169e-01,-2.73302e-01,-1.03602e-01,-3.82834e-01,1.79616e-01,4.22185e-01,-3.59213e-01,1.07263e-02,9.88632e-02,5.11162e-01,-7.53326e-02,-5.95121e-03,-1.22139e-02,-3.12766e-01,5.84545e-02,-1.52787e-01,1.50196e-02,-7.46606e-02,-7.22233e-03,-1.40718e-01,-7.94024e-03,-4.72145e-01,-8.12331e-02,-1.86041e-01,1.77323e-01,-6.62754e-01,-2.14483e-01,-1.03572e-01,2.20087e-01,-1.32193e-01,-4.44374e-02,-2.17956e-01,2.95879e-01,-6.65852e-03,-9.87336e-02,6.02678e-01,
-2.89475e-01,8.71729e-02,-8.17075e-01,-1.61795e-01,3.31633e-02,8.86586e-01,4.21421e-01,3.42742e-03,-8.34035e-01,5.96718e-02,9.53370e-01,5.75516e-01,2.34605e-01,-1.22815e-04,-7.41837e-05,2.19298e-02,2.00121e-01,2.48457e-01,1.27349e-01,-1.21070e-01,-9.14849e-02,1.31654e+00,-6.40061e-01,1.11529e-01,-2.93205e-01,1.27211e-01,-3.94307e-01,3.88581e-01,6.59524e-01,5.86620e-02,2.57476e-02,-5.08253e-01,1.45182e-02,6.39873e-01,-3.27017e-01,3.52446e-01,7.89810e-01,-7.61671e-01,5.40723e-01,1.34728e-01,1.70271e-01,-7.99347e-02,2.97365e-02,-1.17322e-02,5.17527e-01,1.32883e-01,-1.97158e-02,-9.53217e-02,8.22285e-01,-2.34003e-02,-1.43797e-02,-5.69144e-02,2.54339e-01,2.82030e-02,5.12552e-01,-9.82881e-01,-2.45039e-01,-6.20492e-01,1.43313e-01,-5.30031e-01,-2.07671e-03,-1.52691e-01,2.25668e-02,1.06578e+00,
-1.59648e-02,2.88384e-01,3.78173e-01,-2.91471e-02,9.99073e-01,-6.93046e-02,9.61935e-01,-1.41162e-01,-3.12566e-01,-1.32222e+00,1.34706e-01,-3.97637e-01,1.46199e-02,-5.41836e-05,-2.17721e-04,-2.03515e-01,7.77711e-02,1.96542e-01,-1.36407e-01,-7.49274e-01,4.91902e-01,-6.71442e-01,1.00952e-01,-8.74307e-01,-5.12093e-02,4.91247e-02,-9.17404e-03,-1.50202e+00,-1.12113e+00,1.18675e-01,4.40910e-01,-3.89070e-02,3.32961e-01,-6.15341e-03,3.23413e-01,-6.63221e-01,-1.09207e+00,-1.40022e+00,-5.39785e-01,2.13192e-01,-1.95197e-02,2.14732e-02,4.24774e-01,6.47581e-01,-3.46159e-01,-3.73975e-02,7.30271e-02,2.02507e-01,5.24554e-02,-3.56286e-01,2.44856e-01,3.53109e-03,-9.81716e-01,-1.11498e+00,-1.62228e-01,1.60961e-01,5.92000e-01,-6.97975e-01,1.95432e-03,3.48371e-01,-1.00205e+00,-3.67494e-01,-6.32691e-01,1.19144e-01,
7.58101e-05,7.34152e-05,-2.50202e-04,-2.38539e-05,-1.20536e-04,-7.50977e-05,-8.62757e-05,-2.24974e-05,1.30745e-05,1.27867e-05,-1.02355e-04,-5.47463e-06,7.13180e-05,-5.84073e-05,-1.10330e-04,1.93832e-04,2.46663e-04,-2.66930e-04,2.90813e-04,-1.04064e-04,-6.87799e-05,-1.62442e-04,-4.86998e-05,-5.06748e-05,-4.65114e-07,-3.11687e-04,3.11828e-04,-5.22282e-05,-1.96000e-05,-8.21198e-05,-7.96682e-05,7.18484e-05,-7.35976e-05,-8.49549e-05,-1.36094e-04,-2.07365e-09,3.89428e-05,1.46633e-04,-1.27044e-04,7.70789e-05,7.27132e-05,1.52063e-05,-4.66029e-05,-5.20998e-04,-9.06661e-05,-7.57802e-05,-2.00150e-04,4.70384e-05,7.42662e-06,2.43950e-04,-1.94591e-04,1.99821e-04,-2.46649e-04,-1.03394e-04,1.40578e-04,1.23369e-04,-1.51261e-04,-9.75469e-05,-7.14653e-05,-4.92960e-05,-1.36094e-04,8.18984e-05,7.34363e-05,1.75740e-05,
-2.17708e-01,7.16068e-01,-3.11431e-02,6.77995e-02,-4.12499e-02,-9.32913e-01,1.53468e-02,-3.33100e-01,-5.44649e-01,3.78243e-01,3.60581e-03,-6.42831e-02,3.16544e-01,9.63494e-05,9.58747e-05,-7.17959e-01,-2.27188e-01,3.90664e-02,-2.62050e-01,3.94593e-02,2.54772e-01,-4.90184e-01,-5.84605e-02,-1.94282e-01,2.79045e-01,1.21118e+00,1.14010e+00,1.11079e-02,-6.80831e-01,5.34591e-04,1.47631e-02,2.41266e-01,-4.13133e-01,-3.85594e-02,-3.50283e-02,1.19156e-01,4.75963e-01,3.75340e-01,-5.74875e-01,1.55186e+00,-2.14329e-01,-8.45983e-01,-1.52126e+00,4.68751e-02,3.76769e-01,-5.23655e-01,-3.92488e-01,-8.73934e-02,3.59388e-01,-6.70441e-02,4.40486e-03,-3.15636e-01,2.46318e-01,7.33756e-01,-1.33866e-01,-8.96763e-01,-9.95057e-01,4.34191e-01,4.08914e-02,5.69365e-01,-2.25619e-01,-8.83020e-01,-7.37684e-04,5.48840e-02,
2.68411e-01,-2.71207e-01,1.78042e-01,1.05131e-02,-6.00841e-02,4.25453e-02,-1.26377e-01,-4.67291e-01,-2.47361e-01,5.07320e-02,9.64712e-02,3.80746e-02,7.53380e-01,6.92613e-05,3.11231e-04,4.95254e-01,5.79324e-01,-7.11059e-01,2.24392e-01,-7.74359e-01,1.30475e-01,-1.26479e+00,-3.29052e-01,1.17862e-02,1.94167e-01,7.60907e-02,-1.29045e-01,-1.89340e-02,-4.76193e-01,8.75945e-02,-1.61431e-01,-4.81271e-02,3.78108e-02,-2.56466e-01,-6.59702e-01,-7.38743e-01,-3.98266e-01,-9.05429e-02,1.03489e+00,5.91097e-01,1.78924e-02,2.79724e-01,9.41974e-01,-7.12420e-02,1.90407e-01,1.96914e-03,1.31780e-02,-6.34909e-02,3.57083e-02,5.39713e-02,6.45316e-01,-6.42556e-01,-6.76616e-01,-1.35008e+00,-1.77051e-01,-3.22826e-02,3.26172e-01,-5.50242e-01,1.70405e-01,8.94347e-03,-8.70988e-01,-1.53229e-02,-4.14117e-01,4.15729e-01,
2.02170e-01,9.68616e-03,-1.48180e+00,1.32947e+00,-8.50869e-01,1.64475e-02,-1.16690e-01,-1.44242e-03,1.38138e+00,5.50201e-02,-4.76746e-02,-1.53444e+00,6.32879e-01,-1.53167e-04,-2.15344e-04,1.29556e+00,1.25933e-04,2.21591e-02,-1.53515e+00,2.66973e-02,7.49908e-02,4.96629e-03,5.23620e-02,-5.92471e-02,-3.02970e-01,-1.73844e-01,-3.96316e-02,5.55071e-01,3.28114e-02,2.88251e-01,1.48291e-02,4.46693e-01,3.01391e-02,1.88767e-02,-4.96446e-01,-1.29978e-01,1.03335e-01,9.43519e-01,-5.70834e-02,7.43453e-01,3.89029e-02,-1.14556e-03,-1.24590e-01,8.37447e-01,-1.64966e+00,1.24794e-02,-1.48141e+00,-1.24365e+00,-3.70891e-01,-1.03840e-01,3.77441e-02,2.48450e-02,2.06422e-02,1.08450e-02,-1.14601e-02,2.98194e-03,-6.77241e-02,1.11206e+00,-9.43167e-01,1.16776e-02,9.95471e-01,-4.69169e-01,1.60805e-02,1.33354e-02,
1.29169e-01,-1.49118e-01,-4.44814e-02,-4.86256e-04,7.01305e-01,4.66732e-02,-8.27458e-01,1.48949e-01,8.39927e-02,-3.43032e-01,-3.86539e-01,-6.94131e-01,-1.03221e-01,-3.03432e-05,-1.35186e-04,2.75395e-02,-5.78592e-01,-3.86679e-02,-6.18928e-03,-1.20779e-01,6.70631e-01,2.47730e-01,-1.95117e-01,-6.42245e-01,-1.73249e-01,-1.98662e-02,-1.67354e+00,-8.36028e-02,-3.89659e-02,-8.62621e-01,2.84594e-01,5.57309e-01,-1.91214e-01,-3.15806e-01,-1.15971e-02,8.59451e-02,2.93792e-01,6.08597e-03,-4.35282e-02,8.25949e-02,-2.73786e-02,9.73837e-03,-1.04104e-01,-7.44327e-01,-4.62016e-02,2.51012e-01,-6.57749e-05,-5.54293e-02,1.55168e-01,1.14075e-01,2.44554e-01,2.25510e-01,-4.72357e-01,5.91886e-03,-6.25021e-02,-4.92390e-01,-2.36302e-01,2.64958e-02,-3.48367e-01,1.28381e+00,3.32969e-01,-2.17359e-01,1.98678e-01,-8.67830e-03,
-1.53403e-02,-5.59252e-01,-4.85234e-01,2.70717e-01,5.56589e-01,3.20391e-02,9.62787e-03,1.00711e-01,-5.44292e-02,5.88002e-01,-8.78455e-01,-1.62785e-03,1.96206e+00,2.34252e-04,1.31056e-04,8.09487e-01,5.55722e-01,5.83893e-02,9.94041e-02,-1.06828e-01,3.73437e-02,-5.02451e-01,1.55495e-01,8.18404e-02,9.37060e-01,-3.69989e-01,3.91265e-01,2.28974e-02,2.26439e-01,-2.62373e-02,1.66092e-01,-5.39847e-01,1.01579e+00,1.18531e-02,7.75562e-01,9.74628e-02,-8.74378e-02,4.67301e-02,-1.82317e-01,-1.12954e+00,1.32884e+00,1.26310e-01,-8.18910e-02,1.16621e+00,-1.50186e-01,-4.79185e-01,7.80001e-04,-3.02411e-03,4.08632e-01,-6.67095e-01,2.45816e-01,4.74241e-03,6.48781e-02,7.17645e-01,-2.06759e-02,6.14671e-01,-5.56237e-01,5.46450e-01,3.66032e-02,9.97094e-03,-9.39423e-01,3.10219e-01,3.88043e-02,2.37091e-01,
8.81355e-01,-3.03865e-01,-8.94496e-03,2.55333e-02,-4.06009e-01,-2.21369e-02,6.91488e-01,-5.04744e-02,-7.64676e-01,-7.04985e-03,3.21649e-01,-9.15087e-01,-4.10266e-01,1.77675e-04,-1.83420e-04,-1.40580e+00,1.38165e-01,-1.01552e-02,-9.77353e-04,-6.61905e-01,-4.93602e-01,-3.60769e-01,8.68851e-01,4.18938e-02,3.00579e-02,1.21696e+00,1.04830e-01,8.99171e-01,-2.11823e-02,3.38749e-02,2.36188e-02,-5.62467e-03,3.29084e-01,-8.07674e-01,-4.85823e-02,4.67165e-02,-1.58335e-01,-1.01552e-01,2.64912e-02,1.09756e-02,4.67373e-01,2.29372e-01,-5.80670e-02,8.04540e-01,1.53987e-01,-1.48223e-01,-4.68222e-03,-5.51281e-02,4.72668e-02,-3.82437e-01,-1.23726e-01,-6.15662e-01,-2.62902e-02,2.37649e-01,-1.37668e-01,-6.47786e-01,-2.24651e-03,-1.17903e-02,2.08547e-02,4.58878e-02,-3.63132e-01,1.26341e-03,-1.04481e-01,6.60898e-01,
-1.38490e-02,5.40032e-03,-1.61068e-01,5.68139e-02,2.51142e-01,1.25205e+00,1.03911e-01,-7.61509e-03,-1.88787e-01,1.09696e+00,-7.34935e-01,-9.20605e-01,-1.69986e-01,1.78775e-04,1.88000e-04,8.41592e-02,-5.50678e-01,-2.28002e-02,1.33864e+00,-9.85959e-03,1.97459e-01,-2.37228e-02,1.34347e-02,2.03746e-03,3.72617e-02,9.44793e-01,1.24067e-03,3.80422e-01,-6.14113e-01,-8.78151e-02,-6.20062e-02,5.74959e-01,1.01514e-01,1.82830e-02,1.23772e+00,-1.94157e-01,-8.29228e-02,-6.10886e-02,-1.14439e-02,4.36141e-01,8.83852e-01,-1.35244e+00,1.79569e-02,-3.71823e-02,-8.54981e-01,1.63144e+00,-3.89840e-01,2.88323e-01,-2.32086e-01,-4.57053e-03,1.95927e-02,3.41835e-03,-7.11249e-01,1.35749e-01,-3.62971e-01,2.91948e-01,-4.87556e-02,3.79024e-03,-2.28056e+00,-1.02986e+00,1.70313e+00,2.05958e-01,-8.58705e-03,7.08309e-01,
6.29148e-01,2.27632e-02,1.35454e-01,1.06114e-01,8.91120e-02,5.02604e-01,6.46625e-03,-1.81647e-01,9.25331e-02,1.99805e-01,4.32809e-01,1.09210e+00,4.90330e-02,-5.87588e-05,-1.47079e-04,5.41132e-01,-9.44433e-02,-4.03251e-02,1.12962e-01,1.52997e-01,-2.29253e-01,1.23777e-01,3.32404e-01,3.32974e-01,6.70732e-02,-4.41245e-01,-6.30605e-02,3.06183e-01,-2.30007e-01,6.72452e-01,5.88615e-02,-2.98091e-01,-6.39803e-01,2.35150e-01,7.22332e-03,-4.12369e-02,6.06426e-01,-1.28512e-01,4.75595e-02,-1.50969e-01,-2.62327e-01,-7.58046e-03,-3.53228e-01,3.27077e-01,5.22104e-02,-2.87510e-02,-4.06321e-03,-2.99677e-01,-4.94149e-02,-3.69600e-02,2.98851e-01,3.53264e-03,1.52257e-01,-4.05036e-01,2.63681e-02,-1.52645e-01,-7.01709e-02,-3.32378e-01,-3.31266e-02,-6.61098e-01,3.68749e-01,5.01895e-01,7.20172e-02,-6.27315e-01,
-6.21790e-02,7.06865e-01,3.10555e-01,-7.99643e-01,-5.86378e-01,-1.04197e-02,2.03540e-01,1.11307e-01,4.76618e-02,7.91473e-03,5.70832e-02,-2.31043e-01,-3.05137e-03,-1.28133e-04,1.06723e-04,-2.42540e-02,-5.87938e-01,-5.23769e-01,-3.69729e-01,-5.52669e-01,3.48276e-02,-3.40491e-01,5.72644e-02,5.40117e-01,9.51099e-01,2.59320e-01,4.94573e-02,1.99310e-02,8.23847e-03,-2.43155e-02,-2.92598e-02,-7.11190e-01,-1.10444e-01,-2.26982e-03,7.87581e-01,-6.68009e-02,6.13778e-01,2.98066e-01,-2.98431e-01,-1.93237e-02,-7.94263e-03,3.98386e-01,2.36320e-01,-1.12389e-01,-5.86560e-01,3.28457e-01,6.29777e-03,-8.30545e-03,-1.41102e-02,4.88071e-03,-2.74343e-01,-2.43325e-01,5.60440e-01,-3.19134e-01,-5.86660e-03,3.62082e-01,-6.14230e-02,-3.71100e-02,-7.85494e-01,-1.55251e-01,2.28011e-01,1.93179e-02,8.08503e-03,7.23621e-02,
-2.10767e-02,4.64128e-01,-1.66231e+00,1.05693e+00,-3.06392e-01,7.61893e-01,1.28088e-02,-1.70068e-01,1.07375e-01,-3.02051e-02,-2.71376e-02,-3.23311e-01,1.01779e+00,-1.30914e-04,9.58630e-05,5.45947e-01,1.51404e-01,2.22995e-01,4.28170e-01,8.26900e-01,-9.15805e-02,-1.22997e+00,4.16550e-01,-4.69505e-03,4.98164e-02,9.72743e-01,-5.45996e-01,2.40414e-03,-2.63389e-01,3.85290e-01,-4.55447e-01,-1.68560e-02,9.30809e-03,1.10393e+00,4.82025e-01,7.99563e-02,-2.67877e-02,-2.49039e-01,-1.75586e-01,3.99069e-01,-3.70137e-02,1.91400e-04,-2.54116e-02,5.11054e-01,-5.13151e-02,-6.14170e-03,-9.13463e-03,-5.15572e-02,-3.98019e-01,-1.09012e-01,3.08075e-01,6.06082e-03,6.35371e-01,-4.39268e-01,1.23733e-01,-5.27626e-01,-8.17917e-01,1.76720e-02,1.67212e-01,6.15515e-01,-1.68651e-02,-3.04676e-02,-3.04720e-02,-4.10714e-01,
-1.64074e-01,-7.80294e-01,1.30882e-01,3.25163e-02,-7.37859e-02,4.53374e-01,1.37412e-01,-7.40242e-01,-4.43234e-01,-1.51159e-02,-3.05173e-01,2.01733e-02,-5.58481e-02,-1.38786e-05,-3.65598e-06,2.57087e-02,3.72163e-01,1.03854e+00,7.77425e-01,-6.00447e-01,-6.45802e-03,-5.91245e-01,-1.35616e+00,-2.55752e-01,-2.92440e-01,-1.16917e+00,-1.41724e+00,-4.67974e-01,-5.49176e-01,-2.57559e-01,1.88264e-01,8.40226e-01,-8.53606e-01,3.61316e-01,1.65490e-02,1.40841e-01,2.82124e-02,2.95819e-02,2.91490e-01,7.23042e-02,4.24010e-01,-4.79969e-02,-8.41535e-01,1.10480e+00,-1.54238e+00,-1.65366e-01,1.52958e-01,-3.88291e-01,5.64378e-01,3.66666e-02,-1.20179e-03,-4.98835e-01,-4.01131e-01,7.22590e-01,-4.03197e-01,4.01636e-01,-5.86913e-01,1.02888e-01,-2.91368e-02,4.00798e-01,4.50943e-02,5.29398e-02,-1.79569e-01,3.88282e-02,
1.43525e+00,5.58422e-01,-6.40603e-02,-1.91485e-01,-1.39213e-01,2.52934e-01,-1.40217e-02,7.94218e-01,-3.01945e-01,1.73082e-01,1.51014e-01,-3.95307e-01,-6.12073e-02,-4.64326e-05,-2.43502e-04,-6.59246e-01,-4.50347e-01,6.61836e-03,-8.28023e-03,-1.93422e-01,-1.59360e-01,-1.52386e-02,4.11161e-01,7.39615e-03,6.06543e-02,-1.35360e+00,1.81886e-01,-2.60291e-02,-4.67077e-02,-5.30955e-01,5.74276e-01,-1.34947e+00,6.73852e-02,-7.09129e-02,-1.58884e-02,-1.03694e+00,-9.91465e-02,7.24517e-01,9.54633e-01,-2.61417e-01,2.65732e-02,-1.84209e-02,1.40390e-03,5.47989e-03,1.85974e-01,4.55257e-02,-3.94376e-01,4.68068e-01,-9.29889e-01,-1.49898e-01,3.66254e-02,-2.30417e-01,-5.07482e-01,-7.15528e-01,-1.16492e+00,3.94230e-01,2.21181e-02,-3.62925e-02,-1.45406e-01,2.58952e-02,-3.69940e-01,-2.49234e-03,-2.80358e-01,1.05751e-02,
-9.20368e-02,-6.72293e-01,7.21056e-01,-1.11714e+00,2.64813e-02,5.08309e-03,1.15104e-01,-1.02915e-01,5.53516e-02,3.96344e-03,-2.66959e-01,-4.33555e-03,6.24681e-03,-1.16660e-04,-2.15788e-04,5.14288e-01,3.07934e-01,-8.09282e-04,2.32357e-01,-5.57548e-01,1.03985e+00,-3.46045e-01,-1.08442e-01,4.25499e-01,-8.67598e-01,3.06694e-01,1.94192e-03,7.16664e-04,-1.18360e+00,9.96745e-02,-4.21228e-01,-3.24830e-01,1.91534e-02,-2.51884e-02,-8.09868e-02,-1.10559e-02,5.92913e-02,-3.22215e-01,-2.75035e-01,2.76020e-02,-7.68707e-01,-2.80185e-01,7.16412e-02,6.57830e-03,-1.99218e-01,-3.01709e-01,-3.58034e-03,-6.90242e-03,4.33341e-02,4.32884e-02,1.85961e-01,-1.50276e-01,-3.23058e-03,-8.32314e-01,-2.55825e-01,2.71769e-01,4.45680e-02,4.08638e-01,1.17249e-01,1.05866e-02,7.49537e-03,5.23763e-02,-3.51841e-01,-3.03010e-01,
1.68683e-01,8.77744e-03,7.38670e-02,1.35120e-02,-2.93771e-01,1.02958e+00,2.13513e-02,-2.56564e-02,3.52481e-01,-1.66764e-01,2.29620e-01,-1.74861e-01,1.26995e-01,-1.71241e-04,1.29920e-04,1.64239e-01,2.42278e-01,7.66314e-04,-1.20825e-01,1.85440e-01,-3.34428e-02,-1.15829e-01,-6.50010e-02,1.03041e-02,8.86410e-03,-3.24930e-03,-1.63577e+00,4.03118e-01,-8.89812e-01,1.13904e-02,6.72481e-01,6.77515e-02,-4.96332e-01,6.40995e-01,-2.21396e-01,-2.74124e-02,-1.26854e-02,-1.08693e-02,-7.46875e-02,-2.36759e-01,6.98088e-01,-1.42624e-01,-3.85021e-01,1.70551e-01,-4.47110e-01,7.27815e-02,1.82565e-01,4.23377e-01,-6.06978e-02,1.93079e-01,-3.56575e-01,-7.13401e-02,-4.97888e-01,-3.04795e-01,1.19547e-01,-3.66927e+00,3.43493e-01,5.18134e-02,3.32349e-02,1.59458e-01,3.35027e-01,-9.15627e-03,-1.12036e-01,-8.72401e-01,
-9.64324e-02,-1.91561e-02,-1.23068e-01,-5.81940e-02,-3.44189e-02,-8.03106e-01,4.47650e-01,7.98316e-01,6.87040e-01,5.85900e-01,-8.96168e-01,-3.65715e-02,-3.55595e-02,5.53431e-06,-6.67610e-05,-1.03819e-01,1.43898e-01,7.49680e-02,-2.54145e-01,8.66946e-02,-1.01455e+00,-6.56777e-01,2.72282e-01,7.95594e-03,1.12711e+00,-7.32681e-01,-4.37221e-01,3.39703e-02,-6.53591e-02,1.23268e+00,-2.48186e-01,-5.79647e-01,-1.03988e+00,-4.22401e-02,5.34964e-03,2.69693e-01,-2.52726e-02,6.48045e-01,4.90028e-02,3.55056e-01,-2.94649e-02,-8.46583e-02,7.22321e-01,-2.88810e-01,-7.68699e-01,2.79463e-01,-1.07998e+00,2.04960e-01,5.51138e-01,-1.36467e+00,-3.39724e-02,1.01970e+00,-1.20540e+00,-4.96659e-02,8.74258e-02,1.00927e+00,-7.32588e-01,5.58440e-02,-2.22175e-01,2.42817e-01,9.60515e-01,-7.08254e-02,9.40391e-01,-1.62498e-01,
-3.09563e-01,1.06706e-02,1.36196e-01,1.21745e-01,-2.04074e-01,-9.86936e-02,4.05829e-01,6.79195e-02,8.33549e-02,3.55206e-02,4.92800e-01,3.46452e-02,9.69680e-02,1.63600e-04,1.33387e-04,6.74884e-01,-1.08151e-02,6.42240e-01,-2.71994e-01,3.35823e-01,-1.98857e-01,3.30034e-01,-1.26221e-02,1.46694e-01,4.03578e-02,-2.29784e-02,-8.70570e-01,-1.54227e-02,5.41968e-02,2.36380e-01,1.71776e-03,2.64942e-03,2.60417e-02,-1.56832e-01,-1.10075e+00,2.49819e-02,-1.23813e-01,-2.11007e-02,-7.56559e-01,-9.40374e-01,-3.04898e-01,5.01081e-01,3.27255e-01,-4.53862e-03,-5.46031e-01,1.06036e-02,2.06606e-01,1.00880e-01,-1.59321e-02,2.49791e-01,-7.57256e-03,7.53567e-02,6.88533e-01,1.02922e-02,1.11067e-03,-1.28772e-03,3.19241e-01,-2.95727e-02,-4.97114e-01,-2.11200e-01,7.02645e-03,5.72574e-01,3.78575e-01,-7.51322e-01,
4.05066e-03,-2.11736e+00,2.74885e-01,-3.15196e-01,-1.11786e-01,1.80441e-01,-7.25073e-01,-8.76506e-01,-6.45500e-01,-1.48518e+00,9.14358e-01,-7.17463e-01,4.55277e-01,-1.37247e-04,4.55114e-05,-7.38466e-02,4.83334e-01,-7.73157e-01,-1.79170e-01,1.31102e-02,-6.83360e-02,2.42265e-01,-7.45258e-04,-5.53975e-01,-5.28954e-01,-8.70261e-01,-1.38284e-02,-4.70630e-01,-1.25447e+00,6.69269e-03,9.44021e-01,6.83614e-02,-4.50626e-02,4.41894e-02,-7.57704e-02,-2.22192e-01,-6.47169e-01,-1.17147e-01,-5.63558e-01,-1.32285e+00,-8.99103e-01,9.16713e-03,-1.31003e-01,-1.99547e-02,-1.50822e-01,1.94461e-01,1.48684e-02,5.43377e-01,1.43590e-01,-3.93996e-05,2.74101e-01,-3.17844e-04,-7.54135e-02,8.31874e-01,-8.51032e-01,3.58675e-01,-7.57617e-01,4.62560e-01,-3.62443e-01,5.10022e-02,7.45271e-03,-3.17980e-01,3.94559e-01,-2.59522e-01,
1.26549e-01,4.05446e-02,7.85655e-01,2.55749e-01,2.74494e-02,-1.34993e-01,1.38616e-01,-7.15592e-01,2.72199e-01,-1.61967e-02,-1.26462e+00,2.29779e-01,2.03524e-02,2.11180e-05,-1.13953e-04,1.43308e+00,-1.02540e-01,-3.85302e-01,2.26285e-02,-1.49988e-01,4.57570e-01,-9.83003e-02,-6.30815e-01,1.92966e-03,1.87157e-02,-1.01928e+00,1.85933e-01,-3.77900e-01,-1.19959e-02,-7.73223e-01,-2.80070e-01,1.21281e-02,1.49421e-01,8.77288e-01,6.35984e-02,-3.10437e-01,1.80764e-01,5.65656e-02,-4.80269e-01,5.42886e-01,-7.79045e-01,-2.95739e-02,-9.69022e-01,4.90999e-02,5.09393e-01,3.44560e-01,3.83619e-05,2.46676e-02,8.96411e-01,3.28106e-01,2.74390e-02,1.41844e+00,6.88893e-01,-1.50420e+00,2.02967e-01,-1.75215e+00,6.25188e-01,-3.41580e-04,2.01993e-02,-3.45791e-01,4.35601e-01,-3.51593e-01,-7.10952e-01,-9.48840e-01,
5.74205e-03,-8.23664e-02,-5.32960e-01,1.14482e-01,-3.55137e-03,-1.88435e-02,-1.99932e-02,2.44581e-01,1.20598e-02,5.92227e-04,1.15993e+00,1.97895e-02,-2.56949e-01,2.74790e-05,-3.49272e-06,4.08392e-03,-1.30559e-02,3.06493e-01,4.71773e-01,-4.15366e-01,1.91502e-04,1.76845e+00,6.54582e-03,2.78245e-01,7.50840e-01,2.50521e-02,2.76431e-05,1.86509e-01,7.67695e-01,-2.15959e-02,4.62434e-01,8.98235e-02,2.04466e-01,-6.12000e-01,-2.48216e-01,-7.50417e-01,-8.78009e-02,-1.08454e-01,-9.85331e-04,4.70844e-01,-3.37851e-03,-6.65643e-01,2.10759e+00,-6.14598e-01,5.73177e-01,3.03487e-01,-3.79846e-03,4.90730e-02,8.52967e-02,1.70531e-01,-1.96267e-01,-1.39820e-02,4.48523e-01,1.01442e+00,-9.15910e-03,5.20000e-01,-5.70892e-02,-3.09318e-01,1.05431e+00,-4.57325e+00,3.37398e-01,-1.04125e-02,-2.24448e-01,1.06185e+00,
-1.19284e-01,-7.42351e-01,-1.33800e+00,1.01832e+00,-1.92961e-01,-2.11463e-01,-1.76486e-02,3.33014e-01,-2.27241e-01,-1.40667e-02,-2.82906e+00,9.68650e-01,-4.41114e-01,-1.77725e-04,-8.42747e-06,7.56378e-01,-4.40637e-03,1.89336e-01,9.46508e-02,-8.04383e-03,-7.32194e-01,2.61276e+00,-2.40841e-01,4.03996e-01,1.50520e-01,6.23113e-01,1.92177e-01,-1.18830e-02,4.10949e-03,5.23907e-03,-2.00789e-01,-1.19199e-02,2.49181e-01,7.85720e-03,-1.01278e+00,8.09280e-01,7.38614e-01,-4.26310e-01,-4.82295e-02,-1.22288e+00,1.12584e-02,2.39932e-01,2.68894e-01,-5.98002e-01,-1.25219e-01,1.94603e+00,7.81251e-03,5.56673e-01,-7.02783e-02,-1.22162e-01,-4.63721e-02,-1.91337e-03,-3.53345e-01,9.80833e-01,-1.62792e-01,4.40519e-01,9.50001e-01,-1.79895e-02,5.37591e-01,-1.83994e-02,7.55982e-04,1.30328e+00,2.89128e-01,-7.91371e-01,
-4.83880e-01,3.15798e-02,1.25242e-01,6.84404e-01,-1.19023e-01,9.45498e-01,7.93311e-02,1.19408e+00,1.81605e-02,-4.90794e-01,1.08813e+00,-9.73387e-01,2.15637e-03,-8.49551e-05,-3.50705e-05,-4.68571e-02,1.28559e-02,-1.94686e-01,2.26076e-02,-3.27796e-02,-4.75655e-02,3.26061e-02,2.89373e-01,2.57431e-01,8.08150e-02,3.05526e-01,-6.94400e-01,-1.61933e-02,-4.11053e-01,-1.17897e-01,-3.52582e-01,-1.65106e-02,-3.83013e-01,4.86535e-01,4.91284e-02,2.66318e-01,3.23729e-02,1.16161e-01,-1.45853e-03,-1.93496e+00,1.49172e-02,6.35651e-02,-1.29807e-02,-1.39083e-01,1.83769e-01,-2.34367e-01,1.17486e-02,2.63622e-01,-1.51431e-02,-2.55146e-01,-3.05981e-01,3.51214e-01,5.94477e-03,6.94756e-02,5.72831e-02,3.36027e-01,-2.55225e-02,1.78819e-01,-4.01786e-01,-8.37907e-01,-1.83336e-03,7.18033e-02,3.10812e-01,-4.98977e-01,
7.00863e-01,-1.09933e+00,3.60803e-01,1.27130e-03,1.58125e-01,-4.94528e-01,1.65940e-01,-4.54791e-01,3.29464e-02,-6.58634e-01,-2.72772e-02,-1.08277e-02,-2.60527e-01,1.30430e-04,1.46582e-04,-2.15285e-01,1.47987e-01,-7.15723e-01,-1.08019e-01,7.35754e-01,3.43097e-01,-3.22738e-01,-1.21845e+00,-7.23779e-03,2.88809e-01,-3.74046e-02,-2.88311e-01,-6.41313e-03,-6.75726e-01,-1.03599e+00,-3.96922e-01,-1.12998e+00,6.65323e-01,5.63671e-03,1.42935e-01,-3.53785e-01,1.30137e-01,7.23740e-01,-2.58454e-01,4.54966e-01,5.71352e-02,-4.79962e-01,2.69619e-01,3.30003e-03,-7.77365e-01,-2.10298e-01,2.53332e-02,-2.53501e-01,-9.17457e-02,1.83998e-01,4.51142e-01,-8.83843e-02,6.76488e-01,-3.92681e-01,-7.03527e-01,2.05804e-01,-3.87752e-01,-2.36219e-03,5.57874e-01,5.42943e-01,-1.21641e-01,-3.47696e-01,-5.59607e-01,-2.98865e-01,
3.76047e-01,7.87870e-03,1.32638e-01,-7.04464e-01,-1.32971e-01,6.73897e-01,-2.93748e-01,2.59114e-02,6.87615e-01,1.98511e-01,4.48562e-03,2.28756e-02,2.00858e-01,-8.09888e-06,-1.26953e-04,-4.46225e-02,-2.88984e-02,-1.64096e-01,6.64692e-01,-3.84923e-01,-7.10943e-04,2.92339e-01,1.56292e-01,-3.08672e-01,2.72059e-01,-3.84482e-03,-4.04009e-01,1.15819e-01,-3.59555e-01,4.58992e-01,8.97288e-02,-3.26008e-01,-7.68093e-01,9.28099e-03,-4.13698e-02,-7.87205e-02,2.58847e-01,4.78394e-02,6.88937e-01,-5.85426e-01,-4.19453e-02,-1.90253e-01,1.26272e-02,-5.56710e-01,1.72482e-01,-8.41496e-03,-9.06553e-02,8.66991e-03,-1.86462e-01,-7.43740e-02,-2.23544e-01,-7.77394e-01,3.92473e-02,5.99570e-01,-3.42958e-01,4.86661e-01,2.43787e-02,1.03523e-01,-2.58689e-01,-2.22238e-01,1.04312e-01,1.46562e-01,-2.84205e-01,-4.96704e-01,
1.83102e-01,9.90857e-01,-1.67393e-01,-3.14632e-01,6.25234e-01,-5.88588e-01,5.53600e-01,-1.11949e-02,7.99624e-01,5.75876e-01,-1.05516e-02,-2.18534e-01,2.93265e-01,5.16948e-05,-1.94461e-04,-9.71122e-01,6.17679e-01,-3.23403e-03,-2.42189e-02,5.40589e-02,-2.54332e-04,2.79136e-02,-2.25374e-01,6.84261e-02,3.59533e-01,-2.68568e-01,1.88888e-02,-5.46001e-03,2.83932e-01,-5.29044e-01,7.90431e-02,-1.67724e-02,3.97425e-01,2.10786e-01,-3.70043e-02,-2.19887e+00,3.29950e-01,-3.12180e-01,-2.45693e-02,-4.67474e-03,-8.48919e-02,-2.75313e-01,1.29537e-02,3.22989e-02,-7.38403e-02,3.91627e-01,-5.19564e-02,3.31334e-01,7.23828e-02,4.14114e-01,-4.62166e-02,6.80222e-01,-3.14325e+00,5.70163e-01,-2.43184e-01,1.55731e-02,-5.68691e-01,-3.08390e-02,4.53678e-01,-8.39746e-01,9.03488e-02,1.51224e-02,1.08649e+00,-2.99741e-01,
5.00772e-01,2.05375e-01,-1.62718e+00,-3.04447e-01,4.39005e-03,-1.59786e-03,1.01412e-01,2.66110e-01,-6.94490e-03,2.59436e-01,-8.99455e-01,2.38873e-01,-2.11124e-02,4.25145e-05,1.53333e-04,3.88333e-01,1.17749e-01,-3.36249e-02,-6.53205e-02,2.60374e-01,3.24497e-02,2.08377e-01,4.20696e-01,3.94719e-01,9.02670e-02,2.89119e-01,-3.11050e-01,4.57715e-01,1.04853e-01,4.50453e-01,2.98411e-01,-4.25479e-01,2.52476e-01,-8.17998e-01,3.48691e-02,-1.95613e-01,-8.44151e-02,8.53600e-01,-7.16672e-03,-7.31536e-04,-5.39085e-01,1.83489e-03,2.46732e-01,-3.44688e-03,-2.10757e-01,2.12845e-02,2.92390e-03,1.65986e-02,-4.53946e-01,-6.59697e-02,-2.08589e-01,-1.09313e-02,7.04153e-01,1.39516e-02,-7.89372e-01,2.47074e-01,3.35745e-01,-4.76543e-01,-1.52093e-01,1.27748e+00,-6.72040e-03,1.40958e-01,2.15036e-01,-6.76252e-02,
2.96536e-01,-2.55164e-01,-3.02107e-02,-1.12749e-02,3.35128e-02,-5.25079e-01,8.14826e-02,1.29453e-02,1.27341e-01,-3.52364e-02,-2.57796e-01,3.09020e-01,2.24457e-01,-9.08075e-05,1.37755e-04,-1.05237e-02,2.11702e-01,-2.01479e-01,1.21551e-02,1.99435e-02,-1.53579e-02,2.08480e-01,-6.49052e-03,3.54831e-01,-8.84459e-01,5.76204e-02,6.15486e-01,2.42926e-02,4.02520e-02,-6.58058e-03,-6.26038e-02,-2.67450e+00,-1.42892e+00,-4.15133e-01,3.17575e-03,-4.17629e-03,5.74419e-01,-1.07282e+00,-9.18119e-01,8.30945e-01,-2.15060e-01,-1.67050e-02,-6.96258e-01,8.42942e-02,-1.88983e-02,6.98559e-01,-5.50471e-01,1.42300e-02,3.02172e-01,8.94039e-01,-7.59400e-03,4.44114e-02,-2.65011e-02,5.52939e-01,-2.41222e-02,7.58287e-02,-1.87063e+00,-6.61861e-01,2.23713e-02,3.33354e-01,-9.15521e-01,-8.34436e-03,1.86623e-02,1.18947e-01,
2.04371e-01,3.82533e-01,-5.43959e-01,-5.15250e-03,-6.66190e-03,-2.24334e-01,2.71500e-01,-1.70757e-01,-1.84356e-01,4.07738e-03,-1.26363e-01,5.82741e-02,2.75988e-01,-4.95629e-05,-6.32366e-06,-1.62414e-02,9.83154e-02,-4.01743e-01,1.14306e-01,-2.28667e-01,-1.29679e-02,5.41451e-01,5.53044e-03,-2.13408e-01,8.07140e-04,-6.67144e-02,-4.79959e-02,9.23132e-02,-1.03343e-01,1.44056e-01,4.90164e-03,1.10362e-02,8.12012e-02,5.90377e-03,-1.70421e-01,1.27014e-01,-1.44871e-01,1.21083e-03,-5.91166e-01,9.39341e-02,-4.16344e-02,3.49547e-02,4.45868e-01,-8.00072e-04,2.28059e-01,2.43459e-01,5.02897e-02,-1.42389e-01,2.72881e-01,-2.87198e-01,-7.26685e-02,-1.19168e-01,-6.00804e-02,3.96356e-01,-6.83072e-02,1.81021e+00,-1.61968e-01,-1.17096e-01,1.72261e-01,3.18908e-01,-6.17252e-03,-1.46222e-02,-1.87205e-01,-6.34651e-01,
-5.65365e-03,-1.98077e-01,-7.28948e-01,2.11478e-01,-4.59267e-02,-5.09866e-01,9.40844e-01,3.81071e-03,-2.48930e-01,-9.83820e-02,-5.82562e-02,5.09750e-01,2.31252e-01,1.26799e-04,-7.24721e-05,-2.66317e-02,-1.30222e+00,3.34339e-02,-8.51350e-01,-1.05072e+00,7.97425e-01,6.32675e-01,-6.56139e-04,-3.92400e-01,-2.58968e-01,-1.62095e-03,-1.88722e-04,-7.64701e-02,3.26605e-02,7.01417e-02,3.44442e-02,-8.90895e-02,4.90963e-01,4.91866e-01,1.82284e-03,-2.34740e-01,-9.37976e-02,-2.44941e-02,4.16195e-02,2.25181e-01,-1.59625e+00,-1.31355e-03,3.71347e-03,-3.00678e-02,-1.40746e-01,-3.02920e-01,-5.43383e-04,3.94088e-02,3.04350e-01,-1.96760e-01,1.42408e-01,1.93626e-01,9.18572e-01,5.69913e-02,3.44399e-01,1.50751e+00,6.08019e-01,6.57109e-01,-6.07194e-01,-2.63916e-03,9.60865e-02,6.98158e-01,2.22098e-02,-8.66856e-02,
-7.60596e-01,-6.28271e-02,-5.47379e-03,9.60306e-01,6.12569e-01,-3.80067e-01,1.41730e-01,4.21945e-03,8.44338e-01,4.77835e-01,-4.05183e-03,8.02824e-01,9.71689e-01,-1.11198e-04,-1.67264e-05,2.63605e-01,3.44686e-02,-8.99255e-01,9.94737e-03,2.70764e-01,3.01620e-02,-3.17243e-01,6.88424e-03,2.74226e-02,6.34686e-01,-3.95013e-01,-1.61413e-01,7.39262e-01,-1.15068e-02,1.51378e-01,1.22734e-01,-6.21784e-01,-1.65360e+00,4.55150e-01,5.44821e-01,2.86113e-01,-3.21465e-01,2.80478e-02,-7.66283e-01,2.14572e-01,-1.54306e-01,-1.42681e-02,2.18570e-01,-3.19946e-01,1.31759e-01,3.96604e-02,-8.37560e-01,-3.44088e-02,-1.72186e-01,2.29988e-02,3.40569e-01,4.15331e-01,2.34325e-01,5.29758e-02,-1.48645e-02,-1.17871e-02,-1.22685e-01,5.12138e-01,4.34016e-01,-9.99030e-01,-3.08881e-01,3.84923e-01,1.68329e-02,2.83637e-01,
-1.43519e-01,6.31929e-03,4.98358e-01,3.68167e-01,1.03036e+00,-6.53244e-01,3.63955e-01,-5.99400e-01,-2.64306e-01,-1.04755e-01,3.60219e-01,-1.91279e-01,-1.12388e+00,-1.89338e-04,-4.90781e-05,-9.64176e-02,-4.17236e-01,-1.51566e-01,7.96999e-02,-1.02604e+00,-1.30151e+00,1.48712e-01,-3.30003e-01,-3.70956e-01,3.01166e-01,2.10728e-01,1.25296e+00,-5.87922e-01,8.19087e-02,-4.86463e-03,-1.93947e-02,1.38077e-01,5.45707e-02,-6.16868e-02,-6.94230e-01,-1.88806e+00,-4.69364e-02,-8.25074e-01,5.04394e-01,2.98107e-01,7.81439e-01,-1.66577e+00,-3.46856e-02,-8.73203e-01,6.60397e-01,1.07594e+00,-4.96034e-03,-3.13342e-03,-1.42024e-02,5.82998e-01,-1.11704e-01,-2.62210e+00,-1.39483e+00,-1.74092e-02,-5.03395e-01,3.63498e-01,-7.79444e-01,5.42906e-02,5.47070e-01,-1.92891e-01,-8.59747e-01,-9.23779e-01,-1.22348e+00,4.47162e-01,
-7.60876e-02,7.53423e-01,8.58497e-02,2.01142e-02,5.75435e-01,-3.18128e-01,3.19008e-01,1.96194e-01,4.91875e-02,4.02474e-02,7.14691e-02,-6.94238e-02,1.45735e-01,8.52059e-05,1.77720e-04,-4.92933e-01,-3.18512e-02,8.64384e-01,-2.67811e-01,-1.87493e-01,-2.71493e-01,-1.38779e+00,6.10272e-01,9.71569e-01,5.59850e-01,1.80034e-01,-1.27848e+00,7.98354e-03,-2.31568e-01,-2.13604e+00,2.51168e-02,-3.49930e-02,2.40857e-01,3.15495e-02,8.24814e-01,-2.90548e-01,-2.63180e-02,-6.40655e-01,-8.99618e-01,-1.29371e-01,-3.36068e-01,-1.86338e-01,-1.02193e+00,1.01276e-01,3.66679e-02,-5.86699e-02,6.98003e-03,-2.94157e-01,-4.89974e-02,-1.33428e+00,-2.73016e-01,-6.06706e-02,1.66407e-01,6.61041e-01,-1.10090e+00,-3.31698e-02,-8.61030e-01,3.51245e-01,-4.88041e-01,5.07744e-01,4.16909e-01,-3.55443e-02,-1.60578e-01,5.80377e-01,
-9.75859e-02,-2.20102e-01,3.29518e-01,-5.79384e-03,-2.17639e-01,-1.46867e-01,-2.78943e-01,2.26204e-02,-2.98314e-02,-3.18948e-02,-1.12154e-02,-8.30692e-01,-3.83573e-01,8.82227e-06,-5.32859e-05,-2.77241e-02,-1.05634e+00,-2.34874e-01,1.18600e-01,-7.99796e-01,-1.60261e-03,-3.04428e-01,5.45443e-01,-1.27271e-01,1.83041e-02,8.32184e-03,-1.75069e+00,3.41230e-02,1.39599e-01,-4.43594e-01,-7.45500e-02,-3.59272e-01,-8.15024e-01,-1.76588e-01,3.40775e-06,1.48195e-01,7.96269e-02,-5.64228e-03,-1.97088e-01,-1.18201e-01,-1.37314e-01,-1.63086e-02,7.87664e-01,-6.80889e-02,1.36633e-02,-1.10445e+00,9.75960e-02,-3.60357e-01,-6.96480e-01,-3.50354e-01,-6.60035e-01,3.65356e-01,2.44082e-02,5.72302e-01,8.30642e-02,2.32792e-01,2.07732e-03,-2.43404e-01,-2.42627e-01,2.39668e+00,2.16661e-02,-2.44597e-01,-4.67695e-02,-8.06002e-01,
-1.39527e-01,5.50462e-03,1.37706e-02,5.06274e-01,-4.83432e-01,-2.95414e-01,5.30516e-01,-1.37538e-01,1.41259e-02,2.41691e-01,-6.08086e-02,-2.52072e-01,-2.62042e-02,-1.02686e-04,-8.57921e-05,4.68131e-01,-4.79635e-01,1.06560e-01,1.13114e+00,2.49376e-02,-1.42922e-01,4.72828e-01,-1.54164e+00,1.53279e-02,9.88848e-01,-7.40569e-01,-1.46620e-02,-1.23906e-01,4.30864e-02,-5.52876e-03,-2.99552e-01,9.77454e-03,-1.07337e+00,-1.35572e-01,-2.70021e-03,5.43923e-01,-1.75205e-01,7.10544e-02,6.97180e-01,1.78512e-01,7.53293e-01,-8.14503e-03,-2.04463e-02,4.44490e-03,-8.95448e-03,1.07586e-01,-1.02588e-01,-9.75416e-01,1.68527e-02,2.07017e-01,-5.64305e-01,2.06859e-03,1.61279e-04,1.85179e-01,1.88670e-02,7.21349e-01,-1.22011e+00,-8.78272e-02,1.83248e-01,-2.23877e-01,-1.36518e+00,-3.90129e-02,-2.25652e-03,6.34827e-01,
-3.73026e-01,3.99576e-01,-2.83275e+00,-3.00664e+00,6.96955e-02,-5.71470e-02,-5.80278e-01,4.59999e-01,1.94924e-02,7.18092e-01,1.29368e-01,1.25421e+00,3.79959e-02,3.11538e-04,-7.07367e-05,5.92041e-01,9.24430e-01,-3.53080e-03,-3.85513e-01,3.32032e-01,3.57288e-01,-1.45565e+00,-1.02669e-03,-6.62601e-03,1.33881e-01,4.89270e-01,3.89068e-01,5.23339e-01,3.77973e-01,-6.25826e-03,-1.19294e-04,-3.16496e-02,4.14660e-01,-7.51704e-01,-1.91760e-01,2.40498e-01,-7.55086e-01,8.62548e-03,3.15481e-01,-3.49954e-03,8.97229e-02,2.03220e-01,7.54734e-01,2.24352e-01,1.03681e+00,9.77703e-01,1.40271e-02,1.30568e-02,3.17855e-02,-3.08481e-01,9.61143e-03,6.88376e-01,1.16809e+00,-1.44410e-01,7.59694e-01,5.51225e-01,-8.46470e-01,-1.37350e+00,-1.36646e-01,-1.41608e-02,2.57232e-02,-1.06114e-01,7.59443e-03,1.39367e+00,
-1.21167e+00,-6.55466e-01,3.52680e-01,2.31842e-01,-7.02594e-01,2.30068e-03,5.97363e-02,-4.15614e-02,-8.29370e-01,1.71616e-01,4.84738e-01,5.73584e-03,-6.82202e-01,-1.69702e-04,2.86487e-05,-1.68798e+00,-6.48667e-05,1.93905e-01,2.14014e-01,-9.06716e-01,9.03510e-01,3.46537e-01,-1.80505e+00,-8.30324e-01,-3.58741e-01,-6.18707e-03,1.14231e+00,-1.72346e+00,-9.71436e-02,-4.47720e-01,-3.72355e-01,1.10354e+00,1.44126e-02,-4.26555e-01,9.72409e-01,1.33374e-01,1.02293e-02,-1.39713e+00,4.61177e-01,-1.98169e-01,-4.13190e-01,3.59469e-01,7.02176e-01,-9.41676e-02,-4.16184e-01,5.18139e-02,-1.45442e-03,-1.88068e-02,-2.00346e+00,2.62708e+00,-7.08983e-01,-2.01002e+00,-1.87086e+00,5.76586e-02,7.81681e-01,1.28985e-01,-3.93974e-01,2.35072e-02,1.08818e-01,1.50472e-01,-6.16287e-01,-7.64442e-01,-3.87173e+00,4.46162e-01,
4.03806e-01,1.46343e+00,9.39822e-01,-2.13949e-02,3.56316e-01,-3.13274e+00,8.70745e-01,1.07606e+00,2.27941e-01,4.22961e-01,1.53679e-01,2.78327e-01,8.28283e-01,-1.33002e-04,5.69445e-05,-2.85361e-02,4.13701e-01,6.88192e-01,-1.30192e+00,6.98376e-03,-1.82950e+00,1.72625e-02,-1.75489e-02,-8.82116e-02,1.71972e-01,5.80422e-01,3.46445e-02,-9.79384e-01,-1.16339e-02,3.87685e-01,1.40266e-02,-3.70398e-02,-3.38541e-01,7.24957e-01,1.12582e+00,4.32148e-01,-4.41909e-03,1.25604e-01,-8.37909e-03,1.13902e-02,1.23570e+00,-3.32914e-02,-5.70428e-01,5.45968e-01,3.60830e-01,1.72003e-02,9.82531e-03,-1.17200e-02,-2.70376e-02,5.44186e-01,4.75749e-01,2.17488e-02,2.26468e-01,-1.27246e+00,3.45360e-02,-1.48678e+00,4.22873e-02,4.23397e-02,-4.81206e-03,-2.77382e+00,1.23798e-01,3.34585e-01,2.09709e-02,2.92449e-02,
-5.78940e-01,5.86870e-02,-1.33109e+00,-3.38894e-02,1.01978e-02,5.40106e-01,2.53917e-01,7.45055e-01,6.19119e-01,7.27349e-01,-2.44139e+00,-2.08482e-02,6.81647e-01,1.85430e-04,-1.12498e-04,1.09345e-02,9.14198e-01,-2.91442e-02,3.79027e-01,1.21746e+00,4.52674e-01,-2.05062e-02,-6.51071e-02,9.08703e-01,6.52739e-01,1.24675e-02,-8.51928e-03,9.29171e-01,1.51990e-01,-4.55998e-02,3.45498e-01,-5.80177e-02,-9.32101e-02,-3.28714e-01,-1.38882e-03,1.72104e-01,-1.82180e-02,1.42240e-01,-6.44696e-01,2.39604e-01,4.51150e-02,1.49713e-02,6.96521e-01,1.06258e-02,-1.51461e-03,-9.75236e-03,-5.31839e-01,-1.91909e+00,-1.41941e-02,5.03695e-03,-2.80971e-02,-3.68408e-01,1.58717e-01,1.02293e-01,1.06283e+00,-7.69211e-01,-6.90495e-02,-7.52623e-01,3.56690e-03,-1.43011e-03,5.86191e-01,5.50502e-01,-9.79596e-02,-1.24753e+00,
-2.67954e-03,-3.77009e-02,9.43103e-01,-2.58304e-01,6.01543e-01,5.60741e-01,-3.16321e-01,1.03673e-01,-7.58677e-01,-6.98147e-01,2.93492e-01,-8.89810e-01,-2.95284e-03,-1.26799e-04,-1.67109e-05,-1.44065e+00,-4.37930e-01,3.76320e-02,-6.52863e-01,-9.64844e-01,2.10194e+00,3.21017e-01,-6.58887e-01,-1.07624e-01,-2.95257e-01,-2.86170e-01,-4.52935e-01,-3.35792e-01,2.58527e-02,-2.84093e-01,-1.64816e-01,1.02483e-02,-3.22218e-01,-8.70699e-01,-1.82974e-01,-1.85978e+00,-1.08533e+00,-7.51088e-01,-1.38939e+00,-2.99896e-01,1.89175e-02,-9.64691e-01,-4.60555e-02,1.05824e-01,6.47254e-01,-7.39888e-03,1.56838e-01,-4.81996e-02,-9.06672e-01,1.95341e-03,-1.93225e+00,-2.44019e-02,-5.49451e-01,-6.01307e-01,-2.30154e-01,5.09962e-03,-1.01284e-02,-4.88484e-02,-1.23760e-02,7.27839e-01,-4.29344e-01,-4.74230e-01,-2.85336e-02,3.19388e-02,
5.04760e-02,-1.62495e-02,4.86060e-01,-3.93852e-01,1.39125e+00,8.70381e-01,-2.08536e-01,1.91340e-01,1.13025e+00,4.80576e-01,-2.34950e-01,2.70462e-02,-1.28062e+00,-4.98572e-05,-5.24508e-04,1.09139e+00,-6.79373e-01,2.17573e-02,6.18786e-02,-7.16430e-01,1.19298e+00,-5.82715e-01,-2.22192e-01,-5.52252e-01,2.75535e-02,-5.49709e-01,-3.95692e-02,-4.58727e-02,-1.42670e-02,-1.96781e-02,-2.04086e-01,2.73630e-01,5.62332e-01,2.82093e-01,-2.10071e-01,-1.01521e+00,-9.05909e-03,-3.65824e-01,-1.68923e-01,2.49468e-01,3.22065e-01,-4.37848e-02,-2.31946e-01,-3.55885e+00,-6.56276e-02,-1.38716e-02,2.58732e-02,-1.65043e+00,-5.87330e-01,2.33345e-01,6.06235e-01,-7.99722e-01,-4.04495e-01,4.59718e-01,7.27755e-01,-1.54626e-01,-1.48661e+00,6.50589e-01,3.71183e-01,-2.14368e-01,-2.27682e-01,-6.86914e-01,1.75049e-02,-2.07195e-01,
-1.33286e+00,4.45158e-01,1.77532e-02,1.39308e-02,3.10981e-03,-5.23625e-02,2.07782e-02,-2.78626e-02,-1.60166e-01,-1.03060e-02,3.02621e-02,-2.37076e-02,-5.69157e-02,1.95714e-04,2.44968e-04,-5.29229e-01,-1.80618e-01,4.07415e-02,1.15356e-01,-1.89494e-02,-5.54021e-01,6.85257e-01,-8.90070e-01,-5.72930e-01,3.02098e-02,3.94256e-01,4.80018e-01,-1.42917e-02,-5.07819e-02,-2.53398e+00,-4.29757e-01,5.70319e-02,5.79652e-01,-1.91970e-01,-6.86614e-03,3.01741e-02,1.90709e-02,-3.88136e-02,-4.96375e-01,-4.46251e-01,4.89358e-01,-4.70865e-02,-1.19091e-01,-6.67822e-03,-2.54045e-01,-4.20106e-01,8.48656e-01,4.64923e-01,2.87224e-01,-4.84502e-01,-6.73698e-02,1.02344e-01,-8.18415e-01,1.13263e+00,-5.79313e-01,1.10128e+00,-1.33764e+00,1.79151e-02,-2.46837e-01,-8.55484e-02,-6.58443e-01,3.84043e-03,3.27131e-01,7.09275e-01,
1.01411e-02,8.97528e-02,-9.15675e-03,-3.23725e-02,4.07708e-02,-1.05677e+00,5.15512e-02,2.78015e-01,8.74785e-01,1.58253e+00,-1.86668e+00,9.48127e-03,-3.28786e-01,7.70821e-05,7.38279e-05,-2.20289e-01,1.88862e-01,-3.10665e-02,2.43508e-01,-1.19351e-02,3.14986e-01,4.51237e-01,-1.55359e-01,-1.33533e-02,-1.69343e-03,1.00947e-01,2.35760e-01,7.75105e-01,-9.44601e-01,9.06196e-01,7.00322e-01,1.32772e+00,-2.52149e-01,6.13355e-03,-2.06761e-02,-1.33244e-02,-1.18741e-01,-9.21255e-01,8.11288e-01,4.37514e-02,2.40400e-01,-5.46645e-02,-5.83384e-01,-1.92842e-01,5.56275e-02,-9.45458e-01,-3.58979e-01,-3.41916e-01,3.78104e-02,7.77982e-01,1.32914e-01,1.59132e-01,1.42465e-01,6.17770e-02,-4.80239e-01,-9.90874e-01,3.11355e-01,-6.75016e-01,-1.79310e-01,7.73771e-01,-2.55492e-02,2.20415e-02,1.12830e-01,-3.25122e-01,
2.53849e-02,7.71586e-02,-1.02956e+00,-3.25341e-01,1.86759e-01,-1.28281e-01,-1.40274e+00,2.41664e-01,8.51573e-01,2.22428e-03,-1.21638e-01,-2.47923e-01,6.61430e-03,9.74741e-05,9.57789e-06,6.13857e-01,-2.01416e-01,1.05644e-01,-7.56982e-02,1.75516e-01,-5.65653e-01,5.14677e-01,9.59452e-02,4.73669e-01,4.81319e-03,-1.08256e+00,2.59951e-01,-5.06345e-01,4.27654e-02,8.31171e-02,4.43329e-03,-1.27257e-01,-3.19579e-01,4.99071e-01,1.65470e-02,2.84267e-01,4.80819e-04,5.83867e-01,2.04448e-01,-7.23880e-03,2.97382e-01,-3.03215e-01,-1.63677e-01,4.14626e-01,8.74805e-02,-5.62742e-01,-9.30992e-02,2.47534e-02,9.26026e-01,-3.02418e-01,3.19885e-01,2.15714e-01,3.62511e-01,-2.51318e-01,-1.26053e-01,-7.98156e-01,1.53660e-01,6.59202e-03,1.51124e-01,8.57955e-01,-1.40788e-01,9.32645e-02,9.03613e-01,-4.63808e-02,
-4.35800e-01,3.21442e-01,2.22527e-01,-4.31164e-01,2.03373e-01,2.74101e-01,-4.79198e-02,-8.58951e-03,-6.27847e-01,3.32378e-01,-1.44797e-03,-2.93373e-01,5.15782e-01,-5.28291e-06,-1.21893e-04,5.04132e-03,-9.69171e-02,-3.21798e-01,-3.66577e-01,-9.94925e-02,1.97614e-01,8.02332e-01,-3.31411e-01,-2.68965e-02,1.12554e-02,-1.50642e-01,-5.32102e-01,3.17243e-01,-4.58515e-02,-2.84751e-01,4.53490e-01,9.61459e-03,-3.55201e-01,-2.45630e-02,-3.27881e-01,8.15504e-02,4.13504e-02,1.96493e-01,-6.87859e-01,2.70779e-02,-5.14620e-01,1.49951e-02,1.32323e-03,3.93404e-01,-1.32425e-01,4.44208e-03,-1.63297e+00,4.71800e-02,7.20868e-01,-1.44325e-01,-1.90069e-01,-3.55832e-03,2.97774e-01,1.25186e-01,-1.41003e-03,-8.39808e-02,-3.11700e-02,1.88205e-02,-6.83808e-02,1.41235e-03,-6.04315e-01,2.00906e-02,-3.54532e-01,1.94038e-01,
-2.25979e-01,-3.11029e-01,5.19174e-01,-4.11848e-02,-1.29631e+00,2.07577e-01,5.05146e-02,2.24278e-01,-8.10524e-01,-2.89695e-02,6.78255e-02,-8.63654e-01,-2.54935e+00,5.68493e-05,4.33687e-05,-4.04180e-01,1.79871e-01,4.14856e-01,5.89479e-01,5.44464e-01,4.34504e-01,2.73832e-01,-2.00548e-01,-1.60370e-01,-1.45912e+00,2.40435e-02,4.82528e-01,1.30514e-01,1.92864e-01,-2.55957e-01,-5.22612e-01,1.47823e-01,-5.02266e-01,6.70588e-01,1.39841e-02,2.24771e-01,5.48141e-01,-4.86181e-03,-4.68621e-02,4.56547e-02,-3.00921e-02,6.14523e-04,-2.12516e+00,-3.00124e-02,-1.40811e+00,5.18371e-01,1.96638e-02,-5.97268e-01,1.68405e-01,4.04033e-02,-1.90533e+00,-5.32580e-01,-1.95581e-01,7.12926e-01,2.82420e-02,1.85089e-01,-3.79482e-02,-7.36338e-03,-6.28121e-01,6.03290e-02,-5.53427e-01,-1.43389e+00,-1.16253e-04,-7.03708e-01,
6.96024e-02,3.99780e-01,-4.06427e-02,-1.24437e-01,-3.97609e-01,1.41708e+00,-5.19256e-02,7.29363e-01,-3.25037e-02,-3.18199e-02,-3.65396e-01,1.92823e-01,4.35169e-01,-2.35145e-04,-1.29928e-04,2.65000e-02,2.75071e-01,2.61918e-02,5.84600e-01,2.08226e-01,3.83153e-02,-4.74470e-02,-3.11058e-01,8.61302e-01,3.83298e-02,-4.78198e-01,-1.38151e+00,4.32654e-01,5.63113e-01,5.58904e-03,2.20256e-02,-4.18395e-01,1.91948e-01,8.27156e-01,-2.23402e-01,1.14996e-01,3.41029e-01,3.08812e-03,-1.06744e-01,-1.57135e+00,-8.68338e-02,-8.71389e-02,-4.60775e-01,3.00320e-02,9.48838e-02,5.67262e-01,-3.72873e-01,-1.50144e-01,6.40959e-01,-4.96229e-01,-2.99678e-02,1.12464e-01,1.53967e-01,-1.39922e-01,-1.74517e-01,2.68609e-01,2.62876e-01,-2.80854e-01,-9.95977e-01,2.30799e+00,7.17685e-01,8.62402e-02,7.74861e-02,-4.80062e-01,
9.23181e-02,1.07591e+00,-1.96151e-02,1.33171e+00,2.28663e-02,-1.72214e+00,-9.67499e-03,-3.14823e-03,6.45093e-01,4.79016e-01,6.05233e-03,7.77600e-01,4.75411e-01,-1.31242e-04,-8.82923e-05,2.93218e-01,5.48958e-02,8.42528e-01,-2.27332e-01,2.79464e-01,2.73421e-02,1.00397e+00,4.65557e-01,-1.81774e-02,7.92830e-02,-4.72337e-01,4.89303e-02,-3.68789e-01,1.12705e+00,2.38822e-01,1.09807e+00,-1.23406e+00,2.28190e-01,1.15190e+00,3.89747e-01,4.02863e-01,5.87077e-02,3.66243e-01,1.64229e-04,1.29958e-02,6.50636e-01,-7.00988e-02,-3.47549e-01,-4.37273e-01,6.13377e-01,2.78638e-01,-2.30304e-02,1.16414e+00,1.43677e+00,-8.97851e-04,-3.38145e-02,9.31758e-01,3.80160e-01,-6.54251e-02,4.61742e-01,-2.25377e+00,1.08066e+00,1.26243e-01,5.53687e-01,-5.14248e+00,1.29897e+00,4.47428e-01,1.25899e+00,1.13065e+00,
1.46225e+00,
-3.02327e+00,
-1.74357e+00,
2.44160e+00,
8.13455e-01,
1.57345e+00,
-1.05819e+00,
-2.91288e-01,
1.02130e-01,
5.60357e-01,
-1.42712e+00,
-1.05278e-01,
6.46018e-01,
-1.62841e+00,
2.44894e+00,
-5.51301e-01,
2.35824e+00,
-2.75695e-02,
4.19048e-01,
4.91128e-01,
-2.05120e+00,
1.90662e+00,
-2.50676e+00,
-3.56452e-01,
-2.15659e+00,
-6.48131e-01,
5.41812e-01,
-5.42211e-01,
2.03549e+00,
1.19577e-01,
3.23861e+00,
1.12027e+00,
7.96317e-01,
-1.05248e-01,
2.42781e+00,
-1.81862e+00,
-2.84709e+00,
-2.22834e+00,
1.04922e+00,
2.14468e+00,
9.44077e-01,
-2.01611e+00,
-1.31942e+00,
4.45464e-01,
-2.83043e+00,
-1.84345e+00,
-1.72849e+00,
2.10659e-01,
1.25451e+00,
2.89758e+00,
-1.43142e+00,
-2.42373e+00,
7.64183e-02,
-1.74850e+00,
-1.98659e+00,
2.89453e+00,
2.14039e-01,
-3.41237e-01,
9.45637e-02,
8.32649e-01,
1.45810e+00,
1.25106e+00,
2.28194e+00,
-3.04122e+00,
-1.88727e-04,2.43710e-05,-1.66515e-05,1.78871e-05,1.60317e-04,-1.29709e-04,-7.58312e-06,3.14122e-05,-4.00422e-05,5.32287e-04,-8.49988e-05,-3.22811e-05,1.04663e-04,-1.23259e-04,-1.01492e-04,5.55161e-06,3.55644e-05,2.57996e-04,-8.63802e-05,9.09495e-11,-4.94923e-05,-2.05162e-04,6.24733e-05,-7.01853e-05,-1.21390e-04,1.13235e-05,7.30614e-05,4.19166e-05,2.35561e-04,-1.76500e-04,2.35944e-04,2.35520e-05,4.26138e-05,7.30007e-05,8.85955e-05,4.16162e-05,5.61751e-05,2.48655e-04,-2.86487e-05,2.44933e-04,-5.98101e-05,-2.51974e-05,-3.30667e-04,1.21062e-04,-5.48390e-05,-1.35858e-04,1.72390e-04,5.65482e-05,4.87295e-05,-2.23271e-04,-2.53200e-04,-2.44893e-04,1.78199e-04,-8.02465e-05,1.87114e-04,1.43643e-04,-8.09723e-05,-5.27412e-06,4.62164e-05,7.26250e-06,5.21097e-05,-1.08482e-04,-5.25120e-05,-5.98972e-05,
-5.42402e-05,2.81030e-04,6.62180e-05,-1.16177e-04,2.78363e-05,-6.17221e-05,8.39683e-05,2.30960e-05,2.14582e-04,-6.16996e-05,-2.30380e-04,-2.72719e-04,1.48379e-04,-2.38880e-04,-6.47660e-05,-1.73679e-04,-1.57257e-05,1.06102e-05,1.73035e-04,2.15135e-04,5.35856e-08,3.60679e-05,8.33982e-05,1.78459e-04,1.82081e-04,6.76069e-05,3.29770e-05,1.15072e-06,-1.46891e-04,3.00710e-06,-7.51104e-05,3.60497e-05,-1.33932e-04,3.18312e-04,2.51234e-04,-6.00874e-05,5.71851e-05,-2.48599e-04,3.08662e-04,1.11059e-04,-8.25758e-05,7.27596e-11,-1.58701e-04,-1.12216e-04,-3.07886e-04,1.97461e-04,2.54627e-04,-1.86255e-04,9.82451e-05,3.12160e-05,1.31072e-04,-6.05697e-05,-1.17532e-04,1.89356e-06,-8.40353e-05,-5.98319e-05,-1.93169e-05,-4.75124e-05,2.27297e-04,8.81859e-06,-1.17317e-04,2.53560e-04,7.48050e-05,1.08590e-04,
5.55887e-01,-1.95078e-04,-4.65407e-01,-2.25354e-01,-1.82886e+00,-1.09089e+00,1.37167e-01,1.80854e-02,-1.62677e+00,2.15277e-01,2.27296e-01,-1.01322e-04,-8.99465e-05,1.07112e+00,-3.04781e-01,1.72721e-01,-2.06189e+00,-2.71114e-05,-1.91248e-01,2.97062e-02,1.22153e+00,-5.52660e-01,2.71334e-02,2.88806e-01,-1.19427e+00,9.39878e-02,-1.01011e-02,-1.85962e+00,-8.88664e-01,-1.21457e-02,-6.39153e-01,-7.12817e-02,-1.73076e+00,-1.67171e-02,-5.85990e-01,1.59439e+00,1.37810e+00,9.56130e-03,-3.90186e-03,-1.42183e+00,-7.11297e-01,1.02202e+00,2.56590e-05,6.07225e-01,-1.23493e-06,-2.38845e+00,1.21400e-01,-1.43163e+00,-2.78438e-01,-1.97285e+00,-1.37793e-02,8.09180e-01,3.62858e-01,1.41996e+00,7.24963e-05,-2.16630e+00,-1.25683e+00,-9.13692e-01,-1.85888e+00,-1.00762e+00,3.17535e-03,-9.47105e-01,-3.22057e+00,1.69445e+00,
-5.00829e-02,-9.73664e-04,3.29426e-01,9.87865e-03,1.01749e-01,1.28982e-01,2.56585e-01,2.26171e-01,-9.20632e-02,2.16268e-02,-1.90278e-01,2.70974e-04,8.43653e-03,4.88359e-03,2.17792e-01,-2.05653e-01,-2.43573e-02,-8.87517e-05,-5.98513e-03,6.17815e-02,-9.94926e-02,1.28385e-01,-1.25570e-01,-1.67246e-01,4.97516e-02,-5.64555e-02,-4.51767e-02,-2.18487e-02,5.69744e-02,-2.35009e-01,-8.76085e-02,-9.14506e-02,4.86006e-03,6.49379e-02,-3.02667e-02,-8.14888e-02,-6.91281e-02,1.76215e-01,1.37575e-01,8.77667e-03,9.64280e-02,1.80952e-02,-3.27817e-01,3.69952e-02,-9.81351e-02,-2.25801e-02,-2.78566e-03,4.54976e-02,1.02920e-02,-5.88377e-02,1.21937e-02,1.31880e-02,-3.80833e-02,-1.75620e-01,-4.73420e-02,6.68428e-02,1.40842e-02,5.03002e-03,-7.94562e-02,3.77215e-02,-2.24363e-02,-1.07161e-01,-1.00232e-01,-2.67539e-01,
-4.58070e-02,2.13063e-02,-9.53869e-02,-2.61885e-01,-3.63428e-02,2.38706e-01,-3.85357e-01,-3.57355e-01,1.88591e-01,-1.28635e-02,1.98787e-02,-7.46666e-05,-1.37875e+00,-1.72470e-01,-3.06710e-01,-5.50483e-01,2.16697e-02,1.92263e-04,2.43033e-01,-4.17844e-02,-4.02562e-02,9.24328e-02,1.38215e-01,1.79044e-01,-5.17050e-02,-5.39719e-02,-1.66228e-02,1.00803e-01,1.14517e-02,6.76605e-02,5.54909e-02,-1.83345e-01,-8.61894e-02,1.07508e+00,9.37243e-02,1.57552e-01,-2.43485e-01,4.45926e-03,-3.19653e-03,9.82565e-02,8.42797e-02,1.44202e-02,-6.21503e-02,-1.09408e-02,4.43693e-03,6.60461e-02,-4.52017e-02,1.91381e-01,3.17583e-01,-2.84510e-02,-1.04976e+00,1.04207e-01,-3.31883e-01,4.38696e-02,-1.26474e-01,-2.06336e-01,2.36181e-01,2.62405e-01,2.78285e-01,-8.36027e-02,-3.35385e-01,-1.50259e-03,2.15623e-01,-9.72165e-01,
-1.52158e-01,-1.96915e-01,-2.30644e-02,-7.91995e-02,1.00782e-01,2.74861e-03,-8.43993e-02,-1.41562e-01,3.03465e-01,-3.53385e-02,-5.46817e-01,-2.18720e-05,2.14713e-02,-7.64191e-02,-2.34021e-02,-1.97857e-01,1.21361e-01,-1.86146e-04,4.32293e-02,3.06095e-02,6.95147e-02,1.47357e-01,2.82545e-02,1.11787e-01,-3.23000e-02,-1.33396e-01,1.04264e-02,7.07817e-02,-8.97122e-03,-1.23538e-01,-1.66002e-02,8.27381e-03,1.14216e-01,-7.87069e-02,1.37492e-02,7.92549e-03,-1.58260e-01,3.96043e-02,-2.86364e-01,6.73524e-02,7.80524e-02,-4.56511e-02,-1.30146e-01,-8.87902e-02,6.54642e-01,6.54460e-02,-9.09160e-02,3.65059e-01,-1.71247e-01,-4.26864e-02,9.47685e-03,-5.56441e-02,1.70105e-01,-6.28673e-02,5.52932e-02,1.59411e-01,1.35800e-01,-4.04836e-02,-2.11450e-01,1.57476e-01,-1.07943e-01,-8.14674e-03,3.71861e-01,-2.09199e-01,
-1.12687e-01,-1.10158e-04,1.37359e-04,-2.09273e-02,-3.86855e-01,-4.62388e-01,-8.53886e-01,-2.46698e+00,4.82253e-02,1.75227e-01,2.16365e-01,2.46826e-04,2.55572e-04,-1.70257e-01,-7.88073e-03,2.08144e-01,7.44860e-03,5.05986e-05,-2.29295e-02,-2.35457e-01,-5.77676e-02,2.78001e-02,-7.44025e-02,-2.15923e-01,-1.47459e-02,4.89185e-01,2.63892e-01,-3.42958e-01,-2.80945e-02,5.30086e-01,-4.44666e-01,9.07150e-02,-4.96468e-02,6.79511e-02,-1.80147e-01,1.24703e-04,1.19578e+00,-7.77993e-06,8.92979e-03,-1.00139e-01,-8.42712e-02,-5.42068e-02,-2.33785e-04,-3.02974e-01,-5.11255e-05,-2.28089e-02,1.33243e-01,-1.02266e+00,3.73096e-01,-5.40029e-01,-4.68062e-01,3.15385e-01,-1.55837e-02,4.73789e-01,-4.81408e-05,-9.24777e-03,-2.70511e-01,-7.06602e-02,-2.39829e-05,1.34756e-01,3.97372e-01,-1.91549e-04,-1.11237e+00,2.45839e-01,
-6.42132e-01,-2.25628e-02,1.64748e-02,-1.84541e+00,-1.82320e-01,-3.34931e-01,7.10072e-03,1.14303e-02,2.15399e-02,-2.17422e+00,3.12809e-02,-1.41626e-04,-3.22966e-03,-1.10629e+00,-1.47715e+00,1.23737e-02,3.12576e-01,2.38328e-04,-1.27462e+00,-2.53568e-01,2.20610e-02,3.82197e-02,5.20016e-01,1.67834e-02,-5.39506e-02,6.07468e-03,1.69158e-01,-1.06031e+00,-1.85609e-01,2.16154e-02,8.50580e-02,-1.52242e-01,-1.70735e-02,5.95387e-01,1.16641e+00,1.85615e-05,5.23861e-06,9.95502e-01,-1.66270e-02,3.02866e-01,2.81793e-03,1.41554e-02,-2.27599e-01,-8.26635e-01,-8.76005e-02,-1.70135e-01,-1.32689e-02,-9.04547e-03,-4.94208e-03,3.97625e-02,-8.34032e-06,-8.18726e-02,-1.04113e-02,9.58913e-05,1.01954e+00,-4.28224e-02,-1.29933e-02,2.40884e-02,2.35826e-01,2.68857e-01,-4.38323e-01,1.41204e-01,6.04057e-02,-1.09446e-04,
-3.14732e-01,1.53560e-02,3.06805e-02,1.35906e-02,-1.12619e-01,-3.51701e-01,1.65157e-02,1.59249e-01,-1.51648e-01,4.26697e-02,-2.45234e-02,-4.62849e-05,-1.91416e-01,7.28129e-02,-5.00227e-01,-2.07453e-01,-5.15416e-03,7.41971e-05,9.27258e-02,-1.13492e-01,2.30416e-01,6.82772e-03,2.53404e-03,3.52543e-01,2.29838e-03,-6.30143e-01,1.67377e-01,2.29602e-01,2.69523e-02,-6.70780e-03,6.54796e-02,-2.59455e-01,-9.14910e-02,-1.44015e-01,6.11336e-02,1.34229e-01,-1.02654e-01,-2.92078e-01,-8.88691e-03,1.55265e-01,-7.83846e-02,-1.37566e-02,-7.57098e-02,1.85117e-01,-1.30005e-01,-5.42438e-01,2.33459e-03,2.21631e-01,-6.02667e-03,-1.82718e-01,4.36574e-01,1.57031e-01,-3.38442e-01,-8.46304e-03,-4.89454e-02,-9.88905e-02,1.65824e-01,1.72114e-02,1.85643e-01,3.34938e-01,-6.49902e-02,-2.05050e-02,5.49150e-01,-5.56049e-03,
5.63104e-02,-1.29059e-04,-2.14719e-02,2.15164e-01,-2.32345e-03,-9.13202e-03,1.93659e-01,3.42933e-01,-3.26049e-01,-1.77872e-03,2.64165e-01,-1.67536e-04,-1.54332e-01,4.76847e-02,1.56868e-01,-9.86790e-02,-4.04118e-02,2.58787e-05,2.19358e-01,-1.98773e-01,-4.39009e-02,-4.01285e-02,1.14460e-01,-1.40282e-01,4.14686e-02,-7.03993e-02,1.21409e-01,-1.08188e-01,-1.26441e-02,1.54325e-01,-1.92809e-01,-7.41914e-02,-5.76539e-02,1.10975e-01,-9.96263e-02,1.14578e-01,-1.58650e-01,1.82952e-01,8.11247e-02,2.68838e-03,4.87032e-02,1.37778e-01,-4.29738e-02,3.27223e-02,-1.21613e-01,3.50362e-02,1.24105e-01,-3.88906e-01,6.55556e-03,-5.78270e-02,-8.29121e-03,3.73074e-03,-7.45434e-02,4.33648e-02,1.13397e-01,9.69571e-03,-4.03890e-02,-5.79979e-02,9.14179e-02,-2.01176e-01,-3.38643e-02,-2.11219e-02,-2.22113e-01,2.84012e-02,
-5.75697e-02,-4.06906e-01,-1.55824e-01,-4.74059e-03,-8.41959e-02,1.76405e-02,-6.10574e-02,2.54692e-01,-2.51299e-01,6.97233e-02,-1.51360e-01,1.49347e-04,2.56580e-01,2.42504e-02,-2.89394e-01,-1.43346e+00,1.65473e-01,-1.47049e-04,1.44751e-01,2.45107e-01,4.44089e-03,2.69940e-01,-4.57684e-01,-2.39311e-01,-1.19930e-01,-5.77133e-01,2.15811e-01,-1.68353e-01,-8.71270e-01,-1.26511e-01,1.69393e-01,-1.18311e+00,-1.66315e-01,7.83713e-02,-2.08209e-01,1.65849e-01,-2.50316e-02,3.81135e-02,-1.55148e-01,-2.84797e-02,2.33755e-02,-4.29990e-03,-3.28496e-01,8.01428e-02,8.02816e-03,-1.16140e-01,6.51287e-01,3.81127e-02,-3.94811e-02,-2.90200e-02,9.64574e-02,-3.10009e-02,-1.78827e-01,4.90143e-01,9.27291e-02,1.42791e-01,2.41943e-02,5.61351e-01,-1.25571e-01,4.99195e-01,-4.98678e-02,-8.77400e-02,3.49049e-01,2.27572e-01,
2.36545e-02,-1.10697e-02,3.80511e-05,-1.12434e-01,1.47290e-01,3.11982e-02,-2.55250e-01,4.19662e-01,1.97112e-03,-2.60167e-03,-3.28705e-01,-1.56010e-04,-4.92731e-02,8.63532e-02,4.93142e-03,-2.35947e-03,1.63901e-01,1.11875e-04,-3.22716e-01,2.15867e-03,-6.28521e-03,2.22913e-01,-7.11697e-02,-1.58789e-02,-2.27074e-01,-2.11667e-01,9.99672e-02,9.72142e-02,8.94376e-02,1.06914e-01,-4.54442e-02,-1.56117e-01,-2.82731e-02,-2.29082e-01,-9.36233e-02,-5.62328e-04,3.43888e-01,1.75096e-02,-3.21016e-01,-8.07076e-02,-5.78086e-01,1.12249e-01,-6.27578e-01,9.90524e-02,1.64334e-01,-3.17540e-02,-2.35288e-01,4.64190e-03,-2.92304e-01,1.10127e-01,-1.86055e-01,-5.73858e-02,5.02532e-02,2.43152e-02,2.26149e-01,4.36039e-02,-3.28524e-01,1.72857e-01,-1.72311e-01,1.07685e-01,-1.38957e-01,8.83321e-02,-6.76332e-02,9.93835e-02,
9.06121e-02,-1.65880e-01,-2.64142e-02,-1.74237e-01,-7.38805e-01,2.20338e-01,-5.04809e-02,-1.54674e-01,1.80641e-01,-2.21794e-01,-1.01626e+00,-4.91422e-05,-6.32733e-01,8.85684e-02,-3.86362e-01,1.03594e-02,-3.41029e-01,-7.16791e-05,-2.71738e-01,6.87051e-02,3.61957e-01,1.99789e-01,-1.76770e-02,3.41034e-01,2.96801e-02,-1.43080e-02,1.80396e-02,-1.12212e-01,5.86533e-01,-7.17146e-02,-9.79803e-02,-1.01341e-01,3.56676e-01,1.72129e-01,1.66085e-01,-9.25777e-02,-5.35669e-01,1.18305e-01,-6.10410e-02,-4.48760e-02,7.48428e-02,-8.50770e-01,1.81686e-02,-4.18165e-01,2.12994e-01,3.27377e-01,-4.77488e-02,-1.03586e-01,1.12190e-02,-3.05180e-02,5.08742e-03,-8.22520e-03,-5.22683e-01,6.09540e-01,1.35962e-02,2.88047e-01,1.95549e-02,-5.66762e-01,-9.33459e-01,-1.64785e-01,4.49094e-01,-6.81256e-01,2.75365e-02,-1.75619e-02,
7.78503e-02,2.17724e-01,-7.09127e-02,1.68313e-01,1.42092e-01,5.32772e-02,-1.45545e-01,-1.01441e-01,-2.83310e-01,-1.37168e+00,-1.56193e-01,4.64774e-05,-1.60022e-01,-4.75534e-03,-4.53058e-01,3.39029e-01,3.86571e-01,-7.32994e-05,5.86163e-01,-5.69839e-02,3.50722e-02,8.87651e-02,-1.98798e+00,4.04473e-02,1.09628e-01,1.25203e-01,3.04778e-01,-1.56601e-01,1.15477e-01,-2.83747e-01,-8.69744e-02,9.60106e-02,-2.81283e-01,1.96727e-01,3.03695e-01,5.63718e-02,1.44756e-01,5.10881e-01,-2.96077e-01,2.47812e-01,5.46564e-02,1.11071e-01,-1.48158e-01,-2.73879e-03,6.82569e-03,2.72847e-01,1.87172e-01,3.67307e-01,-2.74829e-01,-7.75047e-02,-3.30225e-02,-1.69757e-03,3.33368e-02,1.03650e-01,1.17107e-02,-3.29992e-01,2.90030e-01,2.89630e-02,-6.98707e-02,2.03687e-02,6.75991e-03,-1.00335e-01,4.24255e-03,5.99555e-01,
7.19196e-01,-8.88611e-01,-3.55897e-01,-7.28219e-03,-1.64961e-01,6.21507e-02,-7.98351e-01,-3.17165e-01,-5.71420e-01,5.04721e-01,7.14231e-03,-1.30161e-04,-4.34776e-01,9.20880e-02,-1.29358e+00,-1.15510e+00,-2.02642e-01,2.06316e-04,-2.08236e-01,-8.79381e-01,-7.69168e-01,1.43752e-01,1.32322e+00,-5.25604e-01,-5.60992e-01,1.90929e-02,-2.51778e-01,-9.61767e-02,-2.30223e+00,1.03495e+00,-1.97939e-01,-8.75359e-02,-8.41376e-01,-6.75970e-01,-5.66692e-01,-1.06388e+00,6.57649e-05,7.83487e-01,-7.42847e-01,-8.50051e-01,5.31953e-01,-3.19176e-01,2.71528e-01,-1.46866e-02,9.25758e-02,4.90878e-01,4.42367e-05,3.02207e-02,-1.76739e-01,1.13854e-03,1.44590e-02,-4.10373e-01,-9.96533e-02,-2.07965e-04,-7.69349e-01,1.69946e-01,-6.83633e-01,4.85110e-01,6.50708e-03,5.16046e-02,4.53347e-01,-2.55517e-01,3.88352e-01,4.31413e-05,
-1.30901e+00,3.04997e+00,1.25080e+00,-1.08061e-01,-2.22086e-01,-1.45804e-01,-3.18110e-01,-2.09504e+00,2.36574e-02,-1.50356e+00,-9.94686e-05,-3.35579e-05,-3.19087e+00,-6.70337e-03,-2.12441e+00,-1.71763e+00,-9.22472e-01,-1.03169e-04,-1.54013e+00,4.20078e-02,9.87875e-01,-2.14435e-01,1.56413e-02,7.96104e-01,1.39379e+00,-4.83738e-01,-6.45807e-02,3.05594e-01,-3.16073e-03,8.37694e-02,-3.69864e-01,-1.55112e+00,2.79725e-02,-3.92815e-01,-1.30066e+00,-2.61887e-01,-9.19396e-01,1.12583e+00,-1.41881e+00,-8.98186e-02,-2.13942e-02,-1.11181e+00,1.19536e-01,-1.97741e+00,8.69924e-02,8.00659e-01,-1.16183e+00,1.47742e+00,-7.65759e-01,-5.26560e-01,-1.01309e+00,8.44137e-01,-5.46580e+00,-1.75509e-04,1.25745e+00,-2.58678e+00,-6.52903e-02,3.41728e-01,-1.76209e-01,6.87555e-02,-1.85343e-02,-1.99026e+00,-3.96200e-01,3.21868e-04,
3.14513e-02,-2.93444e-03,8.56311e-03,-7.02322e-02,-1.39229e-01,-3.15699e-01,-2.41876e-01,-1.80405e-01,1.35258e-01,-2.60777e-01,1.02875e-02,-2.69712e-05,1.29504e-02,1.76463e-01,2.86954e-01,-5.29490e-01,-1.77678e-02,3.50164e-05,-1.16738e+00,-7.23753e-03,3.97895e-01,-7.86196e-02,-2.63210e-02,2.19314e-01,-2.20019e-02,4.40231e-01,1.03037e-01,2.49225e-01,-1.68251e-01,1.58118e-02,-4.26603e-01,-7.67213e-02,-9.08244e-02,-4.64099e-02,-1.71205e-01,3.60358e-01,-2.73988e-01,-1.67784e-01,4.06661e-01,-1.66079e-01,1.41024e-01,2.98044e-02,-2.57258e-01,-5.02198e-01,9.42028e-03,4.09711e-01,2.75034e-01,-1.75646e-02,1.97980e-02,-2.36590e-01,1.16337e-01,-2.62591e-01,-1.97997e-01,-7.38981e-01,4.88373e-03,1.42325e-02,-5.96340e-02,2.10189e-01,5.15612e-01,2.52880e-01,-7.43764e-03,1.14465e-02,-4.81432e-03,4.12941e-02,
-1.14250e+00,5.21092e-01,-6.38505e-01,-7.43451e-01,-2.45282e-01,2.30530e-01,-1.95873e-02,-4.59799e-02,1.57025e-01,-1.42696e-01,-2.97846e-03,-1.75940e-04,-2.04523e+00,-8.88854e-02,-8.79085e-01,5.07372e-02,2.45178e-01,2.58818e-05,-8.18008e-01,3.91384e-02,-6.88689e-02,4.05548e-01,-2.63479e-01,-2.81834e-01,-6.98271e-02,-6.60679e-02,-3.45451e-02,-1.37266e-02,4.14858e-01,-2.34790e-02,1.68158e-01,7.07840e-01,3.31806e-01,-6.07250e-02,-1.27704e-01,-8.46921e-01,1.03652e-02,4.44307e-02,-2.22733e-03,-2.33557e-01,-3.80128e-02,-2.00770e-02,2.96255e-01,1.93004e-01,2.51704e-01,2.87873e-01,-2.13037e-01,1.99724e-01,-4.50734e-01,-9.33489e-03,-2.62479e-01,2.27921e-01,-1.34668e+00,-2.46700e-02,-2.08404e-01,1.96744e-01,-3.14528e-01,3.92007e-02,-9.03677e-01,8.26946e-02,-9.25554e-02,-2.36455e-01,3.97109e-01,1.77136e-04,
-3.46578e-01,-1.21120e-01,-2.61205e-01,-1.03544e-01,5.08104e-01,1.93595e-01,6.54763e-02,-9.11070e-02,6.80645e-02,5.94931e-02,-7.23899e-01,-3.85407e-06,-1.45031e-01,9.21812e-02,-2.04623e-01,-2.58600e-01,-7.16170e-02,-7.55808e-05,-1.57202e-01,5.38434e-01,1.29654e-01,-4.07455e-02,2.15285e-01,-8.70526e-02,8.81484e-02,-7.33302e-01,-1.77805e-02,5.55206e-01,9.50649e-02,9.15380e-02,-2.95265e-01,2.94982e-02,-8.97049e-03,1.57440e-01,-2.33439e-01,8.41977e-02,-1.52819e-01,4.96337e-02,-2.16151e-02,-1.84114e-01,-8.59942e-04,-4.84546e-02,2.80227e-03,1.93051e-01,7.04216e-02,-8.55386e-03,-1.20170e-01,-5.85621e-02,4.12516e-04,9.42829e-04,9.60645e-02,-6.25300e-02,-4.98589e-01,-6.36835e-01,3.85903e-01,-3.36254e-02,-1.81831e-02,-2.16352e-01,-4.29170e-01,-7.88968e-02,1.47468e-01,-2.77732e-01,4.85308e-01,-4.58888e-02,
2.58879e-01,1.84381e-01,3.70195e-01,4.03416e-02,-1.40719e-01,-2.04929e-01,-1.41917e-02,1.20262e-01,1.05974e-02,2.58660e-01,-5.24096e-01,5.51736e-05,5.68064e-03,-1.32412e-01,-2.01689e-01,1.55515e-01,2.48325e-02,3.34169e-05,-1.53953e-01,-2.49950e-01,-3.59314e-01,-5.56529e-05,-4.22630e-03,-1.22496e-01,-4.29138e-02,-1.44168e-01,-4.18974e-03,-4.16615e-01,2.60224e-01,-3.42897e-01,-7.14421e-02,7.05822e-02,9.66588e-04,-1.98729e-01,7.92698e-02,3.86407e-01,-1.34849e-02,-3.82547e-01,-7.11952e-02,-1.46782e-01,3.03406e-02,-3.36668e-02,-6.99263e-02,-2.82412e-02,8.40874e-02,2.22641e-01,-4.29325e-02,2.52172e-01,1.77372e-02,1.39922e-01,-3.16610e-02,1.10893e-01,1.28022e-01,-1.00623e+00,2.09792e-01,1.86046e-01,-1.06120e-02,5.62489e-02,-3.23433e-02,-1.94121e-01,-1.06456e-01,3.42374e-01,-1.36945e-04,5.23866e-01,
1.64135e-02,6.57844e-02,-2.15532e-02,9.40670e-02,-8.31678e-03,3.21581e-01,-2.23066e-01,6.11156e-02,-2.09216e-01,2.77303e-01,-3.97705e-02,2.70622e-04,1.70089e-01,1.07384e-01,-9.93338e-02,1.17914e-01,5.90673e-03,-6.23491e-05,4.50334e-02,-2.37736e-02,-1.90735e-01,-1.32143e-01,8.04128e-02,4.13013e-02,-3.47653e-01,-4.85844e-01,-6.36200e-01,1.17412e-01,4.93107e-02,-1.52439e-01,2.80031e-01,2.18518e-01,4.54658e-01,5.78200e-02,-7.40583e-02,1.33223e-01,-7.00715e-02,2.29996e-02,-4.26933e-01,-1.92620e-02,-1.14134e-01,-2.33719e-01,-6.21763e-01,-2.62615e-02,-6.09297e-01,6.98157e-02,-3.88695e-01,-8.20851e-02,-2.14620e-02,7.46615e-02,7.38237e-02,-7.63935e-02,6.98325e-02,-3.76280e-02,7.98697e-03,7.24399e-02,5.55877e-02,-4.04230e-02,-6.97960e-03,-1.15807e-02,5.15386e-01,4.59470e-01,2.00901e-01,3.90499e-02,
1.21412e-01,3.65197e-04,3.89209e-02,1.34484e-01,-1.18086e-01,-1.08802e-02,-4.35953e-02,8.68198e-02,-3.47667e-03,2.29503e-02,-1.82072e-01,1.53474e-05,2.60331e-03,1.83616e-01,6.55739e-02,-7.70872e-02,1.11328e-01,7.39543e-05,4.98435e-03,2.29440e-01,-5.59558e-02,-5.93139e-02,1.36070e-01,2.18129e-01,-1.06272e-02,-7.09161e-01,1.36134e-01,-5.56546e-01,4.85035e-03,-1.01968e+00,-2.10950e-01,-4.08364e-01,3.57719e-01,-2.12645e-01,2.31477e-01,-1.98395e-01,-7.13061e-02,3.24896e-02,-2.95359e-01,-3.13080e-03,7.90620e-02,1.83174e-01,-2.21620e-02,-3.27829e-02,2.06127e-02,6.55778e-02,1.30740e-01,5.46865e-01,-1.14629e-01,1.01355e-02,-1.97456e-02,-1.88739e-01,2.07592e-01,-8.98516e-01,8.19699e-05,-2.62052e-01,2.12941e-02,-4.12972e-01,-4.53082e-01,-7.50063e-05,-3.17863e-01,2.09265e-03,-1.51902e-02,-7.71228e-02,
8.29827e-02,-1.57484e-02,2.40576e-01,-3.45641e-03,1.34657e-01,1.18425e-02,1.88024e-02,6.90174e-02,6.42945e-02,7.36674e-02,1.07624e-01,-9.73657e-05,-4.78404e-02,3.40531e-02,3.35658e-01,2.41669e-01,-7.24201e-02,3.30568e-04,9.81170e-02,-4.46400e-03,-5.47726e-02,4.03975e-02,1.27530e-01,1.45514e-01,-1.44894e-02,-1.78830e-01,-9.61126e-02,1.08488e-01,-9.07488e-03,4.48321e-01,3.21229e-02,-1.23239e-01,-2.44463e-02,1.80377e-01,-2.86478e-01,2.81156e-02,4.22019e-02,-1.16560e-01,-1.06294e-02,-4.99243e-01,-3.18561e-03,-4.12964e-03,-2.43795e-01,-5.40649e-02,6.87229e-01,6.46976e-02,-6.11394e-02,-3.22383e-02,-2.28043e-01,-6.88719e-02,-1.91873e-01,3.71686e-02,5.90998e-02,1.31715e-01,-1.02198e-02,2.03047e-02,2.78088e-02,9.59278e-03,-1.79520e-03,-7.82144e-03,7.24458e-02,-1.08414e-01,-5.95278e-02,-1.94823e-01,
-8.17494e-01,-3.82817e-02,-8.85259e-02,-2.50370e-01,-3.89704e-02,9.12879e-02,-3.75930e-01,-1.78492e-02,3.32467e-01,-3.59217e-01,-6.47386e-01,8.68059e-06,-4.34090e-01,5.96297e-02,-9.21293e-01,-3.28918e-01,-2.49620e-01,1.34993e-04,-3.93596e-01,1.07551e-01,3.66563e-01,1.59471e-01,-1.71452e-01,2.95335e-01,5.97835e-02,-1.14302e+00,-2.80534e-01,4.14703e-01,-6.56180e-01,9.73277e-03,-2.81826e-02,1.03178e-02,7.12433e-02,3.69045e-03,-6.49781e-02,7.20687e-02,-1.28996e-01,8.57226e-02,-1.15656e-01,3.42136e-01,1.36475e-02,-8.41611e-02,1.04346e+00,-2.94827e-01,2.65227e-01,2.60620e-01,1.14639e-02,2.70716e-01,1.19523e-01,-4.57481e-01,-2.40035e-01,1.45531e-01,-5.79342e-01,-4.15261e-07,6.64897e-01,-3.37134e-01,2.59050e-01,-1.58844e-01,-3.75841e-01,1.19574e-01,-6.18315e-02,-4.53283e-01,6.49655e-01,-3.16692e-03,
-8.71449e-02,2.35449e-01,-2.03993e-01,3.10875e-02,-5.80800e-02,-2.23625e-01,-6.98214e-01,-5.19546e-01,4.95795e-03,2.06720e-01,7.35571e-02,8.43841e-05,-5.15917e-01,-4.07468e-02,-1.82276e-01,-8.97477e-02,1.46004e-01,1.54688e-04,-1.10290e-02,-8.54065e-03,-2.22570e-01,5.21358e-02,-1.41916e-01,-1.82332e-01,-7.01833e-03,8.81595e-02,-9.74259e-01,4.05021e-02,-2.45268e-01,7.32892e-02,8.55734e-03,-2.24737e-02,2.43065e-01,-2.13419e-01,1.84026e-01,-1.07797e+00,6.33244e-01,3.48886e-01,1.12715e-01,2.99934e-02,-3.72621e-01,-3.48474e-02,-9.18567e-02,1.52761e-01,5.71299e-01,1.70365e-01,-1.84122e-01,-1.49444e-02,2.43497e-01,3.59811e-02,2.08325e-02,9.84112e-02,1.33642e-01,2.68441e-02,4.36359e-01,4.47671e-02,8.60570e-02,1.43006e-01,8.95684e-04,1.16720e-01,-1.27348e-01,-2.16852e-01,-1.23701e-01,1.94142e-02,
3.29533e-02,-1.48192e-02,-1.53416e-01,3.36361e-01,-7.28069e-02,8.10634e-02,-1.36359e-02,-5.45354e-02,-3.81039e-01,-3.50459e-01,2.58717e-02,-2.04454e-09,-7.72031e-02,8.74802e-02,1.08802e-02,-6.37685e-02,-1.64184e-02,2.22285e-05,2.99947e-01,3.62102e-03,-1.37689e-02,-1.30668e-02,-1.30193e-01,-1.52561e-01,-1.58183e-01,-1.70448e-01,4.86555e-01,2.54694e-01,-2.82483e-02,2.30032e-01,1.05774e-01,-3.61368e-01,2.49601e-01,5.43359e-01,8.34561e-03,-1.68963e-01,3.67041e-02,4.98681e-02,-1.83433e-01,-1.00298e-03,1.93802e-01,-1.61333e-01,-5.65555e-02,-1.22058e-01,-2.81005e-01,-9.95678e-02,5.19820e-02,-6.76495e-02,-4.55742e-01,7.20342e-02,5.67711e-03,1.21834e-01,-2.89994e-01,9.88925e-02,-1.07204e-01,4.24063e-02,-1.40144e-01,-2.73562e-01,-4.32494e-02,9.15348e-03,4.04757e-01,-8.94279e-02,-9.23287e-02,-6.51492e-01,
1.27291e-02,1.18661e-02,6.61502e-01,1.99335e-01,-7.06864e-01,-1.14297e-01,-8.33649e-01,6.77193e-03,-8.93434e-02,2.09441e-01,8.96170e-03,3.17392e-07,-5.49090e-01,-1.75214e-01,-1.29423e+00,-2.27898e-01,2.28895e-01,4.74001e-04,9.00443e-02,-1.33688e-03,1.92017e-01,1.35144e-01,9.96124e-01,2.14254e-01,1.91502e-01,-2.57331e-01,-2.44843e-01,5.79050e-01,7.35107e-02,-4.36098e-02,2.38848e-01,4.76718e-01,2.61045e-01,-2.48053e-01,-1.10290e-02,3.74075e-02,-2.84241e-01,4.75235e-01,-2.78009e-01,1.86573e-01,-8.80985e-02,1.85895e-01,2.72918e-03,1.04967e-01,1.28655e-01,5.64186e-01,-8.91269e-01,7.04215e-02,2.25073e-01,-1.79292e-01,-4.29400e-02,-9.65812e-02,-1.23020e+00,-3.54519e-01,3.13109e-01,-3.28270e-02,-1.52662e-01,-1.05844e-01,-2.11899e-01,1.83913e-01,5.81300e-03,1.21378e-02,4.40563e-01,-6.77951e-03,
-2.26111e-03,6.26816e-02,-3.04354e-02,-1.17868e-01,-1.57680e-02,2.66187e-01,-1.21416e-01,4.02858e-01,-1.21473e-01,-6.50555e-02,-5.56613e-01,-1.14154e-04,1.84503e-01,1.01685e-01,-1.90591e-01,-6.16310e-02,1.57760e-01,-8.36212e-05,3.97153e-01,6.19774e-02,2.64332e-02,-6.89696e-02,1.80757e-01,-6.86625e-02,3.40087e-01,-5.72857e-01,1.06843e-01,9.68223e-03,-7.58179e-01,-4.32179e-01,-2.45027e-04,-3.40403e+00,1.69161e-02,5.09469e-01,2.47054e-02,2.87623e-01,-2.43390e-02,-3.37343e-02,-6.94559e-03,1.83271e-01,-2.55605e-01,1.92937e-01,-2.36571e-03,3.80702e-03,-2.19618e-01,1.61219e-02,-1.73039e-01,1.57347e-01,3.61628e-02,1.19828e-02,-1.75432e-01,-2.73488e-02,4.19870e-03,-6.09278e-02,3.03485e-02,9.97619e-02,9.66220e-03,-4.30275e-02,1.24215e-01,1.16723e-01,1.08700e-01,3.04873e-03,-9.97158e-02,-4.18914e-01,
-7.05139e-05,-7.03221e-06,8.49351e-06,1.70781e-05,1.19136e-04,-2.45542e-04,-3.15361e-05,1.26799e-04,7.70963e-05,9.76442e-05,-1.12855e-04,3.62723e-06,-2.84416e-04,-3.68795e-05,4.87889e-05,-1.95658e-05,6.62557e-05,-2.39948e-04,-7.97366e-06,-2.32453e-04,3.02373e-04,-1.73010e-04,1.20957e-04,9.75469e-05,3.11521e-04,-1.98776e-04,8.36280e-05,1.22722e-04,7.00129e-05,2.54659e-10,-3.10545e-04,-1.81382e-04,1.47604e-05,-7.70453e-05,1.80176e-04,6.99402e-05,1.95912e-04,1.13258e-04,7.95446e-05,-2.15536e-04,2.19987e-04,-5.94011e-05,-8.55328e-05,1.95200e-04,1.29717e-04,-7.19511e-05,-3.82375e-05,-1.33365e-04,2.40911e-04,-1.94141e-04,2.79115e-04,1.01732e-04,-1.27101e-04,-1.38558e-04,-2.27297e-04,-4.87185e-06,-7.59536e-05,-7.33270e-07,1.37299e-04,-1.44374e-04,-1.15684e-04,6.13684e-05,8.19851e-06,1.29212e-04,
-6.45366e-07,8.48174e-05,1.86654e-04,-1.26574e-04,1.28306e-04,1.86264e-05,9.47869e-05,1.31928e-04,-1.39505e-04,-1.92208e-06,3.45709e-06,-5.40247e-05,-5.59578e-05,1.71136e-04,-1.65584e-04,1.50041e-04,-1.53471e-04,-1.69927e-04,-2.80612e-05,-1.30574e-04,-1.21501e-04,-2.06618e-04,-1.63487e-04,-7.42300e-05,-9.91070e-05,1.24150e-06,4.51115e-05,-1.55057e-04,-5.86329e-06,3.96140e-04,-9.19677e-05,1.56954e-04,8.94788e-05,-1.18599e-04,1.62800e-05,1.00749e-04,2.80832e-04,3.37378e-05,-1.59044e-04,5.67328e-06,5.56885e-05,-2.18568e-05,4.87479e-05,-1.89098e-04,3.76616e-04,2.04630e-05,-4.83934e-05,1.44782e-04,3.05751e-05,2.32302e-04,-2.39880e-04,1.06409e-04,-9.19705e-05,-6.00871e-05,3.66403e-04,6.03514e-05,-1.93746e-04,-2.10829e-05,-1.74697e-04,1.78105e-04,2.23984e-05,-1.43833e-04,5.19974e-05,-5.19940e-05,
6.41874e-03,-4.54654e-01,-2.23291e-01,-2.56532e-01,-4.31922e-01,1.00095e-01,-1.10342e-01,2.48450e-01,-3.18874e-01,1.34665e-02,3.00392e-01,-1.01990e-05,2.43517e-01,9.59416e-02,-3.48992e-01,3.06400e-01,-2.08126e-01,-1.13416e-04,1.99519e-02,2.42575e-02,-6.65697e-02,3.72251e-01,3.47057e-01,2.40180e-01,-1.10290e-01,5.95337e-02,-1.83912e-01,8.48972e-03,-3.42680e-01,5.27572e-01,5.21855e-01,9.74501e-03,1.33225e-01,-1.73214e-01,-5.15021e-02,1.21445e-01,-1.02197e-01,2.85187e-01,-2.56499e-02,1.95763e-02,1.37125e-05,-1.25994e-01,2.57918e-02,-1.90728e-01,1.05141e-02,4.82191e-02,6.16450e-02,-4.62062e-03,1.85138e-01,-1.70635e-01,6.89514e-03,-2.16473e-02,1.59431e-01,-2.47642e-01,-8.11809e-02,2.66358e-01,9.01479e-02,-1.95496e-01,2.22104e-01,5.37426e-03,-2.58030e-01,1.14190e-01,-1.20237e-01,3.14178e-01,
-4.02514e-02,-1.00765e-01,-2.25323e-01,6.75598e-01,6.83026e-02,-3.01275e-02,3.34253e-02,1.06049e-01,4.78821e-03,-8.16738e-02,-1.14526e-01,-1.98153e-04,1.09449e-01,-3.53394e-01,-3.03871e-01,2.24090e-01,2.27161e-01,-1.03874e-04,3.31413e-03,-1.29412e-01,3.90650e-02,-1.91746e-01,-1.39093e-01,-3.97178e-01,3.20422e-02,1.86805e-01,-5.49550e-01,2.67606e-01,2.19529e-02,-2.81107e-01,-4.11297e-03,1.09435e-01,-1.29039e-01,-1.61865e-01,-8.02596e-03,-8.65331e-02,-1.68231e-04,-2.25268e-02,-3.27020e-01,-6.79667e-02,-3.27241e-01,2.58235e-02,4.54235e-01,-6.12232e-03,-1.10565e-01,1.14855e-02,1.12325e-01,1.67898e-01,2.58660e-01,9.47961e-02,5.61662e-02,-2.70472e-01,2.03570e-01,1.05480e-03,2.09663e-01,-4.71266e-02,-3.99752e-03,4.39156e-01,9.73376e-02,1.76398e-01,1.21240e-02,3.03057e-02,1.80684e-02,-1.14721e-01,
-1.33102e-01,-1.81426e-04,-1.01981e-01,6.91106e-03,-1.45127e-01,6.30446e-03,4.37608e-04,1.83399e-01,5.32224e-02,-1.24358e-02,8.91034e-02,-3.66400e-06,1.86984e-01,1.21434e-01,3.68589e-01,1.08297e-01,-2.10721e-01,-1.66251e-05,5.18177e-02,-1.64285e-01,1.15314e-02,-7.61019e-02,-1.14436e-01,4.74651e-02,-9.82847e-02,6.83896e-02,4.49472e-03,-6.59976e-03,-1.26251e-01,1.71465e-01,2.84011e-02,8.73569e-02,-1.10463e-01,1.14651e-01,6.83092e-03,5.77745e-02,-2.05565e-02,-1.13091e-01,2.22620e-01,1.28459e-01,-2.75471e-03,-2.42662e-03,-1.07336e-01,5.07648e-02,-4.36390e-01,-6.63076e-02,1.87382e-01,-3.56308e-01,-4.40612e-03,-9.76520e-02,1.66593e-01,-6.60518e-03,-1.87198e-01,-6.45227e-02,-1.23781e-01,-9.57564e-02,-7.66123e-02,-4.78635e-02,-1.24156e-02,-5.12912e-02,2.62046e-02,1.60003e-02,-2.10342e-01,-9.65749e-02,
-7.02983e-02,2.04793e-02,3.30659e-01,4.20904e-01,-4.41371e-02,1.77434e-01,-2.91363e-01,-6.07096e-02,2.61267e-01,8.42579e-03,2.01145e-03,2.54655e-04,-2.76690e-01,8.57671e-02,-3.40679e-01,-2.79628e-02,1.69586e-01,-1.26729e-04,-8.98912e-02,4.62207e-03,-1.51060e-01,9.16694e-02,-2.27778e-02,2.48551e-02,-2.25045e-01,-2.16158e-02,-1.11510e-01,-3.63830e-02,-6.29955e-02,-1.00648e-01,7.38427e-02,-3.60573e-01,1.01610e-01,-1.36501e-01,2.64527e-03,-1.76345e-01,4.77206e-03,1.96734e-02,6.37871e-02,-3.94370e-02,6.62327e-02,-1.42619e-01,-9.91710e-02,9.31246e-03,-8.42790e-01,1.74922e-01,-1.14372e-01,3.53857e-01,2.71698e-02,-3.78225e-02,4.20831e-03,4.76054e-02,-5.29197e-02,3.94307e-03,-1.04783e-01,5.19371e-02,-1.07935e-01,1.84114e-01,1.41500e-01,1.69040e-01,-1.50730e-01,-3.33253e-02,2.62605e-01,-6.05838e-01,
-7.76536e-02,-1.59280e-02,-2.94353e-01,-5.68596e-01,7.05620e-02,-1.88391e-02,1.98644e-01,2.18346e-01,2.67124e-01,1.50925e-01,-1.37744e-01,-1.46285e-04,5.84233e-03,-4.91773e-02,4.33768e-02,-1.50978e-01,-1.97947e-01,-1.51960e-05,1.54439e-01,-1.14834e-01,9.89588e-03,2.91711e-01,-4.46412e-02,5.26892e-01,6.32109e-02,-2.46943e-01,2.10971e-02,1.63731e-01,1.66648e-01,-3.26999e-01,1.97755e-01,-5.44833e-02,-1.04603e-01,4.48380e-01,-1.33365e-01,8.69888e-02,5.49076e-02,7.17268e-02,-9.95444e-02,3.52609e-03,1.31890e-02,1.14865e-02,4.66385e-03,-6.84344e-01,1.52459e-01,-2.39210e-02,1.18768e-01,-1.73903e-01,5.86130e-02,2.12198e-01,-1.87728e-02,-7.40816e-02,1.57084e-01,-3.47981e-01,-1.43676e-01,1.02933e-01,1.35387e-01,-8.84871e-02,-3.81652e-01,-1.22722e-01,-3.25982e-02,1.05338e-01,-1.94832e-01,-9.44682e-02,
-1.54557e-01,-2.83882e-04,1.16311e-01,2.50281e-01,2.70523e-02,2.26310e-02,-1.14864e-01,3.10609e-01,-1.87803e-02,-2.74842e-02,6.03260e-04,1.75180e-04,2.03493e-01,-2.09038e-01,2.15293e-01,-4.92138e-02,-1.21349e-01,1.50277e-04,-3.86015e-01,-1.05390e-01,1.61771e-01,-1.56323e-01,1.07460e-01,8.59887e-02,2.21813e-01,1.41517e-01,-6.72474e-02,-9.52346e-03,6.95727e-02,-8.58346e-02,-1.94952e-01,1.12859e-01,9.06078e-02,8.56650e-02,6.76808e-02,-1.31253e-01,2.11164e-01,-2.67445e-01,-1.03526e-01,1.59742e-01,3.54351e-02,6.04649e-02,-4.31460e-03,1.39142e-01,-5.42753e-02,1.44573e-02,-2.12472e-03,-2.33783e-01,8.51317e-03,-1.94710e-02,-4.12793e-03,-6.29355e-02,-2.64955e-02,-1.65372e-01,1.48184e-02,-5.28589e-02,-1.00160e-01,-5.05350e-02,1.29791e-02,-1.74413e-01,1.51471e-01,-2.07870e-02,-1.95972e-01,-1.08327e-01,
-1.15969e-01,6.95573e-03,2.32979e-01,2.95846e-02,-3.94489e-03,2.41177e-01,-3.85420e-01,-2.98420e-02,2.18390e-01,3.17508e-02,-3.13771e-01,-1.98787e-05,-1.57647e-01,-2.11617e-01,-1.00922e-01,-1.50188e-01,-1.01573e-04,1.07786e-05,2.92272e-02,3.57583e-01,7.55004e-02,-1.31303e-01,-2.30437e-01,-1.16546e-01,-9.99504e-02,-1.76028e-01,2.22797e-02,-6.76402e-03,-2.59946e-01,5.65810e-02,1.82852e-01,-7.45614e-02,3.08534e-02,-1.07127e-01,-1.67186e-01,-4.13425e-02,3.17467e-02,4.14626e-02,5.63072e-02,9.01591e-02,-5.62586e-02,2.44677e-03,-1.25964e-01,7.54501e-03,5.57307e-01,1.16279e-01,-1.18249e-01,-1.13116e-01,-3.54454e-02,-1.39965e-01,-2.95726e-01,8.10390e-03,-1.26584e-01,-1.14510e-01,6.72863e-02,1.31595e-01,-9.07981e-02,-5.00671e-02,1.00283e-01,1.61255e-01,-9.42664e-02,-7.72952e-02,3.10415e-02,3.95608e-03,
2.16056e-02,-1.47458e-02,2.53348e-01,1.32980e-01,1.65749e-01,-1.29976e-02,-1.11019e-02,3.91624e-01,1.46039e-01,1.92458e-02,-9.16512e-02,-1.35956e-05,-1.45802e-01,-1.07673e+00,-3.67182e-01,-3.90501e-01,5.19786e-02,-1.99199e-05,-5.80991e-01,-1.66238e-01,-2.42137e-02,3.47851e-02,2.42389e-02,-2.15009e-01,1.57258e-01,-1.10886e-01,-2.57342e-02,2.88677e-01,1.23682e-01,-1.70678e-02,-2.34145e-02,2.44834e-01,-1.48767e-01,7.03835e-04,2.36753e-02,1.43758e-01,-1.32399e-02,-2.84142e-01,9.28215e-03,-1.36895e-02,-5.02257e-01,2.24147e-01,-5.25999e-01,3.53344e-02,1.55428e-02,-2.42136e-02,-5.81655e-02,-4.72010e-02,3.15629e-03,6.60857e-02,-1.70615e-01,7.88629e-02,-7.29581e-02,-1.11192e-02,-1.63487e-02,-4.68700e-02,-1.42494e-02,2.83431e-01,-5.68499e-02,3.16555e-01,-1.59550e-01,1.76635e-01,-2.36060e-04,-1.89290e-02,
-1.74842e-01,4.14618e-01,-2.37471e-01,1.32930e-01,7.97917e-02,-2.79433e-01,-4.03072e-01,5.84759e-02,-9.13277e-02,-1.92051e-01,4.64777e-02,2.19695e-05,2.59067e-01,4.13650e-02,6.76343e-02,2.70985e-01,-1.84032e-01,-5.45667e-05,1.52705e-01,-1.03248e-02,-3.51065e-01,-2.84647e-01,6.89799e-03,1.48245e-01,2.50941e-03,-9.70516e-02,-2.84519e-01,1.19850e-01,-4.67356e-03,-4.88543e-01,3.98266e-02,1.09517e-01,7.29680e-02,2.97675e-02,-1.19949e-02,1.72112e-01,-7.27239e-02,4.87737e-01,-1.23903e-01,1.06587e-01,-7.68295e-02,-1.14914e-01,-1.62849e-01,1.18084e-01,-9.18218e-02,2.01562e-01,-2.04718e-01,-1.23365e-01,4.63970e-02,2.52456e-02,-2.45798e-02,-3.50317e-02,-1.55836e-01,-2.72535e-01,3.70445e-01,4.45625e-02,6.80116e-02,6.57009e-04,2.81272e-02,-1.12088e-01,2.36220e-01,-1.79587e-01,-3.02723e-02,-2.25199e-01,
-1.27023e-01,2.41434e-01,-4.64526e-01,-1.79980e-01,2.84070e-01,6.19710e-02,-3.57579e-02,4.11129e-01,-1.43904e-01,-1.96236e-01,-1.96191e-01,1.10182e-05,-2.82372e-01,-7.82385e-01,-2.67950e-01,2.99023e-02,-8.45901e-04,1.13738e-04,3.52405e-01,-4.14502e-01,-2.50402e-01,-1.98738e-02,8.26491e-02,-3.89139e-01,5.17010e-01,-2.36290e-01,-4.49509e-01,-4.09845e-01,4.31417e-01,-8.54673e-01,1.52231e-01,-1.13303e+00,2.42394e-02,-1.45163e-02,5.28191e-02,4.44205e-01,5.64645e-01,2.94008e-02,2.15066e-02,1.46611e-01,-3.35057e-01,5.86250e-01,-1.78371e-02,-1.12208e-01,9.93721e-01,-3.31943e-01,-9.46518e-04,1.87930e-01,2.49215e-01,3.55988e-02,4.20095e-01,-3.61983e-01,4.82472e-01,-2.16344e-01,-1.63893e-01,1.60582e-02,-7.68964e-02,4.45863e-02,3.35263e-02,-8.48538e-02,1.45977e-01,2.80166e-01,-6.85328e-02,-9.61389e-02,
2.10419e-02,-1.13690e-02,7.21932e-03,-2.73585e-01,1.87339e-03,2.66689e-01,-3.07198e-02,-5.25869e-01,-4.47454e-02,-2.09735e-01,-2.95764e-01,1.64380e-04,-8.76286e-02,5.18480e-03,1.69207e-01,1.45890e-02,-3.44909e-01,1.34800e-04,-3.15904e-01,1.04077e-01,-2.30336e-02,-1.69251e-01,5.59605e-02,2.10156e-01,1.89121e-01,9.72251e-02,-2.05961e-01,1.06210e-02,-7.47003e-03,1.11971e-02,-1.98078e-01,-7.99373e-02,-5.38658e-02,4.81741e-02,3.05672e-02,2.33423e-01,-2.59206e-01,1.10857e-02,6.48504e-01,-1.46785e-02,9.58065e-02,7.42147e-02,1.32013e-01,4.59141e-02,-2.79629e-02,7.73606e-02,2.24766e-02,3.25114e-01,7.92342e-02,2.23257e-02,1.37566e-01,-1.63325e-01,1.50650e-01,5.04261e-02,5.64765e-02,1.43717e-01,7.39491e-02,-3.84493e-01,-1.36890e-01,-1.53642e-01,-1.44551e-02,-2.49182e-01,-2.88984e-01,-8.75648e-01,
2.11402e-01,7.92618e-06,1.23428e-05,1.88096e-02,-6.84441e-03,8.87787e-02,1.30133e-01,1.34042e-01,-1.73518e-02,3.95434e-02,1.61843e-01,-3.79709e-04,1.85043e-04,1.27793e-02,-1.31371e-01,-1.28783e-02,-1.91775e-02,-9.52517e-05,-5.60731e-02,-1.32152e-01,-8.13147e-06,-9.86097e-02,9.87673e-02,2.29100e-02,-1.40677e-01,-1.16432e-02,-1.17863e-01,4.60576e-02,3.72139e-02,2.25376e-02,-9.61672e-03,-4.95084e-01,1.24441e-02,-1.21386e-02,2.48819e-03,1.14136e+00,7.07247e-01,1.62622e-04,4.40178e-04,3.61049e-02,1.99410e-02,2.62874e-02,1.73349e-05,1.72069e-01,-1.47963e-04,-2.00888e+00,-2.97556e-01,-1.21557e+00,-1.45840e-01,-2.14630e+00,3.12670e-03,9.75061e-03,4.75616e-01,2.16139e-01,-5.87086e-05,-1.19329e+00,-3.74212e-02,-2.58097e-02,1.23179e-05,6.21384e-02,7.47594e-03,1.43839e+00,-1.20907e+00,5.24220e-01,
-9.09931e-02,6.47525e-02,-2.48182e-01,1.02265e-01,-2.35769e-02,1.55387e-02,-8.47065e-02,-6.76937e-01,9.38775e-03,-8.47593e-02,-8.29588e-02,1.81843e-04,7.23495e-02,6.29078e-02,-6.32700e-02,2.72879e-01,-2.37960e-01,-8.31361e-05,1.36480e-01,1.37396e-01,9.29251e-02,3.14597e-03,4.18280e-02,3.46059e-01,-3.03918e-02,-1.94643e-01,-1.39959e-01,9.18452e-02,7.25366e-02,2.43116e-01,1.45908e-01,-2.92873e-02,-2.14193e-02,5.29314e-03,-2.70601e-02,5.35219e-03,1.35037e-01,-3.40680e-01,-1.13558e-02,9.43879e-02,2.40571e-01,-5.76057e-03,1.37417e-01,1.96412e-02,3.16417e-02,7.94234e-03,-8.74279e-03,9.13107e-02,1.09303e-02,-1.11644e-01,-3.25859e-02,8.25920e-03,-1.25311e-01,-3.49061e-02,-6.16531e-03,1.51148e-02,-8.51465e-02,-6.51018e-02,-2.93754e-04,5.61443e-02,8.87765e-02,-1.37562e-02,-1.33560e-01,-5.63159e-02,
-6.29408e-01,-2.76273e-02,-2.83679e-01,-2.35580e-01,-1.93975e-02,-5.20204e-01,2.34382e-01,3.28488e-02,2.52256e-01,-4.24060e-02,-3.14227e-02,6.00045e-05,-4.21466e-01,4.74959e-02,-1.47270e-01,2.28339e-01,2.13029e-01,-2.15798e-04,9.47256e-02,-1.16424e-01,4.71793e-01,-7.41775e-02,-8.95253e-03,-2.92451e-01,-5.66751e-01,4.90864e-01,2.02160e-01,6.81082e-02,-1.56451e-02,-1.18717e-01,-9.45131e-04,1.66355e-01,-3.38533e-01,-2.11477e-01,3.22047e-01,-3.56214e-01,-6.07302e-02,-9.27952e-01,-3.10564e-01,2.07356e-01,-5.79223e-01,-6.15978e-02,3.89703e-01,1.87883e-01,-2.52224e-03,-1.51359e-02,3.20289e-02,7.69300e-02,-4.24386e-01,2.42870e-01,2.83985e-01,-5.55932e-01,-5.85237e-01,4.73951e-01,2.70709e-01,8.53176e-02,-2.12568e-01,-1.72103e-01,2.91104e-01,-2.72563e-01,1.45437e-03,5.90840e-01,-1.22205e-01,-2.29584e-01,
-2.50397e-01,2.50780e-01,-2.14075e-01,1.05849e-02,-1.24876e-01,-1.88802e-02,1.26210e-01,-1.62412e-01,2.58503e-01,-9.47871e-02,-1.57291e-01,-3.53512e-04,-1.72774e-01,7.12460e-02,-4.64855e-01,-1.97825e-02,5.91321e-03,5.09306e-05,-1.80838e-03,1.83662e-01,4.65172e-02,-1.18425e-01,1.30795e-01,5.97614e-02,9.19637e-02,-2.42620e-01,5.28438e-02,1.62788e-01,-8.92249e-03,1.05150e-01,-6.04087e-02,2.15374e-01,7.66317e-02,-4.26709e-02,-5.74467e-02,-1.13125e-01,-2.99886e-03,-2.59622e-02,-4.21970e-02,1.83429e-01,-4.05245e-01,-5.38967e-02,5.60357e-01,-3.18206e-02,5.17396e-01,2.23130e-02,7.03141e-03,-2.01972e-01,5.02479e-04,1.47811e-01,6.05126e-03,2.37972e-02,-6.69150e-01,-8.69010e-03,8.32561e-02,-7.77158e-02,-1.98556e-03,5.79094e-02,-4.83760e-02,5.61519e-03,-1.12441e-01,-6.60545e-02,4.45856e-01,-3.86952e-01,
-9.57262e-02,1.17125e-01,-4.00259e-02,-8.85125e-03,-1.47029e-03,-1.91850e-02,4.91561e-03,-2.48920e-01,9.56040e-02,-2.15356e-01,6.51539e-02,1.40530e-04,4.08391e-01,-2.05082e+00,-3.27201e-01,-1.12541e+00,6.38813e-01,1.88175e-04,-1.75028e-01,2.15874e-01,-1.16721e+00,-8.30784e-03,2.58489e-01,-1.33262e+00,1.53193e-02,1.06524e-02,-1.98676e-02,-6.00922e-01,3.55618e-01,-1.00691e+00,-7.85571e-01,-3.08533e-04,7.94608e-01,-2.97641e-01,3.75292e-02,3.67061e-02,1.00006e+00,-2.60035e-01,-5.37127e-01,-1.18491e+00,1.53864e-02,-1.13348e+00,5.33420e-01,2.34734e-01,1.34085e-01,-7.33615e-02,6.90985e-01,2.78216e-01,1.03121e+00,1.24983e-02,-1.97848e+00,3.65962e-01,8.21535e-01,-2.66731e-02,-4.87683e-02,1.87922e-01,2.44585e-02,1.51764e-01,-1.09800e+00,6.46011e-03,-2.18653e-02,1.18592e-01,-5.93564e-01,1.59153e-01,
-1.23747e-02,2.59655e-05,-7.77828e-01,-5.13851e-01,-3.61667e-02,8.17757e-02,9.88851e-01,3.17943e-03,1.72283e-01,-2.10479e-01,-1.84505e-01,-1.56597e-04,-1.82220e-06,-1.29180e+00,-5.92470e-01,-1.29232e-02,-3.10468e-01,2.38880e-04,-4.47225e-01,-1.27447e-01,5.58399e-01,-2.48510e+00,-9.60375e-01,2.76011e-01,-1.96172e+00,-4.84827e-03,-4.99946e-01,5.55490e-01,4.79995e-01,-8.74223e-03,-2.42058e+00,7.61595e-01,-6.59492e-01,7.05828e-03,-2.44964e+00,2.40799e-01,7.81708e-01,-6.48314e-06,5.18727e-02,-2.87811e-01,9.79588e-01,-7.60158e-04,-6.63548e-01,2.55716e+00,-7.26990e-01,-6.42870e-05,-3.17374e+00,7.75186e-01,2.25620e-01,4.67026e-01,-5.10557e-03,-2.59616e-01,-6.42053e-01,-3.18548e-02,1.54548e+00,-1.56471e-01,-8.51428e-01,-6.27357e-01,-1.70164e-02,-1.55744e-03,2.06281e-01,-2.36489e-02,-1.14711e-02,-3.21704e-01,
-1.45008e-04,-5.50232e-05,1.76015e-05,9.62830e-05,3.30970e-04,7.29831e-05,-1.84341e-04,1.03877e-04,4.12225e-05,-2.23284e-04,-1.16604e-04,-8.51169e-05,-2.13036e-04,1.33178e-04,-1.63998e-05,-3.11544e-05,1.73489e-04,1.29223e-04,2.99137e-05,-5.28291e-06,-3.77747e-05,-1.61350e-04,1.87998e-04,2.51235e-04,2.41907e-04,-2.02437e-04,8.00404e-05,4.90314e-05,-5.53405e-06,2.56318e-05,-4.55732e-05,-1.68260e-04,-9.30831e-05,4.35076e-05,-2.52375e-05,1.86479e-05,-5.74072e-05,-3.27912e-04,-1.36094e-04,4.28224e-04,-7.23433e-05,-2.61513e-05,-1.78807e-05,-1.09217e-04,3.52640e-05,7.16598e-05,-2.52612e-04,1.22345e-05,1.34202e-04,7.83626e-05,1.34502e-05,2.16691e-04,-2.63837e-04,1.11377e-06,-7.49115e-05,-1.20871e-04,-1.88687e-05,-1.52621e-04,-1.19975e-04,-7.74124e-06,8.60042e-05,-3.28471e-04,1.85867e-05,6.85876e-05,
-1.08490e-01,1.92381e-02,6.12830e-02,-5.80463e-01,2.57876e-01,8.21962e-02,1.99141e-01,-3.97884e-02,-5.23475e-02,4.74338e-02,-2.20766e-01,-3.62320e-04,5.92485e-02,-8.62133e-02,8.10366e-02,-6.01695e-02,-8.36941e-02,1.94322e-04,1.05683e-01,-1.84499e-01,-3.83163e-02,3.16065e-02,1.18789e-01,1.22885e-01,3.24686e-02,6.16995e-02,3.07196e-01,4.70853e-02,-1.84136e-01,4.86003e-01,-3.44241e-01,1.32874e-01,-2.69878e-02,-6.61653e-02,1.08645e-01,2.22429e-02,-1.44264e-01,-2.16892e-01,-1.83265e-01,-2.97836e-02,2.97233e-01,-3.73167e-01,1.31232e-01,1.47054e-01,4.33002e-02,-1.63523e-01,-3.95510e-02,-5.44123e-01,8.45585e-03,2.52099e-02,-1.73634e-02,-4.67361e-02,4.20368e-02,-5.76867e-01,3.10253e-02,7.61859e-02,-1.50199e-01,-9.81797e-02,1.90151e-01,3.63983e-01,-2.31972e-04,1.16013e-01,1.05743e-01,-1.52144e-01,
2.81715e-01,-3.46557e-03,-1.98764e-02,7.74686e-02,-2.41103e-01,-6.23781e-02,-1.18592e-02,6.22542e-02,1.77355e-01,-1.99456e-01,-2.64873e-01,-1.10313e-04,-6.93018e-01,5.93393e-02,-1.05157e-01,5.49597e-02,1.78935e-01,-5.14549e-05,-2.06883e-01,-1.78292e-01,3.79733e-01,3.26212e-01,-9.15536e-03,-2.53706e-01,-1.52112e-01,-8.96773e-02,4.45164e-02,4.16982e-01,-2.12671e-01,3.02391e-01,-5.79710e-02,2.94650e-01,-2.90373e-01,6.76223e-02,2.53883e-01,-5.59358e-03,-2.43428e-01,-2.44833e-01,-5.47866e-02,1.01965e-02,-4.00886e-02,-2.18727e-01,-7.24891e-02,2.31007e-01,6.30467e-02,1.60023e-01,2.35161e-01,-5.61514e-01,1.50937e-01,1.00531e-01,-1.32893e-01,7.82300e-02,-4.48003e-01,-2.33397e-02,-2.68008e-02,-1.81324e-01,-3.05699e-01,1.85431e-01,-4.60637e-01,1.98634e-02,1.35466e-01,-4.85458e-01,7.45716e-02,-2.11958e-01,
-1.29261e-01,-1.12318e-01,4.44493e-02,-1.85360e-01,6.88254e-02,3.44217e-01,-1.42325e-02,7.85496e-02,1.71866e-01,-2.15269e-01,-5.62570e-03,6.81797e-05,-2.85896e-02,-2.42687e-02,-3.75629e-01,6.76670e-03,3.31408e-01,-1.51465e-05,2.42952e-03,4.39697e-03,-8.15999e-02,1.53343e-01,-5.06807e-01,-8.53385e-02,-9.68160e-03,4.27325e-02,-7.15975e-01,1.65458e-01,-2.30407e-01,-3.82733e-01,-1.64450e-02,1.71381e-01,-1.62352e-01,-1.21459e-01,2.14621e-01,2.33532e-01,-1.63675e-02,-1.58278e-01,2.41940e-01,1.97638e-01,4.64331e-01,1.65654e-01,-3.20286e-01,-3.42243e-01,4.54992e-01,-6.46787e-03,-3.90202e-01,4.89760e-01,-1.44677e-01,-2.29303e-01,-6.41265e-02,3.00785e-01,3.53571e-02,4.42026e-01,-4.64484e-02,1.39828e-01,-3.03569e-03,1.02962e-01,-5.32513e-02,1.97866e-01,-5.71661e-01,-5.68241e-03,-5.85362e-02,-5.47729e-01,
