// Neural Network File Format by Kyle Julian, Stanford 2016
//Number of Layers,Number of Inputs,Number of Outputs,Max Layer Size,
3,4,2,500,
//Input Layer size, Hidden Layer Sizes, Output Layer Size
4,500,500,2,
//The next line is an unused flag, after that we have minimum input values, maximum input values (network inputs are truncated to fit in this range), mean input values (as well as outputs), and input (as well as output) range values 
0,
-5.0,-5.0,-3.14,-2.0,
5.0,5.0,3.14,2.0,
0.0,0.0,0.0,0.0,0.0,
10.0,10.0,6.28,4.0,1.0,
//Weights and Biases start here
-3.41168e-05,1.29070e-04,-1.50295e-04,1.84235e-04,
-9.32085e-06,1.33974e-04,9.65133e-05,9.32658e-06,
1.66670e-04,1.10307e-04,-7.27034e-05,1.06363e-07,
4.14189e-02,-1.85486e-01,3.28154e-01,-3.42104e-01,
3.29809e-01,-5.32611e-01,2.28965e+00,5.51091e-02,
-1.14808e-04,-1.17482e-04,-7.87428e-05,5.49812e-06,
-1.64844e-01,-3.43541e-01,1.92693e+00,7.07697e-02,
-1.33422e-04,1.29936e-04,-7.03861e-05,1.99361e-09,
-1.93847e-04,-1.35395e-04,-2.10729e-04,1.44540e-04,
9.27494e-05,-2.98983e-05,-2.52784e-04,-2.69034e-04,
-3.41865e-05,-2.21717e-07,9.38271e-05,-1.23157e-04,
-8.13140e-01,1.25154e-01,2.03326e+00,8.91645e-02,
-2.47173e-04,-1.28867e-04,4.35860e-05,-2.21949e-07,
1.88822e-05,3.29923e-04,-7.41352e-05,-9.70735e-05,
1.03855e+00,8.11399e-02,2.93719e+00,-2.78876e-01,
-2.41156e-04,2.24974e-05,1.25456e-04,-5.57902e-06,
-8.90912e-05,1.02763e-04,-4.87185e-06,1.53282e-04,
-1.95357e-04,-7.07435e-05,-3.09960e-04,1.53282e-04,
7.11312e-01,-5.14159e-01,-2.49250e+00,-1.95584e+00,
-1.73527e+00,7.67117e-02,-4.46079e-01,4.99254e-03,
4.84672e-01,-1.29465e-01,-1.02548e+00,-1.86782e+00,
7.83394e-05,6.01326e-05,-3.29329e-04,9.06679e-05,
9.06662e-05,1.19901e-04,-2.55151e-04,-1.29284e-04,
3.06351e-05,1.54153e-04,-1.72796e-05,6.75038e-05,
1.95835e-04,7.28682e-05,1.78470e-04,-1.74377e-04,
-1.40516e-01,-4.42963e-01,1.30764e+00,-1.09741e+00,
-1.60925e-04,1.29762e-04,-1.29609e-04,-1.55032e-04,
8.14227e-01,1.08004e-01,1.01186e+00,-8.16843e-01,
2.16880e-04,-2.16929e-04,2.68071e-05,-1.72784e-04,
1.28122e-04,-1.82592e-04,7.74282e-05,1.69588e-04,
-8.83370e-05,-1.71322e-05,-3.74724e-05,-6.14457e-05,
-1.62238e-05,-7.36476e-05,-1.12029e-04,-1.28270e-04,
-2.16933e-04,2.24974e-05,8.02465e-05,-1.63177e-04,
3.94461e-05,1.56996e-04,-9.97537e-05,2.42599e-05,
-1.00319e+00,1.35576e-01,1.34534e+00,7.65005e-01,
3.11252e-04,-1.88642e-04,7.01000e-05,3.06355e-05,
4.15778e-05,-2.47338e-04,2.47289e-04,-7.60952e-05,
-2.17648e-05,-3.04952e-05,-1.86542e-04,-6.24214e-05,
6.36656e-05,8.02465e-05,3.75629e-07,6.21953e-05,
4.29479e-01,7.00984e-01,1.25418e+00,-8.56057e-01,
-4.17039e-05,-5.97667e-05,1.27685e-04,2.61919e-04,
-2.90863e-05,1.34124e-04,2.46947e-04,4.21701e-05,
9.23083e-05,2.99997e-05,-9.83251e-05,1.33939e-04,
-1.68817e-07,2.15782e-04,1.59360e-05,-4.10982e-08,
-2.99993e-05,3.91464e-05,1.42509e-04,-1.77452e-04,
-3.91464e-05,-2.68902e-05,9.69112e-05,-1.32714e-04,
8.54925e-11,-2.20267e-05,-1.84434e-04,8.77157e-05,
-4.80721e-01,-4.93381e-01,-2.66809e+00,-1.09474e+00,
2.24286e-05,5.50472e-06,-1.17438e-04,-8.21747e-08,
-1.04344e-04,1.08515e-04,3.39248e-05,1.22726e-04,
-1.08914e-01,-2.38148e-01,-1.23084e+00,7.18330e-01,
-1.33940e-04,-1.35499e-04,2.47332e-04,-2.24974e-05,
1.40624e+00,-2.06088e-01,3.38171e-01,1.73673e+00,
-1.02190e-04,-1.80210e-04,-1.28867e-04,-1.30524e-04,
-2.99997e-05,-7.06862e-05,1.55184e-04,8.73115e-11,
2.55151e-04,1.41208e-05,-6.08657e-05,3.30487e-04,
7.57123e-05,-6.80550e-05,1.94231e-04,-1.02190e-04,
-2.43698e-05,-1.19122e-04,-1.34823e-08,2.17601e-05,
3.34330e-05,-1.40829e-05,-7.97401e-06,-7.02722e-05,
9.82443e-05,-3.41866e-05,-2.06327e-04,8.90912e-05,
-3.11452e-04,-2.15855e-04,1.02317e-04,-6.74045e-05,
-6.45315e-05,2.47168e-04,-1.55103e-04,1.94199e-04,
1.38469e-04,1.95841e-04,-1.29324e-04,2.14451e-04,
-4.39432e-05,3.74727e-05,2.82439e-05,-8.93535e-05,
1.34574e-04,-7.39023e-05,-3.62990e-05,-6.24175e-05,
-3.81464e-05,-5.48279e-05,-3.54908e-06,-1.54898e-04,
-1.55184e-04,1.57406e-07,-2.07366e-04,-1.55184e-04,
-2.45908e-04,1.91170e-04,-1.64619e-04,7.30056e-05,
-2.44011e-04,-3.13556e-05,-9.76531e-05,2.15283e-04,
7.76211e-05,1.80297e-04,-2.14363e-04,8.46140e-05,
4.48353e-01,-4.07172e-01,-1.40036e+00,9.22228e-01,
1.31335e-04,-1.09939e-04,-1.03276e-04,3.00286e-06,
-3.32448e-05,1.55141e-04,7.41851e-05,1.27367e-04,
9.10813e-02,-1.45291e-01,-3.31985e-01,-4.35513e-02,
5.47326e-05,-1.19264e-04,3.93014e-05,-4.28331e-05,
4.78537e-01,1.29365e-01,1.52926e+00,1.62089e+00,
1.81374e-04,-1.29284e-04,-1.56866e-04,1.30309e-04,
7.69306e-05,4.26621e-05,-2.17605e-05,-1.80930e-04,
6.43981e-05,-7.40781e-05,-1.19114e-04,-1.55161e-04,
-9.23034e-05,-9.65132e-05,-1.33421e-04,1.29763e-04,
1.35058e-04,-1.29131e-04,-1.81060e-04,1.88513e-04,
-6.66093e-05,-8.60717e-05,-2.06268e-04,-1.52063e-05,
6.25897e-01,7.96086e-03,1.42597e+00,-3.22882e-01,
-3.57013e-05,1.30820e-04,3.81440e-05,2.39859e-04,
-2.18010e-04,-4.23008e-05,-5.62574e-05,-1.38558e-04,
2.46967e-04,4.84746e-05,7.22951e-06,3.79303e-05,
4.15761e-05,-2.11498e-08,-1.29693e-04,-6.22521e-06,
-1.34537e-04,1.33419e-04,7.90702e-06,-1.33944e-04,
-1.29775e-04,8.33817e-07,3.14764e-05,-1.29539e-04,
-7.90713e-06,2.17603e-05,9.23222e-05,-2.06268e-04,
-2.52150e-04,6.58808e-05,-1.71331e-05,-3.78704e-05,
-6.74045e-05,-2.41135e-04,-6.85621e-05,2.23025e-05,
-1.64619e-04,-1.09942e-04,-2.82426e-05,-2.17605e-05,
-3.19026e-05,1.28767e-04,-4.90596e-05,-3.39246e-05,
8.73115e-11,-1.95357e-04,-1.02763e-04,5.77112e-05,
-1.94293e-04,6.66093e-05,-2.46354e-04,-1.29526e-04,
-7.07367e-05,1.39438e-05,-7.46384e-05,1.62101e-04,
-2.05929e-04,-1.93749e-04,-2.66706e-05,-7.07435e-05,
2.02272e-09,7.33226e-07,1.20703e-04,1.03775e-04,
-2.45522e-04,6.80552e-05,1.38279e-04,-2.14611e-04,
-2.52733e-04,1.95841e-04,-1.09185e-04,1.28867e-04,
-1.03944e+00,-2.98377e-02,-1.18199e-01,-5.05300e+00,
-7.58689e-05,-1.34823e-08,1.20262e-05,2.98137e-05,
1.30524e-04,2.23725e-04,-1.13258e-04,-1.92714e-04,
7.21877e-05,-4.16223e-05,6.35860e-05,7.39087e-05,
-1.02461e-04,-8.90600e-05,2.17822e-04,-1.95821e-04,
7.48430e-06,5.53109e-05,4.91309e-08,1.09939e-04,
6.05322e-01,3.62560e-01,-2.03915e-01,-7.11183e-01,
-3.33230e-05,1.55184e-04,-6.56051e-05,7.97366e-06,
-1.82091e-04,6.55531e-05,-5.10521e-05,-1.53467e-05,
-1.17022e-01,-2.58237e-01,1.32618e-02,-1.19564e+00,
-7.96456e-05,-1.92283e-04,2.16112e-04,7.36172e-05,
-2.84391e-05,-1.93675e-04,-6.24175e-05,3.35903e-05,
1.95840e-04,-6.68367e-05,-1.35057e-04,6.47660e-05,
-7.62150e-05,-5.60904e-05,2.17915e-05,-7.41851e-05,
1.32409e+00,-4.34153e-01,-3.44338e-01,-1.84315e+00,
3.29223e-04,1.23820e-04,-5.10519e-05,1.98547e-04,
2.47383e-10,7.38425e-05,1.79525e-04,1.82963e-04,
-1.29538e-04,-7.57651e-05,-2.43698e-05,1.93504e-04,
-3.14358e-01,-1.94602e-02,-8.86059e-01,-9.92234e-01,
1.44059e-04,1.33974e-04,-2.55151e-04,-2.26417e-04,
-4.62023e-10,1.02191e-04,-3.19026e-05,-8.21124e-05,
-8.48605e-05,-1.55161e-04,1.83197e-04,1.10595e-09,
-3.77537e-01,-2.35971e-01,-1.73882e+00,-3.80698e-01,
3.11796e-04,6.62595e-05,-5.53402e-05,-3.54058e-05,
-1.39635e-04,1.97687e-04,5.48572e-05,7.84537e-05,
1.44382e-04,1.31464e-04,1.23636e-04,2.11392e-06,
3.81441e-05,-3.78533e-05,7.97082e-05,8.73115e-11,
1.08293e-04,-1.95841e-04,-1.89779e-04,-1.54647e-04,
1.33940e-04,2.16043e-04,-4.26621e-05,-4.91395e-05,
1.55032e-04,1.23241e-04,-1.30472e-04,2.17748e-04,
-5.99377e-06,9.84693e-05,1.50294e-04,-8.02465e-05,
8.55328e-05,5.99363e-06,-1.64627e-04,1.55161e-04,
-7.20441e-05,-3.56393e-06,-7.66476e-05,1.82080e-04,
5.78424e-05,2.15627e-04,1.81489e-04,-3.10701e-04,
-4.32575e-01,-9.98410e-02,7.00128e-02,-3.57632e+00,
-3.43294e-01,5.51835e-01,-1.08405e+00,1.56899e+00,
-3.94497e-05,1.55103e-04,7.74136e-06,1.50301e-04,
1.01790e-04,-1.55184e-04,-9.82450e-05,-3.38012e-05,
-3.39245e-05,3.93914e-05,1.71429e-04,9.05080e-06,
-3.58403e-05,1.95584e-04,6.69885e-05,-1.77693e-04,
-3.47351e-01,-8.66027e-02,2.61718e+00,2.79708e+00,
1.73818e-01,-2.88820e-01,-2.05414e-01,8.30489e-01,
-2.02272e-09,-1.23157e-04,3.41712e-05,1.07544e-04,
1.54173e-04,3.41171e-05,2.50258e-04,1.88642e-04,
7.26223e-02,5.36115e-01,-5.58732e-01,1.22967e+00,
-1.01151e+00,-5.20607e-01,-1.22015e+00,-1.42874e+00,
1.07246e-06,3.39247e-05,1.23241e-04,-1.76258e-05,
-6.24251e-05,8.21919e-05,-3.41171e-05,3.18236e-07,
-1.35057e-04,1.28867e-04,3.31082e-04,1.94224e-04,
-4.81585e-01,-4.87673e-01,2.72138e+00,-7.67181e-01,
1.36424e-08,-1.13867e-06,1.06816e-05,1.68817e-07,
-2.44157e-01,-3.12096e-01,-1.10815e-01,1.11039e+00,
1.13258e-04,-1.08680e-04,6.24172e-05,-3.10497e-04,
-6.83557e-05,4.26625e-05,-1.84235e-04,-1.47540e-04,
-7.97355e-06,-3.78704e-05,-1.84569e-04,1.33424e-04,
5.28338e-05,-1.04344e-04,8.00355e-11,3.38272e-05,
-7.91404e-06,3.28640e-04,-3.26104e-05,-3.10327e-04,
-1.23356e-04,9.05132e-06,4.26623e-05,7.75057e-05,
7.97366e-06,1.29284e-04,-1.02355e-04,-1.31281e-04,
1.84528e-04,-2.50505e-04,-1.25802e-04,2.52720e-04,
6.68820e-05,-3.26860e-05,-1.33405e-04,7.12094e-05,
-1.30306e-04,6.78323e-05,1.06818e-05,-2.05151e-04,
-6.95395e-01,4.20875e-01,-2.38845e+00,1.59020e+00,
6.06775e-05,-3.29835e-04,-2.69699e-05,8.99680e-06,
-2.14830e-01,-3.07209e-02,-3.67320e-01,7.75058e-01,
-1.23581e-04,-7.47381e-05,3.41485e-04,2.47383e-10,
-9.10513e-06,2.42871e-04,-1.29397e-04,-5.61003e-05,
-9.82323e-05,2.05625e-04,-1.93335e-04,-1.10307e-04,
-7.36759e-05,3.39191e-05,6.69584e-05,-7.52576e-05,
-6.24184e-05,-1.69823e-04,-1.33422e-04,1.26826e-04,
-7.90667e-06,-1.20897e-04,-5.82617e-05,-7.20157e-06,
1.33939e-04,5.82617e-05,-3.34356e-05,1.19264e-04,
-1.22726e-04,-1.84610e-04,-1.09184e-04,1.29702e-04,
-7.60355e-02,-1.50866e-01,-7.66752e-01,6.48989e-01,
-2.17603e-05,-1.33405e-04,-9.65135e-05,-3.11651e-04,
-5.45768e-02,5.31563e-01,9.16747e-01,1.22285e+00,
1.03887e-04,8.57853e-05,-7.11589e-09,-2.44936e-04,
1.29616e-04,6.24214e-05,7.90713e-06,-1.35289e-04,
-3.71296e-06,5.85407e-05,-9.18610e-05,1.52063e-05,
-2.61199e-02,-1.21785e-01,-2.68451e-01,8.49498e-02,
1.55184e-04,2.02479e-04,1.04011e-04,1.38441e-04,
1.53576e-05,-4.90835e-05,9.49076e-05,1.10384e-04,
4.35859e-05,-1.35416e-04,2.17626e-05,6.63461e-05,
7.57534e-05,1.76470e-04,7.34372e-05,-2.17915e-05,
7.61045e-05,-3.10423e-04,-9.23950e-05,1.95830e-04,
-3.39251e-05,-9.23089e-05,-3.09443e-04,2.14162e-04,
1.29762e-04,9.87453e-05,7.66678e-05,-5.10519e-05,
-2.20781e-01,-7.87127e-01,3.02724e+00,1.76062e+00,
1.94701e-04,-7.24398e-05,6.36656e-05,9.68293e-05,
-6.82543e-05,1.33389e-04,-1.55141e-04,-1.29762e-04,
2.53785e-08,1.32989e-04,1.80821e-04,1.91717e-04,
5.27830e-01,2.08734e-01,-7.95767e-01,1.32269e+00,
-2.34306e-04,4.23010e-05,-3.67969e-05,1.84528e-04,
1.33423e-04,2.25533e-05,-3.11547e-04,2.25533e-05,
-3.64133e-06,8.49594e-05,1.33419e-04,-9.11669e-05,
-9.18610e-05,2.17915e-05,1.95841e-04,-2.47409e-04,
4.05258e-02,1.07656e+00,2.64470e-01,6.30358e-02,
-1.82092e-04,1.27714e-04,1.92619e-04,-1.47529e-04,
-2.46960e-04,7.55830e-05,-1.55183e-04,-1.30097e-04,
-1.33424e-04,1.92619e-04,8.90912e-05,1.33389e-04,
-1.98317e-01,6.03310e-02,7.77075e-01,-1.46164e+00,
-3.10399e-04,-3.13556e-05,-3.64891e-05,5.79650e-05,
6.71580e-01,4.88872e-01,-2.48219e+00,-3.72568e-01,
-7.11589e-09,6.09274e-05,-8.99674e-06,2.25597e-05,
6.18766e-05,-2.42499e-04,7.72757e-05,-1.67886e-04,
1.91755e-01,1.62115e+00,-8.38166e-01,-3.68731e-01,
-5.48390e-05,1.80664e-04,3.06358e-05,1.06649e-04,
1.33414e-04,-7.97401e-06,-1.99177e-04,-9.23950e-05,
1.84235e-04,-1.35446e-04,3.85439e-05,-2.55151e-04,
4.37142e-05,-1.31385e-04,-2.18190e-05,-1.93613e-04,
1.81600e-04,-1.54601e-05,-1.33424e-04,1.48448e-04,
2.79836e-01,5.33280e-01,6.26177e-01,2.98978e-02,
8.00355e-11,3.29797e-04,-6.24322e-05,8.97562e-08,
9.13251e-02,-3.14952e-01,-8.89931e-01,-1.47586e+00,
3.11349e-04,-8.48585e-05,-1.09217e-04,9.62830e-05,
-7.97366e-06,-7.56099e-05,1.35321e-04,3.86317e-08,
-2.81617e-01,-8.52682e-02,6.25243e-03,1.58288e+00,
4.93078e-05,-1.28867e-04,-2.46979e-05,3.75613e-05,
3.39248e-05,3.12471e-04,-2.55151e-04,-3.13561e-05,
1.05878e-04,-8.02465e-05,1.33389e-04,-1.55184e-04,
3.78271e-01,3.14601e-01,-2.70741e+00,-2.01535e-02,
-6.26048e-05,1.02763e-04,-1.04794e-04,-4.90595e-05,
-6.24179e-05,3.41714e-05,8.02465e-05,-3.06358e-05,
7.26989e-01,-1.36457e-01,6.53660e-01,1.18696e+00,
-3.11348e-04,1.28867e-04,1.51604e-04,-2.46680e-04,
-2.54254e-05,-1.29702e-04,1.30110e-04,-6.66093e-05,
9.44968e-01,3.40125e-01,-1.23248e+00,-1.21226e+00,
1.08661e-04,5.25630e-05,-7.96576e-05,-1.74487e-04,
8.93535e-05,-1.67885e-04,-3.89001e-05,4.91397e-05,
-1.41208e-05,-1.02317e-04,-4.34668e-05,-3.26172e-05,
1.38279e-04,-1.06817e-05,-1.47421e-05,2.14370e-04,
-1.10131e+00,2.62528e-01,-1.46444e-02,1.21805e+00,
-6.75035e-05,7.77034e-05,-3.10685e-04,1.37200e-04,
1.16828e+00,-2.02724e-01,-3.85703e-01,1.38437e-01,
2.43906e-05,-1.94129e-04,-2.52659e-04,-6.43982e-05,
-1.78871e-05,-1.03672e-04,6.53430e-05,-2.18550e-04,
1.24329e-04,6.24184e-05,-7.60747e-05,-1.50286e-04,
1.33192e-04,-1.94314e-04,1.95821e-04,-2.53785e-08,
-9.33966e-05,1.22726e-04,2.41129e-04,6.24214e-05,
-9.10513e-06,-2.09928e-04,6.36656e-05,3.83347e-05,
-8.33701e-07,1.39618e-04,-7.06305e-05,3.29411e-04,
-7.07367e-05,-1.02317e-04,2.41130e-04,7.13118e-06,
-2.37129e-05,4.98635e-05,-9.30130e-05,-1.23634e-04,
-7.73273e-05,-9.07293e-05,1.12777e-10,-2.86487e-05,
-4.04111e-01,-1.31001e-01,-2.85304e-01,-3.20268e+00,
-1.75500e-04,4.15775e-05,-9.16110e-05,-9.51203e-05,
-7.58379e-05,5.48580e-05,2.20294e-04,-3.17494e-07,
-8.40451e-05,1.38558e-04,-2.14595e-04,-1.23241e-04,
6.63197e-02,7.37120e-01,-5.52120e-02,-1.83775e-01,
-1.19530e-01,2.94566e-01,-4.65322e-01,1.41485e-01,
1.82656e-01,-4.13625e-01,-1.81561e+00,-1.87668e+00,
-2.98102e-01,-1.68787e-01,-7.34025e-01,-3.26449e+00,
2.26650e-01,4.93310e-01,1.01167e-01,-1.50110e+00,
1.29818e-04,-2.42871e-04,-2.17210e-04,9.24653e-05,
-7.61102e-05,6.66093e-05,-1.02317e-04,-8.63454e-05,
-2.37562e-01,7.56279e-01,-1.48146e+00,5.33519e-01,
4.51692e-01,-7.85176e-03,-7.79141e-01,2.08442e+00,
-7.00703e-01,1.09797e-01,-1.01293e+00,6.00913e-01,
4.05000e-01,-2.83399e-01,1.91425e-01,2.19513e+00,
-9.64365e-01,-3.96931e-02,1.47070e-01,-1.06436e+00,
-8.48585e-05,1.22140e-04,9.18610e-05,1.39438e-05,
3.22796e-05,-1.50294e-04,3.41864e-05,6.87353e-05,
-4.78969e-05,-6.25169e-05,-7.63715e-05,4.39422e-05,
7.71654e-01,5.12128e-01,7.40214e-01,-8.26784e-01,
7.89622e-03,-1.93544e+00,4.51491e-01,7.48852e-01,
-2.21282e-01,9.11138e-02,6.41553e-01,-1.10843e-01,
-2.33295e-01,6.41669e-01,3.54051e+00,-9.56934e-01,
4.99509e-01,3.38653e-01,-1.10073e+00,-2.44847e-01,
1.63761e-01,6.87510e-01,-2.02055e+00,2.61058e+00,
6.24703e-05,1.59342e-04,-2.46950e-04,9.62268e-05,
-3.55125e-01,3.39337e-01,2.20013e+00,-8.05067e-01,
1.95912e-04,-1.37596e-04,-4.93078e-05,-5.28291e-06,
6.06775e-05,-6.36656e-05,-2.23569e-04,1.26452e-04,
-1.53070e-05,-1.29756e-04,1.52397e-05,-2.13608e-08,
-6.18368e-06,5.86409e-05,1.33192e-04,-1.95840e-04,
-1.55183e-04,1.02763e-04,2.47064e-04,3.21925e-05,
8.00355e-11,-7.39542e-05,-5.71850e-05,-8.55851e-05,
2.06327e-04,-2.69699e-05,-1.63286e-04,1.26067e-04,
-6.10708e-01,-3.47345e-01,-8.77103e-02,4.72492e-01,
6.15148e-05,1.94052e-04,-1.51604e-04,-5.82617e-05,
-2.12474e-04,1.01868e-05,3.45619e-05,-2.77355e-04,
-2.35415e-01,-1.21222e+00,3.53710e-01,-1.72589e+00,
1.84235e-04,-6.45316e-05,-7.97355e-06,4.53371e-05,
-3.29652e-04,-1.05979e-04,-1.30818e-04,2.17915e-05,
6.69909e-02,2.50117e-01,1.32108e+00,4.95469e-01,
3.29778e-04,-1.82092e-04,-8.48537e-05,-4.98635e-05,
7.42039e-05,-7.27596e-11,6.24322e-05,-1.35914e-04,
4.17656e-01,6.04290e-01,3.77328e-01,-8.47894e-01,
-3.12864e-01,-1.41634e+00,-3.02821e-01,1.22879e+00,
1.91143e-02,-6.83686e-01,-6.00470e-01,4.22108e+00,
1.34124e-04,-1.94071e-04,1.88769e-04,-1.29702e-04,
8.02756e-08,1.41208e-05,-2.02272e-09,-6.83557e-05,
-7.47302e-05,-4.98635e-05,6.36656e-05,-3.11950e-04,
1.55161e-04,3.26860e-05,2.15179e-04,-7.97401e-06,
2.54254e-05,7.57073e-05,-1.71322e-05,8.48585e-05,
6.53064e-01,-5.91727e-01,-2.94486e+00,-1.55659e+00,
-6.61394e-01,1.01167e+00,3.83299e-01,-2.80072e-01,
2.04210e-05,1.92804e-04,2.06326e-04,9.06774e-05,
-2.46880e-04,1.28605e-04,3.30182e-04,-1.04612e-04,
7.35682e-05,-3.39248e-05,-1.50342e-04,2.50201e-04,
-1.38469e-04,1.38558e-04,3.79647e-04,1.01403e-04,
2.17608e-05,-9.75468e-05,-1.95835e-04,2.37298e-04,
-7.70965e-05,7.61482e-05,1.71351e-05,6.69005e-05,
-1.54173e-04,1.80713e-04,-1.09194e-04,5.21448e-05,
-7.39457e-05,-8.00296e-05,1.80942e-04,-8.21149e-06,
-1.66521e-04,-1.39430e-05,-1.94304e-04,-9.32981e-05,
-6.27817e-05,-1.80744e-04,3.75202e-05,2.63093e-04,
-4.20249e-05,-7.03572e-05,-1.94403e-04,8.02465e-05,
4.71736e-06,-2.15795e-04,-2.99109e-05,1.33421e-04,
1.15333e-04,1.07246e-06,-2.17605e-05,1.23634e-04,
1.56866e-01,1.00534e+00,-3.74124e+00,1.90544e+00,
4.86241e-01,4.26815e-01,9.37935e-01,-1.23381e-01,
-1.84674e+00,-2.20770e-01,-1.92059e-01,1.63018e-01,
-4.98635e-05,1.35416e-04,5.93619e-05,4.89514e-05,
2.06319e-04,-3.41173e-05,-8.49594e-05,-1.72869e-05,
1.42242e-04,-7.80649e-05,-2.15582e-04,-3.29662e-04,
-1.83198e-04,-7.07367e-05,-1.47540e-04,1.95912e-04,
-1.06857e+00,-1.48185e-01,-2.04086e+00,5.50356e-01,
2.95342e-01,-7.39068e-01,-1.63937e+00,-2.19280e+00,
1.02763e-04,6.72256e-05,-2.50214e-04,1.95357e-04,
2.18568e-05,1.33192e-04,-7.47563e-05,-1.43309e-04,
-1.53273e-02,-3.81433e-01,-1.87934e+00,-6.65578e-01,
1.20261e-05,1.01701e-05,1.29536e-04,-2.46776e-04,
7.51551e-05,-2.24974e-05,-2.21520e-05,8.24293e-08,
2.11392e-06,7.07448e-05,1.06298e-04,-1.35395e-04,
-1.29284e-04,-1.34201e-04,2.46458e-04,-4.40774e-05,
2.38847e-04,1.30818e-04,-7.40892e-05,-5.48580e-05,
2.90863e-05,-1.09217e-04,2.50215e-04,-6.07657e-05,
1.33301e-04,-6.96246e-05,2.41535e-04,-1.72796e-05,
1.35506e-04,-3.41865e-05,4.15779e-05,1.67486e-04,
1.95821e-04,-1.33414e-04,-7.27596e-12,7.07721e-06,
4.56996e-01,1.35598e-01,-1.90769e-02,-2.57749e+00,
-3.17330e-05,6.68367e-05,-1.87967e-04,1.31762e-04,
1.22726e-04,5.28338e-05,1.95912e-04,-1.82475e-04,
1.17821e-04,-7.55627e-05,1.03908e-07,-1.84528e-04,
3.56756e-01,-1.83831e-01,5.65480e-01,-2.65653e-01,
-6.24251e-05,-2.47136e-04,1.55182e-04,6.24214e-05,
-2.15581e-04,-4.20514e-05,6.82105e-05,1.66956e-04,
-2.47195e-04,1.72869e-05,-4.29281e-10,-1.17482e-04,
-6.44284e-01,-2.79277e-01,-2.41659e+00,7.91160e-01,
-2.48502e-01,-4.99142e-01,1.55510e+00,1.81900e+00,
9.73023e-09,-1.29810e-04,5.16504e-05,-1.33424e-04,
-2.18279e-11,-3.88997e-05,-7.90655e-06,7.69363e-05,
2.52136e-04,1.33001e-04,-4.84774e-05,-2.45480e-04,
4.23011e-05,6.26048e-05,7.65672e-05,5.17770e-05,
1.43724e-01,-2.10168e-01,-2.84176e-01,-1.32825e-01,
1.43511e+00,-1.08844e-01,-1.50716e+00,-1.87197e-01,
-1.55782e-01,-3.99932e-01,-3.52210e+00,-7.61363e-01,
1.30818e-04,-1.72451e-05,2.23078e-05,1.98992e-04,
-6.60514e-02,-6.00740e-02,2.32651e-01,-1.86826e-01,
-4.39428e-05,-7.50977e-05,2.46880e-04,2.87003e-04,
3.06750e-05,-3.67641e-06,1.68817e-07,1.36052e-04,
8.96165e-07,-2.47106e-04,1.30441e-04,1.33414e-04,
1.59493e-01,7.20597e-01,4.26672e-01,1.94030e+00,
-9.77515e-05,-7.61102e-05,-7.18093e-05,6.27700e-05,
4.60876e-01,6.64290e-01,1.85661e+00,2.45518e+00,
2.17603e-05,-2.64994e-05,1.83198e-04,2.12189e-04,
-9.14336e-01,-5.61229e-01,2.67179e-01,2.51643e-01,
-2.15684e-04,1.33301e-04,9.38271e-05,1.29284e-04,
1.24423e+00,-1.64790e-01,-2.42696e-01,2.67125e-01,
4.81461e-05,5.21449e-05,2.43441e-05,1.33809e-04,
1.91544e+00,-3.05404e-01,1.09882e+00,5.27162e-01,
1.31883e-04,-2.00137e-04,1.24664e-04,1.66521e-04,
1.87299e+00,1.21018e-01,5.72101e-02,6.89204e-01,
-4.23006e-05,1.87887e-04,-7.63252e-05,-1.93595e-04,
-3.56901e-01,1.88530e-02,-6.94745e-01,-7.38210e-01,
-9.79800e-05,-7.07448e-05,-6.89898e-05,6.24172e-05,
4.39432e-05,1.35395e-04,3.11427e-04,-2.17603e-05,
6.34440e-01,5.27996e-02,-2.71592e+00,1.25905e-01,
-5.01285e-01,1.65015e-01,1.28742e-01,1.41193e+00,
-2.83810e-01,1.36106e-02,-6.03821e-01,3.85071e-01,
1.38753e-08,2.13064e-04,3.41173e-05,-7.56928e-05,
-2.19685e-05,-1.55178e-04,-1.19122e-04,2.13346e-04,
-1.78203e-04,1.95357e-04,-1.94910e-04,2.17605e-05,
-1.75063e+00,-1.40506e-01,3.30432e-01,2.98102e+00,
-7.07435e-05,9.45874e-11,-1.08515e-04,-6.24184e-05,
-1.48448e-04,-6.24195e-05,-1.24629e-04,2.11392e-06,
-1.23327e-08,2.16629e-04,1.53852e-04,7.90667e-06,
-3.29230e-04,-1.97280e-04,1.55184e-04,-2.18709e-05,
-1.35396e-04,-7.58871e-05,-6.35940e-05,-1.32500e-04,
4.90595e-05,-1.02317e-04,2.20193e-05,1.55131e-04,
-1.74377e-04,5.79650e-05,9.68670e-05,7.22968e-06,
1.06772e-05,-9.70735e-05,7.62713e-05,-7.03861e-05,
-2.15805e-04,-2.01547e-05,-2.54254e-05,-1.35506e-04,
-3.10931e-04,1.27955e-04,1.49682e-04,1.70306e-04,
-3.75300e-02,4.53685e-01,-9.28815e-01,-1.52156e+00,
-2.44583e-01,-1.56030e-01,3.94732e-01,3.24952e-01,
-3.15407e-01,-7.27852e-03,6.49093e-01,-1.17032e-01,
-7.46789e-05,2.62247e-05,1.29585e-04,-1.23157e-04,
-8.69820e-05,7.38333e-05,6.50241e-05,-1.29750e-04,
-6.50241e-05,1.19115e-04,9.84692e-05,-6.76255e-05,
1.10595e-09,1.29192e-04,1.93321e-04,3.13556e-05,
-1.19122e-04,-1.23524e-04,4.94184e-05,1.45283e-04,
1.27362e-01,-3.13646e-01,1.12620e+00,4.24538e-01,
6.07311e-01,3.31105e-01,-1.92990e+00,-1.65464e+00,
2.81975e+00,1.03140e-01,1.21904e-01,-8.24083e-01,
-3.27803e-01,-3.64348e-01,-1.98645e+00,-6.89035e-01,
1.53237e-01,5.43922e-02,-1.70337e-01,-4.01090e+00,
1.10307e-04,-2.72701e-04,-3.12777e-04,-6.14921e-05,
5.60558e-01,1.55877e-01,1.64476e+00,-1.18308e+00,
-7.41570e-05,1.19122e-04,3.23499e-05,4.86652e-08,
3.11366e-04,-7.07367e-05,8.59577e-05,5.10578e-05,
-1.79799e-01,8.04853e-02,-3.18502e-01,-2.60216e-01,
-5.99667e-01,-1.42043e-01,4.40983e-02,2.46962e+00,
-9.18610e-05,1.45466e-04,-1.83197e-04,-1.81383e-04,
-3.11290e-04,3.94461e-05,-2.19118e-04,1.10330e-04,
2.15814e-04,-8.61906e-05,-1.33359e-04,2.41130e-04,
2.06846e-06,2.41122e-04,-1.44382e-04,-1.56866e-04,
5.32750e-01,5.66390e-01,-1.89167e+00,2.20148e+00,
-3.39252e-05,4.28331e-05,7.72733e-05,-9.68784e-05,
-1.39665e-04,2.19685e-05,-1.28867e-04,1.55184e-04,
9.23059e-05,-1.66956e-04,8.07212e-05,-6.86888e-05,
-1.19841e-04,-1.29284e-04,3.29898e-04,3.56408e-05,
-2.18103e-01,6.94677e-01,2.04484e+00,-3.21618e+00,
3.29520e-04,-2.43698e-05,-1.56866e-04,-4.98635e-05,
1.14802e-04,2.17915e-05,-1.75819e-04,-1.34327e-04,
-1.30056e-04,1.51604e-04,3.04956e-05,-1.95180e-04,
2.43088e-04,-2.17615e-05,-1.28983e-04,2.50505e-04,
6.28797e-01,3.73614e-01,-9.38135e-01,3.47680e+00,
-8.21747e-08,-4.71736e-06,-2.50505e-04,-1.67886e-04,
-7.46769e-05,1.52063e-05,-7.50977e-05,-7.58670e-05,
3.00286e-06,-7.72873e-05,7.34661e-05,-4.00178e-11,
-5.57902e-06,-2.12037e-04,-1.81573e-04,8.40451e-05,
-1.38753e-08,1.94584e-04,-6.59258e-05,1.72113e-05,
-1.35057e-04,-1.98632e-04,-8.33200e-05,7.50977e-05,
-6.33314e-05,-8.24962e-05,8.33200e-05,-1.26932e-04,
1.59399e+00,-3.61254e-01,-1.44143e+00,-8.80995e-01,
1.22694e-04,-4.23004e-05,-7.07367e-05,-3.62990e-05,
2.15942e-04,-8.64734e-06,-8.48585e-05,-1.69486e-04,
-7.06862e-05,6.24251e-05,-1.95841e-04,1.81687e-04,
-5.02960e-01,-2.33304e-01,-7.91239e-01,3.31601e-01,
2.22823e-05,-1.10307e-04,6.08197e-05,2.18190e-05,
-2.69699e-05,5.47869e-05,-2.17626e-05,7.57860e-05,
5.84564e-01,2.25374e+00,-4.26288e-01,-7.83454e-01,
6.13494e-01,8.44240e-01,2.72616e+00,-1.70818e+00,
-2.17608e-05,-7.90667e-06,7.35870e-05,-1.30818e-04,
2.25743e-01,2.92933e-01,7.75269e-01,-1.55293e+00,
-3.87824e-01,-2.97761e-01,1.08089e+00,3.27363e-01,
-2.39813e-02,-3.84988e-01,-1.48067e+00,9.81277e-01,
6.24454e-05,-2.47214e-04,1.06336e-04,-1.38693e-04,
-9.78498e-02,3.58093e-01,-1.26490e+00,-8.26203e-01,
-3.30250e-01,8.56261e-01,7.30240e-01,1.60597e+00,
-3.29762e-04,2.03662e-04,6.45316e-05,-1.09739e-04,
1.11607e+00,-2.97185e-01,-1.52311e+00,-7.95831e-01,
-2.71764e-05,-2.16166e-04,-3.06357e-05,1.81248e-04,
-7.50856e-02,-5.61038e-01,1.26172e+00,4.72919e-01,
-4.48515e-01,4.14334e-01,2.51824e+00,-2.05885e-01,
5.97218e-07,-4.53371e-05,2.41135e-04,4.15775e-05,
-2.46893e-04,9.77174e-05,2.06327e-04,1.07398e-04,
4.99141e-01,-5.00473e-01,7.37462e-01,-1.15282e+00,
1.38840e+00,5.91259e-01,1.22044e+00,-1.28306e-01,
-9.82450e-05,2.39841e-05,7.77476e-05,7.77003e-05,
3.64133e-06,-6.24454e-05,-1.07244e-06,-1.71488e-04,
-8.46485e-08,2.18709e-05,1.92619e-04,-3.71296e-06,
-1.16196e+00,-1.79006e-01,7.23849e-01,-3.10318e-01,
7.75515e-05,7.56469e-05,-1.55184e-04,1.17821e-04,
3.04952e-05,-6.24454e-05,-2.44599e-04,1.06852e-04,
6.04091e-01,1.22788e-02,1.89909e+00,1.01826e+00,
1.55452e-04,-9.83249e-05,1.34823e-08,2.43698e-05,
2.39841e-05,1.48595e-04,-1.95841e-04,1.35321e-04,
4.77376e-08,1.92913e-04,6.24184e-05,1.20245e-05,
6.25169e-05,-1.30057e-04,-3.11707e-04,4.39429e-05,
-1.84235e-04,1.23636e-04,-1.27715e-04,-1.20509e-04,
-1.47529e-04,1.55178e-04,1.33669e-04,-1.63760e-07,
-1.71331e-05,1.09217e-04,6.45220e-05,5.28291e-06,
-9.05155e-06,-1.95821e-04,-1.55103e-04,1.55172e-04,
-7.40721e-05,-6.88374e-05,-6.82106e-05,1.66521e-04,
-8.70365e-01,4.19021e-01,2.30562e+00,-1.19869e+00,
-1.17722e-04,2.63801e-04,1.02968e-07,6.45219e-05,
-7.18377e-03,-9.32461e-01,-2.82304e-01,-8.08392e-02,
2.55151e-04,-1.95841e-04,9.94566e-05,-1.02763e-04,
-7.34518e-05,1.84234e-04,-2.55612e-05,-7.05173e-05,
6.26048e-05,-5.60904e-05,-7.80649e-05,1.78871e-05,
6.32293e-06,-7.40291e-05,1.50275e-04,1.95840e-04,
-1.36819e-04,6.32382e-06,-8.55331e-05,-1.94065e-04,
-7.90713e-06,7.84538e-05,1.52746e-04,-3.89004e-05,
-2.14528e-04,1.68817e-07,-3.56390e-06,-9.29158e-05,
1.35321e-04,-2.14042e-04,9.05120e-06,-3.75220e-05,
-1.35321e-04,5.36147e-08,-1.95357e-04,9.06460e-05,
-1.58338e-05,1.27483e-04,-1.37596e-04,3.31475e-04,
-2.96984e-01,2.40824e-01,5.25421e-01,5.18224e-01,
4.17583e-02,-4.84359e-02,7.91360e-01,3.52256e+00,
-6.80012e-01,1.22727e+00,3.79988e-01,1.84347e+00,
-9.74478e-09,-4.84771e-05,1.95912e-04,4.28331e-05,
-2.17626e-05,1.30029e-04,1.40829e-05,-1.08686e-04,
-1.32620e-04,-1.54173e-04,7.60341e-05,2.50216e-04,
-6.05697e-05,-3.94498e-05,6.25169e-05,1.95840e-04,
7.27132e-05,6.76435e-05,-2.24974e-05,2.33997e-04,
3.11869e-04,3.13412e-04,-1.95835e-04,1.22694e-04,
-2.28576e-01,2.40102e-01,1.86364e+00,1.20441e+00,
1.55452e-04,-1.55178e-04,1.02191e-04,1.07246e-06,
9.34050e-05,-4.39085e-05,1.39438e-05,3.41714e-05,
-6.24703e-05,-1.95840e-04,1.55181e-04,-1.19841e-04,
-1.22106e-01,7.75082e-01,-1.90887e+00,1.06823e+00,
-1.02191e-04,6.62793e-05,3.04955e-05,8.88991e-05,
2.17768e-05,2.42548e-04,-1.53689e-04,9.18610e-05,
-1.06110e-04,7.46656e-05,1.08687e-04,-3.10552e-04,
2.33539e-05,-8.55328e-05,1.01867e-05,-1.29702e-04,
-9.94199e-06,1.42588e-04,-6.03860e-05,-7.63305e-05,
-3.19579e-01,
-1.22287e-01,
-5.44011e-01,
-6.84960e-02,
-5.56281e+00,
-9.24943e-01,
-6.83455e+00,
-8.41133e-01,
-2.62148e-02,
-3.06938e-01,
-1.90346e-02,
-7.70530e+00,
-1.32818e-01,
-9.53141e-02,
-1.13798e+01,
-6.60919e-01,
-2.70778e-02,
-6.55109e-01,
-4.11485e+00,
-6.44372e+00,
-2.19383e+00,
-3.50791e-01,
-3.23172e-01,
-3.40739e-01,
-1.45601e+00,
-1.99319e+00,
-2.79049e-01,
-1.20043e+00,
-2.62927e+00,
-9.09351e-03,
-1.04368e+00,
-6.34113e-01,
-4.64584e-01,
-6.47232e-02,
1.24260e+00,
-3.27570e-01,
-8.14509e-03,
-5.38157e-03,
-2.43925e-01,
-2.28622e+00,
-1.24883e+00,
-5.04732e-01,
-1.01856e-01,
-9.38475e-02,
-7.27369e-01,
-9.30815e-01,
-6.35608e-01,
-7.27168e+00,
-1.04119e+00,
-3.12574e-01,
-2.78131e+00,
-2.06467e-02,
-8.43921e+00,
-1.37511e-02,
-1.31813e-01,
-8.42336e-01,
-4.24740e-02,
-1.42800e+00,
-2.24217e-01,
-2.45807e-01,
-7.04191e-02,
-3.74932e-02,
-2.91180e-01,
-1.27490e-02,
-4.58854e-02,
-6.29267e-01,
-2.54489e-01,
-1.08446e-01,
-8.53892e-02,
-3.87558e-01,
-2.76549e+00,
-1.96929e-01,
-4.76500e-01,
-4.11396e-01,
-6.22270e-01,
-3.04247e+00,
-4.32460e-01,
-6.82836e-02,
-4.15709e-02,
-2.43941e-01,
-2.42953e-02,
-1.35322e+00,
-4.22100e+00,
-1.99684e+00,
-1.06828e+00,
-3.15247e-01,
-7.88500e-02,
-2.20932e-02,
-1.09039e+00,
-1.06284e+00,
-2.20889e-02,
-2.11077e-01,
-1.17128e-01,
-5.57332e-01,
-1.37032e-01,
-1.56098e-01,
-4.73956e-01,
-8.61362e-02,
-8.12975e-01,
-8.05948e-01,
-6.70930e-02,
-1.02399e+01,
-2.49046e-02,
-1.33857e+00,
-1.36241e-01,
-5.26015e-01,
-2.78000e-01,
-2.45079e+00,
-1.77371e-01,
-6.00122e-02,
-1.85976e+00,
-4.15777e-01,
-2.06825e-01,
-6.80543e-02,
-1.86314e-01,
-4.23876e+00,
-2.45816e-01,
-3.27233e-01,
-7.29094e-03,
-2.58516e+00,
-1.44780e-01,
-4.40019e-01,
-3.02726e-02,
-3.56961e+00,
-1.16267e+00,
-1.53519e-01,
-5.10786e-01,
-5.97556e-01,
-7.29689e-01,
-2.84159e-01,
-9.52744e-02,
-3.18288e-01,
-1.08579e+00,
-1.54358e-01,
-8.85680e-02,
-4.66477e+00,
-2.75988e+00,
-6.21260e-01,
-1.13076e+00,
-2.94274e-01,
-5.91457e-01,
-4.40244e+00,
-1.07498e+00,
-8.61905e-03,
-2.04192e-01,
-1.83350e+00,
-5.47277e+00,
-1.38030e-01,
-1.09495e-01,
-3.36109e-01,
-7.52705e+00,
-3.18102e-01,
-1.02697e+00,
-7.13240e-02,
-7.98400e-01,
-1.02058e+00,
-2.02751e-01,
-3.44031e-01,
-2.83618e-01,
-5.55487e-03,
-4.08084e-01,
-1.58685e-02,
-1.20858e-01,
-3.31043e+00,
-1.30759e-01,
-8.46775e-01,
-8.70460e-01,
-2.34615e-02,
-6.98532e-01,
-1.68212e+00,
-6.80881e-01,
-1.00688e+00,
-1.32490e-01,
-8.29164e-02,
-8.62954e-01,
-2.86906e-02,
-4.57794e-01,
-2.63568e-01,
-2.26135e-01,
-1.13756e+00,
-2.24379e-01,
-7.42622e-02,
-1.38324e-01,
-1.20684e-01,
-1.04255e-01,
-1.12142e-01,
-4.65241e-01,
-2.63410e-01,
-9.08019e+00,
-1.65230e-01,
-2.37784e-01,
-3.37209e-02,
-2.36190e+00,
-3.04459e-01,
-2.22767e-02,
-1.49055e-02,
-1.95061e-02,
-3.62568e+00,
-2.59959e-01,
-2.78663e-02,
-6.18117e-02,
-1.89241e+00,
-4.66206e-01,
-7.74712e+00,
-4.45248e-01,
-7.29806e-01,
-5.98880e+00,
-1.48667e-01,
-8.80010e-02,
-1.20678e-01,
-1.40752e+00,
-9.73112e-02,
-3.37091e+00,
-1.17246e-02,
-2.14248e+00,
-7.40887e-01,
-3.84930e-01,
9.65981e-01,
-3.47972e-01,
-6.17544e-01,
-1.55054e-01,
-9.13253e+00,
-2.33768e-02,
-1.54350e-02,
-1.65679e+00,
-7.86897e-02,
-1.85639e-01,
-3.59489e-01,
-1.38223e+00,
-5.48911e-01,
-1.57759e-01,
-3.35780e-01,
-2.38955e+00,
-3.57620e-01,
-4.07576e+00,
-1.24451e-01,
-7.26846e-02,
-5.19546e-01,
-5.06949e-02,
-1.93155e-02,
-5.49449e-01,
-3.51120e-01,
-8.65012e-02,
-7.12038e-01,
-5.50597e-02,
-5.03671e+00,
-6.87779e-01,
-6.34647e-02,
-9.57920e-02,
8.65426e-01,
-5.90687e-01,
-2.22591e+00,
-4.65937e+00,
-2.36789e+00,
-1.51475e-02,
-1.79461e-01,
-3.34388e+00,
-4.30068e+00,
7.08278e-01,
-3.29036e+00,
-4.44870e+00,
-4.54352e-02,
-4.42128e-01,
-1.14221e-01,
-3.89184e+00,
-9.25060e+00,
5.98373e-01,
-1.10684e+01,
3.41594e-01,
-6.24328e+00,
-2.89246e-01,
-3.18193e+00,
-1.27183e-01,
-4.76437e-02,
-7.46576e-01,
-2.10071e-02,
-6.09111e-01,
-4.38479e-01,
-3.65723e-01,
-2.10227e+00,
-2.24396e-02,
-8.20684e-01,
-5.61743e+00,
-3.70538e-01,
-2.62222e-01,
-2.34318e+00,
-2.28587e-02,
-4.66359e-01,
-2.49406e+00,
-6.05187e+00,
-9.73879e+00,
-1.22077e-02,
-8.04570e-02,
-1.03740e+00,
-4.36290e-01,
-8.16080e-01,
-7.80162e+00,
-4.68110e+00,
-3.40486e-01,
-1.05890e-01,
-6.28164e-01,
-3.33870e-01,
-1.09451e-01,
-2.37051e-02,
-4.03281e-01,
-2.29234e-02,
-9.13157e-01,
-8.11034e-02,
-2.12615e+00,
-3.94490e-01,
-1.09329e-02,
-1.20025e+01,
-1.79145e+00,
-8.34019e+00,
-1.56283e-01,
-4.22884e-02,
-1.01512e-01,
-2.28171e-02,
-9.48923e+00,
-6.58305e+00,
-1.21877e-01,
-1.29888e-01,
-4.54882e+00,
-1.25942e-01,
-1.15602e-01,
-8.77823e-02,
-5.04051e-01,
-4.69212e-02,
-1.53431e+00,
-1.55543e-01,
-7.10886e-01,
-6.47029e-01,
-1.55183e+00,
-1.08953e+00,
-1.29016e-01,
-7.12712e-02,
2.64971e-01,
-2.69063e-02,
-5.85489e-01,
-7.85063e-01,
-7.13360e+00,
-1.70023e+00,
-1.47731e-01,
-1.92810e-02,
-6.38930e-01,
-8.23110e-02,
-1.14342e+00,
-1.48696e+00,
-9.96503e+00,
-1.26350e-01,
-5.11360e-01,
-4.75412e-02,
-2.20618e-01,
-4.61428e-01,
-3.45344e+00,
-6.31359e-01,
-9.98826e+00,
-5.36247e-02,
-1.17457e+00,
-1.60513e-02,
-1.96098e+00,
-4.14995e-01,
-1.09486e+01,
-3.89322e-02,
-8.24393e+00,
-1.57024e+00,
-9.67653e-01,
-1.20822e+00,
-6.19946e-02,
-5.39514e+00,
-1.75026e+00,
-1.78331e-01,
-5.29241e-01,
-6.57194e-01,
-7.30406e-01,
-5.89891e+00,
-9.03517e-02,
-1.58385e-01,
-2.40541e-01,
-5.70245e-01,
-3.26837e-02,
-5.67212e-01,
-1.70588e-01,
-3.57202e-01,
-2.08574e-02,
-1.32707e-01,
-1.95285e+00,
1.49804e-01,
-2.40295e-01,
-3.57209e-01,
-1.66211e-01,
-3.69890e-01,
-2.56268e-01,
-2.54035e-01,
-9.63358e-01,
-1.46997e+00,
-1.31707e+01,
-2.26223e+00,
-5.60265e+00,
-4.67322e-01,
-2.51047e+00,
-1.20847e+00,
-6.43343e-02,
-9.76155e-02,
-1.59752e+00,
-8.89933e-02,
-2.30743e-01,
-4.65180e-02,
-6.17919e-01,
-1.00737e+01,
-8.66232e-02,
-1.58183e-01,
-4.49145e-01,
-1.46918e-02,
-7.24221e+00,
-1.15397e-01,
-7.51803e-01,
-3.81023e-02,
-4.57759e-02,
-8.07362e+00,
-7.97805e-01,
-3.77919e-01,
-5.92733e-01,
-1.67760e-01,
-2.13221e-01,
-4.30538e-01,
-1.22952e-01,
-2.85641e+00,
-1.07975e-01,
-7.21667e-03,
-1.31285e-01,
1.38206e+00,
-5.91395e-01,
-9.62669e-01,
-1.05314e+01,
-8.44320e+00,
-5.19968e-01,
-2.43289e+00,
-1.61631e+00,
-4.66222e+00,
-2.79190e-01,
-4.13047e+00,
-5.54923e+00,
-2.96133e-02,
-1.07309e+00,
-3.95759e-01,
-2.72142e+00,
-6.12837e+00,
-5.99956e-01,
-2.02875e-01,
-4.13816e+00,
-3.27104e+00,
-1.80560e-02,
-1.66293e-01,
-7.38178e-03,
-2.55973e-02,
-1.10229e+00,
-1.43817e-01,
-6.71350e+00,
-5.40909e-03,
-4.65100e-02,
-3.20471e-02,
-5.15097e-02,
-2.85512e-02,
-2.46329e-01,
-7.20592e-02,
-2.74177e-01,
-3.06629e-02,
-8.93880e+00,
-2.25844e-01,
-4.21695e+00,
-4.06357e-02,
-2.58638e+00,
-5.73218e-01,
-5.27531e-02,
-3.89454e-02,
-1.13766e-01,
-2.42792e-02,
-7.31424e-02,
-5.15237e-01,
-3.95012e-01,
8.72084e-01,
-4.02609e+00,
-4.77213e+00,
-1.84695e-02,
-1.15895e-01,
-2.12889e-01,
-3.32186e-02,
-7.14582e-01,
-2.96605e-01,
-1.26534e+00,
-4.55567e-02,
-4.30724e-01,
-2.60553e-01,
-5.77305e+00,
-6.29086e-01,
-5.08722e-02,
-2.01370e-01,
-4.42160e-01,
-2.54890e-01,
-2.65763e-07,-6.82104e-05,3.94461e-05,1.71797e-04,1.19122e-04,-1.28854e-04,-1.30356e-04,1.82090e-04,-1.43176e-04,-7.17075e-05,1.13868e-06,1.52436e-04,9.23107e-05,1.02763e-04,7.55885e-05,-2.49680e-04,-9.46012e-05,-8.74649e-05,1.72884e-04,4.15499e-05,-3.30319e-05,-2.51067e-04,9.70735e-05,2.21367e-07,1.38441e-04,-7.39359e-05,-6.14713e-07,8.03516e-05,-6.37041e-05,-1.40041e-05,-1.24339e-04,-1.40037e-05,2.15380e-04,5.31038e-06,1.36072e-04,-3.62496e-04,-2.14158e-04,-6.55531e-05,-6.70506e-05,6.44342e-05,-3.24906e-04,-1.45519e-10,2.71338e-04,-6.02919e-05,-1.27498e-04,-6.54462e-05,1.54898e-04,5.59783e-05,2.92264e-04,2.02412e-04,-3.41865e-05,9.79801e-05,1.97910e-04,8.93353e-05,4.17172e-05,6.74337e-05,1.39917e-04,1.03276e-04,-2.38670e-04,-2.38883e-04,-1.26799e-04,-7.20086e-05,-2.16697e-04,1.70557e-04,1.34010e-04,6.22285e-05,-8.87901e-05,1.03276e-04,1.55452e-04,-1.01857e-05,1.09739e-04,-1.61277e-04,2.67878e-05,-1.76999e-04,2.51449e-04,8.41368e-06,-5.27507e-10,-5.48576e-05,-7.27596e-12,9.93095e-06,1.82080e-04,-1.58735e-04,6.24251e-05,2.17940e-04,1.23634e-04,-1.50268e-04,-1.50334e-04,2.51482e-04,-2.06316e-04,1.53675e-04,-2.13737e-04,1.33649e-04,4.27001e-05,7.82120e-08,-2.52150e-04,1.24775e-04,-1.55182e-04,2.38698e-04,-2.99990e-05,5.62215e-06,-3.39252e-05,7.94053e-05,1.10307e-04,-7.46407e-05,1.31335e-04,-3.70853e-05,1.82564e-04,-1.63124e-04,4.17242e-05,-4.19791e-05,1.63478e-04,-1.27968e-04,-4.15776e-05,-1.49499e-05,1.14106e-04,-3.56397e-06,-4.97636e-05,4.38149e-05,-2.04257e-04,-6.72256e-05,8.20558e-05,2.75872e-05,6.99911e-08,-8.21965e-08,-1.06771e-05,4.77873e-05,-1.72667e-04,1.40521e-04,-6.81237e-05,2.38692e-04,6.55531e-05,-4.17170e-05,1.18077e-04,-8.70161e-05,-2.55580e-04,-1.18453e-04,6.45316e-05,2.11392e-06,-2.43698e-05,-1.91554e-04,7.90690e-06,-4.65463e-05,1.31872e-04,1.77887e-04,-6.24703e-05,1.03946e-05,1.74233e-05,2.76284e-05,9.34054e-05,4.94057e-05,-4.67134e-07,-1.55161e-04,-2.41378e-04,-5.17876e-05,2.50049e-04,1.14825e-04,-2.23028e-05,-1.77068e-04,-1.95346e-05,1.55103e-04,-9.94199e-06,-8.93535e-05,-1.66670e-04,3.06351e-05,-7.07406e-05,-5.79974e-06,1.40035e-05,-1.45999e-05,5.13451e-05,-2.17768e-05,1.82080e-04,-3.05796e-05,7.49115e-05,9.84692e-05,-9.29134e-05,-1.31154e-04,-1.06650e-04,2.48309e-05,1.94514e-04,-5.44103e-05,1.68484e-04,-3.23496e-05,-2.33069e-05,-1.01507e-04,-2.44471e-06,7.03861e-05,-3.89246e-06,-1.50758e-04,6.59935e-05,1.25352e-04,-1.44407e-04,1.27968e-04,1.02911e-04,-3.59457e-04,2.25594e-05,-1.36094e-04,1.75067e-04,-1.19122e-04,2.17915e-05,7.84341e-05,1.73771e-04,-1.29064e-04,-1.85464e-04,7.04506e-05,9.24664e-05,9.84258e-05,-1.31946e-04,-1.28710e-04,7.54233e-05,1.79890e-04,-1.02190e-04,3.13299e-05,1.03696e-04,-8.82337e-05,-1.32643e-04,-8.02520e-05,5.95593e-05,1.37525e-04,1.81436e-04,-9.50128e-05,2.50089e-04,-6.36656e-05,1.29702e-04,3.73397e-05,-6.50423e-05,-7.90655e-06,-1.80402e-04,3.45185e-04,-2.25242e-04,1.03841e-04,7.38280e-05,1.02813e-04,9.46407e-05,-2.21949e-07,1.01298e-05,1.77824e-04,2.79512e-04,1.47529e-04,4.17173e-05,3.68266e-05,2.35563e-05,7.97351e-05,-5.78721e-05,5.57812e-05,-1.29310e-04,-7.45066e-05,1.95841e-04,8.00401e-05,-7.06824e-05,-1.13190e-04,1.26310e-04,-7.69094e-05,1.70391e-04,-9.70735e-05,-1.95261e-04,9.78272e-05,1.31456e-04,-5.26248e-05,1.33933e-04,-2.28798e-04,1.03887e-04,-2.73159e-04,1.26799e-04,4.62953e-05,-5.99507e-05,-2.12667e-05,1.01241e-04,5.39477e-05,-4.63062e-05,8.04688e-05,-4.64031e-05,1.09217e-04,-1.08680e-04,-1.23241e-04,3.70517e-05,3.04936e-05,4.26950e-05,1.53678e-04,-1.85185e-05,-6.13348e-05,1.94573e-04,-2.24974e-05,-1.33405e-04,1.12397e-05,2.69699e-05,-4.46727e-05,-8.73115e-11,3.06354e-05,1.20246e-05,-3.94214e-06,2.51482e-04,1.74470e-04,2.53785e-08,2.17707e-04,-1.03107e-07,3.25192e-05,-1.52000e-04,-1.44910e-04,5.25630e-05,1.45896e-04,-1.69812e-05,-2.99990e-05,3.39966e-05,-2.45391e-04,1.73237e-04,1.67885e-04,3.34312e-05,1.10595e-09,-1.35954e-04,-5.60904e-05,1.55032e-04,1.29750e-04,-1.48595e-04,-2.10952e-04,1.44374e-04,1.72306e-04,4.23022e-05,1.91250e-04,-1.39435e-04,-1.77660e-04,-8.13737e-05,-9.02764e-05,-2.63852e-04,-6.42838e-05,3.12852e-05,-1.74355e-05,9.04915e-05,-5.29326e-10,-4.48911e-05,-1.14399e-04,2.48066e-05,1.13663e-04,-7.88004e-05,-6.33542e-05,6.15384e-05,-2.58519e-04,-1.24013e-04,-1.14934e-04,1.12355e-06,-1.19558e-04,7.49823e-05,8.78104e-05,-2.05918e-04,-2.19588e-07,-1.25009e-05,-1.29285e-04,-1.18488e-06,-7.91920e-05,-2.65766e-05,-8.91509e-05,5.93619e-05,2.66015e-04,-1.18593e-04,-3.83944e-05,5.48580e-05,2.15424e-04,-1.95841e-04,-5.66432e-05,-1.94037e-04,-1.95841e-04,1.76539e-04,-7.45727e-05,8.76499e-05,1.95841e-04,-2.91229e-05,7.37773e-05,-1.33419e-04,1.24501e-04,-1.39690e-04,2.14833e-05,1.09217e-04,-1.78035e-07,-2.05674e-04,-2.69991e-04,3.81440e-05,1.94148e-04,2.67088e-04,-2.44819e-04,1.52528e-04,9.10950e-05,-1.82513e-05,-1.04304e-04,-1.52555e-04,-7.70714e-05,3.01837e-04,-3.81440e-05,2.77777e-04,-7.39582e-05,2.74049e-04,-7.35404e-05,-1.24396e-04,5.82617e-05,-3.06358e-05,2.84717e-04,-2.70120e-07,1.30655e-04,2.85576e-05,-6.34213e-05,-1.02155e-04,-3.17494e-07,-2.46453e-04,1.90630e-04,6.75140e-05,1.12803e-04,-2.03022e-04,1.29877e-04,3.06568e-04,6.54333e-05,1.03915e-04,8.43812e-05,-1.18196e-04,-5.10578e-05,-1.02317e-04,-7.15035e-05,-2.44011e-04,6.79867e-05,4.26626e-05,3.34313e-05,5.68656e-05,3.24816e-04,-3.00298e-06,-6.09913e-05,1.58744e-04,-7.27115e-05,1.52337e-04,1.73237e-04,-3.00893e-04,2.68895e-05,-1.33359e-04,2.42586e-05,-6.94466e-05,7.48437e-05,-1.01868e-05,-1.37568e-04,5.99363e-06,-2.36918e-04,-1.37596e-04,-2.52150e-04,1.94129e-04,8.88369e-05,1.94931e-04,-1.25219e-04,9.23998e-05,9.83250e-05,1.87488e-05,1.19922e-04,5.74801e-10,2.41371e-04,-5.57448e-05,1.50286e-04,-1.09217e-04,1.08680e-04,6.03486e-05,-1.04344e-04,-3.78701e-05,-1.98553e-06,4.57772e-05,-2.23077e-05,1.95651e-04,-1.52077e-04,1.20675e-04,-2.06319e-04,-5.61062e-05,8.80062e-05,-1.84634e-04,-1.87065e-04,3.95940e-04,-2.63093e-04,-1.28867e-04,7.87960e-05,-8.55115e-06,-1.29817e-04,2.43698e-05,1.19115e-04,-1.63600e-04,-8.61940e-05,-4.10364e-07,-2.47912e-05,1.64993e-04,2.01738e-04,1.17821e-04,-1.65153e-05,-2.17768e-05,-3.97752e-06,7.36125e-05,-1.35137e-04,1.19602e-04,8.85918e-05,6.00156e-05,-7.33139e-07,-4.32198e-05,-3.67536e-06,1.39236e-04,-9.05155e-06,-2.17605e-05,-4.48552e-05,-1.92619e-04,-3.67901e-04,-7.06861e-05,9.80161e-06,
1.17504e-04,-8.86245e-05,-7.51071e-05,-7.13659e-05,3.17736e-04,2.53785e-08,2.05350e-04,1.27714e-04,1.77919e-04,1.84634e-04,-2.76486e-10,3.21642e-05,-2.55151e-04,-8.21079e-06,1.28151e-04,-9.38010e-05,1.32584e-04,4.58321e-05,-9.11308e-06,6.01359e-05,7.11589e-09,1.12432e-04,1.15221e-04,2.24905e-05,-9.23222e-05,-1.66251e-05,-6.30008e-06,8.71407e-06,-1.95803e-04,-1.10595e-09,2.01239e-04,-2.17601e-05,-7.45109e-05,2.57249e-05,1.81869e-04,2.01467e-06,1.86471e-04,2.69699e-05,6.82107e-05,-7.97413e-06,-9.82323e-05,3.28078e-04,8.55328e-05,2.25531e-05,-8.51950e-05,8.47322e-06,3.26076e-04,-6.24251e-05,1.02317e-04,-2.12870e-04,2.33883e-06,1.55184e-04,1.34167e-04,1.23157e-04,-1.09942e-04,1.35057e-04,1.52444e-04,-1.54281e-04,-1.68817e-07,4.39423e-05,-9.51450e-05,3.13537e-05,-1.94554e-04,-7.07445e-05,2.02599e-04,-6.02783e-05,2.19492e-05,-1.55141e-04,-1.93831e-04,6.24322e-05,-1.27337e-04,4.77376e-08,6.82109e-05,7.06707e-05,1.09942e-04,1.45652e-04,-4.15775e-05,2.18279e-11,3.32448e-05,1.03672e-04,-5.94625e-05,1.29022e-04,-1.78819e-05,1.19115e-04,1.04612e-04,3.89004e-05,3.91464e-05,2.21600e-07,-1.29762e-04,-3.73216e-05,-2.64994e-05,1.82475e-04,4.27909e-05,-1.06770e-05,-2.48310e-05,6.82103e-05,-2.82658e-05,-9.94881e-05,2.66706e-05,9.06459e-05,1.34124e-04,2.54254e-05,1.74945e-04,-1.89501e-04,1.07046e-04,-1.10089e-04,-8.33701e-07,-2.48428e-05,-1.48989e-04,1.95803e-04,1.95841e-04,3.29726e-04,1.54647e-04,-1.28867e-04,-6.24454e-05,1.49859e-04,3.13409e-04,-1.55184e-04,3.06747e-05,1.29763e-04,8.78514e-05,-2.98718e-05,-1.35119e-04,5.59616e-06,3.23223e-04,7.28382e-07,-1.94931e-04,1.67627e-05,1.83198e-04,7.70281e-05,-1.31883e-04,-5.48624e-05,-2.09413e-04,-6.30808e-05,-1.67494e-04,-4.33785e-05,1.35201e-04,7.75053e-05,6.82105e-05,-6.05697e-05,-5.98465e-05,-2.47912e-05,-1.19841e-04,-1.19122e-04,1.81963e-04,1.22839e-04,3.15032e-04,-2.41391e-04,4.28331e-05,5.40103e-05,-3.88558e-05,-7.32915e-05,1.19866e-04,3.50024e-05,6.25169e-05,1.87120e-04,-1.00138e-04,-7.77855e-05,2.17648e-05,-5.44755e-05,-2.20264e-05,1.11320e-05,-1.81374e-04,5.93619e-05,-2.20266e-05,1.95852e-04,3.14452e-04,-3.10413e-04,6.46339e-05,6.08229e-05,1.35416e-04,-9.65964e-06,-1.09016e-04,-4.35040e-05,-4.96205e-05,-3.31898e-04,-2.17648e-05,3.78701e-05,1.82340e-04,7.46451e-05,8.48605e-05,1.10595e-09,2.63847e-04,-1.79525e-04,-3.14928e-05,1.48365e-04,-1.39407e-04,1.95762e-04,-8.60985e-05,1.66670e-04,1.39760e-04,2.08529e-04,-9.70735e-05,3.34188e-05,1.39408e-04,-1.55172e-04,-1.02392e-04,-1.95841e-04,-6.75149e-05,8.48585e-05,-2.46950e-04,-1.44374e-04,-4.91595e-05,1.31056e-04,-6.75149e-05,-1.14825e-04,-7.25839e-05,9.79227e-07,-7.52753e-05,-1.51604e-04,2.50404e-05,-2.46893e-04,-1.23634e-04,1.50301e-04,1.94103e-04,-1.55184e-04,6.09340e-05,-9.83859e-05,4.48912e-05,6.24173e-05,8.93353e-05,2.20266e-05,1.86064e-04,1.31242e-04,1.29702e-04,-2.13994e-04,1.29823e-04,1.16123e-04,1.87198e-04,1.78871e-05,-1.26801e-04,1.24193e-04,-1.95357e-04,-5.02832e-05,7.22199e-05,-4.87704e-05,-1.55452e-04,-9.69644e-05,1.31237e-04,2.42586e-05,6.06775e-05,1.47421e-05,2.43431e-05,2.21829e-04,-2.86061e-04,1.86275e-04,-7.11589e-09,3.11734e-04,-1.29377e-04,2.03868e-04,-8.82038e-06,-3.11985e-05,-1.53724e-04,-3.75220e-05,-1.29193e-04,2.74096e-05,4.21701e-05,1.38462e-04,-1.81693e-04,-2.18569e-05,-5.25630e-05,-1.75410e-04,1.54700e-04,-1.95704e-04,-1.86475e-05,1.31883e-04,2.48179e-04,-1.79851e-04,-1.55660e-04,3.27886e-04,3.39248e-05,6.24251e-05,6.87314e-05,7.95088e-05,1.26843e-04,-1.03078e-07,-1.90122e-04,1.22725e-04,3.39252e-05,-5.82617e-05,-1.52436e-04,2.23025e-05,8.13734e-05,7.33088e-05,8.03709e-05,1.69304e-04,-4.88981e-08,-2.17648e-05,-9.51776e-06,1.00685e-05,2.16933e-05,-2.15862e-04,-1.29519e-04,2.43387e-04,-1.66529e-04,5.48250e-05,1.83197e-04,-3.79302e-05,-6.28928e-06,-2.79582e-05,2.18279e-11,3.13281e-05,1.86479e-05,2.63837e-04,-6.00887e-05,1.78833e-05,-1.89779e-04,1.84434e-04,1.73768e-04,2.36865e-07,2.47383e-10,6.24214e-05,2.39841e-05,-3.26860e-05,3.26573e-04,1.56627e-04,-1.16804e-04,-8.51228e-06,4.84297e-05,3.85961e-05,-4.21987e-05,-1.09193e-04,-7.07907e-06,6.24322e-05,-2.86487e-05,-6.43980e-05,2.44765e-05,1.47540e-04,1.74794e-04,-2.28855e-04,-2.06067e-04,-1.03843e-04,1.16902e-04,-9.65133e-05,1.78871e-05,2.01538e-04,7.55334e-05,1.01073e-04,6.44656e-05,-2.21833e-07,-6.24172e-05,2.46064e-04,-6.86153e-06,-2.06219e-04,-1.09217e-04,3.27418e-11,3.36164e-07,-2.55151e-04,2.20958e-04,-1.16465e-04,1.27497e-04,-2.18709e-05,-1.55103e-04,-8.71850e-05,-3.06352e-05,-1.55172e-04,1.84610e-04,7.57075e-05,1.84434e-04,1.21719e-04,1.94129e-04,-1.27715e-04,-4.39209e-05,-1.13187e-04,1.27079e-04,1.03163e-04,-7.24871e-05,-1.95261e-04,7.70999e-05,-6.75042e-05,-7.60392e-05,9.18610e-05,-1.26800e-04,3.86487e-05,3.41864e-05,-7.27596e-12,-7.49115e-05,-6.36656e-05,1.79525e-04,-2.17915e-05,-6.24251e-05,-2.03673e-04,-2.46538e-04,-6.82543e-05,-7.18130e-05,1.32989e-04,1.71548e-04,1.34134e-05,-2.82425e-05,6.75035e-05,2.70197e-05,-1.53254e-04,-7.76822e-05,-1.30026e-04,7.07398e-05,1.35057e-04,-3.26840e-05,-4.16441e-05,3.29768e-05,3.67979e-05,1.05917e-04,-2.66447e-05,-1.28867e-04,-2.21520e-05,-3.79303e-05,-1.71360e-05,1.12355e-06,3.39248e-05,-3.25260e-04,1.87769e-04,9.23951e-05,-2.46718e-04,-8.82304e-05,-1.01417e-04,-1.09217e-04,-1.34271e-04,-1.54999e-04,1.95165e-04,1.20897e-04,7.97401e-06,8.33701e-07,2.22345e-04,1.52487e-04,-1.19122e-04,2.23028e-05,3.39966e-05,-4.77873e-05,-7.60638e-05,-1.35057e-04,-1.03917e-04,-2.41422e-04,-3.10157e-04,7.18024e-05,-9.33470e-05,-1.85703e-04,-1.95803e-04,1.38271e-04,1.56925e-04,1.35416e-04,-8.99676e-06,3.06747e-05,1.18934e-04,-6.74791e-05,-1.41208e-05,1.55184e-04,-1.38346e-04,2.76271e-05,-6.24703e-05,5.95976e-05,-5.98700e-05,-4.90585e-05,1.95840e-04,1.88632e-04,3.04951e-05,3.19026e-05,-3.33230e-05,5.52973e-10,2.15747e-04,-1.95357e-04,-9.25807e-05,-1.35396e-04,-2.17689e-05,-1.93876e-04,-7.80649e-05,6.24195e-05,5.12519e-05,3.11545e-04,-1.29792e-04,-1.34256e-04,1.81609e-05,4.83486e-05,1.84807e-04,-6.50241e-05,-6.74470e-05,3.60905e-06,1.10330e-04,1.37596e-04,-9.65133e-05,1.09185e-04,-1.13657e-04,1.66528e-04,-2.15414e-04,-2.25189e-04,3.97752e-06,2.34306e-04,-1.43745e-04,1.28645e-04,1.21097e-04,1.49319e-05,-1.11195e-05,-1.30591e-04,-1.95803e-04,2.23078e-05,-7.07494e-05,8.49550e-05,1.84234e-04,-5.86066e-05,1.99322e-04,-1.95357e-04,4.48908e-05,
8.78505e-05,-1.84634e-04,1.39236e-04,-9.77235e-05,1.44424e-04,1.73243e-04,1.55184e-04,1.55452e-04,-8.49594e-05,1.29192e-04,1.28867e-04,-1.33359e-04,-1.35395e-04,-1.33422e-04,2.41169e-04,3.41173e-05,-3.58192e-05,3.36820e-05,-2.20227e-05,-1.13864e-04,1.30871e-04,1.78152e-04,-2.91170e-04,1.59056e-04,6.23491e-05,-2.17626e-05,-5.24114e-05,-3.04639e-05,1.28867e-04,2.66706e-05,5.57622e-05,2.91038e-11,-1.93513e-04,-9.84324e-05,-6.82544e-05,-8.59705e-06,3.06750e-05,-9.56590e-06,1.29284e-04,-2.48700e-04,1.82378e-04,-4.77376e-08,-1.55182e-04,2.34306e-04,-6.75040e-05,3.13763e-05,-1.28123e-04,-9.23059e-05,-2.33558e-04,3.13556e-05,-3.22796e-05,-3.86389e-05,3.17191e-06,-3.06747e-05,-1.50617e-04,2.43698e-05,-4.57832e-05,-6.48075e-05,1.08680e-04,-9.63544e-05,9.46011e-05,-5.26248e-05,3.41714e-05,1.36424e-08,-1.28251e-04,-1.51604e-04,-1.84610e-04,6.24175e-05,1.73237e-04,1.68817e-07,-2.76486e-10,3.89005e-05,2.16166e-04,-1.94405e-04,9.77761e-05,1.33359e-04,-2.02905e-05,9.30744e-05,-1.94244e-04,3.91464e-05,1.55181e-04,7.65290e-05,-1.01073e-04,2.55151e-04,-9.84692e-05,9.52432e-05,-9.40691e-05,-2.08219e-05,1.00138e-04,2.61687e-04,-7.06862e-05,6.73973e-06,1.29756e-04,1.65869e-04,-1.95841e-04,1.20608e-04,7.27596e-11,8.47354e-06,6.15465e-05,-4.14764e-05,7.78921e-05,2.63838e-04,6.36656e-05,2.31472e-05,1.70806e-04,1.58736e-04,-3.08347e-05,-3.19288e-05,6.58401e-08,5.97218e-07,-2.46306e-04,-7.07435e-05,2.88938e-04,-1.08515e-04,-8.60985e-05,-2.98566e-04,-6.27174e-05,-1.83163e-04,1.79866e-04,1.52864e-06,-1.09185e-04,1.30503e-04,3.23609e-05,-1.36995e-04,2.38951e-04,-1.23157e-04,6.82543e-05,2.38212e-04,-7.07398e-05,2.04530e-06,-3.42760e-04,9.23998e-05,1.22506e-04,-2.47660e-05,-9.31855e-05,1.32605e-04,-1.36660e-04,-7.11412e-05,-1.88765e-04,9.20609e-05,-9.26978e-06,-8.33200e-05,6.73990e-06,4.59255e-05,1.67899e-04,4.57772e-05,1.28972e-04,1.55172e-04,-2.35228e-04,-3.42187e-05,3.34564e-04,-9.72916e-05,-8.34225e-07,1.95821e-04,-8.40353e-05,-2.07603e-04,1.94129e-04,-3.24571e-04,-2.52009e-04,-1.23327e-08,-6.54442e-05,-1.25539e-04,1.78261e-10,-5.28291e-06,7.06065e-05,1.07353e-04,2.98718e-05,3.04954e-05,4.39528e-05,-1.18130e-04,-1.38470e-04,1.81293e-04,-1.47338e-04,-1.34174e-04,1.95838e-04,-2.42858e-04,2.55151e-04,-1.40356e-04,-6.45218e-05,-5.76674e-05,9.05068e-06,-6.77023e-05,-1.53282e-04,1.55183e-04,-1.98547e-04,-3.08345e-05,-6.72257e-05,3.32875e-04,3.06356e-05,6.24703e-05,-2.52150e-04,1.58988e-04,3.14908e-04,-2.46950e-04,-6.82106e-05,-1.00368e-04,-7.07509e-05,7.62984e-05,2.00325e-04,-2.44131e-04,2.13527e-04,1.54173e-04,-9.83859e-05,1.93991e-04,2.45329e-04,-3.79307e-05,1.33423e-04,1.20246e-04,1.08661e-04,2.24974e-05,-1.29786e-04,-1.95704e-04,-3.06748e-05,9.82324e-05,-1.83773e-04,-1.28122e-04,-2.44635e-04,-1.22694e-04,-3.86551e-04,7.95645e-05,1.05940e-04,-1.68025e-04,1.02763e-04,2.14165e-04,9.30256e-05,-1.23132e-04,4.21990e-05,-2.82437e-05,2.99017e-05,8.97562e-08,2.39841e-05,-1.82300e-04,4.17170e-05,-2.43051e-04,1.89779e-04,-1.32024e-04,1.24663e-04,-2.44129e-05,1.81609e-05,1.03887e-04,1.82018e-04,-1.33617e-04,-6.60990e-05,-9.77114e-05,-1.38441e-04,-1.29763e-04,1.30820e-04,-1.59327e-04,-1.52274e-04,-1.00286e-04,-9.63544e-05,-4.13456e-06,-2.50197e-04,1.30524e-04,6.30037e-06,-1.27266e-04,7.07448e-05,1.76822e-04,-1.29192e-04,-1.06301e-04,1.95584e-04,1.90277e-04,2.17601e-05,-6.15468e-05,2.07661e-04,-3.48646e-05,-6.24184e-05,-7.08389e-05,3.64889e-05,1.82299e-04,-1.59449e-04,-1.79033e-04,-4.21988e-05,8.65282e-05,-1.33424e-04,-2.29677e-04,-9.82322e-05,3.48134e-05,-1.08515e-04,4.64382e-05,1.92619e-04,1.38753e-08,-1.54898e-04,2.52150e-04,-7.07435e-05,2.34977e-08,2.17603e-05,-2.03683e-04,1.28122e-04,-1.95841e-04,-1.07790e-05,1.47338e-04,-1.96720e-05,-6.89520e-05,-1.36308e-04,4.93949e-05,-1.29750e-04,6.92315e-05,1.77984e-07,1.34823e-08,-1.01507e-04,1.13412e-04,2.52733e-04,-6.15468e-05,-5.49821e-06,-1.82090e-04,-2.58990e-04,5.21449e-05,6.18456e-11,-1.03276e-04,8.31672e-05,-3.76767e-04,1.35416e-04,-1.95841e-04,4.55730e-05,-7.64470e-05,3.94498e-05,4.26621e-05,1.62762e-05,-9.68783e-05,3.42091e-04,1.35986e-04,-1.03775e-04,7.47781e-05,-1.33405e-04,-7.25111e-05,4.73667e-05,-1.33424e-04,6.27785e-05,-2.11183e-05,5.40800e-06,1.81067e-04,6.24703e-05,-1.93187e-04,9.84257e-05,6.47660e-05,-1.95912e-04,-1.18056e-05,1.71351e-05,-4.67163e-07,1.59217e-04,-2.17608e-05,-6.05697e-05,-4.34668e-05,-1.43778e-04,5.10519e-05,-2.15380e-04,2.52439e-04,-1.12803e-04,1.22664e-04,-1.34062e-04,-1.55183e-04,-1.30524e-04,1.66251e-05,-2.01891e-04,3.08347e-05,-1.44358e-04,-1.29750e-04,1.38279e-04,3.33661e-04,-2.19082e-05,1.38462e-04,1.35057e-04,-1.29192e-04,-5.28338e-05,-1.09443e-04,-1.29675e-04,3.78704e-05,-1.31242e-04,1.62061e-05,6.24173e-05,1.89779e-04,-5.87821e-05,-1.27497e-04,-2.98718e-05,8.20555e-05,-6.24214e-05,1.17054e-04,-1.26799e-04,-1.55172e-04,-1.41205e-04,3.16795e-04,6.24195e-05,6.05697e-05,-1.95830e-04,8.36915e-05,3.41866e-05,1.29702e-04,-1.24663e-04,-5.44755e-05,-4.09036e-05,-7.49115e-05,-5.19671e-05,-2.29518e-04,9.45155e-05,-1.39437e-04,-1.02190e-04,9.38271e-05,1.08687e-04,1.55141e-04,-5.47326e-05,5.28291e-06,-1.27563e-04,-2.17915e-05,-1.19264e-04,-9.38271e-05,-2.08218e-05,-1.07203e-05,1.02317e-04,-1.63950e-04,2.01340e-04,4.25952e-05,4.08058e-05,-6.24195e-05,8.88061e-05,-7.84341e-05,2.39841e-05,-2.98078e-05,-8.71850e-05,-1.64333e-04,2.52733e-04,-3.04639e-05,1.28123e-04,1.94393e-04,-2.11392e-06,1.33424e-04,2.46831e-04,2.00529e-04,1.98578e-04,8.88727e-05,-1.52751e-04,-4.32992e-06,-1.29750e-04,-2.69117e-04,-3.23493e-05,6.24184e-05,2.30196e-04,-1.01784e-05,8.73115e-11,1.43601e-04,1.29757e-04,1.33192e-04,-1.10515e-04,2.21592e-04,1.79267e-04,1.84528e-04,-1.02174e-04,3.94107e-05,1.13259e-05,-2.55151e-04,4.34668e-05,1.39453e-04,-2.41135e-04,-2.11392e-06,-7.88183e-05,-1.19115e-04,-3.89003e-05,1.33389e-04,3.21034e-04,2.23077e-05,6.09265e-05,-1.92619e-04,1.06411e-10,-2.25593e-05,1.09185e-04,1.57275e-04,6.94001e-06,8.88144e-05,-1.82701e-04,-2.23077e-05,1.14802e-04,1.03936e-04,-1.12803e-04,7.76517e-05,2.71760e-05,1.06770e-05,6.83557e-05,-1.33359e-04,1.34565e-04,1.96903e-04,-1.25001e-05,-7.74142e-06,-1.93890e-04,4.21987e-05,1.30524e-04,1.19264e-04,1.40901e-04,1.14106e-04,-1.42166e-05,5.26252e-05,1.38470e-04,-9.87975e-05,-8.19845e-06,1.05264e-04,1.31883e-04,-7.30655e-05,8.99819e-06,-3.20155e-05,1.03515e-04,8.40372e-06,
-7.45375e-05,3.22310e-05,-8.43427e-05,5.85752e-05,-2.17615e-05,-5.86450e-05,1.01507e-04,-1.58997e-04,1.09942e-04,-3.83945e-05,-7.05290e-06,-1.79900e-04,-1.82188e-04,-1.02155e-04,5.74543e-05,-4.08880e-05,-1.95835e-04,-1.09942e-04,-1.54898e-04,4.27991e-05,5.23029e-05,1.99361e-09,2.41487e-04,4.71736e-06,-2.46893e-04,-1.01959e-04,8.99679e-06,-1.77736e-04,-1.33933e-04,3.81147e-06,2.41169e-04,-5.86453e-05,8.78628e-05,-1.34262e-04,3.06302e-04,1.68817e-07,-1.95584e-04,-1.48448e-04,5.51476e-05,-1.05484e-06,4.39975e-05,-1.50294e-04,1.13082e-04,9.70735e-05,1.77708e-04,2.18190e-05,-1.71315e-05,-1.68009e-05,2.46141e-04,-1.27124e-04,-2.72323e-04,-1.62875e-04,1.62239e-05,-6.06775e-05,-1.69955e-04,3.13552e-05,1.70025e-04,-3.96946e-06,1.38346e-04,-6.55519e-05,-1.15240e-04,1.27975e-04,-8.37338e-05,-7.07398e-05,1.52444e-04,6.15468e-05,-2.84857e-05,-6.24251e-05,-1.94117e-04,-1.95098e-04,4.95959e-05,7.27906e-05,3.79302e-05,-6.00874e-05,3.22810e-05,-1.81999e-05,1.99361e-09,1.83198e-04,1.76490e-04,1.85051e-04,2.43698e-05,-8.44055e-05,-8.42093e-05,6.36120e-05,1.52982e-05,-1.46382e-04,9.13005e-05,-3.00275e-06,9.11647e-05,1.88358e-04,-1.14778e-09,-1.74140e-04,-2.15042e-04,2.01113e-04,1.04344e-04,-4.62023e-10,-1.33419e-04,1.91320e-04,-1.41208e-05,-9.23683e-09,1.23157e-04,-1.85145e-06,-1.25001e-05,-3.79305e-05,1.55367e-04,1.94724e-04,4.71778e-05,8.17389e-05,-8.21102e-06,7.74162e-06,1.25477e-04,-2.38883e-04,4.17126e-05,2.78621e-05,1.34061e-04,-1.01790e-04,4.08058e-05,-1.14802e-04,1.58833e-04,-1.08788e-04,-2.51935e-04,-2.03667e-04,-6.87351e-05,3.13558e-05,-1.00642e-04,-8.38518e-05,-1.33423e-04,-2.00412e-04,6.36231e-05,-5.68395e-05,2.66261e-04,-8.55328e-05,4.00857e-05,-9.75468e-05,-1.95779e-04,-2.17915e-05,-1.30760e-04,-5.77132e-05,-7.37775e-05,-1.30914e-04,9.69644e-05,-1.25000e-05,-6.85875e-05,2.43698e-05,4.39422e-05,-2.92539e-07,9.05091e-06,2.50102e-05,7.52840e-05,1.90015e-04,-4.36557e-11,8.70161e-05,-1.81523e-04,-1.56561e-04,-1.28122e-04,-8.33200e-05,9.06460e-05,2.46960e-04,-1.13187e-04,1.95821e-04,2.35145e-04,-1.27497e-04,-8.01641e-05,-4.84324e-08,1.19602e-04,9.08477e-05,-3.41187e-05,1.08686e-04,1.53715e-04,2.76486e-10,2.30356e-04,-1.48448e-04,-6.40454e-06,5.64194e-05,5.17878e-05,-1.92619e-04,-7.28916e-05,5.70275e-07,-3.29443e-04,-1.45896e-04,8.87403e-06,8.40397e-05,6.68434e-05,-8.71894e-05,-6.27602e-05,6.08198e-05,5.21387e-05,1.73454e-04,-2.82427e-05,-8.93489e-05,-2.15213e-04,8.44444e-05,-3.67978e-05,8.21156e-06,3.56129e-07,4.84745e-05,6.24175e-05,-3.59485e-04,1.93446e-04,-1.55170e-04,4.91606e-05,7.06908e-05,6.15418e-05,5.28291e-06,1.13258e-04,-1.08294e-04,-2.87286e-04,-2.06308e-04,1.51379e-04,-8.74695e-05,7.80649e-05,-1.26802e-04,1.95841e-04,2.01724e-05,-4.22011e-05,4.17169e-05,2.38880e-04,1.60258e-04,-3.29854e-04,1.82701e-04,1.36892e-04,1.50949e-04,-1.35499e-04,2.11392e-06,-1.01404e-04,-1.33974e-04,-7.04105e-05,1.56327e-05,-1.69643e-04,1.26425e-04,-1.84434e-04,1.02763e-04,-2.43386e-04,-6.09274e-05,-7.33684e-05,1.94931e-04,1.01866e-05,4.90586e-05,-3.37806e-04,6.24179e-05,-3.63698e-06,2.18279e-11,-7.32200e-05,-2.25593e-05,-1.02279e-05,1.78215e-07,1.25964e-04,-1.41751e-05,1.37200e-04,-3.72399e-05,-2.93396e-05,9.64684e-05,2.50716e-04,-1.80331e-04,3.04302e-05,-8.08889e-05,-2.62775e-05,-1.95841e-04,-1.01801e-04,-1.14803e-04,7.34150e-05,-1.28658e-04,-1.95785e-04,8.96383e-05,1.20137e-04,2.17768e-05,-1.29702e-04,2.65496e-04,-3.05918e-05,-4.68658e-05,-1.75570e-04,-7.48241e-05,1.23271e-04,1.47529e-04,8.48605e-05,2.10250e-05,-1.79735e-04,-2.41129e-04,-2.86487e-05,2.24392e-04,1.65924e-04,-2.14460e-04,-9.84692e-05,8.99828e-06,2.74261e-04,2.03229e-05,5.15876e-05,2.55151e-04,-6.54209e-05,-1.33944e-04,-1.57184e-07,5.53428e-06,-7.38601e-05,-2.44011e-04,-1.68817e-07,3.34359e-05,-1.34363e-04,-2.53567e-09,-9.46404e-05,-9.26972e-06,-3.81444e-05,-1.50295e-04,6.06775e-05,-3.75202e-05,1.80295e-04,2.46517e-04,3.64723e-05,-3.39250e-05,4.78577e-05,-2.50258e-04,-1.95595e-04,2.09666e-04,8.42431e-05,-7.65986e-05,-6.77024e-05,-6.40106e-05,-1.46785e-04,4.21987e-05,-7.38968e-05,-4.17172e-05,-1.41319e-05,-8.47327e-06,-6.17861e-05,1.76258e-05,2.68744e-06,5.46682e-05,6.75042e-05,1.62238e-05,6.24454e-05,1.08682e-04,-1.37791e-04,2.34750e-04,-1.04448e-04,-1.01068e-04,3.07884e-04,1.67208e-04,4.04530e-05,-1.24902e-04,-5.28291e-06,6.24195e-05,-2.25532e-05,-1.50294e-04,1.02524e-04,-9.94199e-06,-1.33650e-04,1.20675e-04,-5.17876e-05,6.29754e-05,-1.91513e-04,1.09184e-04,1.38470e-04,3.30097e-04,1.22726e-04,-2.48458e-04,-1.95840e-04,-7.50977e-05,-1.82778e-04,-6.32301e-06,3.39616e-05,9.19838e-05,5.72038e-05,-6.47660e-05,-2.52733e-04,-4.39422e-05,1.44441e-04,6.27817e-05,-9.16772e-05,-1.14825e-04,1.33932e-04,-1.18848e-04,7.02129e-05,-1.11077e-04,-7.37478e-05,1.33649e-04,-2.67059e-04,6.24172e-05,-1.29709e-04,5.95734e-05,-7.24359e-05,-1.76618e-05,-9.77388e-05,-7.55334e-05,8.33817e-07,2.25597e-05,3.28057e-04,-1.55032e-04,-7.36172e-05,-9.51253e-05,9.23252e-05,7.49115e-05,-1.19264e-04,-1.02190e-04,1.03672e-04,1.09739e-04,-1.17444e-04,2.60540e-05,2.90493e-08,-7.69125e-05,-1.02114e-04,-2.27078e-05,2.79131e-04,1.20577e-04,6.28934e-06,9.36069e-06,2.30109e-04,-7.26626e-05,-5.28291e-06,-2.64984e-04,6.13313e-05,-1.58560e-04,1.66261e-05,-1.33405e-04,1.40901e-04,4.43620e-05,-1.07023e-05,1.09193e-04,-8.75147e-07,-1.52393e-04,-7.42001e-06,-1.54647e-04,-2.41391e-04,1.95821e-04,2.46111e-04,-8.57853e-05,-2.15364e-04,-1.30525e-04,-1.48523e-04,1.17718e-04,3.85438e-05,1.47429e-05,-1.45550e-04,-4.73114e-05,4.36557e-11,1.11432e-06,-7.70107e-05,1.34174e-04,-1.89779e-04,3.13297e-05,1.37030e-04,-3.17168e-06,8.47333e-06,-8.95415e-05,8.71850e-05,1.72773e-05,-4.31233e-05,-8.55284e-05,-1.31701e-04,-1.24319e-04,2.86487e-05,1.70881e-05,-1.77715e-04,2.02905e-05,1.84434e-04,-3.17575e-04,-1.74453e-04,4.39084e-05,-7.50977e-05,-9.69329e-05,-1.54647e-04,1.49031e-04,-4.84774e-05,-3.62063e-05,-5.10577e-05,-1.84434e-04,1.66521e-04,-1.20316e-04,-7.14653e-05,-1.33424e-04,3.13299e-05,-3.64713e-04,-1.66254e-04,2.58296e-10,-2.52136e-04,1.29448e-04,-1.44424e-04,-3.56938e-04,-1.71315e-05,-1.46138e-04,-2.32440e-04,-2.67630e-04,1.50848e-04,3.29298e-05,-8.66068e-05,9.10460e-06,8.71401e-06,2.46136e-04,1.39642e-05,-1.81912e-04,5.74100e-05,2.99990e-05,2.75531e-05,5.31026e-06,8.14773e-05,1.85185e-06,-2.15291e-04,1.06650e-04,-7.87439e-05,1.95821e-04,-1.55184e-04,-3.32446e-05,
1.54898e-04,-7.87428e-05,8.34341e-07,6.01070e-05,1.68940e-04,9.40814e-05,-6.19808e-05,-6.47660e-05,-7.36172e-05,-1.78871e-05,2.36561e-04,-4.91398e-05,-6.80764e-05,4.12991e-05,9.54972e-06,-1.33421e-04,6.92040e-05,3.64157e-06,-2.68007e-05,7.30614e-05,-1.26425e-04,-7.04102e-05,2.41273e-04,9.93996e-05,1.26799e-04,3.09218e-05,1.29284e-04,7.95645e-05,-7.07095e-05,1.68321e-04,-1.58514e-04,-4.17170e-05,-4.85488e-08,-9.05068e-06,2.02272e-09,-8.49594e-05,1.22269e-04,6.36290e-05,3.30742e-04,3.26980e-04,2.24956e-05,1.26799e-04,-7.97378e-06,-1.75698e-06,5.63521e-05,-3.78534e-05,-8.40451e-05,1.31883e-04,-7.84341e-05,-1.62257e-04,-1.73237e-04,-2.44800e-05,1.82080e-04,-2.12447e-04,4.29281e-10,-1.83821e-04,6.61169e-05,1.84634e-04,-6.76435e-05,-7.00940e-05,-3.11088e-05,3.09931e-04,-1.40032e-05,-7.39582e-05,8.44205e-05,2.69699e-05,-3.40035e-05,-2.46893e-04,-1.28065e-04,-1.35396e-04,-1.95761e-04,-8.77609e-05,-1.83906e-05,-4.35859e-05,-4.21989e-05,1.29284e-04,3.10684e-04,2.25532e-05,1.65117e-05,1.76258e-05,-1.19603e-04,1.84634e-04,-1.68539e-04,6.05697e-05,2.41378e-04,-3.71296e-06,-1.23327e-08,-1.26348e-04,-7.55334e-05,1.23157e-04,-1.47620e-06,-7.34501e-05,2.99994e-05,-1.19841e-04,9.78753e-05,-2.38672e-04,2.06317e-04,1.02190e-04,-9.98659e-05,-9.73959e-05,-1.23327e-08,9.21849e-05,2.25597e-05,-1.48054e-04,9.71317e-05,5.15876e-05,-8.95416e-05,-1.34328e-04,-1.55184e-04,1.92619e-04,-1.59352e-05,-1.04344e-04,2.44011e-04,4.34668e-05,1.19258e-04,-1.66670e-04,5.03088e-05,6.40707e-05,1.33939e-04,2.30089e-04,-3.12788e-04,-1.37432e-04,1.54898e-04,1.82080e-04,7.17076e-05,1.57025e-04,1.85867e-05,-3.78535e-05,-2.24974e-05,-7.07445e-05,1.70780e-05,1.31335e-04,-5.44755e-05,1.55979e-06,-2.41130e-04,-1.13270e-05,1.45870e-04,-1.29396e-04,1.07538e-04,2.18317e-04,5.47296e-05,1.88632e-04,-2.94676e-10,2.47548e-04,1.03775e-04,-1.40035e-05,-6.15418e-05,1.78819e-05,2.52136e-04,-3.31043e-04,-4.83826e-05,-6.70068e-05,-1.26391e-04,2.98721e-05,-7.69259e-05,-1.55161e-04,2.99993e-05,1.85867e-05,8.47147e-05,7.63251e-05,-2.36561e-04,2.79309e-04,1.26270e-04,-3.41531e-04,-1.55108e-04,-1.05983e-04,-2.36050e-04,7.07398e-05,-7.92081e-05,-1.02355e-04,9.23039e-05,-7.52163e-05,1.84234e-04,1.33422e-04,1.02317e-04,-1.83197e-04,8.34225e-07,7.78912e-05,-3.38679e-06,-3.23491e-05,2.23028e-05,-5.57902e-06,2.34306e-04,-6.24703e-05,-7.97372e-06,-1.34124e-04,-2.51817e-04,-1.66175e-04,-6.15046e-05,6.24195e-05,-2.24905e-05,-1.84434e-04,-7.58152e-05,-4.87197e-06,6.24175e-05,-1.48735e-04,-2.17601e-05,2.44535e-04,-1.17581e-04,-2.47145e-04,1.23241e-04,-2.99017e-05,-6.30808e-05,9.60984e-05,-5.26248e-05,-3.04955e-05,1.48448e-04,-1.88642e-04,7.68430e-05,-1.93616e-04,-6.14713e-07,9.30819e-05,8.88144e-05,-3.76017e-05,-2.44599e-04,8.21124e-05,9.14482e-06,4.15778e-05,-1.28880e-04,-5.48580e-05,1.59874e-05,-1.93513e-04,4.09009e-05,1.95584e-04,6.83557e-05,5.46606e-07,-9.32988e-05,1.33649e-04,-3.30579e-04,-6.87353e-05,-1.34167e-04,-3.32793e-05,-1.99477e-04,-1.26427e-04,7.42039e-05,-1.03246e-07,3.26841e-05,1.24663e-04,1.33603e-04,1.70806e-04,-2.21569e-04,-2.27310e-04,-3.13561e-05,3.06952e-04,1.33421e-04,1.66924e-04,1.79525e-04,7.79689e-05,1.86608e-04,1.00214e-04,2.41129e-04,-2.69210e-10,5.32026e-05,1.33421e-04,1.17014e-04,-1.33405e-04,3.29836e-04,-6.82545e-05,-2.50732e-04,-9.18610e-05,1.09180e-04,-1.02911e-04,-1.19114e-04,-9.29900e-05,1.71483e-04,-1.95357e-04,5.48572e-05,-4.37956e-05,2.55151e-04,1.33421e-04,-1.73237e-04,-8.48893e-05,1.46353e-04,3.47245e-05,-9.05091e-06,1.33424e-04,-2.25444e-04,7.72748e-05,1.33939e-04,-2.43392e-04,-1.28122e-04,7.97355e-06,-3.34359e-05,4.93078e-05,2.49055e-04,-7.07398e-05,7.43593e-05,6.94756e-05,2.14002e-04,1.13190e-04,-1.34123e-04,7.39104e-05,1.55184e-04,-2.17608e-05,1.73237e-04,-1.25324e-04,3.80896e-04,3.64125e-06,1.74010e-04,2.13798e-04,7.60570e-05,-2.64238e-04,6.24184e-05,1.44424e-04,-3.06324e-04,-1.94655e-04,2.25594e-05,9.40368e-06,3.78534e-05,-1.92619e-04,-3.45185e-05,-4.82553e-05,-7.06824e-05,2.19003e-04,-2.08218e-05,1.95330e-04,6.21492e-06,6.80548e-05,-1.35641e-04,-1.06817e-05,-1.33967e-04,3.16495e-04,-2.79309e-04,-1.91712e-04,5.48390e-05,7.90702e-06,6.75149e-05,8.50322e-05,-7.07409e-05,-5.14429e-05,-1.09217e-04,-9.65487e-05,-7.76516e-05,-1.98546e-04,-1.11862e-04,1.49031e-04,-6.25765e-05,-1.29284e-04,9.06401e-05,2.25532e-05,-1.16947e-04,5.57902e-06,1.30818e-04,6.66093e-05,6.82110e-05,9.83858e-05,-3.37293e-04,1.99009e-04,-1.33685e-04,-5.48572e-05,6.83888e-05,2.37719e-04,-1.35057e-04,2.26617e-04,5.43423e-09,-1.39015e-05,3.84868e-05,-4.94184e-05,-6.84652e-05,4.17171e-05,-6.00874e-05,6.24173e-05,8.48578e-05,-1.94931e-04,2.76238e-05,-4.09320e-05,-1.17821e-04,2.67836e-05,-1.04929e-04,-1.31242e-04,-1.44686e-04,-2.45434e-04,1.07246e-06,1.12139e-05,1.31252e-04,3.13304e-05,2.38670e-04,-1.63772e-04,-9.16107e-05,8.40353e-05,-2.21484e-07,-9.62832e-05,1.66521e-04,-1.22725e-04,2.26367e-04,1.26348e-04,-8.49594e-05,-1.64610e-04,2.12341e-04,-1.66956e-04,1.60120e-04,3.38013e-05,-1.40829e-05,-7.33629e-05,1.68817e-07,7.53065e-05,-9.06660e-05,-5.28291e-06,2.56754e-04,6.07554e-06,4.78970e-05,2.86487e-05,1.75981e-04,-1.83914e-04,-4.17169e-05,-5.48390e-05,5.79617e-05,2.54659e-11,-4.16817e-05,-3.15322e-04,4.13503e-06,-7.30471e-05,6.38350e-05,-3.88998e-05,2.50489e-04,5.71851e-05,-1.86813e-05,-1.23356e-04,-6.34564e-05,-1.42509e-04,-6.41839e-05,-1.02763e-04,-1.33939e-04,9.45833e-05,7.73729e-05,6.13348e-05,-1.79812e-04,1.61986e-05,-5.99366e-06,1.92164e-04,1.86275e-04,1.30874e-04,3.13587e-05,-1.13258e-04,-5.48572e-05,1.37290e-04,-9.63544e-05,6.04599e-05,1.96112e-04,4.77376e-08,1.38462e-04,-1.66670e-04,-1.08686e-04,1.27128e-04,-2.39220e-04,-1.92339e-04,-3.36632e-04,-9.06678e-05,4.05097e-05,3.29173e-04,6.34564e-05,1.28301e-04,5.74801e-10,-9.23174e-05,-1.40327e-04,4.15779e-05,2.08219e-05,-3.08345e-05,-1.33735e-04,1.48523e-04,9.07463e-05,-2.08220e-05,-5.97272e-05,-3.04838e-05,1.22041e-04,-1.03917e-04,1.59360e-05,-3.17494e-07,-8.71850e-05,1.54173e-04,-2.43277e-04,3.94498e-05,-1.18757e-04,-1.55183e-04,2.17648e-05,1.34201e-04,-1.16805e-04,3.39251e-05,-9.62831e-05,3.41492e-04,1.04344e-04,-2.49933e-04,2.17605e-05,4.17126e-05,1.94931e-04,6.96866e-05,1.25001e-05,1.55032e-04,8.21917e-05,6.14643e-05,1.29427e-04,-2.50202e-04,-8.83931e-05,-6.24322e-05,3.08575e-04,-8.14907e-10,3.88997e-05,-2.22293e-04,-7.59689e-05,-6.32369e-06,
-3.40491e-05,1.02763e-04,-2.06317e-04,1.55141e-04,1.51486e-04,-9.51199e-05,-1.62762e-05,-3.38840e-05,-9.83250e-05,-2.07191e-04,2.16542e-04,-9.98210e-05,-1.35057e-04,6.76435e-05,6.38773e-05,1.56030e-04,4.93078e-05,2.77132e-04,-1.95912e-04,-1.44424e-04,-9.07463e-05,1.37654e-04,9.75468e-05,3.48136e-05,2.43698e-05,2.16766e-04,-6.24175e-05,-1.02191e-04,-4.04268e-05,-6.76529e-05,5.94416e-05,6.00845e-05,1.51604e-04,1.23384e-04,1.47529e-04,1.39430e-05,-9.69623e-07,-7.55806e-05,3.22810e-05,-1.52444e-04,-2.46960e-04,1.55182e-04,2.04071e-04,-1.82092e-04,1.83678e-05,1.04757e-04,2.09151e-04,1.31335e-04,-1.22726e-04,1.29284e-04,-1.54511e-05,1.63438e-04,-1.32388e-04,-7.68421e-05,-1.82573e-04,1.55172e-04,1.58338e-05,1.37313e-04,-1.66529e-04,1.66670e-04,1.02191e-04,6.97365e-05,-1.30818e-04,-3.77622e-09,-5.97218e-07,-2.07870e-04,9.70462e-05,1.25271e-04,1.99190e-04,2.76486e-10,-1.24515e-04,1.78871e-05,7.90713e-06,-1.06770e-05,-7.67565e-05,1.14808e-04,3.83944e-05,2.98718e-05,-1.10096e-04,8.90601e-05,-1.95768e-04,-4.17171e-05,-7.97378e-06,9.32204e-05,1.11616e-04,1.27820e-04,-8.11579e-05,8.19845e-06,-3.47726e-06,9.70735e-05,1.20677e-04,2.92638e-07,1.33414e-04,-1.55161e-04,2.41422e-04,-1.28123e-04,-1.32612e-04,-2.02272e-09,-3.22810e-05,2.29475e-04,-1.59799e-04,-3.00286e-06,7.42207e-05,2.02272e-09,-5.76752e-05,1.29529e-04,-1.54647e-04,3.25190e-04,-1.15116e-06,1.68567e-04,-4.36557e-10,-1.17852e-07,1.16464e-04,1.47610e-04,1.31201e-04,3.43050e-05,2.46946e-04,-1.41208e-05,1.03641e-04,1.14856e-04,-6.50041e-05,-3.78703e-05,1.33421e-04,-5.61061e-05,1.99082e-04,-3.89005e-05,1.37783e-04,-4.69081e-05,-2.50771e-04,-5.42886e-05,6.27700e-05,-2.22066e-07,3.43326e-05,-1.28766e-04,1.10332e-04,-1.03298e-04,-7.89679e-05,1.06771e-05,-6.24175e-05,-2.14336e-08,-2.50258e-04,-6.67381e-05,1.50301e-04,3.00298e-06,1.95704e-04,8.81921e-05,-1.55161e-04,9.06661e-05,1.95841e-04,4.77376e-08,5.85176e-05,-6.24195e-05,6.24172e-05,-4.34668e-05,-1.55178e-04,2.13751e-05,1.22840e-04,-1.22839e-04,2.76283e-05,8.47320e-06,7.46755e-05,-6.75036e-05,-6.15468e-05,-2.52745e-05,6.18456e-11,-1.66251e-05,3.57216e-05,-5.25630e-05,1.31201e-04,-1.87554e-05,6.24175e-05,-3.41716e-05,3.32443e-05,-9.40690e-05,8.25152e-05,-3.36824e-05,2.17615e-05,1.56866e-04,1.38558e-04,1.26805e-04,2.20959e-04,-3.33230e-05,-3.97752e-06,9.18610e-05,-2.31472e-05,2.22855e-04,-1.59360e-05,-1.57034e-04,1.63234e-04,3.56837e-05,3.32443e-05,-2.17608e-05,-7.73884e-05,-2.32745e-05,-1.32605e-04,-1.59360e-05,-2.32831e-10,2.38537e-04,-1.33301e-04,-9.80908e-05,-4.77376e-08,2.25280e-04,1.09217e-04,1.40032e-05,1.24664e-04,-6.24173e-05,2.19070e-04,-1.81609e-05,-1.24867e-04,-1.40738e-04,1.94129e-04,1.84235e-04,1.82018e-04,-1.50295e-04,-1.60249e-04,-4.00178e-10,5.18613e-05,1.35651e-04,-5.47472e-06,2.16236e-05,1.97935e-04,-2.64994e-05,1.33423e-04,-2.11190e-04,1.28301e-04,9.16373e-05,2.38670e-04,-7.95761e-05,-5.23001e-05,-3.75220e-05,1.92688e-05,1.84527e-04,-9.94199e-06,-6.15458e-05,1.19896e-04,1.95584e-04,2.50258e-04,-1.20686e-04,-2.24388e-04,-1.06816e-05,-2.92522e-07,-2.61989e-04,-1.55161e-04,-1.14106e-04,-1.29193e-04,2.11989e-04,-1.19518e-04,-1.10624e-05,1.85594e-04,5.86410e-05,-3.55272e-05,-1.34061e-04,-1.42915e-04,5.74945e-05,1.29763e-04,-2.05084e-04,1.30914e-04,3.22810e-05,1.66528e-04,4.15776e-05,6.59721e-05,-1.01073e-04,-1.04161e-04,1.09739e-04,-1.79527e-04,-1.73237e-04,1.75276e-04,-1.75078e-04,-9.23089e-05,9.23107e-05,-1.27079e-04,2.24905e-05,-8.48578e-05,-1.97929e-04,6.24172e-05,-9.00961e-05,2.38847e-04,1.09193e-04,-1.20841e-04,-9.51198e-05,-1.88770e-04,-1.84235e-04,5.82617e-05,2.70696e-04,1.19114e-04,1.09739e-04,5.61062e-05,1.55182e-04,-2.53785e-08,5.52511e-05,3.23548e-05,1.16760e-04,-8.43382e-05,-7.76213e-05,-1.76258e-05,-1.66114e-04,-6.24184e-05,1.95840e-04,-2.84408e-05,2.46945e-04,1.68132e-04,1.51762e-05,-7.95646e-05,-1.09193e-04,7.81117e-05,-2.54677e-07,2.46504e-04,-2.69034e-04,-1.19258e-04,6.10011e-05,4.40195e-10,-2.91038e-09,-7.55196e-05,-1.92385e-04,-1.59641e-04,-6.90168e-05,8.65282e-05,3.78535e-05,-4.67251e-07,3.34334e-05,-9.83250e-05,-1.44583e-04,7.66951e-05,7.42676e-06,3.04954e-05,-7.07331e-05,7.28282e-05,-2.32876e-05,1.35395e-04,1.54508e-05,-3.77622e-09,7.95646e-05,-8.97562e-08,-1.82091e-04,5.10774e-05,-1.65908e-04,6.75065e-05,3.67980e-05,-5.57799e-05,-1.95821e-04,1.14825e-04,1.19258e-04,-1.17821e-04,-2.26671e-05,1.84235e-04,2.54438e-04,-1.02317e-04,1.09662e-04,1.85134e-06,-3.40544e-05,-1.01507e-04,-3.53419e-05,1.62074e-05,1.42864e-04,-2.69699e-05,-1.84527e-04,-1.10595e-09,5.10518e-05,5.99164e-05,1.33414e-04,2.50215e-04,1.86444e-04,1.55032e-04,-1.06771e-05,2.05084e-04,1.47073e-05,-1.28187e-04,3.38840e-05,-2.46960e-04,-8.89910e-05,8.61309e-05,5.82617e-05,-7.55335e-05,1.95803e-04,2.53662e-04,-2.17605e-05,-6.06775e-05,-9.46011e-05,-3.48647e-05,1.67513e-05,-2.50050e-04,2.91380e-04,6.62595e-05,4.20308e-05,6.69584e-05,-1.33301e-04,8.44143e-05,8.38833e-05,-5.26248e-05,-1.22694e-04,-7.65673e-05,-1.48597e-04,2.55795e-05,-8.00108e-05,-1.29319e-04,-1.27797e-04,2.19685e-05,1.02648e-04,1.35295e-06,-3.09673e-04,-1.36775e-04,-2.17605e-05,3.28782e-04,4.98635e-05,-5.23073e-05,4.13455e-06,1.13663e-04,1.96157e-04,4.77873e-05,2.53058e-08,-2.50505e-04,-1.72933e-04,-5.93619e-05,1.35395e-04,8.71850e-05,1.02763e-04,-2.56097e-04,-7.45269e-05,2.56792e-04,8.48605e-05,-1.94931e-04,2.24009e-04,-8.48733e-05,-1.95830e-04,-1.82090e-04,-2.63838e-04,1.33405e-04,8.15624e-06,-1.10485e-04,-2.17768e-05,-1.28733e-04,-1.23634e-04,3.38750e-05,-3.36820e-05,1.59234e-08,-9.02156e-05,1.77714e-04,-9.84522e-05,-9.63494e-05,-8.71149e-06,6.00284e-05,1.41215e-04,1.54647e-04,5.85737e-05,1.14825e-04,-2.16533e-04,8.33934e-07,-1.29193e-04,-1.28122e-04,7.88183e-05,1.38465e-04,3.00521e-05,-1.78871e-05,1.95840e-04,1.26425e-04,8.48578e-05,1.25303e-04,-7.42653e-06,-8.36735e-11,-1.19264e-04,1.55183e-04,7.45943e-06,1.33459e-04,-4.33125e-05,3.34356e-05,-1.77714e-04,-1.88213e-04,6.26048e-05,-1.66251e-05,7.81706e-05,-1.82701e-04,-1.09193e-04,-7.42068e-05,-1.37596e-04,1.26112e-04,-3.79309e-05,1.02523e-04,3.37633e-04,-6.83519e-05,1.39111e-04,-2.18279e-11,-3.41710e-05,-1.36094e-04,2.41169e-04,4.84744e-05,3.13561e-05,8.51231e-06,1.51604e-04,9.68783e-05,-3.88997e-05,-1.02934e-04,-2.59627e-04,2.88093e-05,-6.68367e-05,6.75078e-05,7.97425e-06,2.24956e-05,-1.70392e-04,3.34188e-05,8.49594e-05,
-6.50241e-05,1.95704e-04,-1.23634e-04,-5.57902e-06,8.69965e-05,-5.21479e-05,1.51022e-07,-1.78770e-04,7.37823e-05,-8.40672e-05,5.82617e-05,2.41117e-04,-6.66093e-05,-5.44755e-05,1.71326e-05,-1.25044e-05,7.97355e-06,2.13901e-04,-1.93920e-04,3.26841e-05,6.66780e-05,3.29944e-04,-6.24175e-05,-1.37596e-04,1.38462e-04,-2.43125e-04,2.15803e-04,2.31472e-05,3.78699e-05,-3.63798e-12,-1.66500e-04,-2.18709e-05,1.40829e-05,8.21917e-05,1.20263e-05,-3.57763e-04,3.97752e-06,7.68154e-05,6.54547e-05,1.01868e-05,-1.55161e-04,-6.52969e-05,7.78343e-05,1.29756e-04,-1.83197e-04,3.30344e-04,-5.61003e-05,-3.10414e-04,-6.25169e-05,-3.89004e-05,-1.38470e-04,-9.23951e-05,6.08253e-05,4.87817e-08,-1.54898e-04,3.11136e-04,2.21520e-05,2.17601e-05,-2.10204e-04,1.52063e-05,-2.17768e-05,-1.14106e-04,-1.33405e-04,-1.45872e-04,-3.11494e-04,1.08660e-04,-8.90568e-05,1.38465e-04,2.69638e-04,1.55103e-04,-1.83198e-04,-6.45318e-05,-1.19234e-04,-1.95840e-04,-4.39422e-05,1.81917e-04,4.68481e-05,2.16230e-04,-7.24701e-05,-7.55362e-05,-4.84774e-05,2.16832e-04,-2.16335e-04,1.72869e-05,6.15465e-05,8.21114e-06,-1.14106e-04,2.16999e-04,-7.61102e-05,1.51604e-04,1.84527e-04,-1.32989e-04,-4.35859e-05,1.02763e-04,4.23011e-05,5.99506e-05,-1.02191e-04,-6.24195e-05,-8.02465e-05,3.26860e-05,1.20718e-04,-5.10577e-05,1.23634e-04,-1.96265e-04,-1.39240e-04,1.94185e-04,-1.34124e-04,-1.08686e-04,-1.68444e-04,1.29762e-04,1.32989e-04,-1.80413e-04,7.44400e-05,7.27596e-11,3.75424e-05,-1.81135e-04,-6.30808e-05,4.65462e-05,3.81444e-05,7.44837e-05,1.14808e-04,-7.09227e-05,2.57230e-05,-1.55181e-04,6.26048e-05,-2.47494e-04,1.95830e-04,-6.22587e-06,-3.79305e-05,1.24664e-04,-6.24195e-05,-1.99361e-09,1.33424e-04,-2.86487e-05,6.30808e-05,-1.33414e-04,4.00178e-10,-1.42135e-04,1.76258e-05,1.33423e-04,1.25512e-04,-2.47912e-05,-8.49594e-05,1.67486e-04,-1.33933e-04,8.09888e-06,2.15906e-04,2.42268e-04,-1.35395e-04,-1.26631e-04,-6.36355e-08,2.50505e-04,2.06316e-04,-1.95838e-04,-4.23010e-05,-3.41171e-05,-1.30042e-04,1.95840e-04,-1.67528e-04,1.63577e-04,-1.06772e-05,3.32444e-05,1.78871e-05,7.46322e-05,-2.11392e-06,2.26175e-04,-6.94755e-05,-2.49782e-04,-1.55103e-04,-1.78871e-05,9.10388e-05,-2.14054e-04,2.24956e-05,2.31472e-05,2.20290e-04,-8.33934e-07,-1.81102e-04,-2.39841e-05,2.42599e-05,-2.41169e-04,1.67494e-04,-1.82090e-04,2.34306e-04,7.90667e-06,-3.04953e-05,1.95841e-04,2.42277e-04,-2.41129e-04,5.57902e-06,-6.83888e-05,1.35416e-04,-9.23951e-05,1.31335e-04,7.97425e-06,2.64994e-05,-6.52487e-05,-2.22823e-05,2.63107e-04,8.21149e-06,3.32447e-05,-7.07448e-05,-3.78534e-05,1.28859e-04,-1.22726e-04,-1.81600e-04,-1.35395e-04,-1.74377e-04,-1.94784e-04,1.08686e-04,6.33349e-05,-3.11414e-04,-1.29232e-04,1.33419e-04,-1.78814e-04,1.30011e-04,5.21479e-05,3.26860e-05,7.07811e-05,1.06650e-04,5.28338e-05,2.50216e-04,-8.49550e-05,-3.30662e-04,-1.03515e-04,-7.39425e-05,1.34174e-04,-1.29284e-04,9.05144e-06,1.45144e-04,6.24179e-05,-1.80671e-04,-1.82091e-04,3.41866e-05,-1.95838e-04,-1.95821e-04,-1.02763e-04,-2.12982e-04,-1.93406e-04,3.34188e-05,2.48374e-04,2.05877e-04,1.09217e-04,-8.76969e-05,2.28848e-04,3.41710e-05,-7.38131e-05,2.30764e-04,-1.65153e-05,-1.29580e-04,7.69288e-05,5.93619e-05,-1.31073e-04,-1.40829e-05,-1.27968e-04,1.24497e-04,-3.78534e-05,1.45820e-05,-1.35506e-04,1.02317e-04,-6.34827e-05,2.17615e-05,-9.27270e-05,3.39250e-05,8.33817e-07,3.54931e-06,-7.58076e-05,6.06775e-05,1.33301e-04,-1.93817e-04,-1.08515e-04,7.75057e-05,-6.06775e-05,2.53785e-08,2.02272e-09,3.08362e-05,-1.23801e-04,1.76258e-05,7.07367e-05,1.33608e-04,-1.14131e-05,2.50825e-04,4.39428e-05,3.38841e-05,1.29310e-04,1.89028e-04,-1.29285e-04,-4.98635e-05,1.27633e-04,-7.20441e-05,1.19264e-04,-5.55045e-05,4.39423e-05,-1.28867e-04,3.00298e-06,7.35793e-05,1.44709e-04,1.01073e-04,6.30808e-05,-7.07807e-05,-2.23025e-05,-7.58582e-05,7.39946e-05,3.29713e-04,1.97638e-04,2.19685e-05,1.08509e-04,-7.50089e-05,-2.54252e-05,-1.88642e-04,1.33421e-04,-3.13561e-05,-2.18441e-04,1.33414e-04,7.07448e-05,1.33424e-04,-1.83198e-04,-7.97401e-06,1.27968e-04,-4.23669e-05,3.28813e-04,-4.59255e-05,-1.48448e-04,-1.52319e-04,1.33933e-04,1.08687e-04,-3.86228e-05,6.15148e-05,-1.32989e-04,1.53456e-04,-1.80832e-04,-1.78871e-05,-1.82080e-04,-7.65673e-05,5.57902e-06,-7.38179e-05,3.06351e-05,-4.07289e-05,-1.06818e-05,-9.23173e-05,1.83198e-04,-2.15658e-04,1.81600e-04,2.47082e-04,-1.29329e-04,-3.30701e-04,1.31242e-04,-5.73959e-05,1.23733e-04,1.33422e-04,3.23688e-05,-3.06748e-05,-1.31925e-04,2.17605e-05,-1.29819e-04,-1.10595e-09,-1.23241e-04,2.84989e-04,-1.09942e-04,-5.28291e-06,2.06257e-04,-1.47529e-04,1.03314e-04,-1.93266e-04,5.28338e-05,-1.33424e-04,1.95840e-04,-2.54253e-05,-1.33424e-04,-1.03843e-04,-7.41781e-05,3.10235e-04,1.35235e-05,2.50214e-04,-3.42795e-04,-4.11509e-05,-6.87353e-05,8.21125e-06,-2.17689e-05,8.21965e-08,-1.79187e-04,-1.55184e-04,5.62170e-05,7.48444e-05,-1.93146e-04,1.53662e-04,-5.86410e-05,1.29193e-04,-6.01359e-05,1.55452e-04,-1.51398e-04,-2.66706e-05,5.93619e-05,-5.08424e-06,-3.37793e-04,9.23222e-05,2.17787e-04,-6.66630e-05,-1.28867e-04,1.37087e-04,-1.34061e-04,1.94264e-04,-1.35321e-04,-5.48548e-05,1.02764e-04,-4.39431e-05,-6.79042e-05,-1.19841e-04,-6.15148e-05,1.95840e-04,-3.57478e-05,-1.30820e-04,3.29533e-04,-9.23998e-05,-7.71556e-05,-3.26860e-05,-1.66251e-05,-1.84527e-04,2.15113e-04,-7.73836e-05,-1.81393e-04,-3.79303e-05,-9.34053e-05,7.33358e-05,-1.38271e-04,6.36656e-05,7.06102e-05,8.21114e-06,1.33192e-04,1.54173e-04,-1.91266e-04,3.00159e-06,2.41130e-04,7.23531e-06,-2.76765e-05,-7.36519e-05,-4.23008e-05,-2.17601e-05,-6.09267e-05,1.33940e-04,-2.25596e-05,1.17482e-04,2.25594e-05,-1.80804e-04,-7.50859e-05,3.88999e-05,-8.02480e-05,2.50208e-04,2.10813e-04,1.40829e-05,-1.33937e-04,-1.08686e-04,1.22839e-04,-1.33570e-04,2.41135e-04,-1.74528e-04,1.54647e-04,-1.82080e-04,-2.46764e-04,-5.28291e-06,-1.30978e-04,-9.38271e-05,-1.48945e-04,-7.50977e-05,3.79307e-05,2.06317e-04,1.35395e-04,4.23010e-05,-6.45220e-05,-1.02155e-04,-1.29487e-04,1.94786e-04,7.07448e-05,-1.19114e-04,7.97366e-06,-8.33200e-05,-2.25597e-05,-1.94458e-04,-2.98983e-05,-3.86389e-05,-7.32411e-05,-7.07410e-05,-1.54647e-04,-7.87428e-05,-1.35396e-04,2.41391e-04,1.64324e-04,1.71360e-05,3.06357e-05,-2.53722e-04,-2.11567e-04,1.02317e-04,-2.20227e-05,-2.16562e-04,6.15384e-05,1.55178e-04,-1.39112e-08,-1.95841e-04,-3.88997e-05,3.79308e-05,8.33200e-05,
1.59327e-04,1.28122e-04,5.58899e-06,1.07283e-01,-1.79609e-02,3.62604e-05,-9.21579e-05,-5.74801e-10,-1.02852e-07,8.22465e-05,-2.48103e-04,-2.42203e-05,-4.23011e-05,1.07538e-04,-1.13298e-04,2.17615e-05,-1.00002e-04,-1.64619e-04,-8.41895e-02,-2.81493e-02,-3.26350e-01,-1.29763e-04,2.27244e-04,-3.10064e-04,1.35437e-04,3.25746e-02,3.21324e-05,9.87439e-03,-2.30821e-04,2.19113e-04,1.27079e-04,-1.77715e-04,8.86121e-05,1.22726e-04,-5.60931e-01,1.09883e-05,-6.00870e-05,-2.00699e-04,2.73766e-05,5.37983e-05,1.42453e-04,3.04240e-05,-5.68655e-05,-1.59923e-04,1.86813e-05,6.24322e-05,-9.51200e-05,-6.09995e-03,-1.10307e-04,2.66884e-04,-6.52894e-05,1.12355e-06,7.75650e-05,-2.39066e-04,1.86900e-04,-2.39864e-04,5.49818e-06,8.71850e-05,3.51238e-04,-2.98551e-04,1.14808e-04,5.62177e-05,3.41168e-05,-1.95841e-04,6.27984e-05,1.28566e-04,3.96126e-04,-4.71512e-05,-6.94986e-05,7.83284e-08,-1.94841e-04,-1.01932e-05,-1.23440e-05,-2.01593e-01,2.17626e-05,-4.00631e-05,-6.21246e-06,-1.23401e-04,-6.45651e-06,-2.00071e-04,1.29762e-04,1.73767e-04,-1.83330e-02,2.55544e-05,-7.90725e-06,-5.97218e-07,-1.31252e-04,8.43497e-05,-2.17615e-05,-2.18190e-05,-7.55385e-05,3.13763e-05,-2.69699e-05,-1.14825e-04,7.95646e-05,-1.26728e-04,1.35506e-04,3.86877e-05,-2.06419e-06,-2.15205e-04,9.33966e-05,9.12779e-02,2.53785e-08,-1.26583e-04,-4.01456e-05,1.24924e-05,-2.17689e-05,2.02933e-02,-3.39247e-05,-2.41122e-04,3.56474e-02,1.37200e-04,2.45582e-04,-8.43382e-05,-2.30040e-05,5.39492e-04,-4.90145e-08,-6.06775e-05,-3.37200e-04,4.68941e-02,3.12064e-04,5.72820e-05,7.65505e-05,-7.03523e-01,1.33192e-04,7.30655e-05,1.07544e-04,8.02465e-05,-1.31242e-04,-1.56866e-04,8.34225e-07,8.33200e-05,-4.28331e-05,-1.02763e-04,1.09185e-04,3.65547e-01,-2.62766e-01,1.40034e-05,3.64133e-06,1.78194e-04,2.35943e-04,-9.73094e-06,1.47738e-04,-6.25169e-05,1.53839e-04,-3.29057e-06,9.39355e-03,4.91309e-08,-1.22679e-04,1.55183e-04,-1.13536e+00,-1.01702e-05,8.81426e-07,-1.89835e-05,1.25012e-05,-1.07458e-04,2.92624e-07,-1.10095e-04,-6.54376e-05,1.91049e-04,-1.95835e-04,-1.33424e-04,-4.03753e-05,-6.87948e-02,3.42029e-05,2.08752e-06,2.00154e-05,3.17751e-04,-5.82617e-05,-8.71850e-05,6.24195e-05,1.33414e-04,6.18766e-05,8.21747e-08,-6.05019e-03,1.44906e-04,-7.35077e-05,-2.49301e-04,-8.31067e-05,1.71322e-05,5.24380e-04,-2.21717e-07,8.69772e-05,8.94444e-05,-1.19841e-04,5.86450e-05,-2.17626e-05,2.44914e-04,1.25037e-04,-5.61062e-05,-3.38014e-05,-7.63169e-05,-7.74832e-05,1.95835e-04,2.50216e-04,5.23820e-05,-1.94129e-04,-4.58261e-02,5.47326e-05,2.33311e-04,-2.39841e-05,1.28784e-01,-8.48538e-05,1.42411e-02,3.34352e-05,-2.18279e-11,9.59168e-02,-1.28153e-04,3.10000e-05,1.28123e-04,9.77328e-05,-8.90911e-05,3.12282e-04,8.79548e-05,4.72633e-03,-6.43980e-05,8.13189e-05,-6.46116e-03,5.48547e-05,-7.23248e-05,3.21854e-05,2.01660e-07,2.50258e-04,6.23491e-05,-1.92015e-02,-2.10422e-04,-6.24179e-05,-1.05899e-01,-4.94943e-05,1.85188e-04,2.43698e-05,1.13258e-04,-1.37236e-01,7.17074e-05,2.55777e-05,-1.33940e-04,-3.30487e-05,1.87268e-04,6.69883e-05,-9.60193e-05,2.53766e-04,-2.23028e-05,1.44374e-04,1.85145e-06,-8.68943e-05,8.99142e-02,-1.14825e-04,-1.94781e-04,6.33316e-05,-2.84660e-01,5.10921e-01,1.06169e-01,4.84275e-01,5.46996e-03,-1.34823e-08,3.86115e-05,2.11018e-01,-1.20982e-05,1.95535e-01,6.99689e-05,3.91443e-01,1.34124e-04,2.17615e-05,-4.94055e-05,-9.03609e-06,-3.59186e-04,-5.18148e-03,-3.62063e-05,-4.18660e-02,-5.72653e-05,1.29357e-04,-2.86092e+00,-5.57125e-05,-7.97350e-05,1.87268e-04,-1.76835e-05,9.74782e-05,-1.61618e-05,1.94137e-04,1.06239e-02,-3.78702e-05,-1.91848e-05,8.88213e-03,-4.21699e-05,-7.75358e-05,-2.57536e-04,5.58889e-06,1.89739e-04,1.93991e-02,1.90499e-03,-7.28681e-05,-1.53282e-04,5.59319e-05,1.09939e-04,1.51604e-04,2.22389e-04,-2.29116e-02,3.23304e-01,2.12686e-04,-2.38255e-05,-1.71563e-04,-1.26391e-04,1.33939e-04,-7.07808e-05,-3.56392e-06,-1.37596e-04,5.47326e-05,1.29070e-04,-1.84235e-04,-4.90586e-05,-2.23026e-05,-3.70701e-02,1.80927e-04,4.43773e-03,-6.27817e-05,-2.82427e-05,-2.63837e-04,-1.30820e-04,-2.80847e-03,-2.53963e-01,9.14201e-06,5.48545e-05,-4.43108e-01,6.15418e-05,2.92594e-07,2.46960e-04,1.55141e-04,-2.00190e-04,-1.71331e-05,-8.55282e-05,2.64326e-04,-1.53509e-04,-7.99410e-03,4.83884e-05,1.18709e-04,-1.99714e-05,5.04303e-01,-1.19865e-04,8.21080e-05,-1.31371e-04,-1.42351e-01,-1.39939e-02,-1.51466e-05,-5.85751e-08,-4.15762e-05,-2.16922e-04,4.34275e-03,-2.47863e-03,-1.85072e-02,-3.77400e-06,-1.85231e-03,6.27700e-05,-1.44424e-04,7.51358e-05,7.84683e-05,1.98000e-04,1.08687e-04,5.99356e-06,-2.99660e-02,-7.79058e-05,-1.87203e-02,-4.20249e-05,5.68416e-05,-6.75038e-05,-9.80357e-05,-8.57573e-05,2.04234e-03,1.09739e-04,-6.24214e-05,4.53746e-02,-2.01577e-05,1.52923e-02,-6.24179e-05,1.14825e-04,-7.15244e-05,1.74514e-04,-3.02378e-05,1.08867e-09,3.51227e-04,9.18610e-05,4.34668e-05,2.13656e-04,1.22726e-04,1.13188e-04,2.40287e-04,3.25512e-04,-1.30717e-02,-2.83392e-03,-2.31895e-03,-1.03917e-04,-2.17915e-05,-2.46960e-04,8.33934e-07,-2.53088e-04,-1.39148e-02,-9.49276e-02,1.18350e-04,-5.07390e-02,2.39549e-03,-6.29579e-05,7.84264e-03,1.23940e-04,-1.10768e-05,-2.08218e-03,-3.59449e-04,1.17722e-04,-2.29285e-04,-3.35246e-05,3.38679e-06,-1.50693e-05,1.88067e-04,9.85823e-05,-1.19073e-05,-1.04343e-04,-1.50577e+00,-2.06268e-04,-6.24251e-05,-9.10513e-06,-1.06411e-10,5.56574e-05,-3.34334e-05,6.98109e-05,-1.24629e-04,9.82324e-05,-1.29750e-04,-7.87532e-05,4.09502e-05,-2.47063e-01,3.32441e-05,-6.36121e-05,3.29240e-04,2.25553e-02,9.84692e-05,1.33389e-04,1.36242e-01,-6.77026e-05,-9.05091e-06,-7.92977e-01,-2.64284e-01,-2.52636e-04,2.34306e-04,3.57447e-01,1.21166e-04,-2.15070e-04,1.94880e-01,-3.94430e-05,-4.45251e-01,3.19860e-05,-7.95646e-05,3.57203e-05,-1.90125e-02,-1.61943e-02,-2.31472e-05,-1.79527e-04,-1.55182e-04,1.37743e-01,1.55161e-04,-5.28291e-06,-1.34985e-05,-7.09183e-05,3.29692e-04,-3.06352e-05,7.43326e-05,1.37596e-04,1.44382e-04,-7.13537e-06,5.99505e-05,1.05344e-04,4.13502e-06,-1.63887e-04,-1.87211e-02,6.77675e-05,1.50334e-04,9.68670e-05,2.41129e-04,-8.03328e-05,-1.93553e-04,-2.34306e-04,-6.24251e-05,2.50283e-05,2.52150e-04,-3.09222e-01,1.51161e-04,-1.27461e-02,-7.88800e-06,4.28331e-05,-5.19940e-05,-3.39247e-05,7.87961e-05,3.12259e-04,2.91334e-04,3.21252e-04,6.87353e-05,-1.97662e-04,-1.37686e-02,-1.66956e-04,-1.28226e-04,2.69874e-06,3.21750e-04,-4.59255e-05,
-8.21124e-05,2.44129e-05,-4.84324e-08,-3.38679e-06,-9.62832e-05,2.06622e-04,-2.64994e-05,5.57902e-06,-3.41170e-05,-1.93897e-04,-2.43144e-04,-6.62595e-05,9.63495e-05,1.32605e-04,-3.91464e-05,3.58403e-05,1.95835e-04,-5.45697e-11,8.55328e-05,3.34359e-05,1.34123e-04,1.51604e-04,1.03775e-04,-1.33944e-04,2.04884e-04,-1.84235e-04,8.82044e-06,3.97752e-06,-2.27310e-04,8.47359e-06,1.37596e-04,-3.41713e-05,1.00685e-05,-1.36094e-04,-7.32143e-11,-1.03672e-04,5.12829e-05,-9.10513e-06,1.54173e-04,2.43201e-04,1.36094e-04,1.82080e-04,1.89779e-04,1.08681e-04,-9.40690e-05,-1.84528e-04,1.73786e-04,3.34330e-05,1.03314e-04,-1.38786e-04,-2.99994e-05,-1.95841e-04,1.06650e-04,2.31472e-05,1.55032e-04,7.72521e-05,-2.06268e-04,3.97752e-06,-7.34230e-05,-4.65056e-07,-3.08345e-05,-7.49115e-05,2.47488e-05,3.39191e-05,-6.50241e-05,1.29699e-04,-1.01507e-04,-1.02990e-07,7.49602e-05,1.22726e-04,5.97218e-07,-1.31310e-04,-7.73284e-05,7.41613e-05,-8.51209e-06,-1.53282e-04,-4.62023e-10,-1.47529e-04,-8.48578e-05,-1.47540e-04,1.27714e-04,6.26048e-05,-1.54647e-04,-2.98676e-05,-7.50449e-05,-1.84610e-04,-3.78703e-05,-7.67651e-05,1.68817e-07,2.17626e-05,4.26627e-05,-2.45894e-05,2.19205e-04,-1.04923e-04,1.92902e-04,-2.06268e-04,-1.08686e-04,-3.08345e-05,2.24974e-05,1.98233e-04,-1.28867e-04,-1.12355e-06,1.62541e-04,5.82617e-05,1.55141e-04,-8.49594e-05,1.10165e-04,1.29770e-04,1.23634e-04,2.35145e-04,9.79799e-05,-7.21036e-05,1.30230e-04,-1.55184e-04,-1.83860e-04,-1.08686e-04,1.92302e-04,-2.09903e-04,6.68367e-05,6.82543e-05,-8.02521e-05,-1.94129e-04,-3.04639e-05,-6.24173e-05,1.33422e-04,3.41171e-05,-6.87431e-05,1.95841e-04,-6.24172e-05,1.40829e-05,-6.55531e-05,1.50294e-04,-7.42177e-05,1.29702e-04,1.09184e-04,-1.03916e-04,1.68817e-07,-6.50241e-05,6.24703e-05,-3.39251e-05,-1.29702e-04,-9.36844e-05,-8.85906e-05,-1.83198e-04,-1.81609e-05,8.97562e-08,1.97050e-04,1.06816e-05,-1.32989e-04,8.34458e-07,-1.95768e-04,-1.51604e-04,-5.49811e-06,3.88997e-05,-3.17167e-06,-1.37200e-04,2.24956e-05,-8.48578e-05,-1.48647e-04,-6.66093e-05,-6.24173e-05,-2.71531e-04,-1.33422e-04,6.82544e-05,1.66670e-04,-2.16882e-04,-7.68154e-05,2.16150e-04,2.02272e-09,-2.17915e-05,-2.03727e-10,-3.66901e-05,8.50358e-05,1.84527e-04,-1.10595e-09,7.07397e-05,1.90295e-04,6.24173e-05,1.01252e-04,-4.83828e-05,7.43942e-05,-6.24179e-05,-7.22783e-05,4.21700e-05,2.82437e-05,-3.91464e-05,-7.59245e-05,1.50295e-04,2.50214e-04,2.43431e-05,2.12142e-04,3.57337e-05,5.74075e-05,-1.23327e-08,2.15168e-04,1.08682e-04,-1.95841e-04,-1.55161e-04,-1.37192e-04,4.07599e-05,1.18511e-04,-1.08686e-04,-4.86652e-08,2.17626e-05,-1.19115e-04,1.10485e-04,7.27133e-05,1.22839e-04,3.06356e-05,-1.82090e-04,4.28331e-05,1.48951e-04,7.63307e-05,2.50216e-04,1.38753e-08,-1.23327e-08,1.83197e-04,1.54898e-04,-1.55184e-04,8.20869e-05,-2.46517e-04,-8.15927e-05,-8.55328e-05,-1.83198e-04,3.78699e-05,-1.33419e-04,-1.95768e-04,6.24184e-05,-1.08661e-04,1.14106e-04,-9.80914e-05,-3.63798e-11,1.55172e-04,-1.75981e-05,-3.24991e-04,-1.53282e-04,6.36656e-05,-1.02862e-04,8.21917e-05,-6.30808e-05,1.93078e-04,-4.64418e-05,1.76857e-04,-4.23009e-05,2.31472e-05,1.32017e-04,-1.90933e-04,-1.50301e-04,1.52282e-04,-3.34356e-05,-1.87584e-04,-3.41712e-05,7.65363e-05,-1.95841e-04,1.92292e-04,-1.27156e-04,4.39209e-05,-6.55520e-05,1.33301e-04,-8.02520e-05,-5.25601e-05,-5.32717e-05,-5.34961e-05,1.44382e-04,-7.38805e-05,-2.79624e-05,5.48279e-05,-1.55184e-04,-3.41710e-05,6.24214e-05,1.70654e-04,-1.03515e-04,1.81600e-04,2.90520e-05,1.45995e-04,-9.16107e-05,-4.62023e-10,-1.55184e-04,1.78264e-04,-7.59951e-05,3.81440e-05,1.18802e-04,-1.10910e-05,-5.31366e-06,5.47326e-05,-1.20243e-05,-1.23241e-04,-1.84527e-04,2.49787e-04,-3.59432e-09,1.20568e-04,-2.06327e-04,-4.62023e-10,7.92377e-05,-7.64417e-05,2.43666e-05,-1.65225e-04,5.99374e-06,3.13552e-05,5.86410e-05,-4.02417e-05,-1.95838e-04,1.02155e-04,1.29762e-04,-2.05918e-04,1.55103e-04,4.21990e-05,-1.55161e-04,3.04958e-05,-1.95840e-04,-2.19992e-04,3.81444e-05,-1.29284e-04,-1.33192e-04,1.53085e-05,-5.28291e-06,-3.12866e-10,1.95357e-04,-2.41116e-04,1.54898e-04,-1.76258e-05,-1.95768e-04,-1.53282e-04,2.17615e-05,2.52733e-04,-4.01456e-05,1.60246e-04,7.39582e-05,1.49333e-04,8.00355e-11,1.37200e-04,1.02317e-04,-1.55183e-04,-1.79527e-04,-1.48448e-04,-2.14191e-08,-6.06775e-05,-8.48585e-05,-2.44764e-05,2.64994e-05,-2.06326e-04,7.97349e-05,2.21717e-07,-1.05791e-04,-1.14846e-04,-2.33900e-04,-4.21988e-05,2.15832e-04,-6.94756e-05,-2.41130e-04,-2.12863e-04,1.28855e-04,-2.27310e-04,-3.00298e-06,-5.61004e-05,-9.52433e-05,1.19990e-04,-8.73115e-11,-8.65282e-05,-6.06775e-05,1.19264e-04,-1.36094e-04,2.09536e-05,9.32694e-05,-2.12553e-05,-1.84434e-04,5.40247e-05,-2.41130e-04,1.91382e-04,-1.31878e-04,2.20228e-05,-2.51487e-04,2.76486e-10,-6.55531e-05,-2.50221e-04,-1.11194e-05,-3.34330e-05,-1.80344e-04,1.23157e-04,-4.21989e-05,2.50089e-04,1.96307e-04,9.18610e-05,3.97746e-05,-1.23271e-04,1.53282e-04,-1.55032e-04,-1.23319e-04,7.47148e-05,-6.00715e-05,-2.34395e-08,-1.84610e-04,-1.33780e-04,-1.19122e-04,5.67248e-06,-3.11937e-04,1.44382e-04,1.34061e-04,-1.29284e-04,-1.99361e-09,2.04397e-04,1.29218e-04,2.23364e-06,-1.45999e-05,-7.11589e-09,5.67245e-06,4.73115e-05,1.46249e-04,-1.14106e-04,-7.07809e-05,6.55532e-05,-1.45199e-04,2.82437e-05,2.17648e-05,2.46958e-04,-2.47197e-04,4.71736e-06,1.03775e-04,-1.61987e-05,3.30634e-05,-1.87536e-04,-2.15790e-04,1.74377e-04,-2.49684e-04,4.98635e-05,-9.70735e-05,1.54647e-04,-4.39084e-05,-3.08345e-05,-1.71322e-05,-7.61102e-05,3.06748e-05,-2.30247e-04,6.24322e-05,1.35416e-04,3.88997e-05,6.68367e-05,-1.35321e-04,1.45896e-04,1.37588e-08,-2.13586e-04,-3.32443e-05,3.79309e-05,3.92291e-05,-1.74377e-04,7.97425e-06,1.55873e-04,-1.33405e-04,3.08361e-05,-2.39608e-04,-5.93619e-05,-7.87522e-05,1.28867e-04,3.38010e-05,1.86474e-05,-1.54647e-04,8.93251e-05,-1.54898e-04,2.46960e-04,2.39830e-05,1.36424e-08,4.71736e-06,-1.47468e-04,-1.17702e-04,-8.94774e-05,9.06679e-05,9.78753e-05,-7.39887e-05,3.00298e-06,-5.82617e-05,-8.40451e-05,-1.51604e-04,1.02155e-04,-1.02911e-04,6.76435e-05,8.48733e-05,-1.71331e-05,-1.71322e-05,-1.89372e-04,-1.70905e-04,1.29458e-04,-1.78871e-05,1.18297e-04,-2.04635e-04,7.07331e-05,1.36094e-04,-7.44468e-05,-1.55184e-04,2.53391e-04,7.43948e-05,-2.46960e-04,-8.55328e-05,1.51500e-04,-9.65337e-05,-1.02355e-04,2.04659e-05,-6.23491e-05,-1.43244e-04,5.20876e-05,8.48605e-05,
8.33200e-05,1.78819e-05,-6.83888e-05,3.40034e-05,4.21175e-05,5.52156e-05,3.10837e-04,-1.51604e-04,1.01868e-05,1.86365e-04,-1.31179e-04,-1.68978e-04,-1.54672e-04,2.77783e-04,-2.46950e-04,7.74121e-06,5.48390e-05,1.33421e-04,-1.41182e-04,3.75220e-05,-4.90330e-05,2.36847e-05,-1.92542e-04,1.30634e-04,-5.44755e-05,4.27224e-05,-1.01252e-04,1.33389e-04,-1.94048e-04,-8.40451e-05,1.08661e-04,-1.36094e-04,-1.46205e-04,-1.78871e-05,-9.70735e-05,8.34109e-07,3.35633e-04,-1.82092e-04,4.21984e-05,-6.88374e-05,-7.07367e-05,-2.50505e-04,2.35999e-04,-9.83860e-05,2.47965e-04,1.65225e-04,-7.38696e-05,-3.41172e-05,-3.91464e-05,-1.23713e-04,1.30058e-10,-7.59569e-05,-4.35039e-05,2.17648e-05,2.45936e-04,-1.30818e-04,-1.38558e-04,-8.93535e-05,-1.01417e-04,-1.51482e-04,1.82301e-04,1.10307e-04,1.29285e-04,-1.53639e-04,-1.84528e-04,-3.22810e-05,-3.64133e-06,-1.33301e-04,3.43258e-05,9.84522e-05,-2.31472e-05,-6.55519e-05,-2.12483e-05,7.17074e-05,-5.91393e-05,1.33301e-04,1.39438e-05,1.19122e-04,-3.62002e-05,7.24759e-05,3.29838e-04,1.86247e-04,-5.88584e-05,1.52077e-04,9.58630e-05,-7.88811e-06,-5.44755e-05,2.86631e-04,-2.98491e-05,-9.18610e-05,1.27333e-04,-9.46009e-05,2.15512e-04,-9.27494e-05,2.01557e-04,-7.35066e-05,1.81131e-04,-8.48581e-05,-6.10011e-05,-6.27605e-05,-1.02763e-04,-1.16673e-04,-5.67232e-06,6.21493e-06,-1.01701e-05,-1.94413e-04,-8.57574e-05,2.76271e-05,-1.84610e-04,1.84434e-04,-3.09837e-04,-1.29310e-04,-2.99993e-05,1.40901e-04,-6.25084e-05,-1.82082e-04,-5.23001e-05,-1.23241e-04,-3.26690e-04,-7.84341e-05,7.77476e-05,-9.82450e-05,-1.35396e-04,-2.17605e-05,2.19289e-04,-1.48448e-04,-1.47540e-04,2.52136e-04,1.95912e-04,-2.09544e-04,-2.30078e-04,2.17648e-05,-4.99769e-05,2.52150e-04,-9.70527e-05,-1.62060e-05,-6.24322e-05,-1.01611e-04,9.62832e-05,3.97752e-06,-1.30818e-04,1.07544e-04,-2.47912e-05,-6.80550e-05,4.02417e-05,2.47408e-04,9.51200e-05,-5.10518e-05,-1.41208e-05,-1.55161e-04,1.39429e-05,2.27846e-04,2.52733e-04,-1.55178e-04,9.38271e-05,-1.79295e-04,-1.24254e-04,-3.75220e-05,-2.15179e-04,2.68382e-04,-1.02763e-04,1.87824e-04,-1.72895e-04,2.17048e-04,-5.26248e-05,-7.09097e-05,-2.17689e-05,2.69699e-05,-3.29404e-04,-2.46960e-04,-1.80808e-04,8.21079e-06,2.20264e-05,2.65761e-04,1.24213e-04,-5.10521e-05,-1.74513e-04,1.95229e-04,-6.50241e-05,-1.33027e-04,3.06263e-04,-2.42599e-05,-4.21988e-05,6.55531e-05,2.47383e-10,6.13312e-05,7.48711e-05,3.29039e-04,-3.31858e-04,-5.47451e-06,8.34225e-07,9.23083e-05,-3.88998e-05,-1.38470e-04,-1.02763e-04,-1.94394e-04,-1.59810e-04,1.94931e-04,-2.18190e-05,-8.71504e-06,-2.53785e-08,-1.09739e-04,-1.37393e-04,1.33967e-04,8.90912e-05,-8.21149e-06,-1.68817e-07,7.07331e-05,-1.29310e-04,-7.58056e-05,-2.14567e-04,-5.97218e-07,2.67630e-04,5.25630e-05,1.06815e-05,2.46517e-04,1.34180e-04,-1.26347e-04,-4.91596e-05,-6.66093e-05,9.94199e-06,1.03672e-04,1.53282e-04,-1.55184e-04,3.27418e-11,5.48548e-05,-1.66956e-04,-3.27520e-04,-3.19026e-05,-2.41047e-04,2.17601e-05,-1.62076e-05,-1.38469e-04,5.84750e-06,1.10038e-04,3.34337e-05,3.30602e-04,3.93392e-05,-1.22839e-04,1.71634e-04,2.18279e-11,7.49115e-05,3.62709e-06,-4.87817e-08,-3.33880e-04,-3.78703e-05,-2.20946e-04,9.51202e-05,2.10255e-04,-7.48682e-05,-1.55172e-04,2.14332e-04,1.67287e-04,2.33877e-06,-1.55181e-04,4.48911e-05,1.37410e-04,-1.54173e-04,-1.71322e-05,1.19602e-04,3.41709e-05,-8.26017e-05,4.23011e-05,6.47660e-05,-1.01404e-04,1.75110e-04,3.78535e-05,-1.29306e-04,7.80873e-05,3.79306e-05,-1.02155e-04,-2.82436e-05,3.13544e-05,-8.39114e-05,-1.35321e-04,7.97355e-06,-3.30868e-04,7.41210e-05,7.39087e-05,6.15434e-05,-1.79525e-04,-2.17768e-05,-1.55184e-04,-6.81553e-05,-5.78535e-06,-6.00716e-05,4.93639e-06,-1.90697e-04,1.27156e-04,5.48548e-05,-1.39364e-04,-1.52063e-05,1.80857e-04,2.46958e-04,-2.25593e-05,3.34356e-05,6.45220e-05,1.71331e-05,-6.24173e-05,3.56496e-06,-2.18279e-11,1.38462e-04,2.21520e-05,3.11382e-04,-2.17411e-04,-8.11978e-05,-2.17626e-05,-1.98014e-04,-3.38138e-04,2.17348e-04,-6.48102e-06,-3.04900e-05,-2.13967e-05,-1.33192e-04,-1.54404e-04,6.66890e-05,-1.34705e-04,-4.21701e-05,-1.33940e-04,1.55184e-04,5.61061e-05,-7.33161e-05,4.58320e-05,1.47308e-04,-1.78884e-04,-9.84259e-05,7.46406e-05,8.33200e-05,-6.66630e-05,9.55563e-05,-4.84774e-05,-1.78814e-04,6.36656e-05,-6.55519e-05,1.29185e-04,-2.05063e-05,2.42871e-04,2.14576e-04,-1.74676e-04,-2.19878e-04,-4.84745e-05,1.33484e-04,1.02317e-04,1.94129e-04,-3.04674e-05,-7.67618e-05,-2.50086e-04,-7.68426e-05,1.30537e-04,1.04343e-04,-2.17915e-05,2.08217e-05,6.06775e-05,-4.84745e-05,2.41993e-05,-1.84610e-04,6.24322e-05,-1.95658e-04,2.17603e-05,-1.91627e-04,-1.26924e-04,-1.40036e-05,5.92159e-06,-7.97366e-06,-3.88897e-05,-1.89779e-04,3.79309e-05,7.07445e-05,5.28291e-06,-2.05880e-04,-2.55151e-04,1.92619e-04,2.14542e-04,1.33419e-04,2.09298e-04,-7.81162e-05,8.70161e-05,-1.28867e-04,2.42171e-08,1.78871e-05,-8.34341e-07,-7.57574e-05,1.95132e-04,-7.14558e-05,-3.39252e-05,-1.22694e-04,1.79525e-04,-7.61227e-05,-6.45315e-05,-9.65132e-05,1.55985e-06,-1.27564e-04,5.57902e-06,7.65673e-05,-3.06352e-05,1.03276e-04,-2.23026e-05,-1.65082e-05,-1.04343e-04,-3.30383e-04,1.29310e-04,-1.71360e-05,-1.26362e-04,3.78703e-05,8.51136e-06,2.06328e-04,1.30818e-04,-7.03861e-05,-5.28291e-06,1.85185e-05,4.21986e-05,6.15468e-05,-7.68422e-05,2.52136e-04,1.09185e-04,-1.95841e-04,-8.55328e-05,-2.14730e-04,1.96451e-10,1.54898e-04,-4.39429e-05,-1.95584e-04,-1.28943e-04,-4.85488e-08,7.20032e-05,1.74178e-04,6.68367e-05,-3.94499e-05,-1.98795e-04,1.30384e-04,-2.19685e-05,3.19026e-05,2.12740e-04,1.13990e-04,2.11392e-06,-1.30818e-04,-2.10945e-04,-2.43949e-04,6.24179e-05,9.75468e-05,6.24172e-05,-9.23998e-05,1.50649e-04,2.16899e-04,-2.23077e-05,4.35859e-05,7.74162e-06,2.06057e-04,-1.17722e-04,-1.66521e-04,-1.30818e-04,-3.35581e-04,-3.81444e-05,-2.02272e-09,4.15762e-05,7.67761e-05,-1.27183e-04,-1.07246e-06,-8.97562e-08,6.54633e-05,-1.55032e-04,-7.07808e-05,1.62074e-05,-9.38271e-05,-5.16499e-05,1.02191e-04,-7.61102e-05,1.72797e-05,9.32695e-05,-1.33937e-04,4.84773e-05,-4.15776e-05,1.47421e-05,3.62001e-05,2.12307e-04,1.29992e-04,5.48519e-05,1.66529e-04,-7.40110e-05,8.71850e-05,-5.47326e-05,-3.88997e-05,-2.17768e-05,2.52150e-04,-9.16120e-05,-2.19685e-05,8.48605e-05,1.35057e-04,6.65417e-05,-1.40108e-04,9.51203e-05,9.33477e-05,-1.10907e-04,-1.65871e-04,1.33419e-04,2.98983e-05,7.62664e-05,3.17494e-07,-6.64508e-05,-6.24172e-05,
